{"learner":{"attributes":{"scikit_learn":"{\"_estimator_type\": \"regressor\"}"},"feature_names":["core_expiry_date","core_iv","core_opt_volume","core_stock_volume","core_time_to_expiry","core_strike_price","core_option_type","core_delta","core_gamma","core_vega","core_days_to_expiry","core_option_type_enc","core_rv_30m","core_opt_vol_change_1m","core_opt_vol_roll_15m","core_sabr_alpha","core_sabr_beta","core_sabr_rho","core_sabr_nu","panel_IV_ASTS","panel_IVRET_ASTS","panel_IV_VZ","panel_IVRET_VZ","panel_IV_T","panel_IVRET_T","panel_IV_SATS","panel_IVRET_SATS","sym_ASTS","sym_VZ","sym_T","sym_SATS"],"feature_types":["float","float","float","float","float","float","float","float","float","float","float","float","float","float","float","float","float","float","float","float","float","float","float","float","float","float","float","float","float","float","float"],"gradient_booster":{"model":{"gbtree_model_param":{"num_parallel_tree":"1","num_trees":"350"},"iteration_indptr":[0,1,2,3,4,5,6,7,8,9,10,11,12,13,14,15,16,17,18,19,20,21,22,23,24,25,26,27,28,29,30,31,32,33,34,35,36,37,38,39,40,41,42,43,44,45,46,47,48,49,50,51,52,53,54,55,56,57,58,59,60,61,62,63,64,65,66,67,68,69,70,71,72,73,74,75,76,77,78,79,80,81,82,83,84,85,86,87,88,89,90,91,92,93,94,95,96,97,98,99,100,101,102,103,104,105,106,107,108,109,110,111,112,113,114,115,116,117,118,119,120,121,122,123,124,125,126,127,128,129,130,131,132,133,134,135,136,137,138,139,140,141,142,143,144,145,146,147,148,149,150,151,152,153,154,155,156,157,158,159,160,161,162,163,164,165,166,167,168,169,170,171,172,173,174,175,176,177,178,179,180,181,182,183,184,185,186,187,188,189,190,191,192,193,194,195,196,197,198,199,200,201,202,203,204,205,206,207,208,209,210,211,212,213,214,215,216,217,218,219,220,221,222,223,224,225,226,227,228,229,230,231,232,233,234,235,236,237,238,239,240,241,242,243,244,245,246,247,248,249,250,251,252,253,254,255,256,257,258,259,260,261,262,263,264,265,266,267,268,269,270,271,272,273,274,275,276,277,278,279,280,281,282,283,284,285,286,287,288,289,290,291,292,293,294,295,296,297,298,299,300,301,302,303,304,305,306,307,308,309,310,311,312,313,314,315,316,317,318,319,320,321,322,323,324,325,326,327,328,329,330,331,332,333,334,335,336,337,338,339,340,341,342,343,344,345,346,347,348,349,350],"tree_info":[0,0,0,0,0,0,0,0,0,0,0,0,0,0,0,0,0,0,0,0,0,0,0,0,0,0,0,0,0,0,0,0,0,0,0,0,0,0,0,0,0,0,0,0,0,0,0,0,0,0,0,0,0,0,0,0,0,0,0,0,0,0,0,0,0,0,0,0,0,0,0,0,0,0,0,0,0,0,0,0,0,0,0,0,0,0,0,0,0,0,0,0,0,0,0,0,0,0,0,0,0,0,0,0,0,0,0,0,0,0,0,0,0,0,0,0,0,0,0,0,0,0,0,0,0,0,0,0,0,0,0,0,0,0,0,0,0,0,0,0,0,0,0,0,0,0,0,0,0,0,0,0,0,0,0,0,0,0,0,0,0,0,0,0,0,0,0,0,0,0,0,0,0,0,0,0,0,0,0,0,0,0,0,0,0,0,0,0,0,0,0,0,0,0,0,0,0,0,0,0,0,0,0,0,0,0,0,0,0,0,0,0,0,0,0,0,0,0,0,0,0,0,0,0,0,0,0,0,0,0,0,0,0,0,0,0,0,0,0,0,0,0,0,0,0,0,0,0,0,0,0,0,0,0,0,0,0,0,0,0,0,0,0,0,0,0,0,0,0,0,0,0,0,0,0,0,0,0,0,0,0,0,0,0,0,0,0,0,0,0,0,0,0,0,0,0,0,0,0,0,0,0,0,0,0,0,0,0,0,0,0,0,0,0,0,0,0,0,0,0,0,0,0,0,0,0,0,0,0,0,0,0,0,0,0,0,0,0,0,0,0,0,0,0,0,0,0,0,0,0],"trees":[{"base_weights":[3.5577043E-5,-9.987827E-2,6.323801E0,-2.0325123E-1,8.3668786E-1,4.77155E0,1.08893385E1,-6.041816E-1,-9.188218E-2,6.2648827E-1,1.9396598E0,4.1832933E0,2.9626584E-1,1.1264845E1,4.5388705E-1,-2.6510983E0,-5.701963E-1,-1.9567825E-1,9.252627E-2,4.6477103E-1,9.5142347E-1,1.6636468E0,2.7564075E0,1.8505304E-1,2.3140211E-1,5.7604736E-1,5.19983E-1,-4.3420873E0,-1.217651E0,-8.04659E-1,-4.6919835E-1,-2.4998496E-1,-1.329206E-1,2.9921936E-2,1.973841E-1,3.9448765E-1,5.903325E-1,8.300375E-1,1.1151546E0,1.5073003E0,9.8723955E-2,1.4439459E-1,1.2851642E-1,-2.1855383E-1,-1.6218629E-2,-7.10442E-2,-3.7345737E-2,-4.8956078E-2,-3.614928E-2,-2.7762327E-2,-2.0459564E-2,-1.4996804E-2,-1.1191139E-2,-8.044486E-3,-4.530663E-3,-4.8526912E-4,3.489655E-3,7.7213827E-3,1.28761595E-2,1.779885E-2,2.2144264E-2,2.734747E-2,3.2782868E-2,3.8258176E-2,4.466235E-2,5.29539E-2,6.129955E-2,6.950264E-2,8.095845E-2],"categories":[],"categories_nodes":[],"categories_segments":[],"categories_sizes":[],"default_left":[0,0,0,0,0,0,0,0,0,0,0,0,0,0,0,0,0,0,0,0,0,0,0,0,0,0,0,0,0,0,0,0,0,0,0,0,0,0,0,0,0,0,0,0,0,0,0,0,0,0,0,0,0,0,0,0,0,0,0,0,0,0,0,0,0,0,0,0,0],"id":0,"left_children":[1,3,5,7,9,11,13,15,17,19,21,23,-1,25,-1,27,29,31,33,35,37,39,41,-1,-1,-1,-1,43,45,47,49,51,53,55,57,59,61,63,65,67,-1,-1,-1,-1,-1,-1,-1,-1,-1,-1,-1,-1,-1,-1,-1,-1,-1,-1,-1,-1,-1,-1,-1,-1,-1,-1,-1,-1,-1],"loss_changes":[1.1747837E5,1.7721395E4,2.0443242E4,7.360565E3,4.2171914E3,1.4412305E3,3.96375E2,2.4914238E3,2.4694204E3,8.026953E2,6.51875E2,2.9042578E2,0E0,1.3796875E1,0E0,1.4127197E3,8.343994E2,2.8130713E2,3.0500958E2,8.984277E1,9.999805E1,1.0291797E2,1.0535156E1,0E0,0E0,0E0,0E0,2.9795898E1,2.9361511E1,1.5050146E2,1.2700635E2,5.7763916E1,4.5302185E1,4.5970406E1,4.483319E1,1.2044861E1,1.0016602E1,1.1290527E1,1.2120605E1,1.6820312E1,0E0,0E0,0E0,0E0,0E0,0E0,0E0,0E0,0E0,0E0,0E0,0E0,0E0,0E0,0E0,0E0,0E0,0E0,0E0,0E0,0E0,0E0,0E0,0E0,0E0,0E0,0E0,0E0,0E0],"parents":[2147483647,0,0,1,1,2,2,3,3,4,4,5,5,6,6,7,7,8,8,9,9,10,10,11,11,13,13,15,15,16,16,17,17,18,18,19,19,20,20,21,21,22,22,27,27,28,28,29,29,30,30,31,31,32,32,33,33,34,34,35,35,36,36,37,37,38,38,39,39],"right_children":[2,4,6,8,10,12,14,16,18,20,22,24,-1,26,-1,28,30,32,34,36,38,40,42,-1,-1,-1,-1,44,46,48,50,52,54,56,58,60,62,64,66,68,-1,-1,-1,-1,-1,-1,-1,-1,-1,-1,-1,-1,-1,-1,-1,-1,-1,-1,-1,-1,-1,-1,-1,-1,-1,-1,-1,-1,-1],"split_conditions":[3.2564697E0,3.1565523E-1,7.3149023E0,-3.4961805E-1,1.2959815E0,5.140482E0,-1.1283816E0,-4.5482847E-1,-5.3428147E-2,7.0612365E-1,2.2770145E0,4.178736E0,2.9626584E-1,1.7134634E0,4.5388705E-1,-1.1283816E0,-6.404489E-1,-1.9379899E-1,1.12183936E-1,4.9352974E-1,9.635208E-1,1.7532775E0,-5.763049E-1,1.8505304E-1,2.3140211E-1,5.7604736E-1,5.19983E-1,-1.0709487E0,-1.0709487E0,-8.5186565E-1,-4.8583558E-1,-2.6438016E-1,-1.270071E-1,2.8029975E-2,2.0215315E-1,3.9664108E-1,6.042886E-1,8.2365036E-1,1.1635832E0,1.496059E0,9.8723955E-2,1.4439459E-1,1.2851642E-1,-2.1855383E-1,-1.6218629E-2,-7.10442E-2,-3.7345737E-2,-4.8956078E-2,-3.614928E-2,-2.7762327E-2,-2.0459564E-2,-1.4996804E-2,-1.1191139E-2,-8.044486E-3,-4.530663E-3,-4.8526912E-4,3.489655E-3,7.7213827E-3,1.28761595E-2,1.779885E-2,2.2144264E-2,2.734747E-2,3.2782868E-2,3.8258176E-2,4.466235E-2,5.29539E-2,6.129955E-2,6.950264E-2,8.095845E-2],"split_indices":[1,1,1,1,1,1,9,8,1,1,1,1,0,7,0,9,1,1,1,1,1,1,4,0,0,0,0,1,1,1,1,1,1,1,1,1,1,1,1,1,0,0,0,0,0,0,0,0,0,0,0,0,0,0,0,0,0,0,0,0,0,0,0,0,0,0,0,0,0],"split_type":[0,0,0,0,0,0,0,0,0,0,0,0,0,0,0,0,0,0,0,0,0,0,0,0,0,0,0,0,0,0,0,0,0,0,0,0,0,0,0,0,0,0,0,0,0,0,0,0,0,0,0,0,0,0,0,0,0,0,0,0,0,0,0,0,0,0,0,0,0],"sum_hessian":[1.85931E5,1.8304E5,2.891E3,1.64846E5,1.8194E4,2.159E3,7.32E2,3.5835E4,1.29011E5,1.5283E4,2.911E3,1.433E3,7.26E2,6.02E2,1.3E2,5.84E2,3.5251E4,8.2548E4,4.6463E4,1.0206E4,5.077E3,2.178E3,7.33E2,6.92E2,7.41E2,4.55E2,1.47E2,2.67E2,3.17E2,1.0611E4,2.464E4,4.4252E4,3.8296E4,2.9094E4,1.7369E4,6.546E3,3.66E3,2.919E3,2.158E3,1.453E3,7.25E2,4.21E2,3.12E2,2.65E2,2E0,2.2E2,9.7E1,3.38E3,7.231E3,1.012E4,1.452E4,1.5207E4,2.9045E4,2.3053E4,1.5243E4,1.4592E4,1.4502E4,1.0134E4,7.235E3,3.65E3,2.896E3,2.205E3,1.455E3,1.447E3,1.472E3,1.44E3,7.18E2,7.16E2,7.37E2],"tree_param":{"num_deleted":"0","num_feature":"31","num_nodes":"69","size_leaf_vector":"1"}},{"base_weights":[8.593084E-4,1.8909528E0,-1.10774405E-1,6.16181E-1,4.644878E0,2.688878E-1,-1.621372E-1,3.2365352E-1,1.3761135E0,5.038735E0,4.9864864E-1,-7.992612E-2,8.2098556E-1,-2.5995001E-2,-2.6486972E-1,1.4120427E0,2.4602252E-1,1.9700065E0,-2.033839E0,6.9790173E0,4.3943295E0,8.66604E-1,-2.9227471E0,-4.3822387E-1,-4.3033395E-2,2.2168384E0,7.5904167E-1,-4.614184E-3,-1.7365667E-1,-1.7650731E-1,-4.9030575E-1,2.2589939E0,5.765123E-1,9.226745E-2,5.317094E-1,3.2536955E0,1.5160837E0,1.0538704E0,-2.884185E0,7.639365E0,5.9685603E-2,1.826478E-1,4.631077E0,1.5441562E0,2.4246371E-1,9.3208563E-1,-3.2551222E0,-5.383482E-1,-1.5217106E-1,2.9572925E-1,-6.699746E-2,9.3342495E-1,3.0617378E0,1.0275759E0,4.9003512E-1,-2.1358203E-2,1.595297E-1,-1.7777845E-1,1.8941356E-1,-4.7880608E-1,-1.5098429E-1,-6.014951E-1,-2.7099434E-1,1.4389215E-1,6.1228003E-2,4.58229E-2,5.4667704E-3,4.4768296E-2,2.7209062E-3,2.0167006E-2,3.18239E-2,3.1053254E-1,9.1448866E-2,9.204968E-2,-6.422166E-3,-2.9189467E-2,9.933981E-2,-1.8437193E-1,-2.9916426E-2,-2.4713038E-2,4.1632944E-1,-7.1467482E-3,3.3075055E-1,2.0428794E-3,4.708435E-2,2.0363589E-1,2.860988E-1,3.6345657E-2,1.278104E-1,-9.229665E-2,3.4193564E-2,8.656232E-2,-1.6655896E-2,-1.8581821E-1,-5.4912772E-2,-3.549977E-3,-3.0016595E-2,-8.205923E-3,4.0440384E-2,2.3830561E-2,7.371265E-3,-1.8459579E-2,-2.4480901E-3,5.325045E-2,-1.4845439E-4,1.650419E-1,4.5054283E-2,4.3461215E-2,8.3146416E-2,4.342596E-2,1.6066222E-2,-3.6967315E-3,1.2122069E-3,1.5764711E-2,-2.5416107E-3,-8.508126E-3,-1.1102057E-2,3.9768912E-2,5.4383106E-3,-2.9427556E-2,-1.951405E-2,-9.161544E-3,-3.000639E-3,-2.4277588E-2,-3.8924996E-2,-1.1995489E-2,-1.584706E-2],"categories":[],"categories_nodes":[],"categories_segments":[],"categories_sizes":[],"default_left":[0,1,0,0,0,0,0,0,0,0,0,0,0,0,0,0,0,0,0,0,0,0,0,0,0,0,0,0,1,0,0,0,0,0,0,0,0,0,0,0,0,1,0,0,0,0,0,0,0,0,0,0,0,0,0,0,0,0,0,0,0,0,0,0,0,0,0,0,0,0,0,0,0,0,0,0,0,0,0,0,0,0,0,0,0,0,0,0,0,0,0,0,0,0,0,0,0,0,0,0,0,0,0,0,0,0,0,0,0,0,0,0,0,0,0,0,0,0,0,0,0,0,0,0,0,0,0],"id":1,"left_children":[1,3,5,7,9,11,13,15,17,19,21,23,25,27,29,31,33,35,37,39,41,43,45,47,49,51,53,55,57,59,61,63,65,67,69,71,73,75,77,79,81,83,85,87,89,91,93,95,97,99,101,103,105,107,109,111,113,115,117,119,121,123,125,-1,-1,-1,-1,-1,-1,-1,-1,-1,-1,-1,-1,-1,-1,-1,-1,-1,-1,-1,-1,-1,-1,-1,-1,-1,-1,-1,-1,-1,-1,-1,-1,-1,-1,-1,-1,-1,-1,-1,-1,-1,-1,-1,-1,-1,-1,-1,-1,-1,-1,-1,-1,-1,-1,-1,-1,-1,-1,-1,-1,-1,-1,-1,-1],"loss_changes":[3.926845E4,3.643393E4,3.4268486E3,1.5770032E3,5.360328E3,4.0328708E3,2.1649082E3,4.3267792E2,3.997596E3,3.7190625E3,3.6258423E2,1.696284E2,6.993716E2,2.1017232E2,1.7572417E3,2.400075E2,2.1013593E2,9.739956E2,7.7234656E2,3.4081445E3,2.246629E3,1.091535E2,3.8909058E1,3.4229797E1,9.449049E1,3.7016016E2,5.604199E2,1.5983E2,1.2634155E1,4.8893335E2,6.055879E2,1.0466272E2,2.737476E1,9.454593E1,2.2256989E1,1.8338599E3,6.6440015E2,9.8940056E1,4.2010168E2,3.8106445E3,8.860961E1,1.2984068E1,1.276543E3,1.00701324E2,1.2663182E2,3.610012E0,2.1784271E1,2.5652008E1,3.714871E0,2.0558556E1,5.922092E1,1.700676E1,1.03964355E2,3.894209E2,2.4753949E2,1.2652357E2,1.7640034E2,2.7689514E0,4.5560865E0,4.770508E1,1.7144153E2,3.3789453E2,1.186261E1,0E0,0E0,0E0,0E0,0E0,0E0,0E0,0E0,0E0,0E0,0E0,0E0,0E0,0E0,0E0,0E0,0E0,0E0,0E0,0E0,0E0,0E0,0E0,0E0,0E0,0E0,0E0,0E0,0E0,0E0,0E0,0E0,0E0,0E0,0E0,0E0,0E0,0E0,0E0,0E0,0E0,0E0,0E0,0E0,0E0,0E0,0E0,0E0,0E0,0E0,0E0,0E0,0E0,0E0,0E0,0E0,0E0,0E0,0E0,0E0,0E0,0E0,0E0,0E0],"parents":[2147483647,0,0,1,1,2,2,3,3,4,4,5,5,6,6,7,7,8,8,9,9,10,10,11,11,12,12,13,13,14,14,15,15,16,16,17,17,18,18,19,19,20,20,21,21,22,22,23,23,24,24,25,25,26,26,27,27,28,28,29,29,30,30,31,31,32,32,33,33,34,34,35,35,36,36,37,37,38,38,39,39,40,40,41,41,42,42,43,43,44,44,45,45,46,46,47,47,48,48,49,49,50,50,51,51,52,52,53,53,54,54,55,55,56,56,57,57,58,58,59,59,60,60,61,61,62,62],"right_children":[2,4,6,8,10,12,14,16,18,20,22,24,26,28,30,32,34,36,38,40,42,44,46,48,50,52,54,56,58,60,62,64,66,68,70,72,74,76,78,80,82,84,86,88,90,92,94,96,98,100,102,104,106,108,110,112,114,116,118,120,122,124,126,-1,-1,-1,-1,-1,-1,-1,-1,-1,-1,-1,-1,-1,-1,-1,-1,-1,-1,-1,-1,-1,-1,-1,-1,-1,-1,-1,-1,-1,-1,-1,-1,-1,-1,-1,-1,-1,-1,-1,-1,-1,-1,-1,-1,-1,-1,-1,-1,-1,-1,-1,-1,-1,-1,-1,-1,-1,-1,-1,-1,-1,-1,-1,-1],"split_conditions":[-1.0184419E0,6.8558735E-1,-8.213838E-1,3.805584E0,-5.763049E-1,1.7870343E0,2.4689193E-1,-1.3894751E0,-5.4454243E-1,-1.1698178E0,2.6900432E-1,-7.788862E-1,-1.0021818E0,7.196869E-1,2.692669E-1,-1.8097999E0,1.9644587E0,-6.6564363E-1,-3.3229533E-1,1.01293795E-1,1E0,-1.3894751E0,-3.248139E0,1.1320925E0,-1.6780571E0,6.4885926E-1,-5.697356E-1,9.4211835E-1,5.2195567E-1,-9.9727106E-1,7.196869E-1,-4.9443433E-1,-1.6780571E0,-2.3863027E0,2.625277E0,-3.2151332E-1,1.6620165E0,-1.1124732E0,1.7134634E0,-2.8949288E-1,8.2749814E-1,-2.3607792E-2,2.0663E0,-6.171371E-1,-1.1283816E0,5.8491075E-1,-2.2901974E0,-1.5486946E0,-5.141526E-1,-5.223886E-1,-1.3493228E0,1.4494122E0,-5.763049E-1,2.3667678E-1,-5.747106E-1,-3.6202088E-1,1.1124657E-1,5.08771E-1,-5.549765E-1,-1.3205026E0,1.5106307E0,1.2771603E0,1.9501901E0,1.4389215E-1,6.1228003E-2,4.58229E-2,5.4667704E-3,4.4768296E-2,2.7209062E-3,2.0167006E-2,3.18239E-2,3.1053254E-1,9.1448866E-2,9.204968E-2,-6.422166E-3,-2.9189467E-2,9.933981E-2,-1.8437193E-1,-2.9916426E-2,-2.4713038E-2,4.1632944E-1,-7.1467482E-3,3.3075055E-1,2.0428794E-3,4.708435E-2,2.0363589E-1,2.860988E-1,3.6345657E-2,1.278104E-1,-9.229665E-2,3.4193564E-2,8.656232E-2,-1.6655896E-2,-1.8581821E-1,-5.4912772E-2,-3.549977E-3,-3.0016595E-2,-8.205923E-3,4.0440384E-2,2.3830561E-2,7.371265E-3,-1.8459579E-2,-2.4480901E-3,5.325045E-2,-1.4845439E-4,1.650419E-1,4.5054283E-2,4.3461215E-2,8.3146416E-2,4.342596E-2,1.6066222E-2,-3.6967315E-3,1.2122069E-3,1.5764711E-2,-2.5416107E-3,-8.508126E-3,-1.1102057E-2,3.9768912E-2,5.4383106E-3,-2.9427556E-2,-1.951405E-2,-9.161544E-3,-3.000639E-3,-2.4277588E-2,-3.8924996E-2,-1.1995489E-2,-1.584706E-2],"split_indices":[9,18,9,15,4,15,7,11,4,9,4,18,9,11,0,17,15,4,7,17,27,11,5,15,17,5,0,5,15,5,11,4,17,5,15,18,7,9,7,17,3,15,18,7,9,0,5,17,4,7,5,18,4,5,4,0,9,9,0,5,15,0,0,0,0,0,0,0,0,0,0,0,0,0,0,0,0,0,0,0,0,0,0,0,0,0,0,0,0,0,0,0,0,0,0,0,0,0,0,0,0,0,0,0,0,0,0,0,0,0,0,0,0,0,0,0,0,0,0,0,0,0,0,0,0,0,0],"split_type":[0,0,0,0,0,0,0,0,0,0,0,0,0,0,0,0,0,0,0,0,0,0,0,0,0,0,0,0,0,0,0,0,0,0,0,0,0,0,0,0,0,0,0,0,0,0,0,0,0,0,0,0,0,0,0,0,0,0,0,0,0,0,0,0,0,0,0,0,0,0,0,0,0,0,0,0,0,0,0,0,0,0,0,0,0,0,0,0,0,0,0,0,0,0,0,0,0,0,0,0,0,0,0,0,0,0,0,0,0,0,0,0,0,0,0,0,0,0,0,0,0,0,0,0,0,0,0],"sum_hessian":[1.86106E5,1.0378E4,1.75728E5,7.095E3,3.283E3,2.094E4,1.54788E5,5.124E3,1.971E3,2.998E3,2.85E2,1.2833E4,8.107E3,6.657E4,8.8218E4,3.4E2,4.784E3,1.679E3,2.92E2,7.45E2,2.253E3,2.58E2,2.7E1,1.197E3,1.1636E4,3.43E2,7.764E3,5.8151E4,8.419E3,6.3378E4,2.484E4,1.68E2,1.72E2,3.111E3,1.673E3,4.37E2,1.242E3,6.3E1,2.29E2,6.8E2,6.5E1,1.2E2,2.133E3,1.23E2,1.35E2,2E0,2.5E1,8.86E2,3.11E2,7.68E2,1.0868E4,1.37E2,2.06E2,3.884E3,3.88E3,5.2769E4,5.382E3,8.325E3,9.4E1,4.933E3,5.8445E4,1.6482E4,8.358E3,1.04E2,6.4E1,9.9E1,7.3E1,1.39E2,2.972E3,7.54E2,9.19E2,1.41E2,2.96E2,1.037E3,2.05E2,2.3E1,4E1,1.69E2,6E1,5.3E1,6.27E2,6.4E1,1E0,1.02E2,1.8E1,1.414E3,7.19E2,6.9E1,5.4E1,2.3E1,1.12E2,1E0,1E0,2E1,5E0,1.04E2,7.82E2,3.08E2,3E0,3.45E2,4.23E2,6.11E2,1.0257E4,1.2E2,1.7E1,1.85E2,2.1E1,3.111E3,7.73E2,1.195E3,2.685E3,2.451E4,2.8259E4,3.092E3,2.29E3,7.107E3,1.218E3,1E1,8.4E1,2.2E3,2.733E3,4.3149E4,1.5296E4,9.961E3,6.521E3,4.989E3,3.369E3],"tree_param":{"num_deleted":"0","num_feature":"31","num_nodes":"127","size_leaf_vector":"1"}},{"base_weights":[-1.5905544E-3,-9.0747505E-2,5.7094355E0,-1.9323564E-1,7.004926E-1,4.3019886E0,1.0005425E1,-5.6286573E-1,-9.382363E-2,5.050659E-1,1.6362936E0,3.7583501E0,2.6838222E-1,1.0343021E1,4.1353208E-1,-2.4363046E0,-5.324316E-1,-1.8515676E-1,7.021616E-2,3.828377E-1,7.9997826E-1,1.4141804E0,2.4913802E0,1.6583048E-1,2.0878394E-1,5.6442255E-1,1.00759115E1,-4.026536E0,-1.1170865E0,-7.6354486E-1,-4.4680843E-1,-2.3986834E-1,-1.3324186E-1,1.22003965E-2,1.5278761E-1,3.229325E-1,4.9399337E-1,7.021216E-1,9.3026674E-1,1.1944051E0,1.6372701E0,1.1937397E-1,1.3110767E-1,5.179521E-1,4.537266E-1,-2.0276545E-1,-1.5768705E-2,-6.538375E-2,-3.4401983E-2,-4.839916E-2,-3.5436776E-2,-2.6399935E-2,-1.9503504E-2,-1.4370093E-2,-1.07450895E-2,-8.024537E-3,-4.860382E-3,-1.1410196E-3,2.2812139E-3,5.8608665E-3,1.004575E-2,1.4373188E-2,1.8286256E-2,2.2383945E-2,2.7015751E-2,3.2515235E-2,3.7695944E-2,4.4297405E-2,5.0821632E-2,5.583639E-2,6.3413195E-2,7.382677E-2,9.0046525E-2],"categories":[],"categories_nodes":[],"categories_segments":[],"categories_sizes":[],"default_left":[0,0,0,0,0,0,0,0,0,0,0,0,0,0,0,0,0,0,0,0,0,0,0,0,0,0,0,0,0,0,0,0,0,0,0,0,0,0,0,0,0,0,0,0,0,0,0,0,0,0,0,0,0,0,0,0,0,0,0,0,0,0,0,0,0,0,0,0,0,0,0,0,0],"id":2,"left_children":[1,3,5,7,9,11,13,15,17,19,21,23,-1,25,-1,27,29,31,33,35,37,39,41,-1,-1,-1,43,45,47,49,51,53,55,57,59,61,63,65,67,69,71,-1,-1,-1,-1,-1,-1,-1,-1,-1,-1,-1,-1,-1,-1,-1,-1,-1,-1,-1,-1,-1,-1,-1,-1,-1,-1,-1,-1,-1,-1,-1,-1],"loss_changes":[9.486999E4,1.4877081E4,1.727379E4,5.968141E3,3.8466133E3,1.2306016E3,3.279297E2,1.9614355E3,1.9176836E3,6.2708496E2,6.8666797E2,2.5032422E2,0E0,3.4496094E1,0E0,1.1493262E3,6.69999E2,2.3349829E2,2.1929515E2,8.1790405E1,6.435669E1,1.3959277E2,3.902832E0,0E0,0E0,0E0,3.8402344E1,2.530957E1,2.3795197E1,1.019082E2,1.13668945E2,4.7443848E1,4.141046E1,3.147427E1,3.231604E1,1.20372925E1,9.000366E0,7.3363037E0,7.4396973E0,6.9484863E0,3.4958252E1,0E0,0E0,0E0,0E0,0E0,0E0,0E0,0E0,0E0,0E0,0E0,0E0,0E0,0E0,0E0,0E0,0E0,0E0,0E0,0E0,0E0,0E0,0E0,0E0,0E0,0E0,0E0,0E0,0E0,0E0,0E0,0E0],"parents":[2147483647,0,0,1,1,2,2,3,3,4,4,5,5,6,6,7,7,8,8,9,9,10,10,11,11,13,13,15,15,16,16,17,17,18,18,19,19,20,20,21,21,22,22,26,26,27,27,28,28,29,29,30,30,31,31,32,32,33,33,34,34,35,35,36,36,37,37,38,38,39,39,40,40],"right_children":[2,4,6,8,10,12,14,16,18,20,22,24,-1,26,-1,28,30,32,34,36,38,40,42,-1,-1,-1,44,46,48,50,52,54,56,58,60,62,64,66,68,70,72,-1,-1,-1,-1,-1,-1,-1,-1,-1,-1,-1,-1,-1,-1,-1,-1,-1,-1,-1,-1,-1,-1,-1,-1,-1,-1,-1,-1,-1,-1,-1,-1],"split_conditions":[3.2564697E0,2.6538214E-1,7.3149023E0,-3.599988E-1,1.1635832E0,5.140482E0,-1.1283816E0,-4.5482847E-1,-6.629167E-2,6.5230316E-1,2.2770145E0,4.178736E0,2.6838222E-1,6.748467E-2,4.1353208E-1,-1.1283816E0,-6.681672E-1,-2.066888E-1,8.323801E-2,4.3917426E-1,8.9139813E-1,1.496059E0,-5.3737855E-1,1.6583048E-1,2.0878394E-1,5.6442255E-1,-3.3229533E-1,-1.0709487E0,-1.0709487E0,-9.264163E-1,-5.0412446E-1,-2.764232E-1,-1.4468479E-1,8.113899E-3,1.634594E-1,3.4551114E-1,5.2501565E-1,7.63332E-1,1.0548685E0,1.2959815E0,1.7532775E0,1.1937397E-1,1.3110767E-1,5.179521E-1,4.537266E-1,-2.0276545E-1,-1.5768705E-2,-6.538375E-2,-3.4401983E-2,-4.839916E-2,-3.5436776E-2,-2.6399935E-2,-1.9503504E-2,-1.4370093E-2,-1.07450895E-2,-8.024537E-3,-4.860382E-3,-1.1410196E-3,2.2812139E-3,5.8608665E-3,1.004575E-2,1.4373188E-2,1.8286256E-2,2.2383945E-2,2.7015751E-2,3.2515235E-2,3.7695944E-2,4.4297405E-2,5.0821632E-2,5.583639E-2,6.3413195E-2,7.382677E-2,9.0046525E-2],"split_indices":[1,1,1,1,1,1,9,8,1,1,1,1,0,18,0,9,1,1,1,1,1,1,0,0,0,0,7,1,1,1,1,1,1,1,1,1,1,1,1,1,1,0,0,0,0,0,0,0,0,0,0,0,0,0,0,0,0,0,0,0,0,0,0,0,0,0,0,0,0,0,0,0,0],"split_type":[0,0,0,0,0,0,0,0,0,0,0,0,0,0,0,0,0,0,0,0,0,0,0,0,0,0,0,0,0,0,0,0,0,0,0,0,0,0,0,0,0,0,0,0,0,0,0,0,0,0,0,0,0,0,0,0,0,0,0,0,0,0,0,0,0,0,0,0,0,0,0,0,0],"sum_hessian":[1.86318E5,1.83455E5,2.863E3,1.62418E5,2.1037E4,2.158E3,7.05E2,3.4423E4,1.27995E5,1.7404E4,3.633E3,1.432E3,7.26E2,5.86E2,1.19E2,5.49E2,3.3874E4,8.2218E4,4.5777E4,1.2306E4,5.098E3,2.886E3,7.47E2,7E2,7.32E2,1.2E2,4.66E2,2.48E2,3.01E2,9.155E3,2.4719E4,4.0029E4,4.2189E4,2.6887E4,1.889E4,7.999E3,4.307E3,2.915E3,2.183E3,1.457E3,1.429E3,4.27E2,3.2E2,3.56E2,1.1E2,2.46E2,2E0,2.07E2,9.4E1,1.932E3,7.223E3,1.0165E4,1.4554E4,1.3781E4,2.6248E4,2.4021E4,1.8168E4,1.313E4,1.3757E4,1.0864E4,8.026E3,4.378E3,3.621E3,2.159E3,2.148E3,1.464E3,1.451E3,1.449E3,7.34E2,7.18E2,7.39E2,7.26E2,7.03E2],"tree_param":{"num_deleted":"0","num_feature":"31","num_nodes":"73","size_leaf_vector":"1"}},{"base_weights":[3.6722835E-4,-8.603137E-2,5.450659E0,-1.873517E-1,6.35293E-1,4.094886E0,9.527315E0,-5.492602E-1,-9.641155E-2,4.6077132E-1,1.5508357E0,3.58007E0,2.5442111E-1,9.853044E0,7.9211187E0,-2.2858262E0,-5.190231E-1,-1.8277667E-1,5.577245E-2,3.391561E-1,7.3410213E-1,1.3469484E0,2.3608637E0,1.5829846E-1,1.9859172E-1,1.0638264E1,9.598319E0,3.5669318E-1,4.2811438E-1,-3.809817E0,-1.0799503E0,-7.522431E-1,-4.4405147E-1,-2.450605E-1,-1.3998795E-1,-7.0250354E-4,1.2844753E-1,2.8179228E-1,4.297797E-1,6.4426255E-1,8.826807E-1,1.1346233E0,1.5555675E0,1.21210515E-1,1.09546974E-1,5.347907E-1,2.2512121E-1,4.9262306E-1,4.3691596E-1,-2.3377907E-2,-1.9248237E-1,-6.210651E-2,-3.3255003E-2,-4.8803132E-2,-3.5508268E-2,-2.6362155E-2,-1.9503156E-2,-1.4440727E-2,-1.0972204E-2,-8.341112E-3,-5.2299583E-3,-1.723611E-3,1.4743649E-3,4.7953925E-3,8.594321E-3,1.2601848E-2,1.5861405E-2,1.9615209E-2,2.3979198E-2,2.9810658E-2,3.580045E-2,4.205003E-2,4.826152E-2,5.302773E-2,6.0234856E-2,7.010829E-2,8.545761E-2],"categories":[],"categories_nodes":[],"categories_segments":[],"categories_sizes":[],"default_left":[0,0,0,0,0,0,0,0,0,0,0,0,0,0,0,0,0,0,0,0,0,0,0,0,0,0,0,0,0,0,0,0,0,0,0,0,0,0,0,0,0,0,0,0,0,0,0,0,0,0,0,0,0,0,0,0,0,0,0,0,0,0,0,0,0,0,0,0,0,0,0,0,0,0,0,0,0],"id":3,"left_children":[1,3,5,7,9,11,13,15,17,19,21,23,-1,25,27,29,31,33,35,37,39,41,43,-1,-1,45,47,-1,-1,49,51,53,55,57,59,61,63,65,67,69,71,73,75,-1,-1,-1,-1,-1,-1,-1,-1,-1,-1,-1,-1,-1,-1,-1,-1,-1,-1,-1,-1,-1,-1,-1,-1,-1,-1,-1,-1,-1,-1,-1,-1,-1,-1],"loss_changes":[8.751207E4,1.3370331E4,1.5989344E4,5.279364E3,3.599496E3,1.0958047E3,3.0021875E2,1.6902764E3,1.6849666E3,6.288733E2,5.925322E2,2.2071289E2,0E0,1.7292969E1,3.0229492E0,1.0084822E3,5.5328906E2,2.1792627E2,1.904981E2,6.797937E1,7.721167E1,1.2598193E2,2.4819336E0,0E0,0E0,2.2070312E-1,1.4660156E1,0E0,0E0,3.0548828E1,1.996347E1,7.1833496E1,1.0742139E2,3.7264404E1,4.6022705E1,2.6629364E1,2.8671661E1,8.381653E0,9.285889E0,1.2104248E1,6.7336426E0,6.1601562E0,3.1812988E1,0E0,0E0,0E0,0E0,0E0,0E0,0E0,0E0,0E0,0E0,0E0,0E0,0E0,0E0,0E0,0E0,0E0,0E0,0E0,0E0,0E0,0E0,0E0,0E0,0E0,0E0,0E0,0E0,0E0,0E0,0E0,0E0,0E0,0E0],"parents":[2147483647,0,0,1,1,2,2,3,3,4,4,5,5,6,6,7,7,8,8,9,9,10,10,11,11,13,13,14,14,15,15,16,16,17,17,18,18,19,19,20,20,21,21,22,22,25,25,26,26,29,29,30,30,31,31,32,32,33,33,34,34,35,35,36,36,37,37,38,38,39,39,40,40,41,41,42,42],"right_children":[2,4,6,8,10,12,14,16,18,20,22,24,-1,26,28,30,32,34,36,38,40,42,44,-1,-1,46,48,-1,-1,50,52,54,56,58,60,62,64,66,68,70,72,74,76,-1,-1,-1,-1,-1,-1,-1,-1,-1,-1,-1,-1,-1,-1,-1,-1,-1,-1,-1,-1,-1,-1,-1,-1,-1,-1,-1,-1,-1,-1,-1,-1,-1,-1],"split_conditions":[3.2564697E0,2.4436134E-1,7.3149023E0,-3.7625438E-1,1.1635832E0,5.140482E0,-1.1283816E0,-4.5482847E-1,-7.771097E-2,6.042886E-1,2.2770145E0,4.178736E0,2.5442111E-1,9.624319E-1,4.825719E-1,-1.1283816E0,-7.0203984E-1,-2.2412893E-1,6.60452E-2,3.9664108E-1,8.9139813E-1,1.496059E0,-1.0021818E0,1.5829846E-1,1.9859172E-1,-5.801269E-1,1.7134634E0,3.5669318E-1,4.2811438E-1,-5.4865146E-1,-1.0709487E0,-9.943997E-1,-5.334138E-1,-2.9391268E-1,-1.5987888E-1,-7.0218383E-3,1.4411913E-1,3.1565523E-1,4.9352974E-1,7.63332E-1,1.0548685E0,1.2959815E0,1.7532775E0,1.21210515E-1,1.09546974E-1,5.347907E-1,2.2512121E-1,4.9262306E-1,4.3691596E-1,-2.3377907E-2,-1.9248237E-1,-6.210651E-2,-3.3255003E-2,-4.8803132E-2,-3.5508268E-2,-2.6362155E-2,-1.9503156E-2,-1.4440727E-2,-1.0972204E-2,-8.341112E-3,-5.2299583E-3,-1.723611E-3,1.4743649E-3,4.7953925E-3,8.594321E-3,1.2601848E-2,1.5861405E-2,1.9615209E-2,2.3979198E-2,2.9810658E-2,3.580045E-2,4.205003E-2,4.826152E-2,5.302773E-2,6.0234856E-2,7.010829E-2,8.545761E-2],"split_indices":[1,1,1,1,1,1,9,8,1,1,1,1,0,18,7,9,1,1,1,1,1,1,9,0,0,4,7,0,0,15,1,1,1,1,1,1,1,1,1,1,1,1,1,0,0,0,0,0,0,0,0,0,0,0,0,0,0,0,0,0,0,0,0,0,0,0,0,0,0,0,0,0,0,0,0,0,0],"split_type":[0,0,0,0,0,0,0,0,0,0,0,0,0,0,0,0,0,0,0,0,0,0,0,0,0,0,0,0,0,0,0,0,0,0,0,0,0,0,0,0,0,0,0,0,0,0,0,0,0,0,0,0,0,0,0,0,0,0,0,0,0,0,0,0,0,0,0,0,0,0,0,0,0,0,0,0,0],"sum_hessian":[1.85839E5,1.8294E5,2.899E3,1.60409E5,2.2531E4,2.177E3,7.22E2,3.2212E4,1.28197E5,1.8925E4,3.606E3,1.437E3,7.4E2,5.96E2,1.26E2,5.5E2,3.1662E4,8.1784E4,4.6413E4,1.3099E4,5.826E3,2.883E3,7.23E2,7.03E2,7.34E2,1.36E2,4.6E2,6.2E1,6.4E1,2.42E2,3.08E2,7.7E3,2.3962E4,3.3303E4,4.8481E4,2.6118E4,2.0295E4,8.024E3,5.075E3,3.634E3,2.192E3,1.432E3,1.451E3,5.17E2,2.06E2,1.34E2,2E0,3.47E2,1.13E2,3E0,2.39E2,2.2E2,8.8E1,1.215E3,6.485E3,9.427E3,1.4535E4,1.2294E4,2.1009E4,2.7571E4,2.091E4,1.2328E4,1.379E4,1.1605E4,8.69E3,4.366E3,3.658E3,2.901E3,2.174E3,2.182E3,1.452E3,1.464E3,7.28E2,7.04E2,7.28E2,7.31E2,7.2E2],"tree_param":{"num_deleted":"0","num_feature":"31","num_nodes":"77","size_leaf_vector":"1"}},{"base_weights":[9.6920127E-4,-8.117868E-2,5.1587067E0,-1.7263418E-1,6.4803976E-1,3.8901489E0,9.058294E0,-4.957873E-1,-7.929539E-2,4.6568662E-1,1.4776796E0,3.3955042E0,2.4294315E-1,9.377178E0,3.699508E-1,-2.1607697E0,-4.695182E-1,-1.6170728E-1,6.981668E-2,3.5317194E-1,7.219339E-1,1.2797134E0,2.2483053E0,1.5014534E-1,1.8854253E-1,5.085166E-1,4.5789924E-1,-3.622401E0,-1.0176808E0,-6.5890443E-1,-3.8195416E-1,-2.0436913E-1,-1.08691804E-1,1.8131383E-2,1.4665282E-1,2.977026E-1,4.4591796E-1,6.340448E-1,8.3977014E-1,1.0765541E0,1.4800692E0,1.0759852E-1,1.1855153E-1,-2.2501236E-2,-1.8297048E-1,-5.8113545E-2,-2.8185368E-2,-4.073965E-2,-2.9666677E-2,-2.216683E-2,-1.637259E-2,-1.2103439E-2,-9.024466E-3,-6.451912E-3,-3.6289075E-3,-6.8443146E-4,2.4039228E-3,5.76191E-3,9.699708E-3,1.3528702E-2,1.6910715E-2,2.08293E-2,2.524417E-2,2.9422153E-2,3.399189E-2,3.99758E-2,4.5907065E-2,5.036233E-2,5.712646E-2,6.667021E-2,8.117703E-2],"categories":[],"categories_nodes":[],"categories_segments":[],"categories_sizes":[],"default_left":[0,0,0,0,0,0,0,0,0,0,0,0,0,0,0,0,0,0,0,0,0,0,0,0,0,0,0,0,0,0,0,0,0,0,0,0,0,0,0,0,0,0,0,0,0,0,0,0,0,0,0,0,0,0,0,0,0,0,0,0,0,0,0,0,0,0,0,0,0,0,0],"id":4,"left_children":[1,3,5,7,9,11,13,15,17,19,21,23,-1,25,-1,27,29,31,33,35,37,39,41,-1,-1,-1,-1,43,45,47,49,51,53,55,57,59,61,63,65,67,69,-1,-1,-1,-1,-1,-1,-1,-1,-1,-1,-1,-1,-1,-1,-1,-1,-1,-1,-1,-1,-1,-1,-1,-1,-1,-1,-1,-1,-1,-1],"loss_changes":[7.880769E4,1.2210174E4,1.4389773E4,4.906892E3,3.0860293E3,1.0386328E3,3.089375E2,1.5935693E3,1.5511409E3,4.820398E2,5.579258E2,2.039707E2,0E0,1.04765625E1,0E0,9.419717E2,5.9497705E2,1.8384595E2,1.7843172E2,5.967798E1,5.2316895E1,1.1754785E2,3.7644043E0,0E0,0E0,0E0,0E0,2.7469727E1,2.0283997E1,1.1550293E2,8.197632E1,4.0508423E1,2.662732E1,2.5598843E1,2.6850098E1,7.9071655E0,7.3115845E0,5.7122803E0,6.133789E0,5.5115967E0,2.878833E1,0E0,0E0,0E0,0E0,0E0,0E0,0E0,0E0,0E0,0E0,0E0,0E0,0E0,0E0,0E0,0E0,0E0,0E0,0E0,0E0,0E0,0E0,0E0,0E0,0E0,0E0,0E0,0E0,0E0,0E0],"parents":[2147483647,0,0,1,1,2,2,3,3,4,4,5,5,6,6,7,7,8,8,9,9,10,10,11,11,13,13,15,15,16,16,17,17,18,18,19,19,20,20,21,21,22,22,27,27,28,28,29,29,30,30,31,31,32,32,33,33,34,34,35,35,36,36,37,37,38,38,39,39,40,40],"right_children":[2,4,6,8,10,12,14,16,18,20,22,24,-1,26,-1,28,30,32,34,36,38,40,42,-1,-1,-1,-1,44,46,48,50,52,54,56,58,60,62,64,66,68,70,-1,-1,-1,-1,-1,-1,-1,-1,-1,-1,-1,-1,-1,-1,-1,-1,-1,-1,-1,-1,-1,-1,-1,-1,-1,-1,-1,-1,-1,-1],"split_conditions":[3.2564697E0,2.76242E-1,7.3149023E0,-3.4420502E-1,1.1635832E0,5.140482E0,-1.1283816E0,-4.5482847E-1,-5.8097363E-2,6.5230316E-1,2.2770145E0,4.178736E0,2.4294315E-1,-1.5386046E-1,3.699508E-1,-1.1283816E0,-6.2667304E-1,-1.90305E-1,9.329572E-2,4.3917426E-1,8.9139813E-1,1.496059E0,-5.3737855E-1,1.5014534E-1,1.8854253E-1,5.085166E-1,4.5789924E-1,-5.4865146E-1,-9.943997E-1,-8.5186565E-1,-4.601892E-1,-2.5419262E-1,-1.2123015E-1,1.6310371E-2,1.7745134E-1,3.6117724E-1,5.6216735E-1,7.63332E-1,1.0548685E0,1.2959815E0,1.7532775E0,1.0759852E-1,1.1855153E-1,-2.2501236E-2,-1.8297048E-1,-5.8113545E-2,-2.8185368E-2,-4.073965E-2,-2.9666677E-2,-2.216683E-2,-1.637259E-2,-1.2103439E-2,-9.024466E-3,-6.451912E-3,-3.6289075E-3,-6.8443146E-4,2.4039228E-3,5.76191E-3,9.699708E-3,1.3528702E-2,1.6910715E-2,2.08293E-2,2.524417E-2,2.9422153E-2,3.399189E-2,3.99758E-2,4.5907065E-2,5.036233E-2,5.712646E-2,6.667021E-2,8.117703E-2],"split_indices":[1,1,1,1,1,1,9,8,1,1,1,1,0,18,0,9,1,1,1,1,1,1,0,0,0,0,0,15,1,1,1,1,1,1,1,1,1,1,1,1,1,0,0,0,0,0,0,0,0,0,0,0,0,0,0,0,0,0,0,0,0,0,0,0,0,0,0,0,0,0,0],"split_type":[0,0,0,0,0,0,0,0,0,0,0,0,0,0,0,0,0,0,0,0,0,0,0,0,0,0,0,0,0,0,0,0,0,0,0,0,0,0,0,0,0,0,0,0,0,0,0,0,0,0,0,0,0,0,0,0,0,0,0,0,0,0,0,0,0,0,0,0,0,0,0],"sum_hessian":[1.85998E5,1.83083E5,2.915E3,1.62681E5,2.0402E4,2.201E3,7.14E2,3.6457E4,1.26224E5,1.6727E4,3.675E3,1.46E3,7.41E2,5.95E2,1.19E2,5.65E2,3.5892E4,8.1294E4,4.493E4,1.1625E4,5.102E3,2.926E3,7.49E2,7.18E2,7.42E2,1.19E2,4.76E2,2.47E2,3.18E2,1.1346E4,2.4546E4,4.5044E4,3.625E4,2.6862E4,1.8068E4,7.277E3,4.348E3,2.926E3,2.176E3,1.456E3,1.47E3,4.3E2,3.19E2,3E0,2.44E2,2.4E2,7.8E1,3.356E3,7.99E3,1.1541E4,1.3005E4,1.7464E4,2.758E4,2.3185E4,1.3065E4,1.3024E4,1.3838E4,1.0863E4,7.205E3,4.363E3,2.914E3,2.909E3,1.439E3,1.473E3,1.453E3,1.445E3,7.31E2,7.18E2,7.38E2,7.32E2,7.38E2],"tree_param":{"num_deleted":"0","num_feature":"31","num_nodes":"71","size_leaf_vector":"1"}},{"base_weights":[-2.1456879E-4,-7.787682E-2,4.9321327E0,-1.7080723E-1,5.621586E-1,3.691991E0,8.601492E0,-5.0640804E-1,-9.09551E-2,4.0758377E-1,1.4002628E0,3.2291963E0,2.305905E-1,8.884325E0,7.193091E0,-2.118494E0,-4.771437E-1,-1.6914919E-1,4.4721127E-2,3.0113286E-1,6.629585E-1,1.2142713E0,2.1366847E0,1.4239393E-1,1.7932683E-1,9.716321E0,8.648166E0,7.7009506E0,3.0823994E-1,-3.4513094E0,-9.804876E-1,-6.801598E-1,-4.0765226E-1,-2.2988588E-1,-1.3160954E-1,-6.9688945E-3,1.0893786E-1,2.4398369E-1,3.7952915E-1,5.8183765E-1,7.966746E-1,1.0230056E0,1.4053583E0,1.0214577E-1,1.1269053E-1,4.8763487E-1,1.3014318E-1,8.897459E0,3.9238948E-1,4.3027303E-1,3.3280787E-1,-2.3698896E-2,-1.736616E-1,-5.5913117E-2,-3.0890882E-2,-4.1760635E-2,-3.1409826E-2,-2.404092E-2,-1.8064996E-2,-1.3508163E-2,-1.03013795E-2,-7.7869217E-3,-4.982522E-3,-1.9721764E-3,9.455721E-4,3.933263E-3,7.2905584E-3,1.0935298E-2,1.3698704E-2,1.682989E-2,2.1104075E-2,2.582528E-2,3.1265214E-2,3.7933055E-2,4.3562096E-2,4.7909252E-2,5.4281134E-2,6.333378E-2,7.7220134E-2,1.7984025E-1,4.4585952E-1],"categories":[],"categories_nodes":[],"categories_segments":[],"categories_sizes":[],"default_left":[0,0,0,0,0,0,0,0,0,0,0,0,0,0,0,0,0,0,0,0,0,0,0,0,0,0,0,0,0,0,0,0,0,0,0,0,0,0,0,0,0,0,0,0,0,0,0,0,0,0,0,0,0,0,0,0,0,0,0,0,0,0,0,0,0,0,0,0,0,0,0,0,0,0,0,0,0,0,0,0,0],"id":5,"left_children":[1,3,5,7,9,11,13,15,17,19,21,23,-1,25,27,29,31,33,35,37,39,41,43,-1,-1,45,47,49,-1,51,53,55,57,59,61,63,65,67,69,71,73,75,77,-1,-1,-1,-1,79,-1,-1,-1,-1,-1,-1,-1,-1,-1,-1,-1,-1,-1,-1,-1,-1,-1,-1,-1,-1,-1,-1,-1,-1,-1,-1,-1,-1,-1,-1,-1,-1,-1],"loss_changes":[7.129155E4,1.0898208E4,1.30965E4,4.287623E3,3.009002E3,9.037422E2,2.2608984E2,1.4497651E3,1.3711885E3,5.3303174E2,4.9281934E2,1.8586426E2,0E0,3.4257812E1,1.8847656E1,8.277964E2,4.2585107E2,1.869143E2,1.5685733E2,6.1941406E1,6.212451E1,1.0418701E2,3.3913574E0,0E0,0E0,6.959961E0,2.5546875E1,1.9268066E1,0E0,1.4802246E1,1.41492E1,6.1522705E1,7.615039E1,3.0039429E1,3.906183E1,2.2005522E1,2.3512405E1,6.013153E0,1.0519348E1,9.885986E0,5.50708E0,4.837036E0,2.5868896E1,0E0,0E0,0E0,0E0,5.265625E0,0E0,0E0,0E0,0E0,0E0,0E0,0E0,0E0,0E0,0E0,0E0,0E0,0E0,0E0,0E0,0E0,0E0,0E0,0E0,0E0,0E0,0E0,0E0,0E0,0E0,0E0,0E0,0E0,0E0,0E0,0E0,0E0,0E0],"parents":[2147483647,0,0,1,1,2,2,3,3,4,4,5,5,6,6,7,7,8,8,9,9,10,10,11,11,13,13,14,14,15,15,16,16,17,17,18,18,19,19,20,20,21,21,22,22,25,25,26,26,27,27,29,29,30,30,31,31,32,32,33,33,34,34,35,35,36,36,37,37,38,38,39,39,40,40,41,41,42,42,47,47],"right_children":[2,4,6,8,10,12,14,16,18,20,22,24,-1,26,28,30,32,34,36,38,40,42,44,-1,-1,46,48,50,-1,52,54,56,58,60,62,64,66,68,70,72,74,76,78,-1,-1,-1,-1,80,-1,-1,-1,-1,-1,-1,-1,-1,-1,-1,-1,-1,-1,-1,-1,-1,-1,-1,-1,-1,-1,-1,-1,-1,-1,-1,-1,-1,-1,-1,-1,-1,-1],"split_conditions":[3.2564697E0,2.3301768E-1,7.3149023E0,-3.8787496E-1,1.1635832E0,5.140482E0,-1.1283816E0,-4.5482847E-1,-8.48963E-2,6.042886E-1,2.2770145E0,4.178736E0,2.305905E-1,6.748467E-2,1.1051061E-1,-1.1283816E0,-7.0203984E-1,-2.3224762E-1,5.736919E-2,3.7902218E-1,8.9139813E-1,1.496059E0,-5.3737855E-1,1.4239393E-1,1.7932683E-1,1.4357531E0,-3.3229533E-1,1.7493795E0,3.0823994E-1,-1.198347E0,-1.0709487E0,-9.264163E-1,-5.433875E-1,-3.0595994E-1,-1.6633606E-1,-1.9137682E-2,1.3280253E-1,3.0160657E-1,4.6461043E-1,7.0612365E-1,1.0548685E0,1.2959815E0,1.7532775E0,1.0214577E-1,1.1269053E-1,4.8763487E-1,1.3014318E-1,-5.627592E-1,3.9238948E-1,4.3027303E-1,3.3280787E-1,-2.3698896E-2,-1.736616E-1,-5.5913117E-2,-3.0890882E-2,-4.1760635E-2,-3.1409826E-2,-2.404092E-2,-1.8064996E-2,-1.3508163E-2,-1.03013795E-2,-7.7869217E-3,-4.982522E-3,-1.9721764E-3,9.455721E-4,3.933263E-3,7.2905584E-3,1.0935298E-2,1.3698704E-2,1.682989E-2,2.1104075E-2,2.582528E-2,3.1265214E-2,3.7933055E-2,4.3562096E-2,4.7909252E-2,5.4281134E-2,6.333378E-2,7.7220134E-2,1.7984025E-1,4.4585952E-1],"split_indices":[1,1,1,1,1,1,9,8,1,1,1,1,0,18,5,9,1,1,1,1,1,1,0,0,0,5,7,8,0,15,1,1,1,1,1,1,1,1,1,1,1,1,1,0,0,0,0,3,0,0,0,0,0,0,0,0,0,0,0,0,0,0,0,0,0,0,0,0,0,0,0,0,0,0,0,0,0,0,0,0,0],"split_type":[0,0,0,0,0,0,0,0,0,0,0,0,0,0,0,0,0,0,0,0,0,0,0,0,0,0,0,0,0,0,0,0,0,0,0,0,0,0,0,0,0,0,0,0,0,0,0,0,0,0,0,0,0,0,0,0,0,0,0,0,0,0,0,0,0,0,0,0,0,0,0,0,0,0,0,0,0,0,0,0,0],"sum_hessian":[1.8611E5,1.83226E5,2.884E3,1.59996E5,2.323E4,2.157E3,7.27E2,3.0751E4,1.29245E5,1.9614E4,3.616E3,1.438E3,7.19E2,6.01E2,1.26E2,5.47E2,3.0204E4,8.1991E4,4.7254E4,1.3845E4,5.769E3,2.889E3,7.27E2,7E2,7.38E2,1.24E2,4.77E2,8E1,4.6E1,2.51E2,2.96E2,7.7E3,2.2504E4,3.1317E4,5.0674E4,2.6181E4,2.1073E4,8.01E3,5.835E3,3.594E3,2.175E3,1.447E3,1.442E3,4.14E2,3.13E2,1.23E2,1E0,3.56E2,1.21E2,3.9E1,4.1E1,2E0,2.49E2,2.13E2,8.3E1,1.929E3,5.771E3,8.724E3,1.378E4,1.1646E4,1.9671E4,2.8872E4,2.1802E4,1.1611E4,1.457E4,1.1574E4,9.499E3,4.351E3,3.659E3,2.909E3,2.926E3,1.441E3,2.153E3,1.448E3,7.27E2,7.19E2,7.28E2,7.27E2,7.15E2,2E0,3.54E2],"tree_param":{"num_deleted":"0","num_feature":"31","num_nodes":"81","size_leaf_vector":"1"}},{"base_weights":[9.3238504E-4,-7.333139E-2,4.669553E0,-1.5896466E-1,5.585622E-1,3.5046043E0,8.165988E0,-4.6799126E-1,-7.981548E-2,4.0338963E-1,1.3333781E0,3.0657728E0,2.1887302E-1,8.450113E0,6.7436876E0,-2.012798E0,-4.4183654E-1,-1.5468328E-1,5.1667508E-2,3.0626616E-1,6.5018237E-1,1.1555328E0,2.032349E0,1.3568507E-1,1.7018549E-1,8.656467E0,7.7272267E0,7.1969686E0,2.9553807E-1,-3.2866511E0,-9.2946494E-1,-6.3489306E-1,-3.7385666E-1,-2.0445801E-1,-1.15184516E-1,3.9351806E-3,1.1727705E-1,2.522422E-1,3.919592E-1,5.7171565E-1,7.5774205E-1,9.7156614E-1,1.3375727E0,9.4849005E-2,1.0531967E-1,8.335368E0,9.477747E0,4.067398E-1,3.295105E-1,3.8216516E-1,2.8213882E-1,-1.6493045E-1,-7.428828E-3,-5.1923376E-2,-2.311974E-2,-3.9658364E-2,-2.9384067E-2,-2.1952553E-2,-1.6262323E-2,-1.2146297E-2,-9.132856E-3,-6.8529407E-3,-4.20613E-3,-1.2499801E-3,1.56293E-3,4.4866516E-3,7.871435E-3,1.1249939E-2,1.4224556E-2,1.7756712E-2,2.2057243E-2,2.650249E-2,3.0745363E-2,3.428207E-2,3.969713E-2,4.549645E-2,5.1614285E-2,6.0143452E-2,7.3503904E-2,4.1807872E-1,2.0251314E-1,1.7384557E-1,4.774393E-1],"categories":[],"categories_nodes":[],"categories_segments":[],"categories_sizes":[],"default_left":[0,0,0,0,0,0,0,0,0,0,0,0,0,0,0,0,0,0,0,0,0,0,0,0,0,0,0,0,0,0,0,0,0,0,0,0,0,0,0,0,0,0,0,0,0,0,0,0,0,0,0,0,0,0,0,0,0,0,0,0,0,0,0,0,0,0,0,0,0,0,0,0,0,0,0,0,0,0,0,0,0,0,0],"id":6,"left_children":[1,3,5,7,9,11,13,15,17,19,21,23,-1,25,27,29,31,33,35,37,39,41,43,-1,-1,45,47,49,-1,51,53,55,57,59,61,63,65,67,69,71,73,75,77,-1,-1,79,81,-1,-1,-1,-1,-1,-1,-1,-1,-1,-1,-1,-1,-1,-1,-1,-1,-1,-1,-1,-1,-1,-1,-1,-1,-1,-1,-1,-1,-1,-1,-1,-1,-1,-1,-1,-1],"loss_changes":[6.447963E4,9.905886E3,1.1832441E4,3.9432017E3,2.6262524E3,8.2389844E2,2.3680469E2,1.32727E3,1.2634258E3,4.3613916E2,4.5075635E2,1.6423242E2,0E0,2.2910156E1,5.03125E0,7.518093E2,4.2400732E2,1.6075916E2,1.4583322E2,6.038513E1,4.294751E1,9.60874E1,3.4016113E0,0E0,0E0,4.2304688E1,1.2658203E1,1.0284668E1,0E0,8.928711E0,1.4640625E1,6.24292E1,7.563086E1,3.0299072E1,3.097107E1,2.1312906E1,2.1674408E1,6.9786377E0,8.990173E0,5.029785E0,5.1065674E0,4.4874268E0,2.4273193E1,0E0,0E0,4.201172E0,1.8807617E1,0E0,0E0,0E0,0E0,0E0,0E0,0E0,0E0,0E0,0E0,0E0,0E0,0E0,0E0,0E0,0E0,0E0,0E0,0E0,0E0,0E0,0E0,0E0,0E0,0E0,0E0,0E0,0E0,0E0,0E0,0E0,0E0,0E0,0E0,0E0,0E0],"parents":[2147483647,0,0,1,1,2,2,3,3,4,4,5,5,6,6,7,7,8,8,9,9,10,10,11,11,13,13,14,14,15,15,16,16,17,17,18,18,19,19,20,20,21,21,22,22,25,25,26,26,27,27,29,29,30,30,31,31,32,32,33,33,34,34,35,35,36,36,37,37,38,38,39,39,40,40,41,41,42,42,45,45,46,46],"right_children":[2,4,6,8,10,12,14,16,18,20,22,24,-1,26,28,30,32,34,36,38,40,42,44,-1,-1,46,48,50,-1,52,54,56,58,60,62,64,66,68,70,72,74,76,78,-1,-1,80,82,-1,-1,-1,-1,-1,-1,-1,-1,-1,-1,-1,-1,-1,-1,-1,-1,-1,-1,-1,-1,-1,-1,-1,-1,-1,-1,-1,-1,-1,-1,-1,-1,-1,-1,-1,-1],"split_conditions":[3.2564697E0,2.549686E-1,7.3149023E0,-3.7061042E-1,1.1635832E0,5.140482E0,-1.1283816E0,-4.5482847E-1,-7.415636E-2,6.5230316E-1,2.2770145E0,4.178736E0,2.1887302E-1,1.7134634E0,-1.0910859E0,-1.1283816E0,-6.8508226E-1,-2.169133E-1,7.4389674E-2,4.1615328E-1,8.9139813E-1,1.496059E0,-5.7746035E-1,1.3568507E-1,1.7018549E-1,-6.416183E-2,-4.866296E-3,2.0171957E0,2.9553807E-1,-1.0709487E0,-9.264163E-1,-9.264163E-1,-5.135997E-1,-2.8663397E-1,-1.511424E-1,3.3183314E-4,1.5678515E-1,3.2983372E-1,5.2501565E-1,7.63332E-1,9.635208E-1,1.2959815E0,1.7532775E0,9.4849005E-2,1.0531967E-1,-5.797707E-1,-5.627592E-1,4.067398E-1,3.295105E-1,3.8216516E-1,2.8213882E-1,-1.6493045E-1,-7.428828E-3,-5.1923376E-2,-2.311974E-2,-3.9658364E-2,-2.9384067E-2,-2.1952553E-2,-1.6262323E-2,-1.2146297E-2,-9.132856E-3,-6.8529407E-3,-4.20613E-3,-1.2499801E-3,1.56293E-3,4.4866516E-3,7.871435E-3,1.1249939E-2,1.4224556E-2,1.7756712E-2,2.2057243E-2,2.650249E-2,3.0745363E-2,3.428207E-2,3.969713E-2,4.549645E-2,5.1614285E-2,6.0143452E-2,7.3503904E-2,4.1807872E-1,2.0251314E-1,1.7384557E-1,4.774393E-1],"split_indices":[1,1,1,1,1,1,9,8,1,1,1,1,0,7,9,9,1,1,1,1,1,1,0,0,0,17,17,8,0,1,1,1,1,1,1,1,1,1,1,1,1,1,1,0,0,4,3,0,0,0,0,0,0,0,0,0,0,0,0,0,0,0,0,0,0,0,0,0,0,0,0,0,0,0,0,0,0,0,0,0,0,0,0],"split_type":[0,0,0,0,0,0,0,0,0,0,0,0,0,0,0,0,0,0,0,0,0,0,0,0,0,0,0,0,0,0,0,0,0,0,0,0,0,0,0,0,0,0,0,0,0,0,0,0,0,0,0,0,0,0,0,0,0,0,0,0,0,0,0,0,0,0,0,0,0,0,0,0,0,0,0,0,0,0,0,0,0,0,0],"sum_hessian":[1.85974E5,1.83063E5,2.911E3,1.61216E5,2.1847E4,2.185E3,7.26E2,3.2871E4,1.28345E5,1.8203E4,3.644E3,1.457E3,7.28E2,6.01E2,1.25E2,5.46E2,3.2325E4,8.1779E4,4.6566E4,1.3064E4,5.139E3,2.907E3,7.37E2,7.18E2,7.39E2,4.59E2,1.42E2,7.6E1,4.9E1,2.5E2,2.96E2,8.416E3,2.3909E4,3.6181E4,4.5598E4,2.6956E4,1.961E4,8.015E3,5.049E3,2.975E3,2.164E3,1.449E3,1.458E3,2.7E2,4.67E2,3.38E2,1.21E2,1E2,4.2E1,5.6E1,2E1,2.49E2,1E0,2.39E2,5.7E1,1.93E3,6.486E3,1.0209E4,1.37E4,1.3084E4,2.3097E4,2.6754E4,1.8844E4,1.3092E4,1.3864E4,1.1633E4,7.977E3,4.349E3,3.666E3,2.892E3,2.157E3,1.521E3,1.454E3,7.3E2,1.434E3,7.27E2,7.22E2,7.28E2,7.3E2,3.35E2,3E0,2E0,1.19E2],"tree_param":{"num_deleted":"0","num_feature":"31","num_nodes":"83","size_leaf_vector":"1"}},{"base_weights":[1.1356698E-4,-7.066578E-2,4.4473753E0,-1.5436295E-1,5.06833E-1,3.3397903E0,7.7807703E0,-4.6196258E-1,-8.314451E-2,3.67755E-1,1.2657778E0,2.9136753E0,2.085131E-1,8.035475E0,6.53776E0,-1.914925E0,-4.3460956E-1,-1.5536235E-1,3.7508022E-2,2.7147725E-1,5.978926E-1,1.0971203E0,1.928244E0,1.2877159E-1,1.6187148E-1,8.276445E0,7.2016687E0,6.959437E0,2.7824938E-1,-3.1157422E0,-8.872701E-1,-6.13429E-1,-3.7139067E-1,-2.1342458E-1,-1.2311776E-1,-1.0335984E-2,9.665102E-2,2.2038835E-1,3.4204176E-1,5.0389796E-1,6.924627E-1,9.241475E-1,1.2681286E0,1.0045367E-1,9.05104E-2,7.972551E0,9.01391E0,3.1167245E-1,3.800338E-1,7.773111E0,3.003043E-1,-2.0036278E-2,-1.5677713E-1,-5.054915E-2,-2.8049994E-2,-4.0158123E-2,-2.8894275E-2,-2.196197E-2,-1.6601253E-2,-1.2451804E-2,-9.6001765E-3,-7.2642304E-3,-4.765166E-3,-1.9744204E-3,7.1321323E-4,3.394109E-3,6.47864E-3,9.881052E-3,1.2360444E-2,1.5166071E-2,1.9044233E-2,2.3285825E-2,2.7078802E-2,3.1581376E-2,3.7708905E-2,4.3300595E-2,4.9017545E-2,5.7118535E-2,6.965851E-2,1.10612586E-1,3.991619E-1,1.6805074E-1,4.5389906E-1,3.9559567E-1,1.6425546E-1],"categories":[],"categories_nodes":[],"categories_segments":[],"categories_sizes":[],"default_left":[0,0,0,0,0,0,0,0,0,0,0,0,0,0,0,0,0,0,0,0,0,0,0,0,0,0,0,0,0,0,0,0,0,0,0,0,0,0,0,0,0,0,0,0,0,0,0,0,0,0,0,0,0,0,0,0,0,0,0,0,0,0,0,0,0,0,0,0,0,0,0,0,0,0,0,0,0,0,0,0,0,0,0,0,0],"id":7,"left_children":[1,3,5,7,9,11,13,15,17,19,21,23,-1,25,27,29,31,33,35,37,39,41,43,-1,-1,45,47,49,-1,51,53,55,57,59,61,63,65,67,69,71,73,75,77,-1,-1,79,81,-1,-1,83,-1,-1,-1,-1,-1,-1,-1,-1,-1,-1,-1,-1,-1,-1,-1,-1,-1,-1,-1,-1,-1,-1,-1,-1,-1,-1,-1,-1,-1,-1,-1,-1,-1,-1,-1],"loss_changes":[5.863111E4,8.86211E3,1.074732E4,3.5080676E3,2.4493037E3,7.635449E2,1.7763672E2,1.1956675E3,1.1330181E3,4.3447192E2,3.994419E2,1.5066797E2,0E0,6.0746094E1,1.4185547E1,6.8335364E2,3.3383984E2,1.5226526E2,1.3777608E2,4.9789917E1,5.1074463E1,8.36333E1,3.309082E0,0E0,0E0,3.0779297E1,7.4799805E0,2.0025879E1,0E0,1.2505615E1,1.1582352E1,5.157788E1,5.8173584E1,2.2107178E1,3.22334E1,1.9304272E1,2.06138E1,4.852051E0,8.618225E0,3.92688E0,1.034021E1,3.8201904E0,2.1036865E1,0E0,0E0,2.8378906E0,1.5125E1,0E0,0E0,7.95166E-1,0E0,0E0,0E0,0E0,0E0,0E0,0E0,0E0,0E0,0E0,0E0,0E0,0E0,0E0,0E0,0E0,0E0,0E0,0E0,0E0,0E0,0E0,0E0,0E0,0E0,0E0,0E0,0E0,0E0,0E0,0E0,0E0,0E0,0E0,0E0],"parents":[2147483647,0,0,1,1,2,2,3,3,4,4,5,5,6,6,7,7,8,8,9,9,10,10,11,11,13,13,14,14,15,15,16,16,17,17,18,18,19,19,20,20,21,21,22,22,25,25,26,26,27,27,29,29,30,30,31,31,32,32,33,33,34,34,35,35,36,36,37,37,38,38,39,39,40,40,41,41,42,42,45,45,46,46,49,49],"right_children":[2,4,6,8,10,12,14,16,18,20,22,24,-1,26,28,30,32,34,36,38,40,42,44,-1,-1,46,48,50,-1,52,54,56,58,60,62,64,66,68,70,72,74,76,78,-1,-1,80,82,-1,-1,84,-1,-1,-1,-1,-1,-1,-1,-1,-1,-1,-1,-1,-1,-1,-1,-1,-1,-1,-1,-1,-1,-1,-1,-1,-1,-1,-1,-1,-1,-1,-1,-1,-1,-1,-1],"split_conditions":[3.2564697E0,2.3301768E-1,7.3149023E0,-3.9450428E-1,1.1635832E0,5.140482E0,-1.1283816E0,-4.5482847E-1,-9.1843635E-2,6.042886E-1,2.2770145E0,4.178736E0,2.085131E-1,1.7134634E0,1.1051061E-1,-1.1283816E0,-7.0203984E-1,-2.3960927E-1,5.3630367E-2,3.7902218E-1,8.2365036E-1,1.496059E0,-5.763049E-1,1.2877159E-1,1.6187148E-1,-6.416183E-2,-4.4035506E-1,1.7493795E0,2.7824938E-1,-1.198347E0,-1.0709487E0,-9.943997E-1,-5.539984E-1,-3.1400174E-1,-1.7417713E-1,-2.3466393E-2,1.2710826E-1,3.0160657E-1,4.6461043E-1,7.0612365E-1,9.635208E-1,1.2959815E0,1.7532775E0,1.0045367E-1,9.05104E-2,-7.097743E-1,-5.627592E-1,3.1167245E-1,3.800338E-1,2.699257E-1,3.003043E-1,-2.0036278E-2,-1.5677713E-1,-5.054915E-2,-2.8049994E-2,-4.0158123E-2,-2.8894275E-2,-2.196197E-2,-1.6601253E-2,-1.2451804E-2,-9.6001765E-3,-7.2642304E-3,-4.765166E-3,-1.9744204E-3,7.1321323E-4,3.394109E-3,6.47864E-3,9.881052E-3,1.2360444E-2,1.5166071E-2,1.9044233E-2,2.3285825E-2,2.7078802E-2,3.1581376E-2,3.7708905E-2,4.3300595E-2,4.9017545E-2,5.7118535E-2,6.965851E-2,1.10612586E-1,3.991619E-1,1.6805074E-1,4.5389906E-1,3.9559567E-1,1.6425546E-1],"split_indices":[1,1,1,1,1,1,9,8,1,1,1,1,0,7,5,9,1,1,1,1,1,1,4,0,0,17,12,8,0,15,1,1,1,1,1,1,1,1,1,1,1,1,1,0,0,12,3,0,0,17,0,0,0,0,0,0,0,0,0,0,0,0,0,0,0,0,0,0,0,0,0,0,0,0,0,0,0,0,0,0,0,0,0,0,0],"split_type":[0,0,0,0,0,0,0,0,0,0,0,0,0,0,0,0,0,0,0,0,0,0,0,0,0,0,0,0,0,0,0,0,0,0,0,0,0,0,0,0,0,0,0,0,0,0,0,0,0,0,0,0,0,0,0,0,0,0,0,0,0,0,0,0,0,0,0,0,0,0,0,0,0,0,0,0,0,0,0,0,0,0,0,0,0],"sum_hessian":[1.86262E5,1.83345E5,2.917E3,1.60137E5,2.3208E4,2.191E3,7.26E2,3.0105E4,1.30032E5,1.9615E4,3.593E3,1.451E3,7.4E2,5.98E2,1.28E2,5.55E2,2.955E4,8.1343E4,4.8689E4,1.3831E4,5.784E3,2.866E3,7.27E2,7.14E2,7.37E2,4.57E2,1.41E2,8.5E1,4.3E1,2.55E2,3E2,7.716E3,2.1834E4,2.9042E4,5.2301E4,2.6916E4,2.1773E4,8.025E3,5.806E3,2.904E3,2.88E3,1.428E3,1.438E3,4.22E2,3.05E2,3.32E2,1.25E2,4.6E1,9.5E1,4.2E1,4.3E1,2E0,2.53E2,2.16E2,8.4E1,1.214E3,6.502E3,8.013E3,1.3821E4,1.0904E4,1.8138E4,2.9103E4,2.3198E4,1.2318E4,1.4598E4,1.1621E4,1.0152E4,4.345E3,3.68E3,2.912E3,2.894E3,1.449E3,1.455E3,1.456E3,1.424E3,7.1E2,7.18E2,7.22E2,7.16E2,1E0,3.31E2,2E0,1.23E2,4E1,2E0],"tree_param":{"num_deleted":"0","num_feature":"31","num_nodes":"85","size_leaf_vector":"1"}},{"base_weights":[-4.6931356E-4,-6.693276E-2,4.2231836E0,-1.4828883E-1,4.725114E-1,3.1626172E0,7.3917074E0,-4.4314098E-1,-8.138893E-2,3.2768282E-1,1.1259918E0,2.7651153E0,1.9738881E-1,7.6224146E0,6.4595904E0,-1.8112241E0,-4.1691735E-1,-1.494536E-1,3.2372538E-2,2.4576056E-1,5.244493E-1,8.9935523E-1,1.5811483E0,1.2226973E-1,1.5376578E-1,7.838917E0,6.8530126E0,2.6521707E-1,7.001139E0,-9.298582E-1,-2.5382636E0,-5.837932E-1,-3.5600072E-1,-2.0619038E-1,-1.18974805E-1,-1.3940249E-2,8.6065054E-2,2.0092155E-1,3.074182E-1,4.6311945E-1,6.267256E-1,7.8587866E-1,1.0099081E0,6.6300645E-2,1.8316587E0,2.4948059E-1,7.8733764E0,3.6406037E-1,2.8323624E-1,3.0275607E-1,3.8863906E-1,-1.5176764E-1,-3.9189585E-2,-1.3256623E-1,-2.401101E-2,-3.819538E-2,-2.7485097E-2,-2.1118024E-2,-1.6054472E-2,-1.1977054E-2,-9.269425E-3,-7.0138685E-3,-4.6546147E-3,-2.0801334E-3,4.095324E-4,2.9986172E-3,5.885986E-3,9.033903E-3,1.1251383E-2,1.4123673E-2,1.7419156E-2,2.147933E-2,2.5707508E-2,2.9958835E-2,3.3991907E-2,3.756937E-2,4.1009326E-2,4.6579596E-2,5.4274745E-2,9.538724E-2,8.596315E-2,1.1336627E-1,3.9405435E-1],"categories":[],"categories_nodes":[],"categories_segments":[],"categories_sizes":[],"default_left":[0,0,0,0,0,0,0,0,0,0,0,0,0,0,0,0,0,0,0,0,0,0,0,0,0,0,0,0,0,0,0,0,0,0,0,0,0,0,0,0,0,0,0,0,0,0,0,0,0,0,0,0,0,0,0,0,0,0,0,0,0,0,0,0,0,0,0,0,0,0,0,0,0,0,0,0,0,0,0,0,0,0,0],"id":8,"left_children":[1,3,5,7,9,11,13,15,17,19,21,23,-1,25,27,29,31,33,35,37,39,41,43,-1,-1,45,47,-1,49,51,53,55,57,59,61,63,65,67,69,71,73,75,77,-1,79,-1,81,-1,-1,-1,-1,-1,-1,-1,-1,-1,-1,-1,-1,-1,-1,-1,-1,-1,-1,-1,-1,-1,-1,-1,-1,-1,-1,-1,-1,-1,-1,-1,-1,-1,-1,-1,-1],"loss_changes":[5.2294215E4,8.0490015E3,9.674824E3,3.1435713E3,2.2743677E3,6.6447266E2,1.0623828E2,1.056585E3,1.0058073E3,3.1703955E2,4.4833398E2,1.3529492E2,0E0,4.1898438E1,5.670703E1,3.526361E2,2.9376904E2,1.4051477E2,1.2091704E2,3.8350464E1,3.5984253E1,3.575049E1,9.011865E1,0E0,0E0,4.013672E0,2.6935059E1,0E0,2.5204102E1,7.512158E1,6.9230225E1,4.705713E1,4.8950684E1,1.9658325E1,2.9138672E1,1.5983505E1,1.8592651E1,3.8862E0,5.8775024E0,5.971924E0,2.760498E0,1.0900879E0,7.7025146E0,0E0,2.9458008E0,0E0,8.90625E-1,0E0,0E0,0E0,0E0,0E0,0E0,0E0,0E0,0E0,0E0,0E0,0E0,0E0,0E0,0E0,0E0,0E0,0E0,0E0,0E0,0E0,0E0,0E0,0E0,0E0,0E0,0E0,0E0,0E0,0E0,0E0,0E0,0E0,0E0,0E0,0E0],"parents":[2147483647,0,0,1,1,2,2,3,3,4,4,5,5,6,6,7,7,8,8,9,9,10,10,11,11,13,13,14,14,15,15,16,16,17,17,18,18,19,19,20,20,21,21,22,22,25,25,26,26,28,28,29,29,30,30,31,31,32,32,33,33,34,34,35,35,36,36,37,37,38,38,39,39,40,40,41,41,42,42,44,44,46,46],"right_children":[2,4,6,8,10,12,14,16,18,20,22,24,-1,26,28,30,32,34,36,38,40,42,44,-1,-1,46,48,-1,50,52,54,56,58,60,62,64,66,68,70,72,74,76,78,-1,80,-1,82,-1,-1,-1,-1,-1,-1,-1,-1,-1,-1,-1,-1,-1,-1,-1,-1,-1,-1,-1,-1,-1,-1,-1,-1,-1,-1,-1,-1,-1,-1,-1,-1,-1,-1,-1,-1],"split_conditions":[3.2564697E0,2.2191995E-1,7.3149023E0,-4.0087202E-1,1.0548685E0,5.140482E0,-7.915838E-2,-4.5482847E-1,-9.561785E-2,5.6216735E-1,1.7532775E0,4.178736E0,1.9738881E-1,1.7134634E0,1.3294071E0,1.6620165E0,-7.0203984E-1,-2.4378072E-1,4.705964E-2,3.6117724E-1,8.2365036E-1,1.2959815E0,2.2770145E0,1.2226973E-1,1.5376578E-1,-1.3553084E0,-4.866296E-3,2.6521707E-1,-1.1588868E0,-5.8088464E-1,-1.0709487E0,-9.943997E-1,-5.6529033E-1,-3.1827363E-1,-1.779237E-1,-3.177137E-2,1.2212016E-1,2.8795445E-1,4.6461043E-1,7.0612365E-1,9.635208E-1,1.1635832E0,1.496059E0,6.6300645E-2,-5.763049E-1,2.4948059E-1,-4.1821843E-1,3.6406037E-1,2.8323624E-1,3.0275607E-1,3.8863906E-1,-1.5176764E-1,-3.9189585E-2,-1.3256623E-1,-2.401101E-2,-3.819538E-2,-2.7485097E-2,-2.1118024E-2,-1.6054472E-2,-1.1977054E-2,-9.269425E-3,-7.0138685E-3,-4.6546147E-3,-2.0801334E-3,4.095324E-4,2.9986172E-3,5.885986E-3,9.033903E-3,1.1251383E-2,1.4123673E-2,1.7419156E-2,2.147933E-2,2.5707508E-2,2.9958835E-2,3.3991907E-2,3.756937E-2,4.1009326E-2,4.6579596E-2,5.4274745E-2,9.538724E-2,8.596315E-2,1.1336627E-1,3.9405435E-1],"split_indices":[1,1,1,1,1,1,8,8,1,1,1,1,0,7,8,7,1,1,1,1,1,1,1,0,0,19,17,0,5,4,1,1,1,1,1,1,1,1,1,1,1,1,1,0,4,0,15,0,0,0,0,0,0,0,0,0,0,0,0,0,0,0,0,0,0,0,0,0,0,0,0,0,0,0,0,0,0,0,0,0,0,0,0],"split_type":[0,0,0,0,0,0,0,0,0,0,0,0,0,0,0,0,0,0,0,0,0,0,0,0,0,0,0,0,0,0,0,0,0,0,0,0,0,0,0,0,0,0,0,0,0,0,0,0,0,0,0,0,0,0,0,0,0,0,0,0,0,0,0,0,0,0,0,0,0,0,0,0,0,0,0,0,0,0,0,0,0,0,0],"sum_hessian":[1.86285E5,1.834E5,2.885E3,1.59366E5,2.4034E4,2.163E3,7.22E2,2.9471E4,1.29895E5,1.9675E4,4.359E3,1.439E3,7.24E2,5.73E2,1.49E2,5.53E2,2.8918E4,8.127E4,4.8625E4,1.3893E4,5.782E3,2.912E3,1.447E3,7.13E2,7.26E2,4.4E2,1.33E2,5.1E1,9.8E1,2.51E2,3.02E2,7.731E3,2.1187E4,2.8399E4,5.2871E4,2.6107E4,2.2518E4,8.046E3,5.847E3,3.618E3,2.164E3,1.441E3,1.471E3,7.2E2,7.27E2,7E0,4.33E2,9.4E1,3.9E1,4.8E1,5E1,1.5E1,2.36E2,2.86E2,1.6E1,1.227E3,6.504E3,7.3E3,1.3887E4,1.0905E4,1.7494E4,2.8999E4,2.3872E4,1.1603E4,1.4504E4,1.2345E4,1.0173E4,4.378E3,3.668E3,3.639E3,2.208E3,2.189E3,1.429E3,1.433E3,7.31E2,7.3E2,7.11E2,7.29E2,7.42E2,4.24E2,3.03E2,1E0,4.32E2],"tree_param":{"num_deleted":"0","num_feature":"31","num_nodes":"83","size_leaf_vector":"1"}},{"base_weights":[3.3791125E-4,-6.318328E-2,4.015306E0,-1.3644919E-1,4.7883368E-1,3.016929E0,6.987126E0,-4.0884295E-1,-7.0548475E-2,3.4594524E-1,1.1443504E0,2.6317394E0,3.7582848E0,7.1886816E0,6.1543E0,-1.7177523E0,-3.8538077E-1,-1.3602522E-1,4.164422E-2,2.6246384E-1,5.591196E-1,9.918481E-1,1.7386147E0,1.1580577E-1,1.4610784E-1,1.8339509E-1,2.024631E-1,7.390732E0,6.505753E0,2.5281188E-1,6.6417885E0,-8.525685E-1,-2.3910227E0,-5.4410887E-1,-3.2597727E-1,-1.8353231E-1,-1.0454557E-1,6.1959977E-4,1.0092708E-1,2.1601737E-1,3.359507E-1,4.9062535E-1,6.497558E-1,8.342815E-1,1.1463591E0,8.309414E-2,9.193972E-2,8.848086E0,7.278107E0,1.9162886E-1,6.5961714E0,2.8235766E-1,7.3224454E0,-1.4234225E-1,-3.685727E-2,-1.2582842E-1,-2.1925427E-2,-3.2822143E-2,-2.4598785E-2,-1.857527E-2,-1.3863142E-2,-1.0786165E-2,-8.19868E-3,-6.122054E-3,-3.7749496E-3,-1.2777015E-3,1.2750764E-3,4.0233196E-3,7.089931E-3,9.640238E-3,1.2192317E-2,1.5229686E-2,1.8911757E-2,2.2728836E-2,2.634537E-2,3.0876055E-2,3.5669196E-2,3.9044667E-2,4.427455E-2,5.1574674E-2,6.290511E-2,4.88791E-1,2.71137E-1,1.4020865E-1,3.6464915E-1,2.8448707E-1,3.4789923E-1,9.39662E-2,3.693621E-1],"categories":[],"categories_nodes":[],"categories_segments":[],"categories_sizes":[],"default_left":[0,0,0,0,0,0,0,0,0,0,0,0,0,0,0,0,0,0,0,0,0,0,0,0,0,0,0,0,0,0,0,0,0,0,0,0,0,0,0,0,0,0,0,0,0,0,0,0,0,0,0,0,0,0,0,0,0,0,0,0,0,0,0,0,0,0,0,0,0,0,0,0,0,0,0,0,0,0,0,0,0,0,0,0,0,0,0,0,0],"id":9,"left_children":[1,3,5,7,9,11,13,15,17,19,21,23,25,27,29,31,33,35,37,39,41,43,45,-1,-1,-1,-1,47,49,-1,51,53,55,57,59,61,63,65,67,69,71,73,75,77,79,-1,-1,81,83,-1,85,-1,87,-1,-1,-1,-1,-1,-1,-1,-1,-1,-1,-1,-1,-1,-1,-1,-1,-1,-1,-1,-1,-1,-1,-1,-1,-1,-1,-1,-1,-1,-1,-1,-1,-1,-1,-1,-1],"loss_changes":[4.7520266E4,7.284161E3,8.589148E3,2.9005747E3,1.9312988E3,6.109199E2,7.812891E1,9.659927E2,9.55788E2,3.2388477E2,3.277041E2,1.2467676E2,4.635742E0,3.208789E1,4.617627E1,3.2066797E2,2.9140527E2,1.2285156E2,1.16617065E2,4.459259E1,3.1485107E1,6.952466E1,2.6401367E0,0E0,0E0,0E0,0E0,7.986328E0,8.799805E0,0E0,2.6349121E1,5.4066757E1,7.5131714E1,4.8987305E1,4.9810547E1,2.05802E1,2.5678406E1,1.8457088E1,1.6388474E1,5.1343994E0,6.6018677E0,3.5822144E0,4.0758667E0,3.2372437E0,1.7429077E1,0E0,0E0,3.2789062E1,7.1679688E0,0E0,4.6850586E0,0E0,5.86792E0,0E0,0E0,0E0,0E0,0E0,0E0,0E0,0E0,0E0,0E0,0E0,0E0,0E0,0E0,0E0,0E0,0E0,0E0,0E0,0E0,0E0,0E0,0E0,0E0,0E0,0E0,0E0,0E0,0E0,0E0,0E0,0E0,0E0,0E0,0E0,0E0],"parents":[2147483647,0,0,1,1,2,2,3,3,4,4,5,5,6,6,7,7,8,8,9,9,10,10,11,11,12,12,13,13,14,14,15,15,16,16,17,17,18,18,19,19,20,20,21,21,22,22,27,27,28,28,30,30,31,31,32,32,33,33,34,34,35,35,36,36,37,37,38,38,39,39,40,40,41,41,42,42,43,43,44,44,47,47,48,48,50,50,52,52],"right_children":[2,4,6,8,10,12,14,16,18,20,22,24,26,28,30,32,34,36,38,40,42,44,46,-1,-1,-1,-1,48,50,-1,52,54,56,58,60,62,64,66,68,70,72,74,76,78,80,-1,-1,82,84,-1,86,-1,88,-1,-1,-1,-1,-1,-1,-1,-1,-1,-1,-1,-1,-1,-1,-1,-1,-1,-1,-1,-1,-1,-1,-1,-1,-1,-1,-1,-1,-1,-1,-1,-1,-1,-1,-1,-1],"split_conditions":[3.2564697E0,2.549686E-1,7.3149023E0,-3.822467E-1,1.1635832E0,5.140482E0,-7.915838E-2,-4.5482847E-1,-8.1360005E-2,6.5230316E-1,2.2770145E0,4.178736E0,2.7032897E0,1.7134634E0,1.3294071E0,1.6620165E0,-6.8508226E-1,-2.2723114E-1,7.4389674E-2,4.1615328E-1,8.9139813E-1,1.496059E0,-5.3737855E-1,1.1580577E-1,1.4610784E-1,1.8339509E-1,2.024631E-1,-3.864111E-1,-1.9133525E-1,2.5281188E-1,-1.1588868E0,-5.8088464E-1,-1.0709487E0,-8.8185984E-1,-4.9496517E-1,-2.9774165E-1,-1.5549333E-1,-3.3823522E-3,1.699057E-1,3.2983372E-1,5.2501565E-1,7.63332E-1,1.0548685E0,1.2959815E0,1.7532775E0,8.309414E-2,9.193972E-2,-5.801269E-1,-1.6202896E0,1.9162886E-1,-4.4035506E-1,2.8235766E-1,-2.0698637E-1,-1.4234225E-1,-3.685727E-2,-1.2582842E-1,-2.1925427E-2,-3.2822143E-2,-2.4598785E-2,-1.857527E-2,-1.3863142E-2,-1.0786165E-2,-8.19868E-3,-6.122054E-3,-3.7749496E-3,-1.2777015E-3,1.2750764E-3,4.0233196E-3,7.089931E-3,9.640238E-3,1.2192317E-2,1.5229686E-2,1.8911757E-2,2.2728836E-2,2.634537E-2,3.0876055E-2,3.5669196E-2,3.9044667E-2,4.427455E-2,5.1574674E-2,6.290511E-2,4.88791E-1,2.71137E-1,1.4020865E-1,3.6464915E-1,2.8448707E-1,3.4789923E-1,9.39662E-2,3.693621E-1],"split_indices":[1,1,1,1,1,1,8,8,1,1,1,1,18,7,8,7,1,1,1,1,1,1,0,0,0,0,0,8,20,0,5,4,1,1,1,1,1,1,1,1,1,1,1,1,1,0,0,4,19,0,12,0,20,0,0,0,0,0,0,0,0,0,0,0,0,0,0,0,0,0,0,0,0,0,0,0,0,0,0,0,0,0,0,0,0,0,0,0,0],"split_type":[0,0,0,0,0,0,0,0,0,0,0,0,0,0,0,0,0,0,0,0,0,0,0,0,0,0,0,0,0,0,0,0,0,0,0,0,0,0,0,0,0,0,0,0,0,0,0,0,0,0,0,0,0,0,0,0,0,0,0,0,0,0,0,0,0,0,0,0,0,0,0,0,0,0,0,0,0,0,0,0,0,0,0,0,0,0,0,0,0],"sum_hessian":[1.86326E5,1.83425E5,2.901E3,1.61584E5,2.1841E4,2.173E3,7.28E2,3.1476E4,1.30108E5,1.8207E4,3.634E3,1.433E3,7.4E2,5.8E2,1.48E2,5.53E2,3.0923E4,8.2159E4,4.7949E4,1.3085E4,5.122E3,2.894E3,7.4E2,6.91E2,7.42E2,5.75E2,1.65E2,4.4E2,1.4E2,4.9E1,9.9E1,2.43E2,3.1E2,8.419E3,2.2504E4,3.2742E4,4.9417E4,2.8339E4,1.961E4,8.02E3,5.065E3,2.921E3,2.201E3,1.436E3,1.458E3,4.29E2,3.11E2,2.6E1,4.14E2,6E0,1.34E2,4.4E1,5.5E1,1.2E1,2.31E2,2.91E2,1.9E1,2.665E3,5.754E3,1.1629E4,1.0875E4,1.2371E4,2.0371E4,3.0576E4,1.8841E4,1.3811E4,1.4528E4,1.307E4,6.54E3,4.377E3,3.643E3,2.913E3,2.152E3,1.472E3,1.449E3,1.468E3,7.33E2,7.11E2,7.25E2,7.24E2,7.34E2,1.9E1,7E0,2E0,4.12E2,4.3E1,9.1E1,1E0,5.4E1],"tree_param":{"num_deleted":"0","num_feature":"31","num_nodes":"89","size_leaf_vector":"1"}},{"base_weights":[3.497368E-4,-6.007971E-2,3.8252702E0,-1.3086462E-1,4.4565946E-1,2.8575876E0,6.7458777E0,-4.0360478E-1,-7.186062E-2,3.220946E-1,1.0868423E0,2.496568E0,3.5697646E0,6.971005E0,5.5756516E0,-1.3080786E0,-3.7243643E-1,-1.3645607E-1,3.1419266E-2,2.3716007E-1,5.1341647E-1,9.407312E-1,1.6535017E0,1.10376514E-1,1.3865821E-1,1.8237375E-1,1.6453399E-1,7.581639E0,6.7735195E0,2.5050583E-1,6.103558E0,-2.7065232E0,-8.162718E-1,-4.855394E-1,-3.1386575E-1,-1.9064179E-1,-1.0970697E-1,-1.249437E-2,8.373881E-2,1.9690323E-1,3.0069214E-1,4.3210635E-1,5.943254E-1,7.9119897E-1,1.0877653E0,8.5241735E-2,7.5128734E-2,7.630406E0,1.4218323E-1,1.9526185E-1,6.8026958E0,4.541815E-1,5.7145967E0,-3.3813335E-2,-1.3601683E-1,-4.783576E-2,-3.6628436E-2,-2.8133173E-2,-2.1850398E-2,-1.769253E-2,-1.4123491E-2,-1.0953979E-2,-8.558465E-3,-6.494389E-3,-4.329783E-3,-1.8581342E-3,4.924878E-4,2.9880896E-3,5.9354356E-3,8.82868E-3,1.1055267E-2,1.3690765E-2,1.6798595E-2,2.0012015E-2,2.3174947E-2,2.7062148E-2,3.236087E-2,3.707492E-2,4.202783E-2,4.8926223E-2,5.975322E-2,3.8379917E-1,1.5255766E-1,2.4793828E-1,3.4270853E-1,2.2660454E-1,3.1929708E-1],"categories":[],"categories_nodes":[],"categories_segments":[],"categories_sizes":[],"default_left":[0,0,0,0,0,0,0,0,0,0,0,0,0,0,0,0,0,0,0,0,0,0,0,0,0,0,0,0,0,0,0,0,0,0,0,0,0,0,0,0,0,0,0,0,0,0,0,0,0,0,0,0,0,0,0,0,0,0,0,0,0,0,0,0,0,0,0,0,0,0,0,0,0,0,0,0,0,0,0,0,0,0,0,0,0,0,0],"id":10,"left_children":[1,3,5,7,9,11,13,15,17,19,21,23,25,27,29,31,33,35,37,39,41,43,45,-1,-1,-1,-1,47,49,-1,51,53,55,57,59,61,63,65,67,69,71,73,75,77,79,-1,-1,81,-1,-1,83,-1,85,-1,-1,-1,-1,-1,-1,-1,-1,-1,-1,-1,-1,-1,-1,-1,-1,-1,-1,-1,-1,-1,-1,-1,-1,-1,-1,-1,-1,-1,-1,-1,-1,-1,-1],"loss_changes":[4.2978457E4,6.5530464E3,8.1541523E3,2.5840984E3,1.7802915E3,5.500449E2,1.5055273E2,8.04647E2,8.807505E2,3.0610632E2,2.9907422E2,1.09481445E2,3.8085938E0,2.0878906E1,5.544922E0,6.51855E2,1.8275049E2,1.1770093E2,1.1671385E2,3.3325134E1,3.7853638E1,6.2657715E1,3.1949463E0,0E0,0E0,0E0,0E0,1.0187988E1,1.2095703E1,0E0,1.53203125E1,5.0874023E0,7.586792E0,3.5005127E1,2.2738892E1,1.4826294E1,2.535138E1,1.5223736E1,1.942958E1,3.8936768E0,4.7068787E0,2.708496E0,7.7946777E0,2.899414E0,1.5873657E1,0E0,0E0,4.963867E0,0E0,0E0,9.294922E0,0E0,1.3927368E1,0E0,0E0,0E0,0E0,0E0,0E0,0E0,0E0,0E0,0E0,0E0,0E0,0E0,0E0,0E0,0E0,0E0,0E0,0E0,0E0,0E0,0E0,0E0,0E0,0E0,0E0,0E0,0E0,0E0,0E0,0E0,0E0,0E0,0E0],"parents":[2147483647,0,0,1,1,2,2,3,3,4,4,5,5,6,6,7,7,8,8,9,9,10,10,11,11,12,12,13,13,14,14,15,15,16,16,17,17,18,18,19,19,20,20,21,21,22,22,27,27,28,28,30,30,31,31,32,32,33,33,34,34,35,35,36,36,37,37,38,38,39,39,40,40,41,41,42,42,43,43,44,44,47,47,50,50,52,52],"right_children":[2,4,6,8,10,12,14,16,18,20,22,24,26,28,30,32,34,36,38,40,42,44,46,-1,-1,-1,-1,48,50,-1,52,54,56,58,60,62,64,66,68,70,72,74,76,78,80,-1,-1,82,-1,-1,84,-1,86,-1,-1,-1,-1,-1,-1,-1,-1,-1,-1,-1,-1,-1,-1,-1,-1,-1,-1,-1,-1,-1,-1,-1,-1,-1,-1,-1,-1,-1,-1,-1,-1,-1,-1],"split_conditions":[3.2564697E0,2.4436134E-1,7.3149023E0,-4.0777475E-1,1.1635832E0,5.140482E0,-1.1283816E0,-1.0709487E0,-9.912575E-2,6.042886E-1,2.2770145E0,4.178736E0,-1.0477657E0,9.624319E-1,4.825719E-1,-1.1283816E0,-6.5387374E-1,-2.4959959E-1,5.0346993E-2,3.9664108E-1,8.2365036E-1,1.496059E0,-9.765875E-1,1.10376514E-1,1.3865821E-1,1.8237375E-1,1.6453399E-1,-5.801269E-1,-9.47527E-1,2.5050583E-1,-4.8165888E-1,-1.198347E0,-2.414817E-1,-8.1973124E-1,-5.233878E-1,-3.2290033E-1,-1.8308873E-1,-2.7585331E-2,1.3848113E-1,3.1565523E-1,4.9352974E-1,7.0612365E-1,9.635208E-1,1.2959815E0,1.7532775E0,8.5241735E-2,7.5128734E-2,2.064774E0,1.4218323E-1,1.9526185E-1,1.3947136E0,4.541815E-1,1.2192085E0,-3.3813335E-2,-1.3601683E-1,-4.783576E-2,-3.6628436E-2,-2.8133173E-2,-2.1850398E-2,-1.769253E-2,-1.4123491E-2,-1.0953979E-2,-8.558465E-3,-6.494389E-3,-4.329783E-3,-1.8581342E-3,4.924878E-4,2.9880896E-3,5.9354356E-3,8.82868E-3,1.1055267E-2,1.3690765E-2,1.6798595E-2,2.0012015E-2,2.3174947E-2,2.7062148E-2,3.236087E-2,3.707492E-2,4.202783E-2,4.8926223E-2,5.975322E-2,3.8379917E-1,1.5255766E-1,2.4793828E-1,3.4270853E-1,2.2660454E-1,3.1929708E-1],"split_indices":[1,1,1,1,1,1,9,1,1,1,1,1,9,18,7,9,1,1,1,1,1,1,9,0,0,0,0,10,20,0,3,15,9,1,1,1,1,1,1,1,1,1,1,1,1,0,0,17,0,0,18,0,3,0,0,0,0,0,0,0,0,0,0,0,0,0,0,0,0,0,0,0,0,0,0,0,0,0,0,0,0,0,0,0,0,0,0],"split_type":[0,0,0,0,0,0,0,0,0,0,0,0,0,0,0,0,0,0,0,0,0,0,0,0,0,0,0,0,0,0,0,0,0,0,0,0,0,0,0,0,0,0,0,0,0,0,0,0,0,0,0,0,0,0,0,0,0,0,0,0,0,0,0,0,0,0,0,0,0,0,0,0,0,0,0,0,0,0,0,0,0,0,0,0,0,0,0],"sum_hessian":[1.85941E5,1.8305E5,2.891E3,1.60576E5,2.2474E4,2.173E3,7.18E2,2.8559E4,1.32017E5,1.8844E4,3.63E3,1.445E3,7.28E2,5.98E2,1.2E2,9.5E2,2.7609E4,8.1219E4,5.0798E4,1.3052E4,5.792E3,2.888E3,7.42E2,7.11E2,7.34E2,5.6E2,1.68E2,1.37E2,4.61E2,6.3E1,5.7E1,2.46E2,7.04E2,9.417E3,1.8192E4,2.6841E4,5.4378E4,2.7618E4,2.318E4,7.992E3,5.06E3,2.892E3,2.9E3,1.435E3,1.453E3,5.46E2,1.96E2,1.35E2,2E0,6E0,4.55E2,4E0,5.3E1,2E0,2.44E2,2.59E2,4.45E2,3.633E3,5.784E3,7.997E3,1.0195E4,1.0905E4,1.5936E4,2.9027E4,2.5351E4,1.3126E4,1.4492E4,1.3753E4,9.427E3,4.348E3,3.644E3,2.877E3,2.183E3,1.442E3,1.45E3,1.453E3,1.447E3,7.23E2,7.12E2,7.25E2,7.28E2,1.33E2,2E0,1.5E1,4.4E2,2.2E1,3.1E1],"tree_param":{"num_deleted":"0","num_feature":"31","num_nodes":"87","size_leaf_vector":"1"}},{"base_weights":[4.3019807E-4,-5.726288E-2,3.6141577E0,-1.2685363E-1,4.069658E-1,2.7253594E0,6.3424506E0,-3.8796353E-1,-7.1532674E-2,2.8162825E-1,9.6960735E-1,2.376086E0,3.3916569E0,6.53797E0,5.2945333E0,-1.5412372E0,-3.6503267E-1,-1.3187526E-1,2.4182012E-2,2.1097705E-1,4.5005625E-1,7.725236E-1,1.3533494E0,1.0495063E-1,1.3170147E-1,3.4623501E0,1.5628132E-1,7.302923E0,6.319221E0,5.034612E0,7.1709533E0,-2.5768383E0,-7.0971054E-1,-5.015348E-1,-3.111209E-1,-1.8543163E-1,-1.0717756E-1,-1.7548999E-2,7.113865E-2,1.7259791E-1,2.637086E-1,3.9694884E-1,5.37249E-1,6.7481595E-1,8.658386E-1,5.6802846E-2,1.5676346E0,1.789747E-1,1.5815282E-1,7.353797E0,1.3744378E-1,6.507888E0,5.7215276E0,2.1592264E-1,2.841402E-1,2.0105529E-1,8.243238E0,-1.3437785E-2,-1.2975143E-1,-3.8875513E-2,-1.6736945E-2,-3.8272284E-2,-2.4136215E-2,-1.8376505E-2,-1.4139423E-2,-1.0537231E-2,-8.323861E-3,-6.2933937E-3,-4.2631193E-3,-1.9762877E-3,1.636595E-4,2.3776772E-3,4.9703005E-3,7.7708582E-3,9.655609E-3,1.2114103E-2,1.4933566E-2,1.8421862E-2,2.2026753E-2,2.5699696E-2,2.9178122E-2,3.2262694E-2,3.5236437E-2,3.997181E-2,4.648642E-2,7.4717365E-2,8.315728E-2,3.7007165E-1,1.474724E-1,2.817791E-1,3.3284134E-1,2.3935623E-1,3.0285046E-1,4.6154642E-1,1.7600562E-1],"categories":[],"categories_nodes":[],"categories_segments":[],"categories_sizes":[],"default_left":[0,0,0,0,0,0,0,0,0,0,0,0,0,0,0,0,0,0,0,0,0,0,0,0,0,0,0,0,0,0,0,0,0,0,0,0,0,0,0,0,0,0,0,0,0,0,0,0,0,0,0,0,0,0,0,0,0,0,0,0,0,0,0,0,0,0,0,0,0,0,0,0,0,0,0,0,0,0,0,0,0,0,0,0,0,0,0,0,0,0,0,0,0,0,0],"id":11,"left_children":[1,3,5,7,9,11,13,15,17,19,21,23,25,27,29,31,33,35,37,39,41,43,45,-1,-1,47,-1,49,51,53,55,57,59,61,63,65,67,69,71,73,75,77,79,81,83,-1,85,-1,-1,87,-1,89,91,-1,-1,-1,93,-1,-1,-1,-1,-1,-1,-1,-1,-1,-1,-1,-1,-1,-1,-1,-1,-1,-1,-1,-1,-1,-1,-1,-1,-1,-1,-1,-1,-1,-1,-1,-1,-1,-1,-1,-1,-1,-1],"loss_changes":[3.8754402E4,5.910859E3,7.0658516E3,2.2983208E3,1.6817725E3,5.0509082E2,1.1228906E2,7.350742E2,7.5832574E2,2.3204321E2,3.275642E2,9.8101074E1,3.3955078E0,5.425E1,2.1447998E1,4.6490356E2,2.0056982E2,1.0649609E2,9.948555E1,2.7771484E1,2.6477417E1,2.5610474E1,6.6805664E1,0E0,0E0,9.29248E0,0E0,9.208984E0,1.6214844E1,2.512915E1,7.383423E0,9.420776E0,7.41745E0,3.795984E1,3.1150757E1,1.2158386E1,2.2564453E1,1.2300983E1,1.5921799E1,2.7747955E0,4.2636414E0,4.2940674E0,2.046875E0,7.902832E-1,5.4761963E0,0E0,2.6875E0,0E0,0E0,4.395508E0,0E0,8.34668E0,9.248047E0,0E0,0E0,0E0,4.825989E0,0E0,0E0,0E0,0E0,0E0,0E0,0E0,0E0,0E0,0E0,0E0,0E0,0E0,0E0,0E0,0E0,0E0,0E0,0E0,0E0,0E0,0E0,0E0,0E0,0E0,0E0,0E0,0E0,0E0,0E0,0E0,0E0,0E0,0E0,0E0,0E0,0E0,0E0],"parents":[2147483647,0,0,1,1,2,2,3,3,4,4,5,5,6,6,7,7,8,8,9,9,10,10,11,11,12,12,13,13,14,14,15,15,16,16,17,17,18,18,19,19,20,20,21,21,22,22,25,25,27,27,28,28,29,29,30,30,31,31,32,32,33,33,34,34,35,35,36,36,37,37,38,38,39,39,40,40,41,41,42,42,43,43,44,44,46,46,49,49,51,51,52,52,56,56],"right_children":[2,4,6,8,10,12,14,16,18,20,22,24,26,28,30,32,34,36,38,40,42,44,46,-1,-1,48,-1,50,52,54,56,58,60,62,64,66,68,70,72,74,76,78,80,82,84,-1,86,-1,-1,88,-1,90,92,-1,-1,-1,94,-1,-1,-1,-1,-1,-1,-1,-1,-1,-1,-1,-1,-1,-1,-1,-1,-1,-1,-1,-1,-1,-1,-1,-1,-1,-1,-1,-1,-1,-1,-1,-1,-1,-1,-1,-1,-1,-1],"split_conditions":[3.2564697E0,2.2191995E-1,7.3149023E0,-4.1470414E-1,1.0548685E0,5.140482E0,-1.1283816E0,-4.5482847E-1,-1.0579375E-1,5.6216735E-1,1.7532775E0,4.178736E0,-1.0477657E0,4.0765285E-1,-4.672355E-1,-1.1283816E0,-7.0203984E-1,-2.5659522E-1,3.9593488E-2,3.6117724E-1,8.2365036E-1,1.2959815E0,2.2770145E0,1.0495063E-1,1.3170147E-1,1.3294071E0,1.5628132E-1,-5.8050054E-1,1.7134634E0,4.4461784E-1,-1.7298244E-2,-1.198347E0,-8.8185984E-1,-1.0709487E0,-5.7649636E-1,-3.280668E-1,-1.8672545E-1,-3.608256E-2,1.16993465E-1,2.8795445E-1,4.6461043E-1,7.0612365E-1,9.635208E-1,1.1635832E0,1.496059E0,5.6802846E-2,-5.3737855E-1,1.789747E-1,1.5815282E-1,1.4357531E0,1.3744378E-1,-1.193971E-1,-1.9310011E-1,2.1592264E-1,2.841402E-1,2.0105529E-1,-4.4868928E-1,-1.3437785E-2,-1.2975143E-1,-3.8875513E-2,-1.6736945E-2,-3.8272284E-2,-2.4136215E-2,-1.8376505E-2,-1.4139423E-2,-1.0537231E-2,-8.323861E-3,-6.2933937E-3,-4.2631193E-3,-1.9762877E-3,1.636595E-4,2.3776772E-3,4.9703005E-3,7.7708582E-3,9.655609E-3,1.2114103E-2,1.4933566E-2,1.8421862E-2,2.2026753E-2,2.5699696E-2,2.9178122E-2,3.2262694E-2,3.5236437E-2,3.997181E-2,4.648642E-2,7.4717365E-2,8.315728E-2,3.7007165E-1,1.474724E-1,2.817791E-1,3.3284134E-1,2.3935623E-1,3.0285046E-1,4.6154642E-1,1.7600562E-1],"split_indices":[1,1,1,1,1,1,9,8,1,1,1,1,9,18,0,9,1,1,1,1,1,1,1,0,0,8,0,4,7,3,7,15,1,1,1,1,1,1,1,1,1,1,1,1,1,0,0,0,0,5,0,20,8,0,0,0,3,0,0,0,0,0,0,0,0,0,0,0,0,0,0,0,0,0,0,0,0,0,0,0,0,0,0,0,0,0,0,0,0,0,0,0,0,0,0],"split_type":[0,0,0,0,0,0,0,0,0,0,0,0,0,0,0,0,0,0,0,0,0,0,0,0,0,0,0,0,0,0,0,0,0,0,0,0,0,0,0,0,0,0,0,0,0,0,0,0,0,0,0,0,0,0,0,0,0,0,0,0,0,0,0,0,0,0,0,0,0,0,0,0,0,0,0,0,0,0,0,0,0,0,0,0,0,0,0,0,0,0,0,0,0,0,0],"sum_hessian":[1.85882E5,1.82962E5,2.92E3,1.59111E5,2.3851E4,2.204E3,7.16E2,2.7816E4,1.31295E5,1.9507E4,4.344E3,1.449E3,7.55E2,5.99E2,1.17E2,5.41E2,2.7275E4,8.0527E4,5.0768E4,1.3744E4,5.763E3,2.872E3,1.472E3,7.03E2,7.46E2,5.87E2,1.68E2,1.26E2,4.73E2,1.06E2,1.1E1,2.4E2,3.01E2,7.72E3,1.9555E4,2.5413E4,5.5114E4,2.688E4,2.3888E4,7.957E3,5.787E3,3.585E3,2.178E3,1.407E3,1.465E3,7.34E2,7.38E2,4.14E2,1.73E2,1.24E2,2E0,3.52E2,1.21E2,5.4E1,5.2E1,4E0,7E0,2E0,2.38E2,2.54E2,4.7E1,5.11E2,7.209E3,6.534E3,1.3021E4,1.0877E4,1.4536E4,2.9743E4,2.5371E4,1.3077E4,1.3803E4,1.3024E4,1.0864E4,4.335E3,3.622E3,3.593E3,2.194E3,2.173E3,1.412E3,1.458E3,7.2E2,7.19E2,6.88E2,7.25E2,7.4E2,4.27E2,3.11E2,1.22E2,2E0,5.7E1,2.95E2,3.6E1,8.5E1,5E0,2E0],"tree_param":{"num_deleted":"0","num_feature":"31","num_nodes":"95","size_leaf_vector":"1"}},{"base_weights":[9.029713E-5,-5.419579E-2,3.433676E0,-1.21734284E-1,3.7769255E-1,2.5787628E0,6.0548296E0,-3.7347677E-1,-6.992486E-2,2.6251587E-1,9.187772E-1,2.2564478E0,3.2189767E0,6.2461076E0,5.221389E0,-1.5011209E0,-3.4971565E-1,-1.2685813E-1,2.043029E-2,1.9684915E-1,4.2766532E-1,7.3316246E-1,1.2868284E0,9.9541865E-2,1.255034E-1,3.134965E0,1.7438272E-1,7.960731E0,6.1535277E0,5.567346E0,1.9707125E-1,-7.510782E-1,-2.0858154E0,-5.081537E-1,-3.0829453E-1,-1.795792E-1,-1.0350854E-1,-1.879605E-2,6.441435E-2,1.6123763E-1,2.5048906E-1,3.7726718E-1,5.111974E-1,6.423519E-1,8.2228553E-1,5.3935673E-2,1.493178E0,1.6636975E-1,1.5197964E-1,8.867396E0,2.4061549E-1,6.322394E0,5.5606246E0,2.4552453E-1,6.057386E0,-1.2454044E-1,-3.2166075E-2,-1.09357946E-1,-2.012728E-2,-3.6258552E-2,-2.4305971E-2,-1.822158E-2,-1.36950975E-2,-1.0138129E-2,-8.065043E-3,-6.1768778E-3,-4.247189E-3,-1.9723808E-3,4.5225763E-5,2.0624427E-3,4.446188E-3,7.268055E-3,9.159767E-3,1.1198862E-2,1.3838062E-2,1.6794205E-2,2.0206882E-2,2.4460582E-2,2.7744396E-2,3.0708501E-2,3.3453442E-2,3.7942894E-2,4.4229265E-2,6.9312334E-2,7.787684E-2,4.5346838E-1,1.30798E-1,3.1953657E-1,2.3180552E-1,2.9399943E-1,2.2994903E-1,3.0958903E-1,1.3643555E-1],"categories":[],"categories_nodes":[],"categories_segments":[],"categories_sizes":[],"default_left":[0,0,0,0,0,0,0,0,0,0,0,0,0,0,0,0,0,0,0,0,0,0,0,0,0,0,0,0,0,0,0,0,0,0,0,0,0,0,0,0,0,0,0,0,0,0,0,0,0,0,0,0,0,0,0,0,0,0,0,0,0,0,0,0,0,0,0,0,0,0,0,0,0,0,0,0,0,0,0,0,0,0,0,0,0,0,0,0,0,0,0,0,0],"id":12,"left_children":[1,3,5,7,9,11,13,15,17,19,21,23,25,27,29,31,33,35,37,39,41,43,45,-1,-1,47,-1,49,51,53,-1,55,57,59,61,63,65,67,69,71,73,75,77,79,81,-1,83,-1,-1,85,-1,87,89,-1,91,-1,-1,-1,-1,-1,-1,-1,-1,-1,-1,-1,-1,-1,-1,-1,-1,-1,-1,-1,-1,-1,-1,-1,-1,-1,-1,-1,-1,-1,-1,-1,-1,-1,-1,-1,-1,-1,-1],"loss_changes":[3.4706176E4,5.3466816E3,6.4783984E3,2.0673748E3,1.5445552E3,4.440254E2,8.0890625E1,7.243633E2,6.762507E2,2.2157312E2,2.9622998E2,9.3220215E1,5.543457E0,4.213086E1,3.9607666E1,2.4314197E2,1.7373462E2,9.925537E1,8.767404E1,2.7898193E1,2.4283325E1,2.289392E1,6.0959473E1,0E0,0E0,2.7392578E-1,0E0,3.154602E1,1.9810547E1,4.6967773E0,0E0,4.4514633E1,5.2513794E1,2.5899536E1,4.0460205E1,1.0456116E1,2.077246E1,1.0928364E1,1.3597328E1,3.038742E0,4.001526E0,3.9007568E0,1.8273926E0,6.717529E-1,5.0861206E0,0E0,2.8579102E0,0E0,0E0,2.644043E-1,0E0,1.8771484E1,1.28828125E1,0E0,8.60376E0,0E0,0E0,0E0,0E0,0E0,0E0,0E0,0E0,0E0,0E0,0E0,0E0,0E0,0E0,0E0,0E0,0E0,0E0,0E0,0E0,0E0,0E0,0E0,0E0,0E0,0E0,0E0,0E0,0E0,0E0,0E0,0E0,0E0,0E0,0E0,0E0,0E0,0E0],"parents":[2147483647,0,0,1,1,2,2,3,3,4,4,5,5,6,6,7,7,8,8,9,9,10,10,11,11,12,12,13,13,14,14,15,15,16,16,17,17,18,18,19,19,20,20,21,21,22,22,25,25,27,27,28,28,29,29,31,31,32,32,33,33,34,34,35,35,36,36,37,37,38,38,39,39,40,40,41,41,42,42,43,43,44,44,46,46,49,49,51,51,52,52,54,54],"right_children":[2,4,6,8,10,12,14,16,18,20,22,24,26,28,30,32,34,36,38,40,42,44,46,-1,-1,48,-1,50,52,54,-1,56,58,60,62,64,66,68,70,72,74,76,78,80,82,-1,84,-1,-1,86,-1,88,90,-1,92,-1,-1,-1,-1,-1,-1,-1,-1,-1,-1,-1,-1,-1,-1,-1,-1,-1,-1,-1,-1,-1,-1,-1,-1,-1,-1,-1,-1,-1,-1,-1,-1,-1,-1,-1,-1,-1,-1],"split_conditions":[3.2564697E0,2.1167836E-1,7.3149023E0,-4.2200875E-1,1.0548685E0,5.140482E0,-1.2590935E-2,-4.5482847E-1,-1.09079234E-1,5.6216735E-1,1.7532775E0,4.178736E0,2.7032897E0,-3.864111E-1,1.617345E-1,1.6620165E0,-7.564776E-1,-2.615647E-1,3.563251E-2,3.6117724E-1,8.2365036E-1,1.2959815E0,2.2770145E0,9.9541865E-2,1.255034E-1,7.754509E-1,1.7438272E-1,-5.801269E-1,1.6620165E0,-1.1588868E0,1.9707125E-1,-5.8088464E-1,-1.0709487E0,-1.0709487E0,-5.890567E-1,-3.3323395E-1,-1.972087E-1,-4.040822E-2,1.07245974E-1,2.8795445E-1,4.3917426E-1,6.5230316E-1,9.635208E-1,1.1635832E0,1.496059E0,5.3935673E-2,-5.7746035E-1,1.6636975E-1,1.5197964E-1,6.230594E-1,2.4061549E-1,7.2658396E-1,-4.866296E-3,2.4552453E-1,8.070056E-2,-1.2454044E-1,-3.2166075E-2,-1.09357946E-1,-2.012728E-2,-3.6258552E-2,-2.4305971E-2,-1.822158E-2,-1.36950975E-2,-1.0138129E-2,-8.065043E-3,-6.1768778E-3,-4.247189E-3,-1.9723808E-3,4.5225763E-5,2.0624427E-3,4.446188E-3,7.268055E-3,9.159767E-3,1.1198862E-2,1.3838062E-2,1.6794205E-2,2.0206882E-2,2.4460582E-2,2.7744396E-2,3.0708501E-2,3.3453442E-2,3.7942894E-2,4.4229265E-2,6.9312334E-2,7.787684E-2,4.5346838E-1,1.30798E-1,3.1953657E-1,2.3180552E-1,2.9399943E-1,2.2994903E-1,3.0958903E-1,1.3643555E-1],"split_indices":[1,1,1,1,1,1,8,8,1,1,1,1,18,8,5,7,1,1,1,1,1,1,1,0,0,8,0,4,7,5,0,4,1,1,1,1,1,1,1,1,1,1,1,1,1,0,0,0,0,23,0,3,17,0,17,0,0,0,0,0,0,0,0,0,0,0,0,0,0,0,0,0,0,0,0,0,0,0,0,0,0,0,0,0,0,0,0,0,0,0,0,0,0],"split_type":[0,0,0,0,0,0,0,0,0,0,0,0,0,0,0,0,0,0,0,0,0,0,0,0,0,0,0,0,0,0,0,0,0,0,0,0,0,0,0,0,0,0,0,0,0,0,0,0,0,0,0,0,0,0,0,0,0,0,0,0,0,0,0,0,0,0,0,0,0,0,0,0,0,0,0,0,0,0,0,0,0,0,0,0,0,0,0,0,0,0,0,0,0],"sum_hessian":[1.86194E5,1.83297E5,2.897E3,1.5851E5,2.4787E4,2.186E3,7.11E2,2.7053E4,1.31457E5,2.0438E4,4.349E3,1.457E3,7.29E2,5.73E2,1.38E2,5.57E2,2.6496E4,8.0643E4,5.0814E4,1.4625E4,5.813E3,2.893E3,1.456E3,7.16E2,7.41E2,5.65E2,1.64E2,2.5E1,5.48E2,1.06E2,3.2E1,2.45E2,3.12E2,5.489E3,2.1007E4,2.4751E4,5.5892E4,2.686E4,2.3954E4,8.792E3,5.833E3,3.629E3,2.184E3,1.437E3,1.456E3,7.28E2,7.28E2,1.76E2,3.89E2,1.8E1,7E0,4.19E2,1.29E2,5E1,5.6E1,1.3E1,2.32E2,2.94E2,1.8E1,5.03E2,4.986E3,7.977E3,1.303E4,1.0907E4,1.3844E4,2.6883E4,2.9009E4,1.3113E4,1.3747E4,1.2316E4,1.1638E4,5.107E3,3.685E3,2.908E3,2.925E3,1.434E3,2.195E3,1.461E3,7.23E2,7.11E2,7.26E2,7.28E2,7.28E2,2.82E2,4.46E2,1.7E1,1E0,4E2,1.9E1,9.3E1,3.6E1,5.3E1,3E0],"tree_param":{"num_deleted":"0","num_feature":"31","num_nodes":"93","size_leaf_vector":"1"}},{"base_weights":[-2.2038267E-4,-5.147648E-2,3.273906E0,-1.1559395E-1,3.592917E-1,2.4528365E0,5.729113E0,-3.5043812E-1,-6.559267E-2,2.4916913E-1,8.739999E-1,2.1422555E0,3.0569537E0,5.833227E0,4.2235684E0,-1.4115174E0,-3.2923093E-1,-1.1841818E-1,2.1400247E-2,1.8687595E-1,4.0653226E-1,6.9620425E-1,1.2280117E0,1.8920902E0,1.190412E-1,1.4903758E-1,1.6521601E-1,6.541231E0,5.64833E0,1.9082783E-1,6.1785607E0,-2.3282003E0,-6.2988263E-1,-4.9735323E-1,-2.9302928E-1,-1.6287188E-1,-9.372177E-2,-1.5944932E-2,6.1157983E-2,1.533282E-1,2.3764843E-1,3.589221E-1,4.8540974E-1,6.1013025E-1,7.8044796E-1,5.138197E-2,1.4178461E0,9.851435E-2,9.0983786E-2,2.0124803E-1,6.6711116E0,5.8454003E0,5.23517E0,3.7702325E-1,1.6360085E-1,-1.0831773E-2,-1.1721778E-1,-3.4238733E-2,-1.26003865E-2,-3.454328E-2,-2.3713294E-2,-1.7477347E-2,-1.2875012E-2,-9.327141E-3,-7.1798377E-3,-5.3960118E-3,-3.5640057E-3,-1.7424651E-3,9.399555E-5,1.8915292E-3,4.1539893E-3,6.91081E-3,8.706738E-3,1.0923566E-2,1.3482109E-2,1.6625173E-2,1.9924667E-2,2.3224363E-2,2.633061E-2,2.9174915E-2,3.1770505E-2,3.6034223E-2,4.202687E-2,6.563334E-2,7.3888786E-2,3.3514306E-1,6.9149375E-2,2.954254E-1,2.0695229E-1,3.0207142E-1,2.487427E-1],"categories":[],"categories_nodes":[],"categories_segments":[],"categories_sizes":[],"default_left":[0,0,0,0,0,0,0,0,0,0,0,0,0,0,0,0,0,0,0,0,0,0,0,0,0,0,0,0,0,0,0,0,0,0,0,0,0,0,0,0,0,0,0,0,0,0,0,0,0,0,0,0,0,0,0,0,0,0,0,0,0,0,0,0,0,0,0,0,0,0,0,0,0,0,0,0,0,0,0,0,0,0,0,0,0,0,0,0,0,0,0],"id":13,"left_children":[1,3,5,7,9,11,13,15,17,19,21,23,25,27,29,31,33,35,37,39,41,43,45,47,-1,-1,-1,49,51,-1,53,55,57,59,61,63,65,67,69,71,73,75,77,79,81,-1,83,-1,-1,-1,85,87,89,-1,-1,-1,-1,-1,-1,-1,-1,-1,-1,-1,-1,-1,-1,-1,-1,-1,-1,-1,-1,-1,-1,-1,-1,-1,-1,-1,-1,-1,-1,-1,-1,-1,-1,-1,-1,-1,-1],"loss_changes":[3.118244E4,4.818366E3,5.7594707E3,1.8581819E3,1.3998591E3,3.964746E2,8.775195E1,6.246096E2,5.995656E2,1.993982E2,2.731306E2,8.036182E1,3.8549805E0,5.0498047E1,1.6204468E1,3.8831567E2,1.6561475E2,8.9103516E1,7.319073E1,2.479776E1,2.149414E1,2.0552368E1,5.384961E1,3.7280273E-1,0E0,0E0,0E0,1.6289062E1,1.3121094E1,0E0,3.036499E0,8.020142E0,5.946411E0,2.1224487E1,4.4913696E1,1.3200195E1,1.6621002E1,8.565441E0,1.2206535E1,2.737259E0,3.4990234E0,3.6331177E0,1.6252747E0,5.9802246E-1,4.6445312E0,0E0,2.749878E0,0E0,0E0,0E0,1.1548828E1,1.3771484E1,8.353027E0,0E0,0E0,0E0,0E0,0E0,0E0,0E0,0E0,0E0,0E0,0E0,0E0,0E0,0E0,0E0,0E0,0E0,0E0,0E0,0E0,0E0,0E0,0E0,0E0,0E0,0E0,0E0,0E0,0E0,0E0,0E0,0E0,0E0,0E0,0E0,0E0,0E0,0E0],"parents":[2147483647,0,0,1,1,2,2,3,3,4,4,5,5,6,6,7,7,8,8,9,9,10,10,11,11,12,12,13,13,14,14,15,15,16,16,17,17,18,18,19,19,20,20,21,21,22,22,23,23,27,27,28,28,30,30,31,31,32,32,33,33,34,34,35,35,36,36,37,37,38,38,39,39,40,40,41,41,42,42,43,43,44,44,46,46,50,50,51,51,52,52],"right_children":[2,4,6,8,10,12,14,16,18,20,22,24,26,28,30,32,34,36,38,40,42,44,46,48,-1,-1,-1,50,52,-1,54,56,58,60,62,64,66,68,70,72,74,76,78,80,82,-1,84,-1,-1,-1,86,88,90,-1,-1,-1,-1,-1,-1,-1,-1,-1,-1,-1,-1,-1,-1,-1,-1,-1,-1,-1,-1,-1,-1,-1,-1,-1,-1,-1,-1,-1,-1,-1,-1,-1,-1,-1,-1,-1,-1],"split_conditions":[3.2564697E0,2.1167836E-1,7.3149023E0,-4.1470414E-1,1.0548685E0,5.140482E0,-1.0910859E0,-4.5482847E-1,-1.0257043E-1,5.6216735E-1,1.7532775E0,4.178736E0,2.7032897E0,4.0765285E-1,-4.672355E-1,-1.1283816E0,-7.8607744E-1,-2.4572231E-1,3.563251E-2,3.6117724E-1,8.2365036E-1,1.2959815E0,2.2770145E0,-1.058179E0,1.190412E-1,1.4903758E-1,1.6521601E-1,-1.6172194E0,-3.3229533E-1,1.9082783E-1,-2.7571267E-1,-1.198347E0,-8.1973124E-1,-1.0709487E0,-5.890567E-1,-3.1400174E-1,-1.7225969E-1,-3.608256E-2,1.0268174E-1,2.8795445E-1,4.6461043E-1,7.0612365E-1,9.635208E-1,1.1635832E0,1.496059E0,5.138197E-2,-6.073233E-1,9.851435E-2,9.0983786E-2,2.0124803E-1,1.5703441E0,-1.1283816E0,-2.0230639E-1,3.7702325E-1,1.6360085E-1,-1.0831773E-2,-1.1721778E-1,-3.4238733E-2,-1.26003865E-2,-3.454328E-2,-2.3713294E-2,-1.7477347E-2,-1.2875012E-2,-9.327141E-3,-7.1798377E-3,-5.3960118E-3,-3.5640057E-3,-1.7424651E-3,9.399555E-5,1.8915292E-3,4.1539893E-3,6.91081E-3,8.706738E-3,1.0923566E-2,1.3482109E-2,1.6625173E-2,1.9924667E-2,2.3224363E-2,2.633061E-2,2.9174915E-2,3.1770505E-2,3.6034223E-2,4.202687E-2,6.563334E-2,7.3888786E-2,3.3514306E-1,6.9149375E-2,2.954254E-1,2.0695229E-1,3.0207142E-1,2.487427E-1],"split_indices":[1,1,1,1,1,1,9,8,1,1,1,1,18,18,0,9,1,1,1,1,1,1,1,9,0,0,0,17,7,0,12,15,1,1,1,1,1,1,1,1,1,1,1,1,1,0,0,0,0,0,5,9,17,0,0,0,0,0,0,0,0,0,0,0,0,0,0,0,0,0,0,0,0,0,0,0,0,0,0,0,0,0,0,0,0,0,0,0,0,0,0],"split_type":[0,0,0,0,0,0,0,0,0,0,0,0,0,0,0,0,0,0,0,0,0,0,0,0,0,0,0,0,0,0,0,0,0,0,0,0,0,0,0,0,0,0,0,0,0,0,0,0,0,0,0,0,0,0,0,0,0,0,0,0,0,0,0,0,0,0,0,0,0,0,0,0,0,0,0,0,0,0,0,0,0,0,0,0,0,0,0,0,0,0,0],"sum_hessian":[1.85808E5,1.82945E5,2.863E3,1.58245E5,2.47E4,2.147E3,7.16E2,2.7777E4,1.30468E5,2.0348E4,4.352E3,1.421E3,7.26E2,6.67E2,4.9E1,5.43E2,2.7234E4,8.1175E4,4.9293E4,1.4579E4,5.769E3,2.899E3,1.453E3,6.98E2,7.23E2,5.65E2,1.61E2,1.31E2,5.36E2,4.3E1,6E0,2.49E2,2.94E2,4.823E3,2.2411E4,2.8989E4,5.2186E4,2.5418E4,2.3875E4,8.781E3,5.798E3,3.601E3,2.168E3,1.438E3,1.461E3,7.1E2,7.43E2,3.23E2,3.75E2,8E0,1.23E2,3.54E2,1.82E2,3E0,3E0,2E0,2.47E2,2.56E2,3.8E1,5.11E2,4.312E3,8.647E3,1.3764E4,1.3007E4,1.5982E4,3.1961E4,2.0225E4,1.2335E4,1.3083E4,1.1568E4,1.2307E4,5.091E3,3.69E3,3.63E3,2.168E3,2.165E3,1.436E3,1.446E3,7.22E2,7.12E2,7.26E2,7.39E2,7.22E2,2.78E2,4.65E2,1.22E2,1E0,3.39E2,1.5E1,3.9E1,1.43E2],"tree_param":{"num_deleted":"0","num_feature":"31","num_nodes":"91","size_leaf_vector":"1"}},{"base_weights":[4.0465375E-4,9.601714E-1,-5.6325324E-2,3.0703428E-1,2.3712995E0,1.3806288E-1,-8.2683176E-2,-7.3680365E-1,3.6616167E-1,2.5756714E0,2.9044273E-1,-4.025186E-2,4.17731E-1,-4.328166E-2,-1.7400126E-1,1.2599779E0,-1.705134E0,1.7461444E-1,1.1564713E0,3.5232043E0,2.254299E0,6.005337E-1,-8.160411E-1,-1.5322024E-2,-1.786199E-1,6.2884396E-1,3.0216137E-1,-7.752788E-3,-8.685741E-2,-3.624982E-1,-1.288139E-1,1.5444319E0,-1.0828426E-1,-1.793185E0,4.312388E0,1.0150901E-1,3.946684E-1,2.434586E0,8.410028E-1,3.863573E0,2.2657968E-2,9.980805E-2,2.369943E0,1.5050728E0,3.487343E-1,-9.9722797E-1,2.6949793E-1,1.05566636E-1,-3.4217693E-2,-1.0123033E-1,-3.8136512E-1,1.370913E0,5.5025184E-1,4.5607024E-1,1.640599E-1,1.0358433E-2,-8.184137E-2,-2.6817155E-1,-7.710347E-2,-3.1840387E-1,-4.651263E-1,-1.0233262E-1,-1.9310036E-1,3.8780275E-1,6.5544195E-2,-1.07480705E-1,-4.500065E-3,2.9483235E-1,-1.10097E-2,2.2906259E-2,3.100443E-3,1.5990378E-2,2.7778137E-2,1.8088858E-1,2.4291206E-2,8.544243E-3,5.3307146E-2,-1.20737525E-2,2.10302E-1,-4.889085E-3,2.0230289E-1,5.760668E-2,3.066693E-3,1.0340734E-1,1.4542347E-1,1.10295944E-1,5.0218176E-2,1.64963E-4,2.5929665E-2,-8.5689604E-2,2.4101979E-3,8.515845E-3,-4.45741E-3,-3.275549E-3,7.0199877E-4,-5.8904523E-3,7.524232E-3,-1.9801956E-2,-1.6392125E-2,3.1377014E-2,8.409437E-2,2.9566793E-2,-3.9689103E-3,2.5941763E-2,-1.644744E-3,9.241439E-3,-2.195543E-2,9.993588E-4,-4.2151655E-3,-1.3901553E-2,-3.3754625E-3,-1.7877914E-2,-1.1034673E-2,-2.9373188E-3,-8.040441E-3,-1.3832757E-2,-1.7899498E-2,-2.60032E-2,-2.077591E-2,-1.1878059E-2,-4.5778765E-3,-1.2265417E-2,-7.2264946E-3],"categories":[],"categories_nodes":[],"categories_segments":[],"categories_sizes":[],"default_left":[0,1,0,0,0,0,0,0,0,0,0,0,0,0,0,0,0,0,0,0,0,0,0,0,0,0,0,0,0,0,0,0,0,0,0,0,0,0,0,0,0,0,0,0,0,0,0,0,0,0,0,0,0,0,0,0,0,0,0,0,0,0,0,0,0,0,0,0,0,0,0,0,0,0,0,0,0,0,0,0,0,0,0,0,0,0,0,0,0,0,0,0,0,0,0,0,0,0,0,0,0,0,0,0,0,0,0,0,0,0,0,0,0,0,0,0,0,0,0,0,0,0,0],"id":14,"left_children":[1,3,5,7,9,11,13,15,17,19,21,23,25,27,29,31,33,35,37,39,41,43,45,47,49,51,53,55,57,59,61,63,-1,65,67,69,71,73,75,77,79,81,83,85,87,89,-1,91,93,95,97,99,101,103,105,107,109,111,113,115,117,119,121,-1,-1,-1,-1,-1,-1,-1,-1,-1,-1,-1,-1,-1,-1,-1,-1,-1,-1,-1,-1,-1,-1,-1,-1,-1,-1,-1,-1,-1,-1,-1,-1,-1,-1,-1,-1,-1,-1,-1,-1,-1,-1,-1,-1,-1,-1,-1,-1,-1,-1,-1,-1,-1,-1,-1,-1,-1,-1,-1,-1],"loss_changes":[1.013258E4,9.571635E3,9.002991E2,4.3853937E2,1.3966855E3,1.0463171E3,5.567291E2,7.388288E2,1.0172337E3,9.031543E2,1.017077E2,4.4195614E1,1.9911926E2,1.6735014E2,3.9720947E2,1.2515016E2,1.4390411E2,8.700748E1,5.2655396E2,9.0066895E2,5.571201E2,5.208824E1,7.8463974E1,2.480624E1,3.0651749E1,1.677345E2,1.12173065E2,7.990174E1,8.583951E1,4.0661255E1,6.4027466E1,1.5811533E2,0E0,1.5400073E2,3.0021538E1,5.720461E1,1.6070602E1,5.954308E2,1.5868439E2,9.696416E2,3.3346863E1,4.5853844E0,3.3902637E2,1.5330467E1,1.0677185E1,4.802622E1,0E0,1.852348E1,1.4182655E1,5.9310255E0,2.9427338E-1,6.2747375E1,6.766528E1,7.664978E1,3.496924E1,4.3615704E1,3.2871025E1,1.04375E1,7.078418E1,1.0330933E1,7.1641846E0,3.8807068E1,2.7794586E1,0E0,0E0,0E0,0E0,0E0,0E0,0E0,0E0,0E0,0E0,0E0,0E0,0E0,0E0,0E0,0E0,0E0,0E0,0E0,0E0,0E0,0E0,0E0,0E0,0E0,0E0,0E0,0E0,0E0,0E0,0E0,0E0,0E0,0E0,0E0,0E0,0E0,0E0,0E0,0E0,0E0,0E0,0E0,0E0,0E0,0E0,0E0,0E0,0E0,0E0,0E0,0E0,0E0,0E0,0E0,0E0,0E0,0E0,0E0,0E0],"parents":[2147483647,0,0,1,1,2,2,3,3,4,4,5,5,6,6,7,7,8,8,9,9,10,10,11,11,12,12,13,13,14,14,15,15,16,16,17,17,18,18,19,19,20,20,21,21,22,22,23,23,24,24,25,25,26,26,27,27,28,28,29,29,30,30,31,31,33,33,34,34,35,35,36,36,37,37,38,38,39,39,40,40,41,41,42,42,43,43,44,44,45,45,47,47,48,48,49,49,50,50,51,51,52,52,53,53,54,54,55,55,56,56,57,57,58,58,59,59,60,60,61,61,62,62],"right_children":[2,4,6,8,10,12,14,16,18,20,22,24,26,28,30,32,34,36,38,40,42,44,46,48,50,52,54,56,58,60,62,64,-1,66,68,70,72,74,76,78,80,82,84,86,88,90,-1,92,94,96,98,100,102,104,106,108,110,112,114,116,118,120,122,-1,-1,-1,-1,-1,-1,-1,-1,-1,-1,-1,-1,-1,-1,-1,-1,-1,-1,-1,-1,-1,-1,-1,-1,-1,-1,-1,-1,-1,-1,-1,-1,-1,-1,-1,-1,-1,-1,-1,-1,-1,-1,-1,-1,-1,-1,-1,-1,-1,-1,-1,-1,-1,-1,-1,-1,-1,-1,-1,-1],"split_conditions":[-1.0184419E0,6.8558735E-1,-8.213838E-1,-4.5482847E-1,-5.763049E-1,2.2526195E0,7.075596E-1,-5.8178884E-1,1.3261425E1,-1.1698178E0,1.6620165E0,4.3529567E-1,-5.747106E-1,1.0224924E-1,-3.4807086E-1,4.3324377E-2,-4.4281352E-2,2.625277E0,-6.6564363E-1,1.01293795E-1,1E0,-4.5482847E-1,6.63092E0,-1.4386459E-1,-5.367372E-1,-1.0021818E0,-5.697356E-1,1.3292975E-3,-9.3222755E-1,2.6381762E0,1.2898073E-1,-5.8088464E-1,-1.0828426E-1,-1.1283816E0,-5.0757788E-2,-1.7838118E0,3.805584E0,-5.6332536E-2,-1.1698178E0,-2.8949288E-1,8.2749814E-1,-1.6387244E-1,1.9914846E0,-1.7118224E0,1E0,-1.1283816E0,2.6949793E-1,-2.8183287E-1,7.4701196E-1,2.4588969E0,8.5339665E-1,6.4885926E-1,1.8561414E0,-5.6179917E-1,1.6092066E0,7.196869E-1,-1.3205026E0,-1.3205026E0,1.9317953E-1,1.2771603E0,3.8998733E0,-1.1588868E0,7.196869E-1,3.8780275E-1,6.5544195E-2,-1.07480705E-1,-4.500065E-3,2.9483235E-1,-1.10097E-2,2.2906259E-2,3.100443E-3,1.5990378E-2,2.7778137E-2,1.8088858E-1,2.4291206E-2,8.544243E-3,5.3307146E-2,-1.20737525E-2,2.10302E-1,-4.889085E-3,2.0230289E-1,5.760668E-2,3.066693E-3,1.0340734E-1,1.4542347E-1,1.10295944E-1,5.0218176E-2,1.64963E-4,2.5929665E-2,-8.5689604E-2,2.4101979E-3,8.515845E-3,-4.45741E-3,-3.275549E-3,7.0199877E-4,-5.8904523E-3,7.524232E-3,-1.9801956E-2,-1.6392125E-2,3.1377014E-2,8.409437E-2,2.9566793E-2,-3.9689103E-3,2.5941763E-2,-1.644744E-3,9.241439E-3,-2.195543E-2,9.993588E-4,-4.2151655E-3,-1.3901553E-2,-3.3754625E-3,-1.7877914E-2,-1.1034673E-2,-2.9373188E-3,-8.040441E-3,-1.3832757E-2,-1.7899498E-2,-2.60032E-2,-2.077591E-2,-1.1878059E-2,-4.5778765E-3,-1.2265417E-2,-7.2264946E-3],"split_indices":[9,18,9,8,4,15,7,7,15,9,7,8,4,7,8,17,17,15,4,17,27,8,19,8,4,9,0,8,5,0,0,4,0,9,2,17,15,17,9,17,3,8,18,5,27,9,0,7,15,18,15,5,18,4,7,11,5,5,4,0,4,5,11,0,0,0,0,0,0,0,0,0,0,0,0,0,0,0,0,0,0,0,0,0,0,0,0,0,0,0,0,0,0,0,0,0,0,0,0,0,0,0,0,0,0,0,0,0,0,0,0,0,0,0,0,0,0,0,0,0,0,0,0],"split_type":[0,0,0,0,0,0,0,0,0,0,0,0,0,0,0,0,0,0,0,0,0,0,0,0,0,0,0,0,0,0,0,0,0,0,0,0,0,0,0,0,0,0,0,0,0,0,0,0,0,0,0,0,0,0,0,0,0,0,0,0,0,0,0,0,0,0,0,0,0,0,0,0,0,0,0,0,0,0,0,0,0,0,0,0,0,0,0,0,0,0,0,0,0,0,0,0,0,0,0,0,0,0,0,0,0,0,0,0,0,0,0,0,0,0,0,0,0,0,0,0,0,0,0],"sum_hessian":[1.86096E5,1.0385E4,1.75711E5,7.1E3,3.285E3,2.098E4,1.54731E5,3.8E2,6.72E3,2.991E3,2.94E2,1.2812E4,8.168E3,1.08093E5,4.6638E4,1.24E2,2.56E2,5.41E3,1.31E3,7.55E2,2.236E3,2.3E2,6.4E1,1.0857E4,1.955E3,2.888E3,5.28E3,5.9545E4,4.8548E4,9.017E3,3.7621E4,1.15E2,9E0,2.53E2,3E0,4.062E3,1.348E3,2.58E2,1.052E3,6.88E2,6.7E1,1.14E2,2.122E3,4.9E1,1.81E2,6.3E1,1E0,1.467E3,9.39E3,1.416E3,5.39E2,2.75E2,2.613E3,2.496E3,2.784E3,4.7849E4,1.1696E4,2.477E3,4.6071E4,6.31E3,2.707E3,2.6647E4,1.0974E4,3E0,1.12E2,2.09E2,4.4E1,2E0,1E0,4.04E2,3.658E3,9.22E2,4.26E2,1.6E2,9.8E1,2.65E2,7.87E2,5.3E1,6.35E2,6.6E1,1E0,3E0,1.11E2,1.363E3,7.59E2,1.9E1,3E1,6E1,1.21E2,3.7E1,2.6E1,1.101E3,3.66E2,5.696E3,3.694E3,1.329E3,8.7E1,4.18E2,1.21E2,8.2E1,1.93E2,2.453E3,1.6E2,2.212E3,2.84E2,2.692E3,9.2E1,4.3432E4,4.417E3,7.95E2,1.0901E4,8.57E2,1.62E3,3.7786E4,8.285E3,3.075E3,3.235E3,1.28E3,1.427E3,1.965E3,2.4682E4,5.287E3,5.687E3],"tree_param":{"num_deleted":"0","num_feature":"31","num_nodes":"123","size_leaf_vector":"1"}},{"base_weights":[-1.3986843E-4,-4.6926502E-2,2.9597728E0,-1.07926026E-1,3.189979E-1,2.2118428E0,5.2476654E0,-3.292181E-1,-6.313188E-2,2.2362088E-1,7.9563516E-1,1.9266262E0,2.776519E0,7.0275884E0,5.1727734E0,-1.2961948E0,-3.086298E-1,-1.125272E-1,1.4363623E-2,1.6972367E-1,3.7181598E-1,6.344306E-1,1.1180514E0,8.497429E-2,1.0728025E-1,1.4842641E-1,2.6896815E0,4.7174225E0,4.2036077E-1,5.9273357E0,5.0157623E0,-6.6632426E-1,-1.7983253E0,-4.1678536E-1,-2.62497E-1,-1.6144767E-1,-9.23718E-2,-2.0527115E-2,5.1271133E-2,1.3677956E-1,2.1759847E-1,3.2894093E-1,4.4313017E-1,5.5508417E-1,7.128003E-1,9.4121903E-1,1.2878672E0,2.7832344E0,1.23063795E-1,2.5979656E-1,1.2307117E-1,2.9868743E-1,1.1171388E-1,5.117285E0,3.894322E0,-1.11551896E-1,-2.8114265E-2,-9.419354E-2,-1.6246894E-2,-2.7530033E-2,-1.9572303E-2,-1.4971404E-2,-1.1902584E-2,-8.939288E-3,-7.2038188E-3,-5.520416E-3,-3.803638E-3,-1.8036055E-3,-1.5152684E-4,1.5933585E-3,3.6599722E-3,6.0823504E-3,7.722107E-3,9.809005E-3,1.2213252E-2,1.4650981E-2,1.7625175E-2,2.1004312E-2,2.4101317E-2,2.659587E-2,2.8891727E-2,3.2893702E-2,3.8304325E-2,4.457138E-2,4.840794E-2,6.196295E-2,6.743333E-2,1.4585665E-1,1.3076174E-1,2.9017022E-1,2.4885915E-1,2.7712607E-1,1.710227E-1],"categories":[],"categories_nodes":[],"categories_segments":[],"categories_sizes":[],"default_left":[0,0,0,0,0,0,0,0,0,0,0,0,0,0,0,0,0,0,0,0,0,0,0,0,0,0,0,0,0,0,0,0,0,0,0,0,0,0,0,0,0,0,0,0,0,0,0,0,0,0,0,0,0,0,0,0,0,0,0,0,0,0,0,0,0,0,0,0,0,0,0,0,0,0,0,0,0,0,0,0,0,0,0,0,0,0,0,0,0,0,0,0,0],"id":15,"left_children":[1,3,5,7,9,11,13,15,17,19,21,23,25,27,29,31,33,35,37,39,41,43,45,-1,-1,-1,47,49,-1,51,53,55,57,59,61,63,65,67,69,71,73,75,77,79,81,83,85,87,-1,-1,-1,-1,-1,89,91,-1,-1,-1,-1,-1,-1,-1,-1,-1,-1,-1,-1,-1,-1,-1,-1,-1,-1,-1,-1,-1,-1,-1,-1,-1,-1,-1,-1,-1,-1,-1,-1,-1,-1,-1,-1,-1,-1],"loss_changes":[2.5782049E4,4.0909775E3,4.9456914E3,1.5571478E3,1.1902891E3,3.4655566E2,5.8691406E1,5.2607715E2,5.0010333E2,1.7423572E2,2.2621338E2,6.872412E1,4.2041016E0,4.3205933E1,5.1779297E1,1.7307043E2,1.29094E2,7.865802E1,6.549244E1,2.5211609E1,1.7646423E1,1.7718384E1,4.244995E1,0E0,0E0,0E0,4.1328125E0,1.647644E-1,0E0,6.0219727E0,4.565039E1,3.8792137E1,3.7956604E1,2.603247E1,1.631897E1,6.98584E0,1.660431E1,7.1106453E0,1.0513802E1,2.5158234E0,3.6771545E0,2.9759216E0,1.7532654E0,4.5794678E-1,3.7750244E0,9.741211E-2,5.1257324E-1,4.0161133E-1,0E0,0E0,0E0,0E0,0E0,2.1582031E1,2.1655579E1,0E0,0E0,0E0,0E0,0E0,0E0,0E0,0E0,0E0,0E0,0E0,0E0,0E0,0E0,0E0,0E0,0E0,0E0,0E0,0E0,0E0,0E0,0E0,0E0,0E0,0E0,0E0,0E0,0E0,0E0,0E0,0E0,0E0,0E0,0E0,0E0,0E0,0E0],"parents":[2147483647,0,0,1,1,2,2,3,3,4,4,5,5,6,6,7,7,8,8,9,9,10,10,11,11,12,12,13,13,14,14,15,15,16,16,17,17,18,18,19,19,20,20,21,21,22,22,26,26,27,27,29,29,30,30,31,31,32,32,33,33,34,34,35,35,36,36,37,37,38,38,39,39,40,40,41,41,42,42,43,43,44,44,45,45,46,46,47,47,53,53,54,54],"right_children":[2,4,6,8,10,12,14,16,18,20,22,24,26,28,30,32,34,36,38,40,42,44,46,-1,-1,-1,48,50,-1,52,54,56,58,60,62,64,66,68,70,72,74,76,78,80,82,84,86,88,-1,-1,-1,-1,-1,90,92,-1,-1,-1,-1,-1,-1,-1,-1,-1,-1,-1,-1,-1,-1,-1,-1,-1,-1,-1,-1,-1,-1,-1,-1,-1,-1,-1,-1,-1,-1,-1,-1,-1,-1,-1,-1,-1,-1],"split_conditions":[3.2564697E0,1.9300745E-1,7.3149023E0,-4.2947948E-1,1.0548685E0,5.140482E0,-3.864111E-1,-4.5482847E-1,-1.1546507E-1,5.6216735E-1,1.7532775E0,4.178736E0,7.754509E-1,-1.3149332E0,-1.5386046E-1,1.6620165E0,-7.0203984E-1,-2.7002686E-1,2.403948E-2,3.4551114E-1,8.2365036E-1,1.2959815E0,2.2770145E0,8.497429E-2,1.0728025E-1,1.4842641E-1,-5.8050054E-1,-1.0622343E-1,4.2036077E-1,-5.753322E-1,3.1161904E-1,-5.8088464E-1,-1.0709487E0,-9.943997E-1,-5.6529033E-1,-3.3323395E-1,-2.0209636E-1,-4.4874694E-2,9.7952686E-2,2.6538214E-1,4.3917426E-1,6.5230316E-1,-5.6179917E-1,1.1635832E0,1.496059E0,-6.0752165E-1,-5.3737855E-1,-6.073233E-1,1.23063795E-1,2.5979656E-1,1.2307117E-1,2.9868743E-1,1.1171388E-1,-2.0230639E-1,2.0663E0,-1.11551896E-1,-2.8114265E-2,-9.419354E-2,-1.6246894E-2,-2.7530033E-2,-1.9572303E-2,-1.4971404E-2,-1.1902584E-2,-8.939288E-3,-7.2038188E-3,-5.520416E-3,-3.803638E-3,-1.8036055E-3,-1.5152684E-4,1.5933585E-3,3.6599722E-3,6.0823504E-3,7.722107E-3,9.809005E-3,1.2213252E-2,1.4650981E-2,1.7625175E-2,2.1004312E-2,2.4101317E-2,2.659587E-2,2.8891727E-2,3.2893702E-2,3.8304325E-2,4.457138E-2,4.840794E-2,6.196295E-2,6.743333E-2,1.4585665E-1,1.3076174E-1,2.9017022E-1,2.4885915E-1,2.7712607E-1,1.710227E-1],"split_indices":[1,1,1,1,1,1,8,8,1,1,1,1,8,17,18,7,1,1,1,1,1,1,1,0,0,0,4,14,0,4,5,4,1,1,1,1,1,1,1,1,1,1,4,1,1,0,0,0,0,0,0,0,0,17,18,0,0,0,0,0,0,0,0,0,0,0,0,0,0,0,0,0,0,0,0,0,0,0,0,0,0,0,0,0,0,0,0,0,0,0,0,0,0],"split_type":[0,0,0,0,0,0,0,0,0,0,0,0,0,0,0,0,0,0,0,0,0,0,0,0,0,0,0,0,0,0,0,0,0,0,0,0,0,0,0,0,0,0,0,0,0,0,0,0,0,0,0,0,0,0,0,0,0,0,0,0,0,0,0,0,0,0,0,0,0,0,0,0,0,0,0,0,0,0,0,0,0,0,0,0,0,0,0,0,0,0,0,0,0],"sum_hessian":[1.86171E5,1.83275E5,2.896E3,1.57089E5,2.6186E4,2.184E3,7.12E2,2.6444E4,1.30645E5,2.1821E4,4.365E3,1.454E3,7.3E2,2.5E1,6.87E2,5.5E2,2.5894E4,7.9788E4,5.0857E4,1.6003E4,5.818E3,2.912E3,1.453E3,7.18E2,7.36E2,2.17E2,5.13E2,1.1E1,1.4E1,1.12E2,5.75E2,2.45E2,3.05E2,7.74E3,1.8154E4,2.3279E4,5.6509E4,2.6143E4,2.4714E4,9.482E3,6.521E3,3.637E3,2.181E3,1.451E3,1.461E3,7.15E2,7.38E2,3.56E2,1.57E2,8E0,3E0,1.1E2,2E0,5.24E2,5.1E1,1.4E1,2.31E2,2.88E2,1.7E1,1.229E3,6.511E3,7.226E3,1.0928E4,1.1646E4,1.1633E4,2.6822E4,2.9687E4,1.3843E4,1.23E4,1.3113E4,1.1601E4,5.111E3,4.371E3,3.621E3,2.9E3,1.446E3,2.191E3,1.377E3,8.04E2,7.31E2,7.2E2,7.26E2,7.35E2,2.63E2,4.52E2,4.22E2,3.16E2,1.89E2,1.67E2,8.2E1,4.42E2,9E0,4.2E1],"tree_param":{"num_deleted":"0","num_feature":"31","num_nodes":"93","size_leaf_vector":"1"}},{"base_weights":[5.430341E-4,-4.445107E-2,2.827824E0,-1.0142449E-1,3.0925855E-1,2.103206E0,5.0017753E0,-2.9915693E-1,-5.629145E-2,2.1611917E-1,7.58408E-1,1.8353072E0,2.6281528E0,5.167542E0,4.1766324E0,-1.2340004E0,-2.8147244E-1,-1.02957144E-1,1.6599754E-2,1.6405001E-1,3.5353428E-1,6.026068E-1,1.0612929E0,1.616331E0,1.0216184E-1,2.5634437E0,2.8402984E0,5.767883E0,4.999738E0,3.9905863E0,5.954313E0,-2.0371404E0,-5.4412925E-1,-3.961316E-1,-2.4004102E-1,-1.3773908E-1,-8.073634E-2,-1.6078873E-2,5.236861E-2,1.3516931E-1,2.1107039E-1,3.1238052E-1,4.209101E-1,5.2779335E-1,6.762306E-1,8.9522886E-1,1.218935E0,8.6572416E-2,7.866173E-2,1.3615112E-1,1.2442893E-1,1.4768104E-1,1.2155276E-1,5.79508E0,5.9885215E-2,5.81722E0,4.8476024E0,4.4401636E0,1.6974428E-1,3.99088E-1,1.6361944E-1,-1.8398286E-3,-1.02249734E-1,-2.9825566E-2,-9.316793E-3,-3.0711636E-2,-1.9023446E-2,-1.3697237E-2,-1.0432668E-2,-7.915827E-3,-6.037319E-3,-4.5803147E-3,-3.0868617E-3,-1.653706E-3,-4.0853753E-5,1.7162549E-3,3.6986973E-3,5.987427E-3,7.668248E-3,9.746291E-3,1.1899988E-2,1.4496018E-2,1.7320175E-2,2.0125587E-2,2.3411414E-2,2.5306715E-2,2.7450798E-2,3.1227449E-2,3.6388136E-2,4.2352643E-2,4.6073224E-2,5.8517195E-2,6.406442E-2,2.918098E-1,1.09567605E-1,6.9999E-2,2.9304743E-1,2.3587449E-1,2.897618E-1,2.811263E-1,1.8659872E-1],"categories":[],"categories_nodes":[],"categories_segments":[],"categories_sizes":[],"default_left":[0,0,0,0,0,0,0,0,0,0,0,0,0,0,0,0,0,0,0,0,0,0,0,0,0,0,0,0,0,0,0,0,0,0,0,0,0,0,0,0,0,0,0,0,0,0,0,0,0,0,0,0,0,0,0,0,0,0,0,0,0,0,0,0,0,0,0,0,0,0,0,0,0,0,0,0,0,0,0,0,0,0,0,0,0,0,0,0,0,0,0,0,0,0,0,0,0,0,0,0,0],"id":16,"left_children":[1,3,5,7,9,11,13,15,17,19,21,23,25,27,29,31,33,35,37,39,41,43,45,47,-1,49,51,53,55,57,59,61,63,65,67,69,71,73,75,77,79,81,83,85,87,89,91,-1,-1,-1,-1,-1,-1,93,-1,95,97,99,-1,-1,-1,-1,-1,-1,-1,-1,-1,-1,-1,-1,-1,-1,-1,-1,-1,-1,-1,-1,-1,-1,-1,-1,-1,-1,-1,-1,-1,-1,-1,-1,-1,-1,-1,-1,-1,-1,-1,-1,-1,-1,-1],"loss_changes":[2.3671926E4,3.691262E3,4.5814355E3,1.4078667E3,1.0628672E3,3.0288086E2,7.799219E1,4.843286E2,4.3690298E2,1.505423E2,2.0529688E2,6.280957E1,2.8364258E0,3.1808594E1,1.8241455E1,3.0030194E2,1.3659546E2,6.0512573E1,5.86025E1,2.0702393E1,1.5903442E1,1.552832E1,3.7679443E1,8.084717E-1,0E0,9.301758E-2,3.7890625E-1,8.59668E0,3.1248047E1,1.6528198E1,2.8255157E1,3.868164E0,5.398979E0,2.5851318E1,2.243811E1,1.065448E1,9.8628845E0,6.795676E0,9.328583E0,2.636032E0,2.478302E0,2.6459656E0,1.7181091E0,3.8171387E-1,3.4071655E0,1.3586426E-1,7.940674E-1,0E0,0E0,0E0,0E0,0E0,0E0,5.5839844E0,0E0,5.315918E0,2.3089844E1,3.2606323E1,0E0,0E0,0E0,0E0,0E0,0E0,0E0,0E0,0E0,0E0,0E0,0E0,0E0,0E0,0E0,0E0,0E0,0E0,0E0,0E0,0E0,0E0,0E0,0E0,0E0,0E0,0E0,0E0,0E0,0E0,0E0,0E0,0E0,0E0,0E0,0E0,0E0,0E0,0E0,0E0,0E0,0E0,0E0],"parents":[2147483647,0,0,1,1,2,2,3,3,4,4,5,5,6,6,7,7,8,8,9,9,10,10,11,11,12,12,13,13,14,14,15,15,16,16,17,17,18,18,19,19,20,20,21,21,22,22,23,23,25,25,26,26,27,27,28,28,29,29,30,30,31,31,32,32,33,33,34,34,35,35,36,36,37,37,38,38,39,39,40,40,41,41,42,42,43,43,44,44,45,45,46,46,53,53,55,55,56,56,57,57],"right_children":[2,4,6,8,10,12,14,16,18,20,22,24,26,28,30,32,34,36,38,40,42,44,46,48,-1,50,52,54,56,58,60,62,64,66,68,70,72,74,76,78,80,82,84,86,88,90,92,-1,-1,-1,-1,-1,-1,94,-1,96,98,100,-1,-1,-1,-1,-1,-1,-1,-1,-1,-1,-1,-1,-1,-1,-1,-1,-1,-1,-1,-1,-1,-1,-1,-1,-1,-1,-1,-1,-1,-1,-1,-1,-1,-1,-1,-1,-1,-1,-1,-1,-1,-1,-1],"split_conditions":[3.2564697E0,2.0215315E-1,7.3149023E0,-4.0087202E-1,1.0548685E0,5.140482E0,-1.1283816E0,-4.5482847E-1,-1.09079234E-1,5.6216735E-1,1.7532775E0,4.178736E0,2.7032897E0,6.748467E-2,8.700463E-1,-1.1283816E0,-7.0203984E-1,-2.376662E-1,3.1763997E-2,3.6117724E-1,8.2365036E-1,1.2959815E0,2.2770145E0,-4.0033254E-1,1.0216184E-1,7.754509E-1,1.3294071E0,1.4357531E0,-4.7527483E-1,-7.120168E-1,-2.7920267E-1,-1.198347E0,-8.1973124E-1,-1.0709487E0,-5.233878E-1,-3.0180898E-1,-1.684462E-1,-4.4874694E-2,1.07245974E-1,2.76242E-1,4.6461043E-1,7.0612365E-1,-8.213838E-1,1.1635832E0,1.496059E0,-6.0752165E-1,-5.3737855E-1,8.6572416E-2,7.866173E-2,1.3615112E-1,1.2442893E-1,1.4768104E-1,1.2155276E-1,-4.3216395E-1,5.9885215E-2,-1.7118224E0,2.0989524E-2,1.7493795E0,1.6974428E-1,3.99088E-1,1.6361944E-1,-1.8398286E-3,-1.02249734E-1,-2.9825566E-2,-9.316793E-3,-3.0711636E-2,-1.9023446E-2,-1.3697237E-2,-1.0432668E-2,-7.915827E-3,-6.037319E-3,-4.5803147E-3,-3.0868617E-3,-1.653706E-3,-4.0853753E-5,1.7162549E-3,3.6986973E-3,5.987427E-3,7.668248E-3,9.746291E-3,1.1899988E-2,1.4496018E-2,1.7320175E-2,2.0125587E-2,2.3411414E-2,2.5306715E-2,2.7450798E-2,3.1227449E-2,3.6388136E-2,4.2352643E-2,4.6073224E-2,5.8517195E-2,6.406442E-2,2.918098E-1,1.09567605E-1,6.9999E-2,2.9304743E-1,2.3587449E-1,2.897618E-1,2.811263E-1,1.8659872E-1],"split_indices":[1,1,1,1,1,1,9,8,1,1,1,1,18,18,7,9,1,1,1,1,1,1,1,5,0,8,8,5,5,0,21,15,1,1,1,1,1,1,1,1,1,1,9,1,1,0,0,0,0,0,0,0,0,0,0,5,17,8,0,0,0,0,0,0,0,0,0,0,0,0,0,0,0,0,0,0,0,0,0,0,0,0,0,0,0,0,0,0,0,0,0,0,0,0,0,0,0,0,0,0,0],"split_type":[0,0,0,0,0,0,0,0,0,0,0,0,0,0,0,0,0,0,0,0,0,0,0,0,0,0,0,0,0,0,0,0,0,0,0,0,0,0,0,0,0,0,0,0,0,0,0,0,0,0,0,0,0,0,0,0,0,0,0,0,0,0,0,0,0,0,0,0,0,0,0,0,0,0,0,0,0,0,0,0,0,0,0,0,0,0,0,0,0,0,0,0,0,0,0,0,0,0,0,0,0],"sum_hessian":[1.86082E5,1.83168E5,2.914E3,1.57758E5,2.541E4,2.187E3,7.27E2,2.9316E4,1.28442E5,2.1047E4,4.363E3,1.451E3,7.36E2,6.01E2,1.26E2,5.43E2,2.8773E4,7.8308E4,5.0134E4,1.5265E4,5.782E3,2.883E3,1.48E3,7.11E2,7.4E2,5.74E2,1.62E2,1.24E2,4.77E2,1.17E2,9E0,2.5E2,2.93E2,7.635E3,2.1138E4,3.0524E4,4.7784E4,2.6199E4,2.3935E4,9.459E3,5.806E3,3.593E3,2.189E3,1.434E3,1.449E3,7.24E2,7.56E2,1.83E2,5.28E2,1.72E2,4.02E2,1.22E2,4E1,1.23E2,1E0,6.9E1,4.08E2,6.3E1,5.4E1,4E0,5E0,1E0,2.49E2,2.55E2,3.8E1,5.09E2,7.126E3,1.0158E4,1.098E4,1.3802E4,1.6722E4,3.0392E4,1.7392E4,1.2395E4,1.3804E4,1.3044E4,1.0891E4,5.124E3,4.335E3,3.635E3,2.171E3,2.17E3,1.423E3,1.583E3,6.06E2,7.22E2,7.12E2,7.3E2,7.19E2,2.67E2,4.57E2,4.36E2,3.2E2,1.21E2,2E0,1E0,6.8E1,3.64E2,4.4E1,2.1E1,4.2E1],"tree_param":{"num_deleted":"0","num_feature":"31","num_nodes":"101","size_leaf_vector":"1"}},{"base_weights":[-3.072488E-4,-4.245645E-2,2.6796687E0,-9.742082E-2,2.8855896E-1,1.9988171E0,4.741329E0,-3.0095765E-1,-5.760496E-2,2.0231915E-1,7.1813077E-1,1.7407107E0,2.506269E0,4.813066E0,3.5933983E0,-1.1897181E0,-2.8156266E-1,-1.02671E-1,1.2148137E-2,1.4934441E-1,3.262647E-1,5.724661E-1,1.005396E0,1.5314456E0,9.668084E-2,2.581998E0,2.3499155E0,6.312468E0,4.737839E0,1.5925536E-1,5.413149E0,-1.9337343E0,-5.2825963E-1,-4.124895E-1,-2.5064757E-1,-1.4663301E-1,-8.383953E-2,-2.0134546E-2,4.5493416E-2,1.2367454E-1,1.9079432E-1,2.774959E-1,3.8614908E-1,5.0073415E-1,6.425798E-1,8.512531E-1,1.1577517E0,8.176624E-2,7.45741E-2,2.670572E0,1.1688352E-1,1.2767603E-1,1.0838213E-1,4.565019E0,7.446957E0,1.4874522E-1,4.77527E0,3.3481124E-1,1.3883927E-1,-4.986021E-3,-9.738365E-2,-2.980641E-2,-1.6720673E-2,-2.9206205E-2,-1.9603604E-2,-2.8555622E-2,-1.2339896E-2,-8.165768E-3,-6.5463395E-3,-5.0079785E-3,-3.4728036E-3,-1.6936334E-3,-2.3850943E-4,1.294935E-3,3.1981536E-3,5.4937294E-3,6.975544E-3,8.6191315E-3,1.0457972E-2,1.28483325E-2,1.5360767E-2,1.7590815E-2,2.0969218E-2,2.403455E-2,2.6043156E-2,2.9642874E-2,3.4554396E-2,4.003418E-2,4.3933835E-2,5.551436E-2,6.096212E-2,1.4280766E-1,1.252508E-1,1.2913011E-1,2.689703E-1,3.9969727E-1,1.9037521E-1,2.4673878E-1,2.1897562E-1],"categories":[],"categories_nodes":[],"categories_segments":[],"categories_sizes":[],"default_left":[0,0,0,0,0,0,0,0,0,0,0,0,0,0,0,0,0,0,0,0,0,0,0,0,0,0,0,0,0,0,0,0,0,0,0,0,0,0,0,0,0,0,0,0,0,0,0,0,0,0,0,0,0,0,0,0,0,0,0,0,0,0,0,0,0,0,0,0,0,0,0,0,0,0,0,0,0,0,0,0,0,0,0,0,0,0,0,0,0,0,0,0,0,0,0,0,0,0,0],"id":17,"left_children":[1,3,5,7,9,11,13,15,17,19,21,23,25,27,29,31,33,35,37,39,41,43,45,47,-1,49,51,53,55,-1,57,59,61,63,65,67,69,71,73,75,77,79,81,83,85,87,89,-1,-1,91,-1,-1,-1,93,95,-1,97,-1,-1,-1,-1,-1,-1,-1,-1,-1,-1,-1,-1,-1,-1,-1,-1,-1,-1,-1,-1,-1,-1,-1,-1,-1,-1,-1,-1,-1,-1,-1,-1,-1,-1,-1,-1,-1,-1,-1,-1,-1,-1],"loss_changes":[2.1032148E4,3.33518E3,4.0373457E3,1.2739872E3,9.6690845E2,2.797246E2,4.1583984E1,4.43031E2,4.1333008E2,1.4270233E2,1.8203345E2,5.520996E1,2.5644531E0,4.566504E1,1.6935974E1,2.6916107E2,1.0178711E2,6.611713E1,5.555672E1,1.618451E1,1.8902283E1,1.4253418E1,3.3466187E1,4.501953E-1,0E0,4.166504E0,3.7056885E0,2.349585E1,2.8158203E1,0E0,5.0845947E0,6.401245E0,3.642212E0,1.6616333E1,2.4985596E1,6.254883E0,1.3121002E1,5.5349226E0,9.186092E0,2.0411377E0,1.9332428E0,2.1119995E0,3.1832275E0,3.2940674E-1,3.116516E0,3.1298828E-1,7.915039E-1,0E0,0E0,3.47583E0,0E0,0E0,0E0,8.709503E0,1.414856E0,0E0,1.7966797E1,0E0,0E0,0E0,0E0,0E0,0E0,0E0,0E0,0E0,0E0,0E0,0E0,0E0,0E0,0E0,0E0,0E0,0E0,0E0,0E0,0E0,0E0,0E0,0E0,0E0,0E0,0E0,0E0,0E0,0E0,0E0,0E0,0E0,0E0,0E0,0E0,0E0,0E0,0E0,0E0,0E0,0E0],"parents":[2147483647,0,0,1,1,2,2,3,3,4,4,5,5,6,6,7,7,8,8,9,9,10,10,11,11,12,12,13,13,14,14,15,15,16,16,17,17,18,18,19,19,20,20,21,21,22,22,23,23,25,25,26,26,27,27,28,28,30,30,31,31,32,32,33,33,34,34,35,35,36,36,37,37,38,38,39,39,40,40,41,41,42,42,43,43,44,44,45,45,46,46,49,49,53,53,54,54,56,56],"right_children":[2,4,6,8,10,12,14,16,18,20,22,24,26,28,30,32,34,36,38,40,42,44,46,48,-1,50,52,54,56,-1,58,60,62,64,66,68,70,72,74,76,78,80,82,84,86,88,90,-1,-1,92,-1,-1,-1,94,96,-1,98,-1,-1,-1,-1,-1,-1,-1,-1,-1,-1,-1,-1,-1,-1,-1,-1,-1,-1,-1,-1,-1,-1,-1,-1,-1,-1,-1,-1,-1,-1,-1,-1,-1,-1,-1,-1,-1,-1,-1,-1,-1,-1],"split_conditions":[3.2564697E0,1.9300745E-1,7.3149023E0,-4.368829E-1,1.0548685E0,5.140482E0,-1.0910859E0,-4.5482847E-1,-1.1851321E-1,5.2501565E-1,1.7532775E0,4.178736E0,-5.8050054E-1,-3.334068E-1,-4.672355E-1,-1.1283816E0,-7.8607744E-1,-2.7002686E-1,2.0105474E-2,3.4551114E-1,7.63332E-1,1.2959815E0,2.2770145E0,-4.0033254E-1,9.668084E-2,1.3294071E0,8.41408E-1,-1.22689195E-1,-2.5908548E-1,1.5925536E-1,-2.7571267E-1,-1.198347E0,-1.0709487E0,-1.0709487E0,-6.6564363E-1,-3.3867848E-1,-2.0368236E-1,-4.9171768E-2,8.836482E-2,2.6538214E-1,4.1615328E-1,6.5230316E-1,8.9139813E-1,1.1635832E0,1.496059E0,-6.0752165E-1,-5.3737855E-1,8.176624E-2,7.45741E-2,-5.7746035E-1,1.1688352E-1,1.2767603E-1,1.0838213E-1,-1.462531E0,8.158227E-2,1.4874522E-1,1.8915492E-1,3.3481124E-1,1.3883927E-1,-4.986021E-3,-9.738365E-2,-2.980641E-2,-1.6720673E-2,-2.9206205E-2,-1.9603604E-2,-2.8555622E-2,-1.2339896E-2,-8.165768E-3,-6.5463395E-3,-5.0079785E-3,-3.4728036E-3,-1.6936334E-3,-2.3850943E-4,1.294935E-3,3.1981536E-3,5.4937294E-3,6.975544E-3,8.6191315E-3,1.0457972E-2,1.28483325E-2,1.5360767E-2,1.7590815E-2,2.0969218E-2,2.403455E-2,2.6043156E-2,2.9642874E-2,3.4554396E-2,4.003418E-2,4.3933835E-2,5.551436E-2,6.096212E-2,1.4280766E-1,1.252508E-1,1.2913011E-1,2.689703E-1,3.9969727E-1,1.9037521E-1,2.4673878E-1,2.1897562E-1],"split_indices":[1,1,1,1,1,1,9,8,1,1,1,1,4,8,0,9,1,1,1,1,1,1,1,5,0,8,8,22,20,0,12,15,1,1,4,1,1,1,1,1,1,1,1,1,1,0,0,0,0,0,0,0,0,17,12,0,7,0,0,0,0,0,0,0,0,0,0,0,0,0,0,0,0,0,0,0,0,0,0,0,0,0,0,0,0,0,0,0,0,0,0,0,0,0,0,0,0,0,0],"split_type":[0,0,0,0,0,0,0,0,0,0,0,0,0,0,0,0,0,0,0,0,0,0,0,0,0,0,0,0,0,0,0,0,0,0,0,0,0,0,0,0,0,0,0,0,0,0,0,0,0,0,0,0,0,0,0,0,0,0,0,0,0,0,0,0,0,0,0,0,0,0,0,0,0,0,0,0,0,0,0,0,0,0,0,0,0,0,0,0,0,0,0,0,0,0,0,0,0,0,0],"sum_hessian":[1.86191E5,1.83309E5,2.882E3,1.57206E5,2.6103E4,2.168E3,7.14E2,2.572E4,1.31486E5,2.174E4,4.363E3,1.44E3,7.28E2,6.69E2,4.5E1,5.48E2,2.5172E4,7.9878E4,5.1608E4,1.5232E4,6.508E3,2.897E3,1.466E3,6.95E2,7.45E2,4.8E2,2.48E2,2.8E1,6.41E2,3.9E1,6E0,2.57E2,2.91E2,4.806E3,2.0366E4,2.3953E4,5.5925E4,2.6222E4,2.5386E4,9.409E3,5.823E3,3.59E3,2.918E3,1.436E3,1.461E3,7.32E2,7.34E2,1.82E2,5.13E2,3.45E2,1.35E2,1.11E2,1.37E2,1.3E1,1.5E1,1.5E1,6.26E2,3E0,3E0,2E0,2.55E2,2.14E2,7.7E1,5.08E2,4.298E3,2.4E2,2.0126E4,1.1611E4,1.2342E4,2.6196E4,2.9729E4,1.3843E4,1.2379E4,1.2319E4,1.3067E4,5.032E3,4.377E3,2.913E3,2.91E3,2.129E3,1.461E3,1.441E3,1.477E3,7.32E2,7.04E2,7.28E2,7.33E2,2.68E2,4.64E2,4.25E2,3.09E2,1.55E2,1.9E2,5E0,8E0,1.2E1,3E0,4.38E2,1.88E2],"tree_param":{"num_deleted":"0","num_feature":"31","num_nodes":"99","size_leaf_vector":"1"}},{"base_weights":[4.1245535E-4,-4.0145703E-2,2.5551715E0,-9.339715E-2,2.691602E-1,1.9030305E0,