{"learner":{"attributes":{"scikit_learn":"{\"_estimator_type\": \"regressor\"}"},"feature_names":["iv_clip","opt_volume","time_to_expiry","days_to_expiry","strike_price","option_type_enc","delta","gamma","vega","hour","minute","day_of_week","IV_QUBT","IVRET_QUBT","IV_RGTI","IVRET_RGTI","IV_IONQ","IVRET_IONQ","sym_QUBT","sym_QBTS","sym_RGTI","sym_IONQ"],"feature_types":["float","float","float","float","float","float","float","float","float","float","float","float","float","float","float","float","float","float","float","float","float","float"],"gradient_booster":{"model":{"gbtree_model_param":{"num_parallel_tree":"1","num_trees":"350"},"iteration_indptr":[0,1,2,3,4,5,6,7,8,9,10,11,12,13,14,15,16,17,18,19,20,21,22,23,24,25,26,27,28,29,30,31,32,33,34,35,36,37,38,39,40,41,42,43,44,45,46,47,48,49,50,51,52,53,54,55,56,57,58,59,60,61,62,63,64,65,66,67,68,69,70,71,72,73,74,75,76,77,78,79,80,81,82,83,84,85,86,87,88,89,90,91,92,93,94,95,96,97,98,99,100,101,102,103,104,105,106,107,108,109,110,111,112,113,114,115,116,117,118,119,120,121,122,123,124,125,126,127,128,129,130,131,132,133,134,135,136,137,138,139,140,141,142,143,144,145,146,147,148,149,150,151,152,153,154,155,156,157,158,159,160,161,162,163,164,165,166,167,168,169,170,171,172,173,174,175,176,177,178,179,180,181,182,183,184,185,186,187,188,189,190,191,192,193,194,195,196,197,198,199,200,201,202,203,204,205,206,207,208,209,210,211,212,213,214,215,216,217,218,219,220,221,222,223,224,225,226,227,228,229,230,231,232,233,234,235,236,237,238,239,240,241,242,243,244,245,246,247,248,249,250,251,252,253,254,255,256,257,258,259,260,261,262,263,264,265,266,267,268,269,270,271,272,273,274,275,276,277,278,279,280,281,282,283,284,285,286,287,288,289,290,291,292,293,294,295,296,297,298,299,300,301,302,303,304,305,306,307,308,309,310,311,312,313,314,315,316,317,318,319,320,321,322,323,324,325,326,327,328,329,330,331,332,333,334,335,336,337,338,339,340,341,342,343,344,345,346,347,348,349,350],"tree_info":[0,0,0,0,0,0,0,0,0,0,0,0,0,0,0,0,0,0,0,0,0,0,0,0,0,0,0,0,0,0,0,0,0,0,0,0,0,0,0,0,0,0,0,0,0,0,0,0,0,0,0,0,0,0,0,0,0,0,0,0,0,0,0,0,0,0,0,0,0,0,0,0,0,0,0,0,0,0,0,0,0,0,0,0,0,0,0,0,0,0,0,0,0,0,0,0,0,0,0,0,0,0,0,0,0,0,0,0,0,0,0,0,0,0,0,0,0,0,0,0,0,0,0,0,0,0,0,0,0,0,0,0,0,0,0,0,0,0,0,0,0,0,0,0,0,0,0,0,0,0,0,0,0,0,0,0,0,0,0,0,0,0,0,0,0,0,0,0,0,0,0,0,0,0,0,0,0,0,0,0,0,0,0,0,0,0,0,0,0,0,0,0,0,0,0,0,0,0,0,0,0,0,0,0,0,0,0,0,0,0,0,0,0,0,0,0,0,0,0,0,0,0,0,0,0,0,0,0,0,0,0,0,0,0,0,0,0,0,0,0,0,0,0,0,0,0,0,0,0,0,0,0,0,0,0,0,0,0,0,0,0,0,0,0,0,0,0,0,0,0,0,0,0,0,0,0,0,0,0,0,0,0,0,0,0,0,0,0,0,0,0,0,0,0,0,0,0,0,0,0,0,0,0,0,0,0,0,0,0,0,0,0,0,0,0,0,0,0,0,0,0,0,0,0,0,0,0,0,0,0,0,0,0,0,0,0,0,0,0,0,0,0,0,0,0,0,0,0,0,0],"trees":[{"base_weights":[1.95142E-3,4.815726E0,-2.5752267E-2,6.5262645E-1,4.0912598E-1,9.8352335E-2,-1.21666834E-1,8.09434E-3,4.2059466E-1,-9.210781E-1,1.0243462E-1,-3.9384674E-2,-1.8006381E-1,1.1306858E-2,4.426624E-1,-3.4458888E-1,6.834319E-2,1.7833714E-1,6.5398425E-2,-2.4290774E-2,-2.1514606E-1,-1.5554316E-1,-3.6429852E-1,2.2521434E-2,6.4067743E-3,-6.740141E-3,9.650559E-2,1.9122392E-1,-1.0007782E-1,7.1333714E-2,-1.195051E0,1.4277872E-3,-7.028734E-2,-2.2461617E0,-3.567647E-2,-6.3897127E-1,-1.495955E-1,-3.051986E-1,-4.1813368E-1,8.597375E-3,-3.7971104E-4,1.1515373E-2,7.628719E-3,-3.3921808E-1,8.464754E-3,-1.4023612E-2,3.8027351E-3,3.2301017E-3,-2.28783E-1,-1.4020402E-3,1.6578138E-3,-2.3682823E-3,-6.664629E-2,-2.7544558E-1,3.6913573E-3,-3.1681173E-3,2.3409217E-3,-1.4461021E-1,-7.146194E-3,-2.0233996E-2,-6.945687E-3,-1.6116444E-2,-5.727159E-3,-1.0552357E-2,-2.1680152E-2],"categories":[],"categories_nodes":[],"categories_segments":[],"categories_sizes":[],"default_left":[0,0,0,0,0,0,0,0,0,0,0,0,0,0,0,0,0,0,0,0,0,0,0,0,0,0,0,0,0,0,0,0,0,0,0,0,0,0,0,0,0,0,0,0,0,0,0,0,0,0,0,0,0,0,0,0,0,0,0,0,0,0,0,0,0],"id":0,"left_children":[1,3,5,-1,7,9,11,-1,13,15,17,19,21,-1,23,-1,25,27,29,31,33,35,37,-1,-1,-1,39,41,43,45,47,49,51,53,55,57,59,61,63,-1,-1,-1,-1,-1,-1,-1,-1,-1,-1,-1,-1,-1,-1,-1,-1,-1,-1,-1,-1,-1,-1,-1,-1,-1,-1],"loss_changes":[1.0720659E3,1.6642897E3,9.5156166E1,0E0,1.9812107E-2,1.4597527E1,2.165879E1,0E0,2.434349E-2,8.317653E1,9.748615E0,4.9637012E0,1.1856125E1,0E0,3.3516884E-3,0E0,8.738326E-2,4.1021423E0,1.7553686E1,2.0418987E0,5.3866688E1,6.60091E0,8.555145E-1,0E0,0E0,0E0,9.554764E-2,1.6083527E0,9.297736E1,3.8828526E0,4.7137928E1,1.0369029E0,1.7851845E1,9.124124E1,3.1586677E-1,3.0882524E1,6.216156E0,4.5624256E-1,4.1784477E-1,0E0,0E0,0E0,0E0,0E0,0E0,0E0,0E0,0E0,0E0,0E0,0E0,0E0,0E0,0E0,0E0,0E0,0E0,0E0,0E0,0E0,0E0,0E0,0E0,0E0,0E0],"parents":[2147483647,0,0,1,1,2,2,4,4,5,5,6,6,8,8,9,9,10,10,11,11,12,12,14,14,16,16,17,17,18,18,19,19,20,20,21,21,22,22,26,26,27,27,28,28,29,29,30,30,31,31,32,32,33,33,34,34,35,35,36,36,37,37,38,38],"right_children":[2,4,6,-1,8,10,12,-1,14,16,18,20,22,-1,24,-1,26,28,30,32,34,36,38,-1,-1,-1,40,42,44,46,48,50,52,54,56,58,60,62,64,-1,-1,-1,-1,-1,-1,-1,-1,-1,-1,-1,-1,-1,-1,-1,-1,-1,-1,-1,-1,-1,-1,-1,-1,-1,-1],"split_conditions":[7.2960764E-1,4.9687987E-3,1.005631E0,6.5262645E-1,-3.6741436E-1,7.9646116E-1,1.1121784E0,8.09434E-3,7.88993E-3,1.15E1,8.835824E-1,5.5E1,1.3882015E0,1.1306858E-2,6.1368823E-1,-3.4458888E-1,8.765221E-3,5.7E1,1.4475076E0,9.546362E-2,1.0141822E0,-7.651221E-1,1.5092771E0,2.2521434E-2,6.4067743E-3,-6.740141E-3,1.85E1,8.391118E-1,7.8374714E-1,8.8575625E-1,9.1888076E-1,1E0,1.5887365E0,-4.0524092E-1,1E0,1.8E1,8.1372285E-1,9.29414E-3,-2.6050463E-1,8.597375E-3,-3.7971104E-4,1.1515373E-2,7.628719E-3,-3.3921808E-1,8.464754E-3,-1.4023612E-2,3.8027351E-3,3.2301017E-3,-2.28783E-1,-1.4020402E-3,1.6578138E-3,-2.3682823E-3,-6.664629E-2,-2.7544558E-1,3.6913573E-3,-3.1681173E-3,2.3409217E-3,-1.4461021E-1,-7.146194E-3,-2.0233996E-2,-6.945687E-3,-1.6116444E-2,-5.727159E-3,-1.0552357E-2,-2.1680152E-2],"split_indices":[0,7,0,0,17,16,0,0,7,4,0,10,0,0,13,0,2,10,2,7,0,6,0,0,0,0,4,0,0,0,0,11,8,6,11,9,14,2,17,0,0,0,0,0,0,0,0,0,0,0,0,0,0,0,0,0,0,0,0,0,0,0,0,0,0],"split_type":[0,0,0,0,0,0,0,0,0,0,0,0,0,0,0,0,0,0,0,0,0,0,0,0,0,0,0,0,0,0,0,0,0,0,0,0,0,0,0,0,0,0,0,0,0,0,0,0,0,0,0,0,0,0,0,0,0,0,0,0,0,0,0,0,0],"sum_hessian":[8.037E3,4.5E1,7.992E3,1.5E1,3E1,3.484E3,4.508E3,2E0,2.8E1,1.3E1,3.471E3,1.872E3,2.636E3,4E0,2.4E1,1E0,1.2E1,1.137E3,2.334E3,1.725E3,1.47E2,2.328E3,3.08E2,2.3E1,1E0,1E0,1.1E1,1.087E3,5E1,2.324E3,1E1,1.107E3,6.18E2,1.1E1,1.36E2,2.7E1,2.301E3,1.5E2,1.58E2,6E0,5E0,5.38E2,5.49E2,1E0,4.9E1,3E1,2.294E3,8E0,2E0,5.74E2,5.33E2,6.08E2,1E1,4E0,7E0,1.02E2,3.4E1,4E0,2.3E1,9.1E1,2.21E3,1.37E2,1.3E1,1.2E1,1.46E2],"tree_param":{"num_deleted":"0","num_feature":"22","num_nodes":"65","size_leaf_vector":"1"}},{"base_weights":[-1.1048156E-3,4.476199E0,-2.547096E-2,6.197002E-1,3.680906E-1,4.8868522E-2,-1.6750425E-1,7.824529E-3,3.7761593E-1,1.5197797E-1,4.096573E-3,-1.449526E-1,-3.5754967E-1,1.1161297E-2,2.0073675E-2,1.8624228E-1,1.1522815E-1,7.6422254E-3,-1.0868284E0,-6.674152E-1,-1.3937171E-1,-3.3479285E-1,-5.020486E-1,1.6193298E-1,2.6200694E-1,1.394728E-1,-1.2813637E-3,-6.7369324E-1,1.1537732E-2,5.4498665E-2,-3.383107E0,-1.567034E-1,-2.781064E0,-3.5697377E-1,-1.3019222E-1,-3.5429734E-1,-2.4695827E-1,-8.084735E-4,-5.1474345E-1,-3.4418404E-3,8.90431E-3,1.928663E-2,1.2227397E-2,6.5913917E-3,1.1480712E-2,-5.0155908E-2,4.7840457E-3,-9.6062553E-4,-3.4408268E-1,2.5935883E-3,-1.6023921E-3,-2.5661127E-4,8.77356E-3,-3.37581E-1,-4.8646727E-4,-1.1990454E-4,-1.07209E-2,-7.4210274E-4,-3.4614882E-1,-1.8124701E-1,-1.0854502E-2,-6.195206E-3,-1.3559492E-2,-5.488486E-4,-1.7878864E-2,-1.34564815E-2,-1.975668E-3,-2.6267095E-2,-3.330037E-3],"categories":[],"categories_nodes":[],"categories_segments":[],"categories_sizes":[],"default_left":[0,0,0,0,0,0,0,0,0,0,0,0,0,0,0,0,0,0,0,0,0,0,0,0,0,0,0,0,0,0,0,0,0,0,0,0,0,0,0,0,0,0,0,0,0,0,0,0,0,0,0,0,0,0,0,0,0,0,0,0,0,0,0,0,0,0,0,0,0],"id":1,"left_children":[1,3,5,-1,7,9,11,-1,13,15,17,19,21,-1,-1,23,25,27,29,31,33,35,37,39,41,43,45,47,49,51,53,55,57,59,61,63,65,-1,67,-1,-1,-1,-1,-1,-1,-1,-1,-1,-1,-1,-1,-1,-1,-1,-1,-1,-1,-1,-1,-1,-1,-1,-1,-1,-1,-1,-1,-1,-1],"loss_changes":[8.868352E2,1.4266345E3,8.537513E1,0E0,1.373291E-3,2.4503286E1,1.1854233E1,0E0,1.3515234E-2,2.0020866E0,1.4327791E1,7.1527596E0,7.98687E-1,0E0,0E0,1.4862556E0,2.1978197E0,9.804228E0,3.163403E1,2.7630297E1,4.867317E0,3.527851E-1,2.2606754E-1,2.3644218E0,3.3769417E-1,4.135294E-1,1.320993E1,8.519059E1,6.4552145E0,6.582386E-2,4.538737E1,1.9541049E-1,5.7184486E1,4.446946E1,2.0605621E0,2.3029709E-1,2.1933246E-1,0E0,1.4074612E-1,0E0,0E0,0E0,0E0,0E0,0E0,0E0,0E0,0E0,0E0,0E0,0E0,0E0,0E0,0E0,0E0,0E0,0E0,0E0,0E0,0E0,0E0,0E0,0E0,0E0,0E0,0E0,0E0,0E0,0E0],"parents":[2147483647,0,0,1,1,2,2,4,4,5,5,6,6,8,8,9,9,10,10,11,11,12,12,15,15,16,16,17,17,18,18,19,19,20,20,21,21,22,22,23,23,24,24,25,25,26,26,27,27,28,28,29,29,30,30,31,31,32,32,33,33,34,34,35,35,36,36,38,38],"right_children":[2,4,6,-1,8,10,12,-1,14,16,18,20,22,-1,-1,24,26,28,30,32,34,36,38,40,42,44,46,48,50,52,54,56,58,60,62,64,66,-1,68,-1,-1,-1,-1,-1,-1,-1,-1,-1,-1,-1,-1,-1,-1,-1,-1,-1,-1,-1,-1,-1,-1,-1,-1,-1,-1,-1,-1,-1,-1],"split_conditions":[7.2960764E-1,4.9687987E-3,1.1041949E0,6.197002E-1,-3.6741436E-1,9.1013944E-1,1.4149007E0,7.824529E-3,7.88993E-3,8.583519E-1,5.283403E2,-7.651221E-1,1.5847898E0,1.1161297E-2,2.0073675E-2,1E0,4.48243E0,6.3625157E-1,1.0914123E0,5.8420718E-2,8.1372285E-1,7.1263656E-2,-3.246792E-1,7.8374714E-1,7.8374714E-1,1.2775413E0,4.520515E0,1E0,1.005631E0,1.5E1,9.201292E-1,1.1690676E0,8.085119E-2,4.99308E-1,2.8E1,-6.1940527E-1,4.05E1,-8.084735E-4,1.1470561E0,-3.4418404E-3,8.90431E-3,1.928663E-2,1.2227397E-2,6.5913917E-3,1.1480712E-2,-5.0155908E-2,4.7840457E-3,-9.6062553E-4,-3.4408268E-1,2.5935883E-3,-1.6023921E-3,-2.5661127E-4,8.77356E-3,-3.37581E-1,-4.8646727E-4,-1.1990454E-4,-1.07209E-2,-7.4210274E-4,-3.4614882E-1,-1.8124701E-1,-1.0854502E-2,-6.195206E-3,-1.3559492E-2,-5.488486E-4,-1.7878864E-2,-1.34564815E-2,-1.975668E-3,-2.6267095E-2,-3.330037E-3],"split_indices":[0,7,0,0,17,0,0,0,7,0,3,6,0,0,0,11,8,12,12,17,14,7,17,0,0,12,8,11,0,9,0,0,7,8,1,17,4,0,14,0,0,0,0,0,0,0,0,0,0,0,0,0,0,0,0,0,0,0,0,0,0,0,0,0,0,0,0,0,0],"split_type":[0,0,0,0,0,0,0,0,0,0,0,0,0,0,0,0,0,0,0,0,0,0,0,0,0,0,0,0,0,0,0,0,0,0,0,0,0,0,0,0,0,0,0,0,0,0,0,0,0,0,0,0,0,0,0,0,0,0,0,0,0,0,0,0,0,0,0,0,0],"sum_hessian":[8.127E3,4.3E1,8.084E3,1.4E1,2.9E1,5.307E3,2.777E3,2E0,2.7E1,1.606E3,3.701E3,2.484E3,2.93E2,5E0,2.2E1,8.29E2,7.77E2,3.69E3,1.1E1,2.5E1,2.459E3,2.56E2,3.7E1,6.3E2,1.99E2,6.43E2,1.34E2,2E1,3.67E3,8E0,3E0,2.1E1,4E0,9.8E1,2.361E3,2.07E2,4.9E1,1E0,3.6E1,4.1E1,5.89E2,2.2E1,1.77E2,5.95E2,4.8E1,1.1E1,1.23E2,1.9E1,1E0,1.906E3,1.764E3,6E0,2E0,1E0,2E0,6E0,1.5E1,3E0,1E0,3E0,9.5E1,2.262E3,9.9E1,2E0,2.05E2,4.4E1,5E0,3.5E1,1E0],"tree_param":{"num_deleted":"0","num_feature":"22","num_nodes":"69","size_leaf_vector":"1"}},{"base_weights":[6.9221423E-4,4.223104E0,-2.618543E-2,5.9573317E-1,3.6654362E-1,8.503098E-2,-1.1112815E-1,9.905808E-3,3.8188535E-1,-8.160965E-1,8.891752E-2,-5.7233874E-2,-1.8055098E-1,7.563711E-3,3.925732E-1,8.4126964E-2,-3.3548063E-1,1.660008E-1,5.2326683E-2,-7.79874E-1,-5.2666467E-2,-1.5306228E-1,-3.4465387E-1,1.9919345E-2,5.744763E-3,2.858274E-2,1.3913075E-2,1.7808E-1,-1.0546493E-1,5.7768904E-2,-1.0105461E0,9.171942E-2,-3.463444E-1,-1.1938635E-2,-9.5084436E-2,-7.372607E-1,-1.4497322E-1,-3.2546148E-1,-4.8562336E-1,4.474522E-3,-2.3620015E-3,1.0721161E-2,7.0837834E-3,-3.3065158E-1,8.684836E-3,3.7498826E-3,-2.0384637E-3,4.5675207E-3,-2.173343E-1,-2.138823E-4,7.8096376E-3,-1.2506069E-4,-1.2141443E-2,-4.2248634E-3,-6.9760464E-2,-1.3870494E-1,-8.122373E-3,-2.0981412E-2,-6.9009224E-3,-1.7219478E-2,-1.2186932E-2,-3.5454087E-2,-1.9734588E-2],"categories":[],"categories_nodes":[],"categories_segments":[],"categories_sizes":[],"default_left":[0,0,0,0,0,0,0,0,0,0,0,0,0,0,0,0,0,0,0,0,0,0,0,0,0,0,0,0,0,1,0,0,0,0,0,0,0,1,0,0,0,0,0,0,0,0,0,0,0,0,0,0,0,0,0,0,0,0,0,0,0,0,0],"id":2,"left_children":[1,3,5,-1,7,9,11,-1,13,15,17,19,21,-1,23,25,-1,27,29,31,33,35,37,-1,-1,39,-1,41,43,45,47,49,-1,51,53,55,57,59,61,-1,-1,-1,-1,-1,-1,-1,-1,-1,-1,-1,-1,-1,-1,-1,-1,-1,-1,-1,-1,-1,-1,-1,-1],"loss_changes":[9.1505475E2,1.5084438E3,7.569901E1,0E0,1.4781475E-2,1.2225433E1,1.6987274E1,0E0,1.7020702E-2,8.0146675E1,9.739107E0,8.405135E0,8.901527E0,0E0,1.0428429E-3,1.4300928E-1,0E0,3.6651306E0,1.3622772E1,8.635849E1,4.3938594E0,7.936119E0,6.1032104E-1,0E0,0E0,5.964581E-2,0E0,1.3786697E0,8.834849E1,3.965464E0,4.451004E1,9.350689E-2,0E0,2.8299243E0,1.7032856E1,2.6477793E1,3.1511574E0,3.074131E-1,3.703537E-1,0E0,0E0,0E0,0E0,0E0,0E0,0E0,0E0,0E0,0E0,0E0,0E0,0E0,0E0,0E0,0E0,0E0,0E0,0E0,0E0,0E0,0E0,0E0,0E0],"parents":[2147483647,0,0,1,1,2,2,4,4,5,5,6,6,8,8,9,9,10,10,11,11,12,12,14,14,15,15,17,17,18,18,19,19,20,20,21,21,22,22,25,25,27,27,28,28,29,29,30,30,31,31,33,33,34,34,35,35,36,36,37,37,38,38],"right_children":[2,4,6,-1,8,10,12,-1,14,16,18,20,22,-1,24,26,-1,28,30,32,34,36,38,-1,-1,40,-1,42,44,46,48,50,-1,52,54,56,58,60,62,-1,-1,-1,-1,-1,-1,-1,-1,-1,-1,-1,-1,-1,-1,-1,-1,-1,-1,-1,-1,-1,-1,-1,-1],"split_conditions":[7.2960764E-1,4.9687987E-3,1.005631E0,5.9573317E-1,7.88993E-3,6.3625157E-1,1.1531172E0,9.905808E-3,-3.6741436E-1,1E0,8.835824E-1,-3.7965113E-1,1.4149007E0,7.563711E-3,6.1368823E-1,5.076945E-1,-3.3548063E-1,5.7E1,1.4475076E0,5.1E1,9.546362E-2,-7.651221E-1,1.5847898E0,1.9919345E-2,5.744763E-3,2E1,1.3913075E-2,8.391118E-1,7.8374714E-1,1.0387136E0,1.0900697E0,2.8268645E-2,-3.463444E-1,5.7E1,1.5887365E0,1.8E1,7.999486E-1,1.4496244E-1,1.15E1,4.474522E-3,-2.3620015E-3,1.0721161E-2,7.0837834E-3,-3.3065158E-1,8.684836E-3,3.7498826E-3,-2.0384637E-3,4.5675207E-3,-2.173343E-1,-2.138823E-4,7.8096376E-3,-1.2506069E-4,-1.2141443E-2,-4.2248634E-3,-6.9760464E-2,-1.3870494E-1,-8.122373E-3,-2.0981412E-2,-6.9009224E-3,-1.7219478E-2,-1.2186932E-2,-3.5454087E-2,-1.9734588E-2],"split_indices":[0,7,0,0,7,12,0,0,17,11,0,15,0,0,13,6,0,10,2,10,7,6,0,0,0,4,0,0,0,14,12,2,0,10,8,9,14,13,4,0,0,0,0,0,0,0,0,0,0,0,0,0,0,0,0,0,0,0,0,0,0,0,0],"split_type":[0,0,0,0,0,0,0,0,0,0,0,0,0,0,0,0,0,0,0,0,0,0,0,0,0,0,0,0,0,0,0,0,0,0,0,0,0,0,0,0,0,0,0,0,0,0,0,0,0,0,0,0,0,0,0,0,0,0,0,0,0,0,0],"sum_hessian":[8.061E3,5E1,8.011E3,1.6E1,3.4E1,3.469E3,4.542E3,4E0,3E1,1.4E1,3.455E3,2.558E3,1.984E3,2E0,2.8E1,1.3E1,1E0,1.111E3,2.344E3,1.5E1,2.543E3,1.701E3,2.83E2,2.7E1,1E0,1.1E1,2E0,1.064E3,4.7E1,2.333E3,1.1E1,1.4E1,1E0,1.298E3,1.245E3,2.2E1,1.679E3,2.52E2,3.1E1,6E0,5E0,5.3E2,5.34E2,1E0,4.6E1,1.986E3,3.47E2,9E0,2E0,6E0,8E0,1.248E3,5E1,1.236E3,9E0,4E0,1.8E1,4E1,1.639E3,2.02E2,5E1,7E0,2.4E1],"tree_param":{"num_deleted":"0","num_feature":"22","num_nodes":"63","size_leaf_vector":"1"}},{"base_weights":[3.4779033E-3,3.8646147E0,-2.0612478E-2,5.655357E-1,3.502662E-1,8.291376E-2,-9.960762E-2,2.0567E-1,3.675099E-1,-9.136707E-1,8.6637415E-2,-8.24687E-2,-3.2194883E-1,3.0981717E-3,1.1100931E-2,7.311587E-3,1.8904647E-2,1.00502074E-1,-3.270936E-1,1.5065747E-1,5.6375653E-2,-4.732404E-2,-1.3567035E-1,-3.028663E-1,-4.6229738E-1,3.1774107E-2,1.903664E-1,1.6206443E-1,-1.0486005E-1,6.166213E-2,-8.297378E-1,-5.9948295E-1,-4.293176E-2,-4.1942862E-1,-1.2902084E-1,-3.0805138E-1,-4.9974255E-2,-2.9489692E-4,-4.7481132E-1,-1.9145849E-3,4.0735966E-3,-2.103881E-4,1.2003094E-2,1.0126036E-2,6.8207453E-3,-3.2238528E-1,8.363968E-3,-1.3253875E-2,3.308573E-3,4.1210838E-3,-2.1008983E-1,3.994141E-3,-3.376858E-1,-1.8630322E-2,-1.9208282E-3,-2.4889654E-3,-2.3577054E-1,-5.9850896E-3,-1.714846E-2,-1.7353822E-2,-1.3398557E-2,9.810494E-4,-5.3537968E-3,-2.4587683E-2,-6.226389E-3],"categories":[],"categories_nodes":[],"categories_segments":[],"categories_sizes":[],"default_left":[0,0,0,0,0,0,0,0,0,0,0,0,0,0,0,0,0,0,0,0,0,0,0,1,0,0,0,0,0,0,0,0,0,0,0,1,0,0,0,0,0,0,0,0,0,0,0,0,0,0,0,0,0,0,0,0,0,0,0,0,0,0,0,0,0],"id":3,"left_children":[1,3,5,-1,7,9,11,13,15,17,19,21,23,-1,-1,-1,-1,25,-1,27,29,31,33,35,37,39,41,43,45,47,49,51,53,55,57,59,61,-1,63,-1,-1,-1,-1,-1,-1,-1,-1,-1,-1,-1,-1,-1,-1,-1,-1,-1,-1,-1,-1,-1,-1,-1,-1,-1,-1],"loss_changes":[7.5006976E2,1.3044476E3,6.55473E1,0E0,1.168251E-2,1.2952406E1,1.7296833E1,3.3941865E-4,1.4964581E-2,7.486106E1,6.688963E0,7.88768E0,7.304001E-1,0E0,0E0,0E0,0E0,6.806559E-2,0E0,3.2493687E0,1.1054863E1,6.1440616E0,3.1139088E0,3.6356354E-1,2.0851898E-1,3.097664E-2,4.93574E-2,1.0743961E0,8.39332E1,3.4593496E0,4.3408295E1,8.415901E1,3.7442646E0,6.0109528E1,3.2327595E0,3.496418E-1,2.9918969E-2,0E0,1.5240955E-1,0E0,0E0,0E0,0E0,0E0,0E0,0E0,0E0,0E0,0E0,0E0,0E0,0E0,0E0,0E0,0E0,0E0,0E0,0E0,0E0,0E0,0E0,0E0,0E0,0E0,0E0],"parents":[2147483647,0,0,1,1,2,2,4,4,5,5,6,6,7,7,8,8,9,9,10,10,11,11,12,12,17,17,19,19,20,20,21,21,22,22,23,23,24,24,25,25,26,26,27,27,28,28,29,29,30,30,31,31,32,32,33,33,34,34,35,35,36,36,38,38],"right_children":[2,4,6,-1,8,10,12,14,16,18,20,22,24,-1,-1,-1,-1,26,-1,28,30,32,34,36,38,40,42,44,46,48,50,52,54,56,58,60,62,-1,64,-1,-1,-1,-1,-1,-1,-1,-1,-1,-1,-1,-1,-1,-1,-1,-1,-1,-1,-1,-1,-1,-1,-1,-1,-1,-1],"split_conditions":[7.2960764E-1,4.9687987E-3,1.005631E0,5.655357E-1,7.88993E-3,6.3625157E-1,1.3882015E0,4.474943E-1,-3.6741436E-1,1E0,8.835824E-1,1.1531172E0,1.5847898E0,3.0981717E-3,1.1100931E-2,7.311587E-3,1.8904647E-2,2E0,-3.270936E-1,5.7E1,1.4475076E0,-3.7965113E-1,7.999486E-1,1.2660965E0,-3.246792E-1,4.6415888E-2,8.090097E-1,8.2771254E-1,7.8374714E-1,8.8575625E-1,1.0900697E0,5.1E1,1.0074211E0,7.9624736E-1,2.8E1,8.472347E-1,6.997692E-2,-2.9489692E-4,2.0046167E-1,-1.9145849E-3,4.0735966E-3,-2.103881E-4,1.2003094E-2,1.0126036E-2,6.8207453E-3,-3.2238528E-1,8.363968E-3,-1.3253875E-2,3.308573E-3,4.1210838E-3,-2.1008983E-1,3.994141E-3,-3.376858E-1,-1.8630322E-2,-1.9208282E-3,-2.4889654E-3,-2.3577054E-1,-5.9850896E-3,-1.714846E-2,-1.7353822E-2,-1.3398557E-2,9.810494E-4,-5.3537968E-3,-2.4587683E-2,-6.226389E-3],"split_indices":[0,7,0,0,7,12,0,2,17,11,0,0,0,0,0,0,0,1,0,10,2,15,14,14,17,7,0,0,0,0,12,10,0,14,1,16,7,0,15,0,0,0,0,0,0,0,0,0,0,0,0,0,0,0,0,0,0,0,0,0,0,0,0,0,0],"split_type":[0,0,0,0,0,0,0,0,0,0,0,0,0,0,0,0,0,0,0,0,0,0,0,0,0,0,0,0,0,0,0,0,0,0,0,0,0,0,0,0,0,0,0,0,0,0,0,0,0,0,0,0,0,0,0,0,0,0,0,0,0,0,0,0,0],"sum_hessian":[8.062E3,4.9E1,8.013E3,1.5E1,3.4E1,3.468E3,4.545E3,5E0,2.9E1,1.2E1,3.456E3,4.221E3,3.24E2,1E0,4E0,2E0,2.7E1,1.1E1,1E0,1.108E3,2.348E3,2.543E3,1.678E3,2.88E2,3.6E1,7E0,4E0,1.061E3,4.7E1,2.335E3,1.3E1,1.9E1,2.524E3,3.7E1,1.641E3,2.82E2,6E0,1E0,3.5E1,3E0,4E0,1E0,3E0,4.09E2,6.52E2,1E0,4.6E1,3.1E1,2.304E3,1.1E1,2E0,1.8E1,1E0,3.3E1,2.491E3,3.5E1,2E0,1.574E3,6.7E1,1.39E2,1.43E2,3E0,3E0,3.3E1,2E0],"tree_param":{"num_deleted":"0","num_feature":"22","num_nodes":"65","size_leaf_vector":"1"}},{"base_weights":[-1.1469601E-3,3.6617246E0,-2.2583121E-2,5.373219E-1,3.3043885E-1,4.296448E-2,-1.468177E-1,8.81822E-3,3.4560898E-1,1.2918779E-1,4.875462E-3,-1.2661278E-1,-3.0302227E-1,7.0678676E-3,3.555033E-1,1.3642207E-1,-4.780965E-2,8.3762305E-3,-1.2695419E0,-5.7411176E-1,-1.2140645E-1,-2.85478E-1,-4.3622252E-1,1.8064322E-2,5.128528E-3,1.8854964E-1,1.0886291E-1,-3.1432566E-1,1.510033E-1,-6.9192797E-1,1.2243001E-2,1.611322E-2,-4.274775E0,-1.0843026E-1,-2.263539E0,-3.1851968E-1,-1.1307805E-1,-3.076789E-1,-2.2318482E-1,-2.8752448E-4,-4.4871435E-1,1.27950385E-2,8.743428E-3,6.0415454E-3,-3.4822078E-4,-1.6981785E-3,8.736533E-3,-3.3607075E-1,-1.0413914E-3,2.5872139E-3,-1.453644E-3,4.4482825E-3,-1.1499265E-3,-2.152256E-3,-3.1845587E-1,5.204144E-4,-8.625235E-3,4.9122015E-4,-2.2700886E-1,-1.7279528E-1,-9.153319E-3,-8.81241E-3,-4.890641E-3,-1.5692102E-2,-2.496743E-3,-1.6745295E-2,-9.327958E-3,-2.2981964E-2,-2.2047742E-3],"categories":[],"categories_nodes":[],"categories_segments":[],"categories_sizes":[],"default_left":[0,0,0,0,0,0,0,0,0,0,0,0,0,0,0,0,0,0,0,0,0,0,0,0,0,0,1,0,0,0,0,0,0,0,0,0,0,0,0,0,0,0,0,0,0,0,0,0,0,0,0,0,0,0,0,0,0,0,0,0,0,0,0,0,0,0,0,0,0],"id":4,"left_children":[1,3,5,-1,7,9,11,-1,13,15,17,19,21,-1,23,25,27,29,31,33,35,37,39,-1,-1,41,43,-1,45,47,49,51,53,55,57,59,61,63,65,-1,67,-1,-1,-1,-1,-1,-1,-1,-1,-1,-1,-1,-1,-1,-1,-1,-1,-1,-1,-1,-1,-1,-1,-1,-1,-1,-1,-1,-1],"loss_changes":[6.342718E2,1.1057056E3,6.5404976E1,0E0,1.6178846E-2,1.726749E1,8.716656E0,0E0,8.35371E-3,2.0693207E0,1.628597E1,5.657013E0,6.1626816E-1,0E0,2.4368763E-3,2.2033215E0,8.033073E1,9.862574E0,3.870581E1,2.1783146E1,3.9548073E0,3.2271004E-1,1.8562746E-1,0E0,0E0,4.4729805E-1,1.407857E0,0E0,2.8242743E-1,8.0787796E1,5.9094534E0,2.4841165E-2,2.6313915E1,1.7692932E-1,3.1098358E1,4.101433E1,2.2334557E0,3.1155968E-1,2.5668502E-1,0E0,1.300273E-1,0E0,0E0,0E0,0E0,0E0,0E0,0E0,0E0,0E0,0E0,0E0,0E0,0E0,0E0,0E0,0E0,0E0,0E0,0E0,0E0,0E0,0E0,0E0,0E0,0E0,0E0,0E0,0E0],"parents":[2147483647,0,0,1,1,2,2,4,4,5,5,6,6,8,8,9,9,10,10,11,11,12,12,14,14,15,15,16,16,17,17,18,18,19,19,20,20,21,21,22,22,25,25,26,26,28,28,29,29,30,30,31,31,32,32,33,33,34,34,35,35,36,36,37,37,38,38,40,40],"right_children":[2,4,6,-1,8,10,12,-1,14,16,18,20,22,-1,24,26,28,30,32,34,36,38,40,-1,-1,42,44,-1,46,48,50,52,54,56,58,60,62,64,66,-1,68,-1,-1,-1,-1,-1,-1,-1,-1,-1,-1,-1,-1,-1,-1,-1,-1,-1,-1,-1,-1,-1,-1,-1,-1,-1,-1,-1,-1],"split_conditions":[7.2960764E-1,4.9687987E-3,1.1041949E0,5.373219E-1,7.88993E-3,9.1013944E-1,1.3882015E0,8.81822E-3,-3.6741436E-1,5.7E1,1.4475076E0,-7.651221E-1,1.5847898E0,7.0678676E-3,6.1368823E-1,8.391118E-1,7.8374714E-1,7.9646116E-1,1.25E1,2.7945238E-1,8.1372285E-1,1.1121784E0,-3.246792E-1,1.8064322E-2,5.128528E-3,7.9537475E-1,1.0897177E0,-3.1432566E-1,-1.0908626E-1,1.15E1,1.0046276E0,2.1618521E0,9.1888076E-1,1.1690676E0,7.987913E-2,4.99308E-1,8.177987E-1,1.2660965E0,1.2E1,-2.8752448E-4,1.1470561E0,1.27950385E-2,8.743428E-3,6.0415454E-3,-3.4822078E-4,-1.6981785E-3,8.736533E-3,-3.3607075E-1,-1.0413914E-3,2.5872139E-3,-1.453644E-3,4.4482825E-3,-1.1499265E-3,-2.152256E-3,-3.1845587E-1,5.204144E-4,-8.625235E-3,4.9122015E-4,-2.2700886E-1,-1.7279528E-1,-9.153319E-3,-8.81241E-3,-4.890641E-3,-1.5692102E-2,-2.496743E-3,-1.6745295E-2,-9.327958E-3,-2.2981964E-2,-2.2047742E-3],"split_indices":[0,7,0,0,7,0,0,0,17,10,2,6,0,0,13,0,0,16,4,13,14,12,17,0,0,0,14,0,17,4,0,8,0,0,7,8,16,14,10,0,14,0,0,0,0,0,0,0,0,0,0,0,0,0,0,0,0,0,0,0,0,0,0,0,0,0,0,0,0],"split_type":[0,0,0,0,0,0,0,0,0,0,0,0,0,0,0,0,0,0,0,0,0,0,0,0,0,0,0,0,0,0,0,0,0,0,0,0,0,0,0,0,0,0,0,0,0,0,0,0,0,0,0,0,0,0,0,0,0,0,0,0,0,0,0,0,0,0,0,0,0],"sum_hessian":[8.076E3,4.6E1,8.03E3,1.4E1,3.2E1,5.257E3,2.773E3,4E0,2.8E1,1.61E3,3.647E3,2.457E3,3.16E2,2E0,2.6E1,1.547E3,6.3E1,3.638E3,9E0,2.7E1,2.43E3,2.82E2,3.4E1,2.5E1,1E0,5.33E2,1.014E3,1E0,6.2E1,1.9E1,3.619E3,7E0,2E0,2.2E1,5E0,9.7E1,2.333E3,2.05E2,7.7E1,1E0,3.3E1,8.7E1,4.46E2,9.19E2,9.5E1,7E0,5.5E1,1E0,1.8E1,1.85E3,1.769E3,2E0,5E0,1E0,1E0,8E0,1.4E1,3E0,2E0,3E0,9.4E1,4.52E2,1.881E3,2E2,5E0,1.7E1,6E1,3.2E1,1E0],"tree_param":{"num_deleted":"0","num_feature":"22","num_nodes":"69","size_leaf_vector":"1"}},{"base_weights":[-4.037215E-3,3.420044E0,-2.445613E-2,5.1114917E-1,3.1815764E-1,7.143264E-2,-9.836062E-2,1.9040449E-1,1.6680919E-2,-7.4544835E-1,7.539352E-2,-3.611011E-2,-1.4118055E-1,2.8002618E-3,1.0304165E-2,-4.3766265E0,3.0483862E-2,-7.740542E-1,7.903955E-2,-9.1177285E-1,-2.9910479E-2,-1.2196245E-1,-2.8231144E-1,-5.7801575E-4,-3.27669E-1,1.4544834E-1,-1.0377955E-2,8.20303E-2,-3.1898093E-1,1.3807808E-1,5.0705615E-2,1.0960378E-1,-3.292073E-1,-1.595258E-2,-1.8499532E-1,-5.480209E-1,-1.1663922E-1,-2.2701688E-1,-3.1809375E-1,1.0761032E-4,9.6248165E-3,-7.0788725E-3,2.454302E-3,-1.8608021E-3,5.8967653E-3,7.4976445E-3,-6.023347E-3,2.7780298E-3,-4.9312495E-2,1.0005969E-3,8.536955E-3,3.1423254E-4,-2.5922158E-3,-1.17242895E-1,-8.1896194E-4,-5.335067E-3,-1.3225073E-1,-1.6684426E-2,-5.371154E-3,-2.635479E-3,-1.1900742E-2,-1.7069306E-2,-1.16950665E-2],"categories":[],"categories_nodes":[],"categories_segments":[],"categories_sizes":[],"default_left":[0,0,0,0,0,0,0,0,0,0,0,0,0,0,0,0,0,0,0,0,0,0,0,0,0,0,0,0,0,0,0,0,0,0,0,0,0,0,1,0,0,0,0,0,0,0,0,0,0,0,0,0,0,0,0,0,0,0,0,0,0,0,0],"id":5,"left_children":[1,3,5,-1,7,9,11,13,-1,15,17,19,21,-1,-1,23,25,27,29,31,33,35,37,-1,-1,39,41,43,-1,45,47,49,-1,51,53,55,57,59,61,-1,-1,-1,-1,-1,-1,-1,-1,-1,-1,-1,-1,-1,-1,-1,-1,-1,-1,-1,-1,-1,-1,-1,-1],"loss_changes":[5.661238E2,1.0096408E3,5.704715E1,0E0,3.6330223E-3,1.1393627E1,1.2112553E1,1.1015534E-3,0E0,4.8031734E1,1.0863918E1,1.0037702E1,7.269703E0,0E0,0E0,2.8429256E1,7.197432E-2,7.250588E1,5.804287E0,7.6038826E1,3.9843497E0,5.315796E0,5.648842E-1,0E0,0E0,2.6552878E-2,1.00569226E-1,6.4330645E-2,0E0,3.4750786E0,1.1880605E1,6.2309906E-2,0E0,1.3499684E0,5.5318108E1,2.655566E1,4.6529922E0,2.3666716E-1,2.9862976E-1,0E0,0E0,0E0,0E0,0E0,0E0,0E0,0E0,0E0,0E0,0E0,0E0,0E0,0E0,0E0,0E0,0E0,0E0,0E0,0E0,0E0,0E0,0E0,0E0],"parents":[2147483647,0,0,1,1,2,2,4,4,5,5,6,6,7,7,9,9,10,10,11,11,12,12,15,15,16,16,17,17,18,18,19,19,20,20,21,21,22,22,25,25,26,26,27,27,29,29,30,30,31,31,33,33,34,34,35,35,36,36,37,37,38,38],"right_children":[2,4,6,-1,8,10,12,14,-1,16,18,20,22,-1,-1,24,26,28,30,32,34,36,38,-1,-1,40,42,44,-1,46,48,50,-1,52,54,56,58,60,62,-1,-1,-1,-1,-1,-1,-1,-1,-1,-1,-1,-1,-1,-1,-1,-1,-1,-1,-1,-1,-1,-1,-1,-1],"split_conditions":[7.2960764E-1,4.9687987E-3,1.005631E0,5.1114917E-1,7.88993E-3,7.9646116E-1,1.1121784E0,1.6333542E2,1.6680919E-2,2.8501762E-2,6.3625157E-1,-3.7965113E-1,1.3882015E0,2.8002618E-3,1.0304165E-2,7.9537475E-1,8.4332657E-1,1E0,8.835824E-1,5.1E1,5.5E1,-7.651221E-1,1.4939872E0,-5.7801575E-4,-3.27669E-1,7.9537475E-1,2E0,2.5664197E-2,-3.1898093E-1,5.7E1,5.283403E2,1.0318055E1,-3.292073E-1,9.472083E-2,1.0141822E0,2.7945238E-1,1.1187205E0,8.0769897E-1,1.0207275E0,1.0761032E-4,9.6248165E-3,-7.0788725E-3,2.454302E-3,-1.8608021E-3,5.8967653E-3,7.4976445E-3,-6.023347E-3,2.7780298E-3,-4.9312495E-2,1.0005969E-3,8.536955E-3,3.1423254E-4,-2.5922158E-3,-1.17242895E-1,-8.1896194E-4,-5.335067E-3,-1.3225073E-1,-1.6684426E-2,-5.371154E-3,-2.635479E-3,-1.1900742E-2,-1.7069306E-2,-1.16950665E-2],"split_indices":[0,7,0,0,7,16,0,3,0,7,12,15,0,0,0,0,0,11,0,10,10,6,0,0,0,0,1,7,0,10,3,3,0,7,0,13,0,16,14,0,0,0,0,0,0,0,0,0,0,0,0,0,0,0,0,0,0,0,0,0,0,0,0],"split_type":[0,0,0,0,0,0,0,0,0,0,0,0,0,0,0,0,0,0,0,0,0,0,0,0,0,0,0,0,0,0,0,0,0,0,0,0,0,0,0,0,0,0,0,0,0,0,0,0,0,0,0,0,0,0,0,0,0,0,0,0,0,0,0],"sum_hessian":[8.095E3,4.7E1,8.048E3,1.4E1,3.3E1,3.503E3,4.545E3,5E0,2.8E1,1.6E1,3.487E3,1.853E3,2.692E3,1E0,4E0,2E0,1.4E1,1.4E1,3.473E3,1.2E1,1.841E3,2.371E3,3.21E2,1E0,1E0,3E0,1.1E1,1.3E1,1E0,1.125E3,2.348E3,1.1E1,1E0,1.69E3,1.51E2,2.8E1,2.343E3,1.29E2,1.92E2,1E0,2E0,3E0,8E0,3E0,1E1,1.076E3,4.9E1,2.338E3,1E1,5E0,6E0,1.044E3,6.46E2,1E1,1.41E2,2.4E1,4E0,9.4E1,2.249E3,8E0,1.21E2,1.48E2,4.4E1],"tree_param":{"num_deleted":"0","num_feature":"22","num_nodes":"63","size_leaf_vector":"1"}},{"base_weights":[3.55358E-4,3.5477345E0,-2.1705503E-2,4.9174538E-1,2.9980314E-1,6.97555E-2,-9.1945514E-2,6.9988267E-3,3.1075487E-1,-8.325389E-1,7.3365375E-2,-3.2351486E-2,-1.3309546E-1,1.8306834E-1,1.6413445E-2,6.036243E-2,-3.110064E-1,-6.860947E-1,7.729172E-2,-8.9077413E-1,-2.6292015E-2,-1.1565204E-1,-2.8163487E-1,2.7302552E-3,9.891999E-3,1.7952774E-2,1.42319575E-2,-3.1947726E-1,2.5257988E-2,1.3884678E-1,4.8001796E-2,1.0491838E-1,-3.2097712E-1,-1.9873807E-2,-3.2332388E-1,-5.002309E-1,-1.1075581E-1,-3.033577E-1,-2.0290163E-1,4.1329353E-3,-2.0037068E-3,7.030452E-3,-4.7517993E-4,8.677199E-3,5.335651E-3,2.639018E-3,-4.0718097E-2,6.4752772E-3,-4.138509E-3,-4.4776085E-3,8.085236E-6,-1.6419852E-1,7.3090236E-4,-4.560185E-3,-1.06056966E-1,-1.5442096E-2,-5.1056854E-3,-1.4778264E-2,-2.8887976E-2,3.240452E-3,-1.0629139E-2],"categories":[],"categories_nodes":[],"categories_segments":[],"categories_sizes":[],"default_left":[0,0,0,0,0,0,0,0,0,0,0,0,0,0,0,0,0,0,0,0,0,0,0,0,0,0,0,0,0,0,0,0,0,0,0,0,0,0,0,0,0,0,0,0,0,0,0,0,0,0,0,0,0,0,0,0,0,0,0,0,0],"id":6,"left_children":[1,3,5,-1,7,9,11,-1,13,15,17,19,21,23,-1,25,-1,27,29,31,33,35,37,-1,-1,39,-1,-1,41,43,45,47,-1,49,51,53,55,57,59,-1,-1,-1,-1,-1,-1,-1,-1,-1,-1,-1,-1,-1,-1,-1,-1,-1,-1,-1,-1,-1,-1],"loss_changes":[6.331079E2,1.0180668E3,5.165716E1,0E0,1.6014576E-2,1.1438374E1,1.1148712E1,0E0,9.22966E-3,6.7723656E1,1.0430037E1,9.646333E0,6.937317E0,5.825758E-4,0E0,1.1853942E-1,0E0,7.319035E1,6.236925E0,7.2237915E1,3.5147166E0,4.480709E0,4.2075348E-1,0E0,0E0,4.8368692E-2,0E0,0E0,6.9502644E-2,1.2257671E0,9.718763E0,6.609593E-2,0E0,2.5254538E0,3.9068542E1,1.9696415E1,4.042736E0,2.9751396E-1,1.7964911E-1,0E0,0E0,0E0,0E0,0E0,0E0,0E0,0E0,0E0,0E0,0E0,0E0,0E0,0E0,0E0,0E0,0E0,0E0,0E0,0E0,0E0,0E0],"parents":[2147483647,0,0,1,1,2,2,4,4,5,5,6,6,8,8,9,9,10,10,11,11,12,12,13,13,15,15,17,17,18,18,19,19,20,20,21,21,22,22,25,25,28,28,29,29,30,30,31,31,33,33,34,34,35,35,36,36,37,37,38,38],"right_children":[2,4,6,-1,8,10,12,-1,14,16,18,20,22,24,-1,26,-1,28,30,32,34,36,38,-1,-1,40,-1,-1,42,44,46,48,-1,50,52,54,56,58,60,-1,-1,-1,-1,-1,-1,-1,-1,-1,-1,-1,-1,-1,-1,-1,-1,-1,-1,-1,-1,-1,-1],"split_conditions":[7.2960764E-1,4.9687987E-3,1.005631E0,4.9174538E-1,-3.3845374E-1,6.3625157E-1,1.1121784E0,6.9988267E-3,7.88993E-3,1E0,7.9646116E-1,-3.7965113E-1,1.4149007E0,4.474943E-1,1.6413445E-2,5.076945E-1,-3.110064E-1,1.15E1,8.835824E-1,1.3839114E0,2.6398477E-1,-7.651221E-1,7.09458E-2,2.7302552E-3,9.891999E-3,1.65E1,1.42319575E-2,-3.1947726E-1,1.45E1,8.3584774E-1,1.4475076E0,3.1E1,-3.2097712E-1,1.5E1,1.0074211E0,1.6875564E-1,1.1187205E0,1.8334516E0,8.022313E-1,4.1329353E-3,-2.0037068E-3,7.030452E-3,-4.7517993E-4,8.677199E-3,5.335651E-3,2.639018E-3,-4.0718097E-2,6.4752772E-3,-4.138509E-3,-4.4776085E-3,8.085236E-6,-1.6419852E-1,7.3090236E-4,-4.560185E-3,-1.06056966E-1,-1.5442096E-2,-5.1056854E-3,-1.4778264E-2,-2.8887976E-2,3.240452E-3,-1.0629139E-2],"split_indices":[0,7,0,0,17,12,0,0,7,11,16,15,0,2,0,6,0,4,0,12,7,6,7,0,0,4,0,0,4,0,2,4,0,9,0,17,0,16,16,0,0,0,0,0,0,0,0,0,0,0,0,0,0,0,0,0,0,0,0,0,0],"split_type":[0,0,0,0,0,0,0,0,0,0,0,0,0,0,0,0,0,0,0,0,0,0,0,0,0,0,0,0,0,0,0,0,0,0,0,0,0,0,0,0,0,0,0,0,0,0,0,0,0,0,0,0,0,0,0,0,0,0,0,0,0],"sum_hessian":[8.088E3,4.9E1,8.039E3,1.6E1,3.3E1,3.492E3,4.547E3,3E0,3E1,1.3E1,3.479E3,1.858E3,2.689E3,5E0,2.5E1,1.2E1,1E0,1.7E1,3.462E3,1.2E1,1.846E3,2.408E3,2.81E2,1E0,4E0,1.1E1,1E0,1E0,1.6E1,1.115E3,2.347E3,1.1E1,1E0,1.808E3,3.8E1,2.9E1,2.379E3,2.18E2,6.3E1,5E0,6E0,3E0,1.3E1,5.34E2,5.81E2,2.335E3,1.2E1,1E1,1E0,4.03E2,1.405E3,3E0,3.5E1,2.4E1,5E0,9.8E1,2.281E3,2.14E2,4E0,2E0,6.1E1],"tree_param":{"num_deleted":"0","num_feature":"22","num_nodes":"61","size_leaf_vector":"1"}},{"base_weights":[4.2671664E-3,3.1458023E0,-1.48201855E-2,6.0155263E0,-9.4140105E-2,-9.3147464E-2,5.818251E-2,-2.687528E-1,8.344932E0,-3.9392763E-1,-3.2554857E-2,-1.2269281E-1,-5.04041E-2,-7.1346176E-1,6.1322637E-2,8.745561E-3,-3.6270988E-1,4.4200283E-1,-1.4182764E-2,-2.384413E-2,-3.626569E-3,1.4416344E-1,-8.261584E-2,-2.544695E-1,-1.0134438E-1,-4.288344E-2,-2.5591934E-1,-3.1149033E-1,2.067267E-2,-7.2624266E-1,6.4157896E-2,-2.9959872E-3,3.6519044E-3,-2.0058684E-2,-4.259771E-3,-1.7715E-3,9.895965E-3,2.8410798E-2,-1.4575861E-1,-2.1557741E-1,-4.29221E0,-9.392572E-2,-2.7200404E-1,-3.529586E-2,-2.2907609E-1,-1.950858E0,-1.3509549E-2,7.682118E-2,-8.57117E-2,8.685613E-2,-4.00759E0,-3.7186432E-1,6.721364E-2,5.9042173E-3,-3.4182721E-3,-8.535086E-3,2.5918128E-3,-1.2684166E-2,-4.436589E-3,-3.2224494E-1,3.2918612E-4,-6.651292E-3,-3.6624072E-3,-1.7625348E-1,-5.1924395E-3,-3.8378288E-3,-8.124001E-4,-9.050765E-5,-2.2732627E-1,1.7563578E-3,-3.4666923E-1,-5.365159E-3,2.9055043E-3,-5.846902E-4,5.573801E-3,-5.62074E-3,-1.0768503E-3,7.71631E-4,9.902361E-3,-3.0323124E-1,2.661999E-3,3.5358926E-3,-2.1155746E-1,4.111213E-3,1.797676E-4],"categories":[],"categories_nodes":[],"categories_segments":[],"categories_sizes":[],"default_left":[0,0,0,0,0,0,0,0,0,0,0,0,0,0,0,0,0,0,0,0,0,0,0,0,0,0,0,0,0,0,0,0,0,0,0,0,0,0,0,0,0,0,0,0,0,0,0,0,0,0,0,0,0,0,0,0,0,0,0,0,0,0,0,0,0,0,0,0,0,0,0,0,0,0,0,0,0,0,0,0,0,0,0,0,0],"id":7,"left_children":[1,3,5,7,9,11,13,15,17,19,21,23,25,27,29,31,33,-1,-1,-1,-1,35,37,39,41,43,45,-1,47,49,51,-1,-1,-1,-1,-1,-1,53,55,57,59,61,63,65,67,69,71,73,75,77,79,81,83,-1,-1,-1,-1,-1,-1,-1,-1,-1,-1,-1,-1,-1,-1,-1,-1,-1,-1,-1,-1,-1,-1,-1,-1,-1,-1,-1,-1,-1,-1,-1,-1],"loss_changes":[4.8653122E2,4.561556E2,4.6121914E1,3.8284717E2,4.3027556E-1,4.9076347E0,1.0160017E1,2.1175557E-1,8.367981E1,7.205665E-2,1.976907E-1,6.4446297E0,2.4496374E0,6.897434E1,9.333446E0,1.7620422E-2,2.9867351E-2,0E0,0E0,0E0,0E0,5.528328E-2,1.23320125E-1,4.932629E1,2.4825249E0,2.1633139E0,2.298235E1,0E0,1.0215765E-1,4.0368973E1,5.547674E0,0E0,0E0,0E0,0E0,0E0,0E0,6.882077E-2,6.306347E-2,1.5145645E0,2.7804321E1,1.5263977E0,4.448958E1,1.1659853E0,5.886432E1,6.951011E1,3.4210867E-1,3.5045773E-2,7.860899E-3,1.0018515E-1,2.538269E1,4.983269E1,3.9312344E0,0E0,0E0,0E0,0E0,0E0,0E0,0E0,0E0,0E0,0E0,0E0,0E0,0E0,0E0,0E0,0E0,0E0,0E0,0E0,0E0,0E0,0E0,0E0,0E0,0E0,0E0,0E0,0E0,0E0,0E0,0E0,0E0],"parents":[2147483647,0,0,1,1,2,2,3,3,4,4,5,5,6,6,7,7,8,8,9,9,10,10,11,11,12,12,13,13,14,14,15,15,16,16,21,21,22,22,23,23,24,24,25,25,26,26,28,28,29,29,30,30,37,37,38,38,39,39,40,40,41,41,42,42,43,43,44,44,45,45,46,46,47,47,48,48,49,49,50,50,51,51,52,52],"right_children":[2,4,6,8,10,12,14,16,18,20,22,24,26,28,30,32,34,-1,-1,-1,-1,36,38,40,42,44,46,-1,48,50,52,-1,-1,-1,-1,-1,-1,54,56,58,60,62,64,66,68,70,72,74,76,78,80,82,84,-1,-1,-1,-1,-1,-1,-1,-1,-1,-1,-1,-1,-1,-1,-1,-1,-1,-1,-1,-1,-1,-1,-1,-1,-1,-1,-1,-1,-1,-1,-1,-1],"split_conditions":[4.9687987E-3,2.0088138E-1,2.3404861E1,1E0,8E0,1.0260417E1,7.9646116E-1,1.1E1,1.3839114E0,3E0,9.114243E-1,9.2855684E-2,3.9569563E-1,1.15E1,6.3625157E-1,2E0,5.3E1,4.4200283E-1,-1.4182764E-2,-2.384413E-2,-3.626569E-3,2E0,9.7453004E-1,9.235668E-2,2.7E1,2.3371529E1,4.0747938E-1,-3.1149033E-1,2.05E1,1E0,-3.7965113E-1,-2.9959872E-3,3.6519044E-3,-2.0058684E-2,-4.259771E-3,-1.7715E-3,9.895965E-3,3.1E1,1.1531143E0,9.179861E0,3E0,3.1993055E0,2.9E1,1.0624931E0,9.546362E-2,9.472083E-2,1E0,1.8479848E0,3.55E1,4.5359028E1,3.8175694E1,5.1E1,7.435017E-2,5.9042173E-3,-3.4182721E-3,-8.535086E-3,2.5918128E-3,-1.2684166E-2,-4.436589E-3,-3.2224494E-1,3.2918612E-4,-6.651292E-3,-3.6624072E-3,-1.7625348E-1,-5.1924395E-3,-3.8378288E-3,-8.124001E-4,-9.050765E-5,-2.2732627E-1,1.7563578E-3,-3.4666923E-1,-5.365159E-3,2.9055043E-3,-5.846902E-4,5.573801E-3,-5.62074E-3,-1.0768503E-3,7.71631E-4,9.902361E-3,-3.0323124E-1,2.661999E-3,3.5358926E-3,-2.1155746E-1,4.111213E-3,1.797676E-4],"split_indices":[7,8,3,5,10,3,16,10,12,1,12,7,13,4,12,1,10,0,0,0,0,1,14,7,1,3,13,0,4,11,15,0,0,0,0,0,0,10,14,3,1,3,1,8,7,7,11,8,4,3,3,10,7,0,0,0,0,0,0,0,0,0,0,0,0,0,0,0,0,0,0,0,0,0,0,0,0,0,0,0,0,0,0,0,0],"split_type":[0,0,0,0,0,0,0,0,0,0,0,0,0,0,0,0,0,0,0,0,0,0,0,0,0,0,0,0,0,0,0,0,0,0,0,0,0,0,0,0,0,0,0,0,0,0,0,0,0,0,0,0,0,0,0,0,0,0,0,0,0,0,0,0,0,0,0,0,0,0,0,0,0,0,0,0,0,0,0,0,0,0,0,0,0],"sum_hessian":[8.112E3,4.8E1,8.064E3,2.5E1,2.3E1,3.89E3,4.174E3,7E0,1.8E1,3E0,2E1,2.299E3,1.591E3,1.6E1,4.158E3,2E0,5E0,1.7E1,1E0,2E0,1E0,4E0,1.6E1,3.19E2,1.98E3,1.536E3,5.5E1,1E0,1.5E1,1.4E1,4.144E3,1E0,1E0,4E0,1E0,1E0,3E0,6E0,1E1,3.17E2,2E0,1.899E3,8.1E1,1.477E3,5.9E1,6E0,4.9E1,1E1,5E0,1.2E1,2E0,2.8E1,4.116E3,3E0,3E0,9E0,1E0,2.43E2,7.4E1,1E0,1E0,6.55E2,1.244E3,3E0,7.8E1,4.64E2,1.013E3,5.7E1,2E0,5E0,1E0,2.1E1,2.8E1,3E0,7E0,3E0,2E0,8E0,4E0,1E0,1E0,2.6E1,2E0,3.33E3,7.86E2],"tree_param":{"num_deleted":"0","num_feature":"22","num_nodes":"85","size_leaf_vector":"1"}},{"base_weights":[-8.036352E-5,3.2915177E0,-1.881733E-2,8.411878E0,2.8026304E-1,6.764826E-2,-8.506068E-2,4.437607E-1,3.2912414E0,5.7800394E-3,1.43948E-2,-7.034976E-1,7.1385175E-2,-4.741525E-2,-1.37629E-1,9.96698E-3,2.3687613E-1,-3.0370307E-1,1.1791471E-2,1.30274E-1,4.3464266E-2,-5.78635E-1,-4.358861E-2,-2.2604051E-1,-1.05495855E-1,5.066077E-2,-6.1434157E-2,1.1390764E-1,1.7749348E-1,4.7742512E-2,-6.796085E-1,7.291589E-2,-3.0766377E-1,-2.5644195E-1,-3.7714124E-2,-1.0197958E0,-2.0478071E-1,-9.5639326E-2,-3.1006464E-1,-6.2870616E-3,4.0437547E-3,-1.3125538E-3,-5.9337392E-3,7.3372335E-3,4.043856E-3,1.2562147E-2,7.844673E-3,-1.1722823E-2,2.5926149E-3,9.110155E-3,-1.9501594E-1,1.4794423E-4,7.1272063E-3,-1.1393138E-1,-3.436071E-3,-1.6103605E-2,-1.6951704E-3,-2.0738125E-1,-3.7021388E-3,-4.1336976E-2,-8.981505E-3,-3.8715475E-3,-6.3314247E-3,-3.4502774E-1,-4.7960537E-3],"categories":[],"categories_nodes":[],"categories_segments":[],"categories_sizes":[],"default_left":[0,0,0,0,0,0,0,0,0,0,0,0,0,0,0,0,0,0,0,0,0,0,0,0,0,0,0,0,0,0,0,0,0,0,0,0,0,0,0,0,0,0,0,0,0,0,0,0,0,0,0,0,0,0,0,0,0,0,0,0,0,0,0,0,0],"id":8,"left_children":[1,3,5,7,9,11,13,-1,15,-1,-1,17,19,21,23,-1,-1,-1,25,27,29,31,33,35,37,39,41,43,45,47,49,51,-1,53,55,57,59,61,63,-1,-1,-1,-1,-1,-1,-1,-1,-1,-1,-1,-1,-1,-1,-1,-1,-1,-1,-1,-1,-1,-1,-1,-1,-1,-1],"loss_changes":[5.0122943E2,7.069031E2,4.6291866E1,1.1123291E1,4.4248104E-3,1.0153482E1,9.049179E0,0E0,1.24709015E1,0E0,0E0,6.537722E1,5.7326984E0,5.3982506E0,5.3995094E0,0E0,0E0,0E0,4.8651967E-2,8.4687614E-1,7.3609123E0,6.9459755E1,3.3038998E0,8.363703E0,2.7972536E0,6.879787E-2,8.968068E-3,8.948765E-1,3.9660454E-1,2.7445889E0,3.9569683E1,8.725592E-2,0E0,2.679542E1,2.7847853E0,3.8148903E1,7.6102486E0,7.4574184E-1,8.966199E1,0E0,0E0,0E0,0E0,0E0,0E0,0E0,0E0,0E0,0E0,0E0,0E0,0E0,0E0,0E0,0E0,0E0,0E0,0E0,0E0,0E0,0E0,0E0,0E0,0E0,0E0],"parents":[2147483647,0,0,1,1,2,2,3,3,4,4,5,5,6,6,8,8,11,11,12,12,13,13,14,14,18,18,19,19,20,20,21,21,22,22,23,23,24,24,25,25,26,26,27,27,28,28,29,29,30,30,31,31,33,33,34,34,35,35,36,36,37,37,38,38],"right_children":[2,4,6,8,10,12,14,-1,16,-1,-1,18,20,22,24,-1,-1,-1,26,28,30,32,34,36,38,40,42,44,46,48,50,52,-1,54,56,58,60,62,64,-1,-1,-1,-1,-1,-1,-1,-1,-1,-1,-1,-1,-1,-1,-1,-1,-1,-1,-1,-1,-1,-1,-1,-1,-1,-1],"split_conditions":[7.2960764E-1,2.0088138E-1,1.005631E0,-1.2672926E-2,5.5844116E-1,7.9646116E-1,1.1608249E0,4.437607E-1,8.921233E-3,5.7800394E-3,1.43948E-2,1.15E1,8.835824E-1,-3.7965113E-1,1E0,9.96698E-3,2.3687613E-1,-3.0370307E-1,2.05E1,1E0,1.4475076E0,5.1E1,8.765221E-3,-7.651221E-1,2.8E1,8.765221E-3,9.3851966E-1,8.391118E-1,8.1178385E-1,8.8575625E-1,1.0900697E0,2.8268645E-2,-3.0766377E-1,4.99308E-1,1.0074211E0,1.1917485E0,7.999486E-1,1.2830352E0,2.9E1,-6.2870616E-3,4.0437547E-3,-1.3125538E-3,-5.9337392E-3,7.3372335E-3,4.043856E-3,1.2562147E-2,7.844673E-3,-1.1722823E-2,2.5926149E-3,9.110155E-3,-1.9501594E-1,1.4794423E-4,7.1272063E-3,-1.1393138E-1,-3.436071E-3,-1.6103605E-2,-1.6951704E-3,-2.0738125E-1,-3.7021388E-3,-4.1336976E-2,-8.981505E-3,-3.8715475E-3,-6.3314247E-3,-3.4502774E-1,-4.7960537E-3],"split_indices":[0,8,0,17,8,16,0,0,2,0,0,4,0,15,11,0,0,0,4,11,2,10,2,6,1,2,0,0,0,0,12,2,0,8,0,0,14,0,1,0,0,0,0,0,0,0,0,0,0,0,0,0,0,0,0,0,0,0,0,0,0,0,0,0,0],"split_type":[0,0,0,0,0,0,0,0,0,0,0,0,0,0,0,0,0,0,0,0,0,0,0,0,0,0,0,0,0,0,0,0,0,0,0,0,0,0,0,0,0,0,0,0,0,0,0,0,0,0,0,0,0,0,0,0,0,0,0,0,0,0,0,0,0],"sum_hessian":[8.125E3,4.5E1,8.08E3,1.6E1,2.9E1,3.505E3,4.575E3,1.4E1,2E0,2E0,2.7E1,1.6E1,3.489E3,2.667E3,1.908E3,1E0,1E0,1E0,1.5E1,1.121E3,2.368E3,1.8E1,2.649E3,5.07E2,1.401E3,1E1,5E0,8.35E2,2.86E2,2.355E3,1.3E1,1.7E1,1E0,7E1,2.579E3,1.2E1,4.95E2,1.338E3,6.3E1,1E0,9E0,4E0,1E0,4.17E2,4.18E2,6E1,2.26E2,3.3E1,2.322E3,1.1E1,2E0,9E0,8E0,5E0,6.5E1,3.3E1,2.546E3,2E0,1E1,1.8E1,4.77E2,8.45E2,4.93E2,1E0,6.2E1],"tree_param":{"num_deleted":"0","num_feature":"22","num_nodes":"65","size_leaf_vector":"1"}},{"base_weights":[1.8290385E-4,3.2712767E0,-1.8982092E-2,4.2813835E-1,2.639664E-1,5.624548E-2,-7.6661766E-2,5.4260804E-3,2.7094463E-1,-6.8912554E-1,5.96691E-2,-6.454033E-2,-2.3797545E-1,7.538634E-3,2.8414124E-1,5.350682E-2,-2.957153E-1,-6.370133E-1,6.328667E-2,-5.2265394E-1,-6.168902E-2,-1.24984674E-1,-2.5066456E-1,7.807831E-3,1.5054162E-2,1.1942241E-2,1.6482385E-1,-2.9611048E-1,2.224584E-2,1.0155934E-1,3.1158553E-2,-8.1468925E-2,-2.3593373E0,-2.369445E-2,-8.4523074E-2,-1.6447961E-1,2.3933845E-2,-2.1411774E-1,-3.017486E-1,3.349137E-3,-2.7131021E-3,-1.1639828E-3,1.1764246E-2,6.4061517E-3,-4.796887E-4,4.307135E-3,7.1451226E-3,1.8679303E-3,-8.152389E-2,-6.4470107E-3,5.2860742E-3,7.043551E-3,-3.0900428E-1,-6.333018E-2,-8.2772004E-4,-5.04946E-2,-4.0119705E-3,-1.0160777E-2,2.3300748E-3,-6.208121E-4,4.432804E-3,-1.1125558E-2,-2.0088973E-3,-1.5442041E-2,3.4168959E-3],"categories":[],"categories_nodes":[],"categories_segments":[],"categories_sizes":[],"default_left":[0,0,0,0,0,0,0,0,0,0,0,0,0,0,0,0,0,0,0,0,0,0,0,0,0,0,0,0,0,0,0,0,0,0,0,0,0,0,1,0,0,0,0,0,0,0,0,0,0,0,0,0,0,0,0,0,0,0,0,0,0,0,0,0,0],"id":9,"left_children":[1,3,5,-1,7,9,11,-1,13,15,17,19,21,-1,23,25,-1,27,29,31,33,35,37,-1,-1,39,41,-1,43,45,47,49,51,53,55,57,59,61,63,-1,-1,-1,-1,-1,-1,-1,-1,-1,-1,-1,-1,-1,-1,-1,-1,-1,-1,-1,-1,-1,-1,-1,-1,-1,-1],"loss_changes":[5.0584903E2,7.4565784E2,3.4812588E1,0E0,4.22287E-3,8.92672E0,8.863905E0,0E0,3.1495094E-3,6.2402664E1,8.778186E0,5.4865494E0,4.231701E-1,0E0,7.191658E-3,6.743431E-2,0E0,6.28494E1,4.2390547E0,2.0876034E1,3.6417923E0,2.0390862E-1,4.656086E-1,0E0,0E0,4.736162E-2,5.8493234E-2,0E0,5.8537696E-2,9.909134E-1,1.9398197E1,2.0912749E-1,4.8633926E1,1.3982887E1,1.0316477E1,2.3023343E-1,1.9922044E-2,2.3779202E-1,3.2557392E-1,0E0,0E0,0E0,0E0,0E0,0E0,0E0,0E0,0E0,0E0,0E0,0E0,0E0,0E0,0E0,0E0,0E0,0E0,0E0,0E0,0E0,0E0,0E0,0E0,0E0,0E0],"parents":[2147483647,0,0,1,1,2,2,4,4,5,5,6,6,8,8,9,9,10,10,11,11,12,12,14,14,15,15,17,17,18,18,19,19,20,20,21,21,22,22,25,25,26,26,28,28,29,29,30,30,31,31,32,32,33,33,34,34,35,35,36,36,37,37,38,38],"right_children":[2,4,6,-1,8,10,12,-1,14,16,18,20,22,-1,24,26,-1,28,30,32,34,36,38,-1,-1,40,42,-1,44,46,48,50,52,54,56,58,60,62,64,-1,-1,-1,-1,-1,-1,-1,-1,-1,-1,-1,-1,-1,-1,-1,-1,-1,-1,-1,-1,-1,-1,-1,-1,-1,-1],"split_conditions":[7.2960764E-1,4.9687987E-3,1.005631E0,4.2813835E-1,-3.6741436E-1,6.3625157E-1,1.3882015E0,5.4260804E-3,7.88993E-3,1E0,7.9646116E-1,-7.651221E-1,-2.5511855E-1,7.538634E-3,8.1406456E-1,5.076945E-1,-2.957153E-1,1.15E1,9.1013944E-1,2.7945238E-1,9.546362E-2,3E0,1.5249436E0,7.807831E-3,1.5054162E-2,2E1,8.090097E-1,-2.9611048E-1,1.45E1,6.8497455E-1,5.283403E2,9.980508E-1,7.987913E-2,-3.7965113E-1,1.0074211E0,1.5670417E-1,1.4678068E0,3.4E0,3.288801E-1,3.349137E-3,-2.7131021E-3,-1.1639828E-3,1.1764246E-2,6.4061517E-3,-4.796887E-4,4.307135E-3,7.1451226E-3,1.8679303E-3,-8.152389E-2,-6.4470107E-3,5.2860742E-3,7.043551E-3,-3.0900428E-1,-6.333018E-2,-8.2772004E-4,-5.04946E-2,-4.0119705E-3,-1.0160777E-2,2.3300748E-3,-6.208121E-4,4.432804E-3,-1.1125558E-2,-2.0088973E-3,-1.5442041E-2,3.4168959E-3],"split_indices":[0,7,0,0,17,12,0,0,7,11,16,6,17,0,16,6,0,4,0,13,7,1,0,0,0,4,0,0,4,6,3,16,7,15,0,13,0,3,15,0,0,0,0,0,0,0,0,0,0,0,0,0,0,0,0,0,0,0,0,0,0,0,0,0,0],"split_type":[0,0,0,0,0,0,0,0,0,0,0,0,0,0,0,0,0,0,0,0,0,0,0,0,0,0,0,0,0,0,0,0,0,0,0,0,0,0,0,0,0,0,0,0,0,0,0,0,0,0,0,0,0,0,0,0,0,0,0,0,0,0,0,0,0],"sum_hessian":[8.067E3,4.6E1,8.021E3,1.6E1,3E1,3.481E3,4.54E3,2E0,2.8E1,1.5E1,3.466E3,4.224E3,3.16E2,4E0,2.4E1,1.4E1,1E0,1.7E1,3.449E3,2.5E1,4.199E3,3.3E1,2.83E2,4E0,2E1,1.1E1,3E0,1E0,1.6E1,1.573E3,1.876E3,2.1E1,4E0,1.577E3,2.622E3,2.6E1,7E0,1.68E2,1.15E2,6E0,5E0,1E0,2E0,3E0,1.3E1,1.148E3,4.25E2,1.87E3,6E0,1.7E1,4E0,3E0,1E0,8E0,1.569E3,1.1E1,2.611E3,2.2E1,4E0,5E0,2E0,1.6E2,8E0,1.13E2,2E0],"tree_param":{"num_deleted":"0","num_feature":"22","num_nodes":"65","size_leaf_vector":"1"}},{"base_weights":[2.4333908E-4,3.1974556E0,-1.686472E-2,4.0653244E-1,2.6429367E-1,6.101603E-2,-7.688014E-2,1.5599209E-1,2.810552E-1,-6.7244923E-1,6.436786E-2,-4.2249538E-2,-1.2517622E-1,2.2624822E-3,8.454532E-3,3.5530718E-3,1.4368516E-2,5.1580567E-2,-2.8832242E-1,1.4581048E-1,4.6680037E-2,-5.258136E-1,-3.8736038E-2,-5.6259507E-1,-1.192646E-1,1.1398133E-2,1.5923274E-1,2.2312292E-1,1.3683644E-1,5.0079297E-2,-3.2615742E-1,1.08061016E-1,-2.9838893E-1,-2.2531268E-3,-7.753856E-2,-1.2744993E-1,-2.2776856E0,-9.8082885E-2,-2.2643651E-1,3.2056028E-3,-2.6000564E-3,-1.1348833E-3,1.1372104E-2,-1.1457958E-3,1.1578272E-2,3.2591291E-3,7.226324E-3,3.2873251E-3,-1.6455712E-4,5.736699E-3,-1.8722847E-1,6.184165E-4,1.01189725E-2,2.960836E-4,-9.4256485E-3,-3.4090392E-3,-5.7246584E-2,3.0152735E-3,-9.494629E-3,-2.0201798E-1,1.2210845E-2,-2.4331683E-2,-4.5212577E-3,-1.0456552E-2,-1.821558E-2],"categories":[],"categories_nodes":[],"categories_segments":[],"categories_sizes":[],"default_left":[0,0,0,0,0,0,0,0,0,0,0,0,0,0,0,0,0,0,0,0,0,0,0,0,0,0,0,0,0,1,0,0,0,0,0,0,0,0,0,0,0,0,0,0,0,0,0,0,0,0,0,0,0,0,0,0,0,0,0,0,0,0,0,0,0],"id":10,"left_children":[1,3,5,-1,7,9,11,13,15,17,19,21,23,-1,-1,-1,-1,25,-1,27,29,31,33,35,37,39,41,43,45,47,49,51,-1,53,55,57,59,61,63,-1,-1,-1,-1,-1,-1,-1,-1,-1,-1,-1,-1,-1,-1,-1,-1,-1,-1,-1,-1,-1,-1,-1,-1,-1,-1],"loss_changes":[4.4190518E2,6.200547E2,3.7565327E1,0E0,6.986022E-3,8.642947E0,7.5862904E0,1.0521263E-3,1.0080099E-2,5.9308746E1,5.010605E0,4.4734945E0,4.8330994E0,0E0,0E0,0E0,0E0,6.307093E-2,0E0,4.0032196E-1,3.644815E0,6.618582E1,3.7186823E0,1.8367542E1,4.2251205E0,4.3438178E-2,5.4799832E-2,1.3616943E-1,2.9860115E-1,2.3732553E0,3.961549E1,1.5995742E-1,0E0,2.0642889E0,1.2637194E1,2.5765443E-1,2.321318E1,4.609544E0,6.586971E-1,0E0,0E0,0E0,0E0,0E0,0E0,0E0,0E0,0E0,0E0,0E0,0E0,0E0,0E0,0E0,0E0,0E0,0E0,0E0,0E0,0E0,0E0,0E0,0E0,0E0,0E0],"parents":[2147483647,0,0,1,1,2,2,4,4,5,5,6,6,7,7,8,8,9,9,10,10,11,11,12,12,17,17,19,19,20,20,21,21,22,22,23,23,24,24,25,25,26,26,27,27,28,28,29,29,30,30,31,31,33,33,34,34,35,35,36,36,37,37,38,38],"right_children":[2,4,6,-1,8,10,12,14,16,18,20,22,24,-1,-1,-1,-1,26,-1,28,30,32,34,36,38,40,42,44,46,48,50,52,-1,54,56,58,60,62,64,-1,-1,-1,-1,-1,-1,-1,-1,-1,-1,-1,-1,-1,-1,-1,-1,-1,-1,-1,-1,-1,-1,-1,-1,-1,-1],"split_conditions":[7.2960764E-1,4.9687987E-3,1.005631E0,4.0653244E-1,7.88993E-3,6.3625157E-1,1.1608249E0,1.6333542E2,-5.9389585E-1,-4.380623E-1,8.4332657E-1,-3.7965113E-1,-7.651221E-1,2.2624822E-3,8.454532E-3,3.5530718E-3,1.4368516E-2,5.076945E-1,-2.8832242E-1,7.8374714E-1,5.283403E2,5.1E1,9.546362E-2,5.3E1,1.3882015E0,2E1,8.090097E-1,-2.5732368E-1,-2.1389936E-1,1.0343322E-1,1.0900697E0,1.0318055E1,-2.9838893E-1,5.7E1,1.5887365E0,2.5E1,1.1917485E0,1.1631434E0,1.5847898E0,3.2056028E-3,-2.6000564E-3,-1.1348833E-3,1.1372104E-2,-1.1457958E-3,1.1578272E-2,3.2591291E-3,7.226324E-3,3.2873251E-3,-1.6455712E-4,5.736699E-3,-1.8722847E-1,6.184165E-4,1.01189725E-2,2.960836E-4,-9.4256485E-3,-3.4090392E-3,-5.7246584E-2,3.0152735E-3,-9.494629E-3,-2.0201798E-1,1.2210845E-2,-2.4331683E-2,-4.5212577E-3,-1.0456552E-2,-1.821558E-2],"split_indices":[0,7,0,0,7,12,0,3,17,13,0,15,6,0,0,0,0,6,0,0,3,10,7,10,0,4,0,15,17,15,12,3,0,10,8,10,0,0,0,0,0,0,0,0,0,0,0,0,0,0,0,0,0,0,0,0,0,0,0,0,0,0,0,0,0],"split_type":[0,0,0,0,0,0,0,0,0,0,0,0,0,0,0,0,0,0,0,0,0,0,0,0,0,0,0,0,0,0,0,0,0,0,0,0,0,0,0,0,0,0,0,0,0,0,0,0,0,0,0,0,0,0,0,0,0,0,0,0,0,0,0,0,0],"sum_hessian":[8.077E3,4.2E1,8.035E3,1.5E1,2.7E1,3.497E3,4.538E3,5E0,2.2E1,1.5E1,3.482E3,2.644E3,1.894E3,1E0,4E0,1E0,2.1E1,1.4E1,1E0,6.2E2,2.862E3,1.8E1,2.626E3,2.4E1,1.87E3,1.1E1,3E0,6.2E1,5.58E2,2.837E3,2.5E1,1.7E1,1E0,1.354E3,1.272E3,2E1,4E0,1.563E3,3.07E2,6E0,5E0,1E0,2E0,2E0,6E1,5.5E1,5.03E2,2.193E3,6.44E2,2.3E1,2E0,9E0,8E0,1.298E3,5.6E1,1.262E3,1E1,5E0,1.5E1,2E0,2E0,2.9E1,1.534E3,2.75E2,3.2E1],"tree_param":{"num_deleted":"0","num_feature":"22","num_nodes":"65","size_leaf_vector":"1"}},{"base_weights":[-1.3707773E-3,-1.7055305E-2,2.8027046E0,-9.283315E-2,3.3508666E-2,5.8666677E0,1.16867535E-1,-7.5184095E-1,-8.9514285E-2,-5.6371677E-1,3.611129E-2,7.2522197E0,-1.754226E-2,-2.217016E-2,1.5868728E-1,-1.2020513E-2,-2.962287E-1,-2.100289E-1,-8.377625E-2,-2.8878993E-1,-1.4322766E-2,-5.019889E-1,3.8464822E-2,3.8470846E-1,2.6250658E0,9.163397E-3,-1.13561794E-1,2.4087226E-1,7.06175E-2,-1.0399451E-1,1.9272639E-1,-1.2198659E-1,-2.6508162E0,-7.925627E-2,-1.9583595E-1,1.2087407E-1,-4.529127E-2,3.5140336E-2,-2.8111434E-1,-1.3563965E-2,5.5417567E-2,-1.3027111E-2,2.0990705E-1,-6.522623E-3,-1.5722447E-3,1.7631246E-3,2.5635839E-1,1.22062884E-1,-7.077738E-3,-1.3513878E-3,-1.159647E-2,1.1803817E-2,4.2567155E-3,-6.897288E-2,-1.2899747E-3,-3.3458444E-1,1.6162171E-3,-3.7313711E-3,-9.781684E-3,-1.671587E-1,-4.2330204E-3,8.4268795E-3,-5.5291224E-4,-4.68081E-3,-5.210828E-4,-1.0818971E-3,4.7041206E-3,-9.666812E-2,-1.8620367E-4,3.0825997E-3,-4.5416993E-3,1.3624872E-2,2.3741915E-3,7.3196995E-3,4.1909827E-4],"categories":[],"categories_nodes":[],"categories_segments":[],"categories_sizes":[],"default_left":[0,0,0,0,0,0,0,0,1,0,0,0,0,0,0,0,0,1,0,0,0,0,0,0,0,0,0,0,0,0,0,0,0,0,0,0,0,0,0,0,0,0,0,0,0,0,0,0,0,0,0,0,0,0,0,0,0,0,0,0,0,0,0,0,0,0,0,0,0,0,0,0,0,0,0],"id":11,"left_children":[1,3,5,7,9,11,13,15,17,19,21,23,25,-1,27,29,-1,31,33,-1,35,37,39,-1,41,-1,43,45,47,49,51,53,55,57,59,61,63,65,-1,67,69,-1,-1,-1,-1,-1,71,73,-1,-1,-1,-1,-1,-1,-1,-1,-1,-1,-1,-1,-1,-1,-1,-1,-1,-1,-1,-1,-1,-1,-1,-1,-1,-1,-1],"loss_changes":[3.5580685E2,3.0828564E1,3.696331E2,6.9753456E0,7.5216737E0,1.7133765E2,6.561219E-1,6.115908E1,2.198717E0,6.005049E1,6.1057944E0,1.4566772E1,1.1722074E-1,0E0,1.5670258E-1,3.0251336E-1,0E0,3.0836056E1,1.5348988E0,0E0,8.921141E-2,5.7953064E1,4.2221518E0,0E0,1.4711626E1,0E0,1.4459752E-3,2.9169261E-2,1.5917727E-1,1.02045536E-1,3.2223463E-3,1.7018711E1,5.4427452E1,1.5713139E0,4.1005993E1,2.7017169E-2,2.7670585E-2,6.896833E-2,0E0,2.2227047E1,3.2971773E0,0E0,0E0,0E0,0E0,0E0,2.4142265E-2,2.9198736E-2,0E0,0E0,0E0,0E0,0E0,0E0,0E0,0E0,0E0,0E0,0E0,0E0,0E0,0E0,0E0,0E0,0E0,0E0,0E0,0E0,0E0,0E0,0E0,0E0,0E0,0E0,0E0],"parents":[2147483647,0,0,1,1,2,2,3,3,4,4,5,5,6,6,7,7,8,8,9,9,10,10,11,11,12,12,14,14,15,15,17,17,18,18,20,20,21,21,22,22,24,24,26,26,27,27,28,28,29,29,30,30,31,31,32,32,33,33,34,34,35,35,36,36,37,37,39,39,40,40,46,46,47,47],"right_children":[2,4,6,8,10,12,14,16,18,20,22,24,26,-1,28,30,-1,32,34,-1,36,38,40,-1,42,-1,44,46,48,50,52,54,56,58,60,62,64,66,-1,68,70,-1,-1,-1,-1,-1,72,74,-1,-1,-1,-1,-1,-1,-1,-1,-1,-1,-1,-1,-1,-1,-1,-1,-1,-1,-1,-1,-1,-1,-1,-1,-1,-1,-1],"split_conditions":[9.575531E-1,4.7106165E-2,2.0088138E-1,-7.651221E-1,7.9646116E-1,4.9687987E-3,3E0,7.3292863E-1,8.1372285E-1,1.15E1,6.3625157E-1,1.3631356E0,8.921233E-3,-2.217016E-2,9.801933E-1,5.3E1,-2.962287E-1,7.247391E-2,2.8E1,-2.8878993E-1,1.45E1,-4.380623E-1,8.304604E-2,3.8470846E-1,4.449201E-2,9.163397E-3,9E0,3E0,1.022419E0,8.7905294E-1,2.8325588E-1,8.0824596E-1,4.99308E-1,3.9569563E-1,2.9E1,2E0,2E0,2.4379654E-1,-2.8111434E-1,-3.7965113E-1,5.7E1,-1.3027111E-2,2.0990705E-1,-6.522623E-3,-1.5722447E-3,1.7631246E-3,-5.8442853E-2,1.9E1,-7.077738E-3,-1.3513878E-3,-1.159647E-2,1.1803817E-2,4.2567155E-3,-6.897288E-2,-1.2899747E-3,-3.3458444E-1,1.6162171E-3,-3.7313711E-3,-9.781684E-3,-1.671587E-1,-4.2330204E-3,8.4268795E-3,-5.5291224E-4,-4.68081E-3,-5.210828E-4,-1.0818971E-3,4.7041206E-3,-9.666812E-2,-1.8620367E-4,3.0825997E-3,-4.5416993E-3,1.3624872E-2,2.3741915E-3,7.3196995E-3,4.1909827E-4],"split_indices":[6,2,8,6,16,7,4,8,14,4,12,12,2,0,12,10,0,15,1,0,4,13,2,0,2,0,4,10,14,16,8,16,8,13,1,1,1,6,0,15,10,0,0,0,0,0,13,9,0,0,0,0,0,0,0,0,0,0,0,0,0,0,0,0,0,0,0,0,0,0,0,0,0,0,0],"split_type":[0,0,0,0,0,0,0,0,0,0,0,0,0,0,0,0,0,0,0,0,0,0,0,0,0,0,0,0,0,0,0,0,0,0,0,0,0,0,0,0,0,0,0,0,0,0,0,0,0,0,0,0,0,0,0,0,0,0,0,0,0,0,0,0,0,0,0,0,0,0,0,0,0,0,0],"sum_hessian":[8.088E3,8.044E3,4.4E1,3.219E3,4.825E3,2E1,2.4E1,1.5E1,3.204E3,2E1,4.805E3,1.6E1,4E0,1E0,2.3E1,1.4E1,1E0,1.44E2,3.06E3,1E0,1.9E1,2E1,4.785E3,1.4E1,2E0,1E0,3E0,1.1E1,1.2E1,1E1,4E0,1.4E2,4E0,2.943E3,1.17E2,3E0,1.6E1,1.9E1,1E0,1.176E3,3.609E3,1E0,1E0,2E0,1E0,1E0,1E1,1E1,2E0,7E0,3E0,2E0,2E0,9E0,1.31E2,1E0,3E0,2.832E3,1.11E2,3E0,1.14E2,2E0,1E0,6E0,1E1,1E1,9E0,5E0,1.171E3,3.462E3,1.47E2,9E0,1E0,8E0,2E0],"tree_param":{"num_deleted":"0","num_feature":"22","num_nodes":"75","size_leaf_vector":"1"}},{"base_weights":[3.2790937E-4,2.7415328E0,-1.5310904E-2,3.7036595E-1,2.4494885E-1,3.2392237E-2,-9.681933E-2,1.2864594E-1,2.5741425E-1,8.849984E-2,6.715861E-3,-8.380557E-2,-2.1097054E-1,1.8652984E-3,7.107722E-3,1.3110802E-2,3.314197E-3,9.562643E-2,-4.264816E-2,9.557789E-3,-8.1800306E-1,-2.4180532E-1,-7.654608E-2,-2.5640497E-1,-1.7952806E-1,1.3254549E-1,7.533638E-2,-4.061417E0,1.0672166E-1,-5.9106904E-1,1.3025857E-2,2.0208865E-1,-3.945641E0,-1.3154933E-1,-3.3236496E0,-3.922775E-1,-7.264409E-2,-1.1379387E-1,-2.7092806E-1,-1.8552679E-1,2.835538E-2,1.0272442E-2,6.154869E-3,4.3702777E-3,-2.3997177E-3,2.49737E-3,-3.0710366E-1,7.7155316E-3,1.0338364E-3,-2.8157017E-1,-1.4699339E-3,-2.5033385E-2,8.1536593E-4,1.6215093E-2,3.3281439E-3,-2.9682934E-1,9.0625725E-4,-8.3702974E-2,-7.496019E-4,-3.2621986E-1,-4.0967395E-3,-2.8986565E-3,-8.877751E-2,-6.200583E-3,-3.019447E-3,-1.3640168E-2,9.84374E-4,-1.3938101E-2,3.1813188E-4,-1.1226322E-2,-7.5322683E-3,-1.0379084E-3,2.905085E-3],"categories":[],"categories_nodes":[],"categories_segments":[],"categories_sizes":[],"default_left":[0,0,0,0,0,0,0,0,0,0,0,0,0,0,0,0,0,0,0,0,0,0,0,0,0,0,1,0,0,0,0,0,0,0,0,0,0,0,1,0,0,0,0,0,0,0,0,0,0,0,0,0,0,0,0,0,0,0,0,0,0,0,0,0,0,0,0,0,0,0,0,0,0],"id":12,"left_children":[1,3,5,-1,7,9,11,13,15,17,19,21,23,-1,-1,-1,-1,25,27,29,31,33,35,37,39,41,43,45,47,49,51,53,55,57,59,61,63,65,67,69,71,-1,-1,-1,-1,-1,-1,-1,-1,-1,-1,-1,-1,-1,-1,-1,-1,-1,-1,-1,-1,-1,-1,-1,-1,-1,-1,-1,-1,-1,-1,-1,-1],"loss_changes":[3.4762537E2,5.3401776E2,3.1353756E1,0E0,1.182735E-2,7.3279395E0,4.4047585E0,8.6612254E-4,7.399082E-3,1.4966955E0,8.189997E0,3.048563E0,3.882532E-1,0E0,0E0,0E0,0E0,1.1248856E0,5.025691E1,7.2565875E0,3.9083103E1,3.9318413E1,3.1229067E0,2.218504E-1,2.3346806E-1,3.4390545E-1,1.462925E0,2.5969791E1,3.2848728E-1,5.645457E1,5.842256E0,1.4404395E-1,2.3782532E1,2.0471054E1,4.096907E1,1.4232525E1,1.583931E0,2.812932E-1,2.4072647E-1,2.083211E-1,9.971768E-3,0E0,0E0,0E0,0E0,0E0,0E0,0E0,0E0,0E0,0E0,0E0,0E0,0E0,0E0,0E0,0E0,0E0,0E0,0E0,0E0,0E0,0E0,0E0,0E0,0E0,0E0,0E0,0E0,0E0,0E0,0E0,0E0],"parents":[2147483647,0,0,1,1,2,2,4,4,5,5,6,6,7,7,8,8,9,9,10,10,11,11,12,12,17,17,18,18,19,19,20,20,21,21,22,22,23,23,24,24,25,25,26,26,27,27,28,28,29,29,30,30,31,31,32,32,33,33,34,34,35,35,36,36,37,37,38,38,39,39,40,40],"right_children":[2,4,6,-1,8,10,12,14,16,18,20,22,24,-1,-1,-1,-1,26,28,30,32,34,36,38,40,42,44,46,48,50,52,54,56,58,60,62,64,66,68,70,72,-1,-1,-1,-1,-1,-1,-1,-1,-1,-1,-1,-1,-1,-1,-1,-1,-1,-1,-1,-1,-1,-1,-1,-1,-1,-1,-1,-1,-1,-1,-1,-1],"split_conditions":[7.2960764E-1,4.9687987E-3,1.0910463E0,3.7036595E-1,7.88993E-3,9.1013944E-1,1.3882015E0,4.474943E-1,6.1368823E-1,5.6E1,1.4475076E0,8.1372285E-1,1.6E1,1.8652984E-3,7.107722E-3,1.3110802E-2,3.314197E-3,8.391118E-1,7.8374714E-1,7.9646116E-1,1.0914123E0,-7.040244E-2,-7.651221E-1,8.1458E-1,1.2660965E0,7.8374714E-1,1.0897177E0,7.674094E-1,8.760161E-1,1.15E1,6.3625157E-1,9.955209E-1,9.201292E-1,8.0824596E-1,8.765221E-3,2.7945238E-1,8.177987E-1,9.1146916E-1,1.5541211E0,8.4304494E-1,4.343576E-1,1.0272442E-2,6.154869E-3,4.3702777E-3,-2.3997177E-3,2.49737E-3,-3.0710366E-1,7.7155316E-3,1.0338364E-3,-2.8157017E-1,-1.4699339E-3,-2.5033385E-2,8.1536593E-4,1.6215093E-2,3.3281439E-3,-2.9682934E-1,9.0625725E-4,-8.3702974E-2,-7.496019E-4,-3.2621986E-1,-4.0967395E-3,-2.8986565E-3,-8.877751E-2,-6.200583E-3,-3.019447E-3,-1.3640168E-2,9.84374E-4,-1.3938101E-2,3.1813188E-4,-1.1226322E-2,-7.5322683E-3,-1.0379084E-3,2.905085E-3],"split_indices":[0,7,0,0,7,0,0,2,13,10,2,14,9,0,0,0,0,0,0,16,12,15,6,16,14,0,14,0,16,4,12,12,0,16,2,13,16,14,16,16,8,0,0,0,0,0,0,0,0,0,0,0,0,0,0,0,0,0,0,0,0,0,0,0,0,0,0,0,0,0,0,0,0],"split_type":[0,0,0,0,0,0,0,0,0,0,0,0,0,0,0,0,0,0,0,0,0,0,0,0,0,0,0,0,0,0,0,0,0,0,0,0,0,0,0,0,0,0,0,0,0,0,0,0,0,0,0,0,0,0,0,0,0,0,0,0,0,0,0,0,0,0,0,0,0,0,0,0,0],"sum_hessian":[8.107E3,4.5E1,8.062E3,1.5E1,3E1,5.086E3,2.976E3,4E0,2.6E1,1.596E3,3.49E3,2.673E3,3.03E2,1E0,3E0,2.5E1,1E0,1.514E3,8.2E1,3.479E3,1.1E1,1.16E2,2.557E3,1.21E2,1.82E2,5.35E2,9.79E2,2E0,8E1,1.9E1,3.46E3,9E0,2E0,1.13E2,3E0,3E1,2.527E3,1.2E1,1.09E2,1.77E2,5E0,5.9E1,4.76E2,8.92E2,8.7E1,1E0,1E0,5.1E1,2.9E1,1E0,1.8E1,2.1E1,3.439E3,4E0,5E0,1E0,1E0,7E0,1.06E2,1E0,2E0,2.5E1,5E0,4.85E2,2.042E3,5E0,7E0,1.06E2,3E0,8.1E1,9.6E1,2E0,3E0],"tree_param":{"num_deleted":"0","num_feature":"22","num_nodes":"73","size_leaf_vector":"1"}},{"base_weights":[-2.042169E-3,2.6558285E0,-1.6875623E-2,3.5334292E-1,2.1475145E-1,4.4247933E-2,-7.4063025E-2,1.4788873E-1,1.25555275E-2,-5.717038E-1,4.7252785E-2,-6.289994E-2,-2.1175419E-1,1.8186659E-3,7.707529E-3,-2.7781975E0,1.5651137E-2,-6.256059E-1,5.0026003E-2,-3.952863E-1,-6.001434E-2,-1.9713387E-1,-3.254988E-1,-2.7453092E-1,-2.19256E-3,4.591355E-2,-8.66145E-2,6.1915442E-2,-2.7346066E-1,6.646553E-2,-9.617284E-3,2.487745E-2,-2.2901692E0,-1.9333616E-2,-8.4753506E-2,-1.3593832E-1,-2.1435323E-1,-1.1557987E-1,-3.6635357E-1,-1.0630838E-3,6.391413E-3,-6.929612E-4,-5.312326E-3,-5.6066725E-4,7.3546553E-3,4.852799E-3,2.4440212E-3,1.1229822E-3,-1.2855545E-2,-7.7359285E-4,8.770178E-3,-3.3849084E-3,-3.3506313E-1,-5.2223142E-2,-6.095658E-4,-1.4438395E-2,-3.834571E-3,-7.757032E-3,3.7770425E-3,-7.849372E-3,-1.2010605E-2,-9.759102E-3,-3.541369E-4,-1.9417483E-2,-2.6801578E-3],"categories":[],"categories_nodes":[],"categories_segments":[],"categories_sizes":[],"default_left":[0,0,0,0,0,0,0,0,0,0,0,0,0,0,0,0,0,0,0,0,0,0,0,0,0,0,0,0,0,0,1,0,0,0,0,0,0,0,0,0,0,0,0,0,0,0,0,0,0,0,0,0,0,0,0,0,0,0,0,0,0,0,0,0,0],"id":13,"left_children":[1,3,5,-1,7,9,11,13,-1,15,17,19,21,-1,-1,23,25,27,29,31,33,35,37,-1,-1,39,41,43,-1,45,47,49,51,53,55,57,59,61,63,-1,-1,-1,-1,-1,-1,-1,-1,-1,-1,-1,-1,-1,-1,-1,-1,-1,-1,-1,-1,-1,-1,-1,-1,-1,-1],"loss_changes":[3.1966653E2,4.8302728E2,2.8187473E1,0E0,3.579557E-2,7.2416086E0,6.390066E0,3.4708083E-3,0E0,2.4667387E1,7.2713137E0,3.6737394E0,4.546833E-1,0E0,0E0,2.942602E1,5.349366E-2,5.361996E1,3.7902994E0,2.6330292E1,3.8458576E0,2.648573E-1,2.4924755E-1,0E0,0E0,7.425216E-2,4.240837E-3,9.5083505E-2,0E0,1.6252022E0,6.642641E0,1.7277528E-1,5.83675E1,1.0581881E1,3.8875008E0,2.7161634E-1,2.8270817E-1,5.907383E-2,1.7180276E-1,0E0,0E0,0E0,0E0,0E0,0E0,0E0,0E0,0E0,0E0,0E0,0E0,0E0,0E0,0E0,0E0,0E0,0E0,0E0,0E0,0E0,0E0,0E0,0E0,0E0,0E0],"parents":[2147483647,0,0,1,1,2,2,4,4,5,5,6,6,7,7,9,9,10,10,11,11,12,12,15,15,16,16,17,17,18,18,19,19,20,20,21,21,22,22,25,25,26,26,27,27,29,29,30,30,31,31,32,32,33,33,34,34,35,35,36,36,37,37,38,38],"right_children":[2,4,6,-1,8,10,12,14,-1,16,18,20,22,-1,-1,24,26,28,30,32,34,36,38,-1,-1,40,42,44,-1,46,48,50,52,54,56,58,60,62,64,-1,-1,-1,-1,-1,-1,-1,-1,-1,-1,-1,-1,-1,-1,-1,-1,-1,-1,-1,-1,-1,-1,-1,-1,-1,-1],"split_conditions":[7.2960764E-1,4.9687987E-3,1.023944E0,3.5334292E-1,-2.6616542E-2,7.9646116E-1,1.3882015E0,5.5844116E-1,1.25555275E-2,2.8501762E-2,6.3625157E-1,1.0253451E0,1.5847898E0,1.8186659E-3,7.707529E-3,2E0,9.913162E-1,1E0,7.435017E-2,4.6E1,1.1121784E0,-9.221998E-2,8.9834964E-1,-2.7453092E-1,-2.19256E-3,5.0271845E-1,7.9537475E-1,2.4379654E-1,-2.7346066E-1,8.835824E-1,1.6858213E-1,1.1121784E0,1.3292112E0,-3.7965113E-1,1.1187205E0,9.760264E-1,1.483195E0,-2.8701043E-1,1.0277878E0,-1.0630838E-3,6.391413E-3,-6.929612E-4,-5.312326E-3,-5.6066725E-4,7.3546553E-3,4.852799E-3,2.4440212E-3,1.1229822E-3,-1.2855545E-2,-7.7359285E-4,8.770178E-3,-3.3849084E-3,-3.3506313E-1,-5.2223142E-2,-6.095658E-4,-1.4438395E-2,-3.834571E-3,-7.757032E-3,3.7770425E-3,-7.849372E-3,-1.2010605E-2,-9.759102E-3,-3.541369E-4,-1.9417483E-2,-2.6801578E-3],"split_indices":[0,7,0,0,17,16,0,8,0,7,12,0,0,0,0,1,12,11,7,10,0,15,12,0,0,6,0,6,0,0,15,12,8,15,0,14,0,13,14,0,0,0,0,0,0,0,0,0,0,0,0,0,0,0,0,0,0,0,0,0,0,0,0,0,0],"split_type":[0,0,0,0,0,0,0,0,0,0,0,0,0,0,0,0,0,0,0,0,0,0,0,0,0,0,0,0,0,0,0,0,0,0,0,0,0,0,0,0,0,0,0,0,0,0,0,0,0,0,0,0,0,0,0,0,0,0,0,0,0,0,0,0,0],"sum_hessian":[8.106E3,4.4E1,8.062E3,1.5E1,2.9E1,3.897E3,4.165E3,1.2E1,1.7E1,1.8E1,3.879E3,3.854E3,3.11E2,1E0,1.1E1,3E0,1.5E1,1.5E1,3.864E3,3.2E1,3.822E3,2.78E2,3.3E1,1E0,2E0,1.2E1,3E0,1.4E1,1E0,3.029E3,8.35E2,2.7E1,5E0,1.446E3,2.376E3,6.3E1,2.15E2,6E0,2.7E1,7E0,5E0,1E0,2E0,8E0,6E0,1.104E3,1.925E3,7.4E2,9.5E1,2.2E1,5E0,4E0,1E0,9E0,1.437E3,8.9E1,2.287E3,5.8E1,5E0,6.9E1,1.46E2,3E0,3E0,2.5E1,2E0],"tree_param":{"num_deleted":"0","num_feature":"22","num_nodes":"65","size_leaf_vector":"1"}},{"base_weights":[-2.9743512E-3,2.3938189E0,-1.7189488E-2,6.34666E0,2.1906523E-1,4.536608E-2,-6.5617606E-2,2.5069115E0,3.3457497E-1,4.2161657E-3,2.2523725E-1,-7.077876E-1,4.8349537E-2,-3.4807995E-2,-1.0830101E-1,1.797257E-1,8.2926545E-3,6.0145645E-3,2.3675619E-1,5.8149114E-2,-2.6662412E-1,-5.777643E-1,5.1553905E-2,-3.0715177E-2,-3.9135996E-1,-1.77472E-1,-8.171466E-2,3.4003207E-3,1.2039296E-2,1.6254162E-2,1.21930204E-1,-2.6766762E-1,1.8055761E-2,8.104263E-2,2.6185647E-2,-1.2633632E-1,-2.0628365E-2,-8.679534E-3,-2.872273E-1,-7.799606E-1,-1.5476741E-1,-7.244941E-2,-2.6847088E-1,3.949709E-3,-2.4868343E-3,1.4149285E-3,1.2411418E-2,2.810746E-3,-3.0635921E-3,4.3728827E-3,-3.6835556E-3,1.5700826E-3,-5.3198572E-2,-1.574929E-1,-3.8430465E-3,-7.9144444E-4,-9.817894E-3,2.318929E-3,-2.513612E-3,-3.3572516E-1,-3.8617898E-3,-2.658136E-3,-9.916297E-3,-2.7757145E-3,-5.096746E-3,-3.3175886E-1,-3.265822E-3],"categories":[],"categories_nodes":[],"categories_segments":[],"categories_sizes":[],"default_left":[0,0,0,0,0,0,0,0,0,0,0,0,0,1,0,0,0,0,0,0,0,0,0,0,0,0,0,0,0,0,0,0,0,0,0,0,1,0,0,0,0,0,0,0,0,0,0,0,0,0,0,0,0,0,0,0,0,0,0,0,0,0,0,0,0,0,0],"id":14,"left_children":[1,3,5,7,9,11,13,15,-1,-1,17,19,21,23,25,-1,-1,-1,27,29,-1,31,33,35,37,39,41,-1,-1,43,45,-1,47,49,51,53,55,57,-1,59,61,63,65,-1,-1,-1,-1,-1,-1,-1,-1,-1,-1,-1,-1,-1,-1,-1,-1,-1,-1,-1,-1,-1,-1,-1,-1],"loss_changes":[2.7737698E2,4.1123953E2,2.4520302E1,5.73468E0,7.619381E-3,7.9706297E0,5.995533E0,7.042263E0,0E0,0E0,7.786393E-3,4.9901207E1,7.0899544E0,3.856589E0,3.5016727E0,0E0,0E0,0E0,1.3053417E-3,3.27555E-2,0E0,5.1313705E1,2.6176462E0,2.5263455E0,6.140692E1,7.1292973E0,2.3736153E0,0E0,0E0,4.119131E-2,5.2103013E-2,0E0,5.490466E-2,1.6132851E0,1.0746335E1,3.7155388E1,1.9983022E0,6.8742014E-2,0E0,7.871805E1,2.2554417E0,6.5297127E-1,8.3639206E1,0E0,0E0,0E0,0E0,0E0,0E0,0E0,0E0,0E0,0E0,0E0,0E0,0E0,0E0,0E0,0E0,0E0,0E0,0E0,0E0,0E0,0E0,0E0,0E0],"parents":[2147483647,0,0,1,1,2,2,3,3,4,4,5,5,6,6,7,7,10,10,11,11,12,12,13,13,14,14,18,18,19,19,21,21,22,22,23,23,24,24,25,25,26,26,29,29,30,30,32,32,33,33,34,34,35,35,36,36,37,37,39,39,40,40,41,41,42,42],"right_children":[2,4,6,8,10,12,14,16,-1,-1,18,20,22,24,26,-1,-1,-1,28,30,-1,32,34,36,38,40,42,-1,-1,44,46,-1,48,50,52,54,56,58,-1,60,62,64,66,-1,-1,-1,-1,-1,-1,-1,-1,-1,-1,-1,-1,-1,-1,-1,-1,-1,-1,-1,-1,-1,-1,-1,-1],"split_conditions":[7.2960764E-1,2.0088138E-1,1.005631E0,8.094778E-1,5.5844116E-1,6.3625157E-1,1.1608249E0,6.508752E-3,3.3457497E-1,4.2161657E-3,8.1406456E-1,1E0,7.9646116E-1,1.8134809E0,1E0,1.797257E-1,8.2926545E-3,6.0145645E-3,2E0,2E0,-2.6662412E-1,1.15E1,9.1013944E-1,9.039193E-3,1.3073668E0,7.999486E-1,2.8E1,3.4003207E-3,1.2039296E-2,2E1,4.05E1,-2.6766762E-1,2.05E1,5.7E1,1.4475076E0,1.0074211E0,3.9569563E-1,2E0,-2.872273E-1,1.1631434E0,1.1870645E0,1.2830352E0,2.9E1,3.949709E-3,-2.4868343E-3,1.4149285E-3,1.2411418E-2,2.810746E-3,-3.0635921E-3,4.3728827E-3,-3.6835556E-3,1.5700826E-3,-5.3198572E-2,-1.574929E-1,-3.8430465E-3,-7.9144444E-4,-9.817894E-3,2.318929E-3,-2.513612E-3,-3.3572516E-1,-3.8617898E-3,-2.658136E-3,-9.916297E-3,-2.7757145E-3,-5.096746E-3,-3.3175886E-1,-3.265822E-3],"split_indices":[0,8,0,16,8,12,0,2,0,0,16,11,16,16,11,0,0,0,10,1,0,4,0,2,12,14,1,0,0,4,4,0,4,10,2,0,13,1,0,0,0,0,1,0,0,0,0,0,0,0,0,0,0,0,0,0,0,0,0,0,0,0,0,0,0,0,0],"split_type":[0,0,0,0,0,0,0,0,0,0,0,0,0,0,0,0,0,0,0,0,0,0,0,0,0,0,0,0,0,0,0,0,0,0,0,0,0,0,0,0,0,0,0,0,0,0,0,0,0,0,0,0,0,0,0,0,0,0,0,0,0,0,0,0,0,0,0],"sum_hessian":[8.139E3,4.7E1,8.092E3,1.6E1,3.1E1,3.531E3,4.561E3,2E0,1.4E1,2E0,2.9E1,1.3E1,3.518E3,2.65E3,1.911E3,1E0,1E0,4E0,2.5E1,1.2E1,1E0,1.7E1,3.501E3,2.621E3,2.9E1,5.29E2,1.382E3,1E0,2.4E1,8E0,4E0,1E0,1.6E1,1.618E3,1.883E3,2.49E2,2.372E3,2.8E1,1E0,1.8E1,5.11E2,1.318E3,6.4E1,4E0,4E0,3E0,1E0,1.1E1,5E0,1.554E3,6.4E1,1.875E3,8E0,3E0,2.46E2,2.31E3,6.2E1,1.2E1,1.6E1,1E0,1.7E1,1.54E2,3.57E2,8.39E2,4.79E2,1E0,6.3E1],"tree_param":{"num_deleted":"0","num_feature":"22","num_nodes":"67","size_leaf_vector":"1"}},{"base_weights":[-2.1640046E-3,-1.4020216E-2,2.0740087E0,-7.659429E-2,2.7971314E-2,4.0402045E0,1.03320636E-1,-7.3207897E-1,-7.351796E-2,-4.8686254E-1,3.0217418E-2,5.206489E0,-1.3201615E-1,-4.1754654E-4,1.6559139E-1,3.3514787E-2,-2.862598E-1,-1.264699E-1,-6.1273318E-2,-3.494157E0,1.3597783E-2,-4.7183752E-1,3.2205462E-2,5.552584E0,-1.6928095E-2,6.7506046E-3,-2.992833E-1,-6.317685E-2,8.353989E-3,3.1384826E-3,2.271648E-1,-6.876474E-2,2.3137088E-1,-1.0558323E-1,-8.005815E-1,-3.9882503E-2,-8.173835E-2,-2.6097593E-1,-1.0858417E-3,-3.2221265E-2,9.674776E-2,7.96349E-2,-2.5995854E-1,-3.204816E-1,3.4349676E-2,3.1454334E-1,2.522531E0,-2.0694254E-2,-6.156051E-3,1.9501274E-3,-1.0373707E-1,1.7549163E-3,1.2339291E-2,-8.817169E-3,1.6172456E-3,1.4827969E-2,4.452938E-3,-1.9903328E-2,-3.098076E-3,-4.1267644E-3,-3.251842E-1,-4.9128863E-3,-1.5555703E-3,-6.239313E-3,-2.4595072E-3,-4.0204814E-3,3.973831E-4,7.32929E-3,-9.2824455E-4,7.7761104E-4,7.099477E-3,3.399221E-3,-1.8549243E-1,1.2681686E-3,5.4062023E-3,2.3493622E-1,-2.472528E-2,-5.719315E-3,-1.2622736E-3],"categories":[],"categories_nodes":[],"categories_segments":[],"categories_sizes":[],"default_left":[0,0,0,0,0,0,0,0,0,0,0,0,0,0,0,0,0,0,0,0,0,0,0,0,0,0,0,0,0,0,0,0,0,0,0,0,0,0,0,0,0,0,0,0,0,0,0,0,0,0,0,0,0,0,0,0,0,0,0,0,0,0,0,0,0,0,0,0,0,0,0,0,0,0,0,0,0,0,0],"id":15,"left_children":[1,3,5,7,9,11,13,15,17,19,21,23,25,27,29,31,-1,33,35,37,39,41,43,45,-1,-1,47,49,-1,-1,51,53,55,57,59,61,63,-1,-1,65,67,69,-1,71,73,-1,75,-1,-1,-1,77,-1,-1,-1,-1,-1,-1,-1,-1,-1,-1,-1,-1,-1,-1,-1,-1,-1,-1,-1,-1,-1,-1,-1,-1,-1,-1,-1,-1],"loss_changes":[1.9941498E2,2.1167309E1,1.7782144E2,6.4695206E0,5.5895705E0,1.12605255E2,1.5510568E-1,5.7532364E1,2.0806751E0,3.1653175E1,4.807115E0,3.642401E1,3.0839717E-1,1.1567572E-1,8.070719E-2,2.9922295E-1,0E0,8.419763E0,1.142806E0,1.7860294E1,7.5504534E-2,4.9946915E1,3.6280823E0,2.2160645E1,0E0,0E0,2.9796064E-2,3.7201367E-2,0E0,0E0,2.5255114E-2,1.1447618E-1,1.9974321E-2,7.4646473E0,7.317486E1,6.533458E-1,1.8671751E0,0E0,0E0,2.5802841E-2,4.295004E-2,6.9717094E-2,0E0,3.8435173E1,3.1496263E0,0E0,3.515181E1,0E0,0E0,0E0,2.1275058E-3,0E0,0E0,0E0,0E0,0E0,0E0,0E0,0E0,0E0,0E0,0E0,0E0,0E0,0E0,0E0,0E0,0E0,0E0,0E0,0E0,0E0,0E0,0E0,0E0,0E0,0E0,0E0,0E0],"parents":[2147483647,0,0,1,1,2,2,3,3,4,4,5,5,6,6,7,7,8,8,9,9,10,10,11,11,12,12,13,13,14,14,15,15,17,17,18,18,19,19,20,20,21,21,22,22,23,23,26,26,27,27,30,30,31,31,32,32,33,33,34,34,35,35,36,36,39,39,40,40,41,41,43,43,44,44,46,46,50,50],"right_children":[2,4,6,8,10,12,14,16,18,20,22,24,26,28,30,32,-1,34,36,38,40,42,44,46,-1,-1,48,50,-1,-1,52,54,56,58,60,62,64,-1,-1,66,68,70,-1,72,74,-1,76,-1,-1,-1,78,-1,-1,-1,-1,-1,-1,-1,-1,-1,-1,-1,-1,-1,-1,-1,-1,-1,-1,-1,-1,-1,-1,-1,-1,-1,-1,-1,-1],"split_conditions":[9.575531E-1,4.7106165E-2,4.9687987E-3,-7.651221E-1,7.9646116E-1,2.0088138E-1,4.006221E-1,7.3292863E-1,-4.0524092E-1,1.15E1,6.3625157E-1,1.3839114E0,-4.2619012E-2,1.05E1,2.4E1,5.3E1,-2.862598E-1,-4.0981254E-1,1.65E1,1.21099696E-1,5.0271845E-1,-4.380623E-1,-3.7965113E-1,-1.2672926E-2,-1.6928095E-2,6.7506046E-3,3E0,1E1,8.353989E-3,3.1384826E-3,-2.1691221E-1,-8.233975E-2,2.8325588E-1,-1.3826527E-1,2.6398477E-1,6.5753423E-3,2.5150305E-2,-2.6097593E-1,-1.0858417E-3,2.4918862E-1,1.85E1,2.4379654E-1,-2.5995854E-1,5.1E1,6.8497455E-1,3.1454334E-1,9.24632E-1,-2.0694254E-2,-6.156051E-3,1.9501274E-3,1.2069806E-2,1.7549163E-3,1.2339291E-2,-8.817169E-3,1.6172456E-3,1.4827969E-2,4.452938E-3,-1.9903328E-2,-3.098076E-3,-4.1267644E-3,-3.251842E-1,-4.9128863E-3,-1.5555703E-3,-6.239313E-3,-2.4595072E-3,-4.0204814E-3,3.973831E-4,7.32929E-3,-9.2824455E-4,7.7761104E-4,7.099477E-3,3.399221E-3,-1.8549243E-1,1.2681686E-3,5.4062023E-3,2.3493622E-1,-2.472528E-2,-5.719315E-3,-1.2622736E-3],"split_indices":[6,2,7,6,16,8,8,8,6,4,12,12,13,4,10,10,0,6,4,2,6,13,15,17,0,0,4,10,0,0,17,15,8,15,7,2,2,0,0,6,4,6,0,10,6,0,12,0,0,0,7,0,0,0,0,0,0,0,0,0,0,0,0,0,0,0,0,0,0,0,0,0,0,0,0,0,0,0,0],"split_type":[0,0,0,0,0,0,0,0,0,0,0,0,0,0,0,0,0,0,0,0,0,0,0,0,0,0,0,0,0,0,0,0,0,0,0,0,0,0,0,0,0,0,0,0,0,0,0,0,0,0,0,0,0,0,0,0,0,0,0,0,0,0,0,0,0,0,0,0,0,0,0,0,0,0,0,0,0,0,0],"sum_hessian":[8.099E3,8.054E3,4.5E1,3.234E3,4.82E3,2.2E1,2.3E1,1.4E1,3.22E3,2E1,4.8E3,1.7E1,5E0,9E0,1.4E1,1.3E1,1E0,6.03E2,2.617E3,2E0,1.8E1,1.8E1,4.782E3,1.6E1,1E0,2E0,3E0,7E0,2E0,6E0,8E0,9E0,4E0,5.86E2,1.7E1,1.281E3,1.336E3,1E0,1E0,1.2E1,6E0,1.7E1,1E0,2.8E1,4.754E3,1.2E1,4E0,1E0,2E0,2E0,5E0,1E0,7E0,4E0,5E0,2E0,2E0,7.5E1,5.11E2,1.6E1,1E0,1.66E2,1.115E3,5.74E2,7.62E2,5E0,7E0,4E0,2E0,9E0,8E0,2.6E1,2E0,4.239E3,5.15E2,2E0,2E0,4E0,1E0],"tree_param":{"num_deleted":"0","num_feature":"22","num_nodes":"79","size_leaf_vector":"1"}},{"base_weights":[9.877756E-4,2.1420484E0,-1.2098536E-2,3.0617163E-1,2.0545459E-1,2.9133426E-2,-7.062088E-2,1.1440438E-1,2.1720791E-1,7.562433E-2,5.076495E-3,-5.9618916E-2,-1.8259491E-1,1.589333E-3,6.22853E-3,1.1051615E-2,2.7531346E-3,8.259405E-2,-4.8359763E-2,8.042378E-3,-9.1248226E-1,-4.4381955E-1,-5.639199E-2,-1.6842915E-1,-2.8680074E-1,1.6238105E-1,7.405584E-2,-2.99487E-1,9.2006356E-2,-5.5330855E-1,1.1142158E-2,2.9581973E-1,-3.83046E0,-2.7795501E-2,-2.1023567E0,-2.0143704E-1,-4.9846053E-2,-1.7149921E-1,3.661586E-3,-4.6964115E-1,-2.1247903E-1,6.7495564E-3,1.0537731E-2,4.093096E-3,-3.0016038E-4,2.5217962E-3,8.97189E-3,2.2879287E-3,-2.5345954E-1,-1.8458633E-2,7.441493E-4,1.8716285E-2,6.186619E-3,-2.8817144E-1,8.8692177E-4,5.347974E-3,-8.001181E-3,8.154346E-3,-2.7910328E-1,-5.25254E-3,-1.2854029E-1,-2.2801028E-3,-7.330908E-3,-7.922739E-3,-1.1031488E-2,-2.6411155E-2,-2.4636834E-5,-5.140265E-3,-1.2775575E-2],"categories":[],"categories_nodes":[],"categories_segments":[],"categories_sizes":[],"default_left":[0,0,0,0,0,0,0,0,0,0,0,0,0,0,0,0,0,0,0,0,0,0,1,1,0,0,1,0,0,0,0,0,0,0,0,1,0,0,0,0,0,0,0,0,0,0,0,0,0,0,0,0,0,0,0,0,0,0,0,0,0,0,0,0,0,0,0,0,0],"id":16,"left_children":[1,3,5,-1,7,9,11,13,15,17,19,21,23,-1,-1,-1,-1,25,27,29,31,33,35,37,39,41,43,-1,45,47,49,51,53,55,57,59,61,63,-1,65,67,-1,-1,-1,-1,-1,-1,-1,-1,-1,-1,-1,-1,-1,-1,-1,-1,-1,-1,-1,-1,-1,-1,-1,-1,-1,-1,-1,-1],"loss_changes":[2.2599579E2,3.7654773E2,1.9347008E1,0E0,1.1535406E-2,5.260703E0,4.071745E0,1.0797754E-3,5.8122873E-3,1.3900661E0,8.446314E0,3.717886E0,3.886366E-1,0E0,0E0,0E0,0E0,1.0227757E0,7.227238E1,5.3864436E0,3.6391106E1,1.7191347E1,2.833579E0,2.0768213E-1,3.6223722E-1,1.6499233E-1,8.59169E-1,0E0,2.9988784E-1,4.622234E1,4.381696E0,6.176287E-2,2.2417572E1,3.9130244E-1,4.0325783E1,2.9190254E1,1.1707911E0,1.3166857E-1,0E0,2.4709249E-1,9.643996E-2,0E0,0E0,0E0,0E0,0E0,0E0,0E0,0E0,0E0,0E0,0E0,0E0,0E0,0E0,0E0,0E0,0E0,0E0,0E0,0E0,0E0,0E0,0E0,0E0,0E0,0E0,0E0,0E0],"parents":[2147483647,0,0,1,1,2,2,4,4,5,5,6,6,7,7,8,8,9,9,10,10,11,11,12,12,17,17,18,18,19,19,20,20,21,21,22,22,23,23,24,24,25,25,26,26,28,28,29,29,30,30,31,31,32,32,33,33,34,34,35,35,36,36,37,37,39,39,40,40],"right_children":[2,4,6,-1,8,10,12,14,16,18,20,22,24,-1,-1,-1,-1,26,28,30,32,34,36,38,40,42,44,-1,46,48,50,52,54,56,58,60,62,64,-1,66,68,-1,-1,-1,-1,-1,-1,-1,-1,-1,-1,-1,-1,-1,-1,-1,-1,-1,-1,-1,-1,-1,-1,-1,-1,-1,-1,-1,-1],"split_conditions":[7.2960764E-1,4.9687987E-3,1.0686017E0,3.0617163E-1,7.88993E-3,9.1013944E-1,1.4149007E0,1.6333542E2,6.1368823E-1,5.6E1,5.283403E2,-7.651221E-1,1.5847898E0,1.589333E-3,6.22853E-3,1.1051615E-2,2.7531346E-3,8.048492E-1,7.8374714E-1,6.3625157E-1,1.0900697E0,5.3E1,8.1372285E-1,1.2660965E0,1.15E1,1E0,1.0897177E0,-2.99487E-1,6.602078E-1,1E0,9.1146916E-1,5.283958E2,9.201292E-1,1.1870645E0,7.987913E-2,7.247391E-2,3.9569563E-1,5E0,3.661586E-3,1.0277878E0,8.965004E-1,6.7495564E-3,1.0537731E-2,4.093096E-3,-3.0016038E-4,2.5217962E-3,8.97189E-3,2.2879287E-3,-2.5345954E-1,-1.8458633E-2,7.441493E-4,1.8716285E-2,6.186619E-3,-2.8817144E-1,8.8692177E-4,5.347974E-3,-8.001181E-3,8.154346E-3,-2.7910328E-1,-5.25254E-3,-1.2854029E-1,-2.2801028E-3,-7.330908E-3,-7.922739E-3,-1.1031488E-2,-2.6411155E-2,-2.4636834E-5,-5.140265E-3,-1.2775575E-2],"split_indices":[0,7,0,0,7,0,0,3,13,10,3,6,0,0,0,0,0,0,0,12,12,10,14,14,4,11,14,0,6,11,0,3,0,0,7,15,13,1,0,14,14,0,0,0,0,0,0,0,0,0,0,0,0,0,0,0,0,0,0,0,0,0,0,0,0,0,0,0,0],"split_type":[0,0,0,0,0,0,0,0,0,0,0,0,0,0,0,0,0,0,0,0,0,0,0,0,0,0,0,0,0,0,0,0,0,0,0,0,0,0,0,0,0,0,0,0,0,0,0,0,0,0,0,0,0,0,0,0,0,0,0,0,0,0,0,0,0,0,0,0,0],"sum_hessian":[8.064E3,4.8E1,8.016E3,1.5E1,3.3E1,4.703E3,3.313E3,5E0,2.8E1,1.603E3,3.1E3,3.018E3,2.95E2,1E0,4E0,2.7E1,1E0,1.518E3,8.5E1,3.091E3,9E0,2.4E1,2.994E3,2.62E2,3.3E1,1.45E2,1.373E3,1E0,8.4E1,1.6E1,3.075E3,7E0,2E0,2E1,4E0,1.28E2,2.866E3,2.59E2,3E0,8E0,2.5E1,9.5E1,5E1,1.251E3,1.22E2,5.8E1,2.6E1,1.5E1,1E0,2.9E1,3.046E3,4E0,3E0,1E0,1E0,1E1,1E1,3E0,1E0,1.24E2,4E0,2.747E3,1.19E2,2.08E2,5.1E1,7E0,1E0,8E0,1.7E1],"tree_param":{"num_deleted":"0","num_feature":"22","num_nodes":"69","size_leaf_vector":"1"}},{"base_weights":[1.3317751E-3,1.8639299E0,-9.590675E-3,2.8922352E-1,1.9476835E-1,2.8021306E-2,-8.054479E-2,3.1999163E-3,2.0094153E-1,8.581547E-2,2.6781E-3,-6.878543E-2,-1.7030244E-1,1.0998713E-1,2.1371135E-1,7.2861716E-2,1.196061E-1,5.2637747E-3,-9.372239E-1,-2.2969745E-1,-6.178975E-2,-4.1732144E-1,-1.634666E-1,1.5495997E-3,5.9793885E-3,2.1780132E-1,2.6843061E-3,1.03934295E-1,5.461158E-2,2.3805079E-1,1.12818904E-1,-5.587909E-1,8.226102E-3,2.8753445E-1,-2.846245E0,-1.1182592E-1,-3.0895936E0,-3.7480998E-1,-5.799999E-2,-3.7691572E-3,-2.2770038E-2,-1.9354135E-1,-1.3368414E-1,1.12664765E-2,4.2487592E-3,3.222263E-3,6.2542805E-3,3.412113E-3,1.0347976E-3,1.2401037E-2,4.6779664E-4,6.2496155E-3,3.5559814E-3,-2.5447017E-1,-1.2172811E-3,-1.6662529E-2,5.5878906E-4,7.359981E-3,2.127905E-2,-2.8096715E-1,-2.4382449E-3,-1.2287821E-1,6.40555E-4,-3.142378E-1,3.5189632E-3,-2.201651E-3,-9.437887E-2,-5.6653284E-3,-2.2126685E-3,-1.0909834E-2,-4.636211E-3,-5.7934425E-3,-1.3438977E-2],"categories":[],"categories_nodes":[],"categories_segments":[],"categories_sizes":[],"default_left":[0,0,0,0,0,0,0,0,0,0,0,0,0,0,0,0,0,0,0,0,0,0,1,0,0,0,0,0,0,0,0,0,0,0,0,0,0,0,0,0,0,1,0,0,0,0,0,0,0,0,0,0,0,0,0,0,0,0,0,0,0,0,0,0,0,0,0,0,0,0,0,0,0],"id":17,"left_children":[1,3,5,-1,7,9,11,-1,13,15,17,19,21,23,25,27,29,31,33,35,37,39,41,-1,-1,43,-1,45,47,49,51,53,55,57,59,61,63,65,67,-1,-1,69,71,-1,-1,-1,-1,-1,-1,-1,-1,-1,-1,-1,-1,-1,-1,-1,-1,-1,-1,-1,-1,-1,-1,-1,-1,-1,-1,-1,-1,-1,-1],"loss_changes":[1.6401195E2,3.0644208E2,2.1392086E1,0E0,1.4587045E-2,7.6732783E0,2.9193878E0,0E0,1.3661623E-2,6.903162E-1,8.858446E0,2.7516232E0,4.7381687E-1,8.441508E-4,5.978465E-3,6.50434E-1,3.276658E-1,6.0767007E0,2.4199291E1,3.403874E1,2.773118E0,6.983662E-2,2.5537682E-1,0E0,0E0,6.851077E-3,0E0,3.4858847E-1,3.3652425E-1,5.0121307E-2,2.0380497E-1,4.5882023E1,3.6459289E0,7.2963834E-2,3.0756714E1,2.8975702E1,4.082883E1,1.3927766E1,1.7656751E0,0E0,0E0,3.6256266E-1,3.5634565E-1,0E0,0E0,0E0,0E0,0E0,0E0,0E0,0E0,0E0,0E0,0E0,0E0,0E0,0E0,0E0,0E0,0E0,0E0,0E0,0E0,0E0,0E0,0E0,0E0,0E0,0E0,0E0,0E0,0E0,0E0],"parents":[2147483647,0,0,1,1,2,2,4,4,5,5,6,6,8,8,9,9,10,10,11,11,12,12,13,13,14,14,15,15,16,16,17,17,18,18,19,19,20,20,21,21,22,22,25,25,27,27,28,28,29,29,30,30,31,31,32,32,33,33,34,34,35,35,36,36,37,37,38,38,41,41,42,42],"right_children":[2,4,6,-1,8,10,12,-1,14,16,18,20,22,24,26,28,30,32,34,36,38,40,42,-1,-1,44,-1,46,48,50,52,54,56,58,60,62,64,66,68,-1,-1,70,72,-1,-1,-1,-1,-1,-1,-1,-1,-1,-1,-1,-1,-1,-1,-1,-1,-1,-1,-1,-1,-1,-1,-1,-1,-1,-1,-1,-1,-1,-1],"split_conditions":[7.2960764E-1,4.9687987E-3,1.1041949E0,2.8922352E-1,-3.6741436E-1,9.1013944E-1,1.3882015E0,3.1999163E-3,7.88993E-3,1E0,1.4475076E0,8.1372285E-1,4.9687987E-3,4.474943E-1,6.1368823E-1,8.391118E-1,7.8374714E-1,7.9646116E-1,2.6752338E-2,-7.040244E-2,-7.651221E-1,2.8192542E-2,8.4445626E-1,1.5495997E-3,5.9793885E-3,1.0515277E0,2.6843061E-3,1.8451935E-2,4.48243E0,6.096752E-1,4.5E1,1.15E1,9.1146916E-1,9.1888076E-1,9.201292E-1,8.0824596E-1,8.765221E-3,2.4309266E-1,8.177987E-1,-3.7691572E-3,-2.2770038E-2,1.4496244E-1,6E0,1.12664765E-2,4.2487592E-3,3.222263E-3,6.2542805E-3,3.412113E-3,1.0347976E-3,1.2401037E-2,4.6779664E-4,6.2496155E-3,3.5559814E-3,-2.5447017E-1,-1.2172811E-3,-1.6662529E-2,5.5878906E-4,7.359981E-3,2.127905E-2,-2.8096715E-1,-2.4382449E-3,-1.2287821E-1,6.40555E-4,-3.142378E-1,3.5189632E-3,-2.201651E-3,-9.437887E-2,-5.6653284E-3,-2.2126685E-3,-1.0909834E-2,-4.636211E-3,-5.7934425E-3,-1.3438977E-2],"split_indices":[0,7,0,0,17,0,0,0,7,11,2,14,7,2,13,0,0,16,13,15,6,2,16,0,0,16,0,7,8,17,10,4,0,0,0,16,2,13,16,0,0,13,1,0,0,0,0,0,0,0,0,0,0,0,0,0,0,0,0,0,0,0,0,0,0,0,0,0,0,0,0,0,0],"split_type":[0,0,0,0,0,0,0,0,0,0,0,0,0,0,0,0,0,0,0,0,0,0,0,0,0,0,0,0,0,0,0,0,0,0,0,0,0,0,0,0,0,0,0,0,0,0,0,0,0,0,0,0,0,0,0,0,0,0,0,0,0,0,0,0,0,0,0,0,0,0,0,0,0],"sum_hessian":[8.06E3,4.6E1,8.014E3,1.3E1,3.3E1,5.238E3,2.776E3,2E0,3.1E1,1.596E3,3.642E3,2.456E3,3.2E2,5E0,2.6E1,1.156E3,4.4E2,3.633E3,9E0,1.01E2,2.355E3,7E0,3.13E2,1E0,4E0,2.5E1,1E0,4.26E2,7.3E2,2.2E1,4.18E2,1.8E1,3.615E3,6E0,3E0,9.8E1,3E0,2.7E1,2.328E3,1E0,6E0,1.53E2,1.6E2,2.3E1,2E0,1.5E2,2.76E2,5.2E2,2.1E2,2.1E1,1E0,3.22E2,9.6E1,1E0,1.7E1,3E1,3.585E3,4E0,2E0,1E0,2E0,4E0,9.4E1,1E0,2E0,2.3E1,4E0,4.62E2,1.866E3,1.22E2,3.1E1,1.43E2,1.7E1],"tree_param":{"num_deleted":"0","num_feature":"22","num_nodes":"73","size_leaf_vector":"1"}},{"base_weights":[-2.2094694E-3,1.9810772E0,-1.3238349E-2,2.7820474E-1,1.8345344E-1,4.1055955E-2,-5.5111818E-2,1.4782372E-1,2.3479624E-1,-5.563764E-1,4.3939445E-2,-4.7520373E-2,-1.657381E-1,1.03657424E-1,1.785515E-1,3.150637E-3,1.2283666E-2,-2.4810839E-1,2.9121056E-2,-5.7271653E-1,4.6751514E-2,-1.0563337E-1,-3.3454873E-2,-1.6032563E-1,-2.2271559E-2,1.5108597E-3,5.3989864E-3,9.406335E-3,2.0699848E-3,1.00392655E-1,-3.7467152E-2,4.8134483E-2,-2.4713705E-1,5.4441262E-2,-2.518812E-2,-1.970503E0,-9.1992244E-2,5.7581134E-2,-4.1904E-2,-1.7304584E-1,-8.55643E-2,6.9541386E-3,-5.225904E-4,-7.08338E-4,-5.5967574E-3,-2.7512899E-3,3.925502E-3,2.993237E-3,-9.644485E-4,7.9577474E-4,-1.15112044E-1,-3.1708714E-1,8.604682E-3,-3.8858564E-3,-2.6466787E-2,4.1689076E-3,1.73518E-3,-2.411681E-2,-1.9114861E-3,-9.563422E-3,-5.5340906E-3,-1.548677E-3,-7.476227E-3],"categories":[],"categories_nodes":[],"categories_segments":[],"categories_sizes":[],"default_left":[0,0,0,0,0,0,0,0,0,0,0,0,0,0,0,0,0,0,0,0,0,0,0,0,0,0,0,0,0,0,0,0,0,0,0,0,0,0,0,0,0,0,0,0,0,0,0,0,0,0,0,0,0,0,0,0,0,0,0,0,0,0,0],"id":18,"left_children":[1,3,5,-1,7,9,11,13,15,17,19,21,23,25,27,-1,-1,-1,29,31,33,35,37,39,-1,-1,-1,-1,-1,41,43,45,-1,47,49,51,53,55,57,59,61,-1,-1,-1,-1,-1,-1,-1,-1,-1,-1,-1,-1,-1,-1,-1,-1,-1,-1,-1,-1,-1,-1],"loss_changes":[1.7798843E2,2.888205E2,1.8399351E1,0E0,2.200079E-2,6.0952134E0,3.8292313E0,9.991616E-3,5.073011E-3,4.3997356E1,6.109925E0,3.4924355E0,3.7213802E-1,2.2889674E-4,6.6574216E-3,0E0,0E0,0E0,7.9694994E-2,4.3648064E1,1.9336905E0,2.1009348E1,2.6522195E0,2.6002693E-1,0E0,0E0,0E0,0E0,0E0,3.5762347E-2,1.4030442E-2,5.132334E-2,0E0,1.2631578E0,3.1671783E1,5.7286194E1,5.128175E0,1.700269E-1,5.083966E0,2.583933E-1,1.4900076E-1,0E0,0E0,0E0,0E0,0E0,0E0,0E0,0E0,0E0,0E0,0E0,0E0,0E0,0E0,0E0,0E0,0E0,0E0,0E0,0E0,0E0,0E0],"parents":[2147483647,0,0,1,1,2,2,4,4,5,5,6,6,7,7,8,8,9,9,10,10,11,11,12,12,13,13,14,14,18,18,19,19,20,20,21,21,22,22,23,23,29,29,30,30,31,31,33,33,34,34,35,35,36,36,37,37,38,38,39,39,40,40],"right_children":[2,4,6,-1,8,10,12,14,16,18,20,22,24,26,28,-1,-1,-1,30,32,34,36,38,40,-1,-1,-1,-1,-1,42,44,46,-1,48,50,52,54,56,58,60,62,-1,-1,-1,-1,-1,-1,-1,-1,-1,-1,-1,-1,-1,-1,-1,-1,-1,-1,-1,-1,-1,-1],"split_conditions":[7.2960764E-1,4.9687987E-3,1.005631E0,2.7820474E-1,2E0,7.9646116E-1,1.4149007E0,1.8451935E-2,1.2E1,1.15E1,6.3625157E-1,-4.0524092E-1,1.8334516E0,4.474943E-1,1.4475932E0,3.150637E-3,1.2283666E-2,-2.4810839E-1,1.85E1,1E0,8.4950365E-2,1.0074211E0,1.023944E0,7.1503006E-2,-2.2271559E-2,1.5108597E-3,5.3989864E-3,9.406335E-3,2.0699848E-3,9.913162E-1,9.816751E-1,2.5664197E-2,-2.4713705E-1,1.4449315E0,1.9637723E0,9.039193E-3,5.7E1,1.0141822E0,1.0253451E0,8.9728934E-1,2E0,6.9541386E-3,-5.225904E-4,-7.08338E-4,-5.5967574E-3,-2.7512899E-3,3.925502E-3,2.993237E-3,-9.644485E-4,7.9577474E-4,-1.15112044E-1,-3.1708714E-1,8.604682E-3,-3.8858564E-3,-2.6466787E-2,4.1689076E-3,1.73518E-3,-2.411681E-2,-1.9114861E-3,-9.563422E-3,-5.5340906E-3,-1.548677E-3,-7.476227E-3],"split_indices":[0,7,0,0,1,16,0,7,10,4,12,6,16,2,2,0,0,0,4,11,7,0,0,7,0,0,0,0,0,12,0,7,0,2,8,2,10,0,0,16,1,0,0,0,0,0,0,0,0,0,0,0,0,0,0,0,0,0,0,0,0,0,0],"split_type":[0,0,0,0,0,0,0,0,0,0,0,0,0,0,0,0,0,0,0,0,0,0,0,0,0,0,0,0,0,0,0,0,0,0,0,0,0,0,0,0,0,0,0,0,0,0,0,0,0,0,0,0,0,0,0,0,0,0,0,0,0,0,0],"sum_hessian":[8.135E3,4.4E1,8.091E3,1.4E1,3E1,3.523E3,4.568E3,2E1,1E1,1.6E1,3.507E3,4.276E3,2.92E2,1E1,1E1,1E0,9E0,1E0,1.5E1,1.5E1,3.492E3,8.32E2,3.444E3,2.88E2,4E0,1E0,9E0,9E0,1E0,7E0,8E0,1.4E1,1E0,3.155E3,3.37E2,5E0,8.27E2,2.92E2,3.152E3,2.45E2,4.3E1,5E0,2E0,7E0,1E0,3E0,1.1E1,2.939E3,2.16E2,3.32E2,5E0,1E0,4E0,8.02E2,2.5E1,1.36E2,1.56E2,2.5E1,3.127E3,1.88E2,5.7E1,2.4E1,1.9E1],"tree_param":{"num_deleted":"0","num_feature":"22","num_nodes":"63","size_leaf_vector":"1"}},{"base_weights":[-3.7357904E-4,1.8964894E0,-1.1771807E-2,2.66384E-1,1.7541225E-1,2.1079285E-2,-7.3731266E-2,2.7985414E-3,1.8131265E-1,5.9338283E-2,-6.845742E-3,-2.1223547E-1,-6.770198E-2,1.00744024E-1,1.9293185E-1,6.818484E-2,-2.1526814E-2,-4.675681E-1,-2.5318814E-3,-1.1037177E-1,-3.0113602E0,-5.9125412E-2,-1.7096332E-1,1.4730882E-3,5.455406E-3,2.4807522E-1,1.5955928E-1,1.1360715E-1,5.4067053E-2,2.2261687E-2,-1.8913692E0,3.032315E-2,-4.6267695E0,-5.7958955E-1,7.6533377E-4,-1.6800424E0,-5.6730267E-3,-3.063341E-1,6.930761E-2,-3.1947097E-1,-5.576875E-2,4.9457457E-3,-1.8204108E-1,3.4436856E-3,1.3191816E-2,2.929529E-3,8.74145E-3,9.395642E-3,5.1956917E-3,3.4783855E-3,1.0268195E-3,3.877755E-3,-1.5332478E-2,-2.7391887E-1,1.8748855E-2,3.1798196E-4,8.026628E-3,-5.689317E-3,-3.413184E-1,-2.4190569E-1,-5.5248354E-4,-2.980422E-2,1.9951005E-4,-3.2353404E-1,9.842204E-3,1.525964E-3,-9.215436E-3,5.0096717E-3,1.883991E-4,-4.038432E-4,-8.078002E-2,-5.3039487E-3,-2.1736242E-3,3.7020463E-3,-6.0207364E-3,-1.48688555E-2,-8.103232E-3],"categories":[],"categories_nodes":[],"categories_segments":[],"categories_sizes":[],"default_left":[0,0,0,0,0,0,1,0,0,0,0,1,0,0,0,0,0,0,0,0,0,0,0,0,0,0,0,0,0,0,0,0,0,0,0,0,0,0,0,0,0,0,0,0,0,0,0,0,0,0,0,0,0,0,0,0,0,0,0,0,0,0,0,0,0,0,0,0,0,0,0,0,0,0,0,0,0],"id":19,"left_children":[1,3,5,-1,7,9,11,-1,13,15,17,19,21,23,25,27,29,31,33,35,37,39,41,-1,-1,43,45,47,49,51,53,55,57,59,61,63,65,-1,67,69,71,73,75,-1,-1,-1,-1,-1,-1,-1,-1,-1,-1,-1,-1,-1,-1,-1,-1,-1,-1,-1,-1,-1,-1,-1,-1,-1,-1,-1,-1,-1,-1,-1,-1,-1,-1],"loss_changes":[1.7374606E2,2.8252197E2,1.6260616E1,0E0,1.3108611E-2,5.578437E0,2.2971334E0,0E0,9.583592E-3,1.5774436E0,5.9990544E0,3.245749E1,2.3403482E0,3.6276132E-4,8.264482E-3,1.2674055E0,1.7891418E1,5.812354E1,5.693272E0,1.8396833E1,3.881371E1,2.1249676E0,3.9648294E-1,0E0,0E0,4.423946E-3,1.9050151E-2,3.189993E-1,7.8702784E-1,3.91572E0,4.2701283E1,8.0106206E-2,2.9003502E1,4.1105934E1,5.7304673E0,6.42141E1,6.909402E-1,0E0,5.69521E-3,1.2498771E1,1.4937057E0,1.2151908E-1,3.918705E-1,0E0,0E0,0E0,0E0,0E0,0E0,0E0,0E0,0E0,0E0,0E0,0E0,0E0,0E0,0E0,0E0,0E0,0E0,0E0,0E0,0E0,0E0,0E0,0E0,0E0,0E0,0E0,0E0,0E0,0E0,0E0,0E0,0E0,0E0],"parents":[2147483647,0,0,1,1,2,2,4,4,5,5,6,6,8,8,9,9,10,10,11,11,12,12,13,13,14,14,15,15,16,16,17,17,18,18,19,19,20,20,21,21,22,22,25,25,26,26,27,27,28,28,29,29,30,30,31,31,32,32,33,33,34,34,35,35,36,36,38,38,39,39,40,40,41,41,42,42],"right_children":[2,4,6,-1,8,10,12,-1,14,16,18,20,22,24,26,28,30,32,34,36,38,40,42,-1,-1,44,46,48,50,52,54,56,58,60,62,64,66,-1,68,70,72,74,76,-1,-1,-1,-1,-1,-1,-1,-1,-1,-1,-1,-1,-1,-1,-1,-1,-1,-1,-1,-1,-1,-1,-1,-1,-1,-1,-1,-1,-1,-1,-1,-1,-1,-1],"split_conditions":[7.2960764E-1,4.9687987E-3,1.1041949E0,2.66384E-1,-3.6741436E-1,9.3851966E-1,8.1372285E-1,2.7985414E-3,7.88993E-3,1.4449315E0,9.398845E-1,7.247391E-2,1.483195E0,4.474943E-1,1.4444635E0,8.4332657E-1,9.1888076E-1,8.436356E-2,7.9646116E-1,8.0824596E-1,8.765221E-3,-7.651221E-1,-2.6050463E-1,1.4730882E-3,5.455406E-3,1.6E1,1.4448535E0,7.9537475E-1,1.85E1,1.9E1,9.201292E-1,6E0,2E0,1.15E1,6.3625157E-1,1.55E1,1.3132476E0,-3.063341E-1,1.1121784E0,1.6875564E-1,8.177987E-1,1.1092845E0,-1.2953562E-1,3.4436856E-3,1.3191816E-2,2.929529E-3,8.74145E-3,9.395642E-3,5.1956917E-3,3.4783855E-3,1.0268195E-3,3.877755E-3,-1.5332478E-2,-2.7391887E-1,1.8748855E-2,3.1798196E-4,8.026628E-3,-5.689317E-3,-3.413184E-1,-2.4190569E-1,-5.5248354E-4,-2.980422E-2,1.9951005E-4,-3.2353404E-1,9.842204E-3,1.525964E-3,-9.215436E-3,5.0096717E-3,1.883991E-4,-4.038432E-4,-8.078002E-2,-5.3039487E-3,-2.1736242E-3,3.7020463E-3,-6.0207364E-3,-1.48688555E-2,-8.103232E-3],"split_indices":[0,7,0,0,17,0,14,0,7,2,0,15,0,2,2,0,0,7,16,16,2,6,17,0,0,9,2,0,4,9,0,1,1,4,12,4,0,0,0,17,16,12,17,0,0,0,0,0,0,0,0,0,0,0,0,0,0,0,0,0,0,0,0,0,0,0,0,0,0,0,0,0,0,0,0,0,0],"split_type":[0,0,0,0,0,0,0,0,0,0,0,0,0,0,0,0,0,0,0,0,0,0,0,0,0,0,0,0,0,0,0,0,0,0,0,0,0,0,0,0,0,0,0,0,0,0,0,0,0,0,0,0,0,0,0,0,0,0,0,0,0,0,0,0,0,0,0,0,0,0,0,0,0,0,0,0,0],"sum_hessian":[8.034E3,4.7E1,7.987E3,1.5E1,3.2E1,5.22E3,2.767E3,2E0,3E1,2.202E3,3.018E3,1.14E2,2.653E3,5E0,2.5E1,1.985E3,2.17E2,2.7E1,2.991E3,1.11E2,3E0,2.451E3,2.02E2,1E0,4E0,7E0,1.8E1,4.69E2,1.516E3,2.13E2,4E0,2.5E1,2E0,1.6E1,2.975E3,6E0,1.05E2,1E0,2E0,3E1,2.421E3,1.2E1,1.9E2,1E0,6E0,3E0,1.5E1,5.2E1,4.17E2,1.036E3,4.8E2,1.83E2,3E1,1E0,3E0,2.2E1,3E0,1E0,1E0,1E0,1.5E1,1.5E1,2.96E3,1E0,5E0,8.8E1,1.7E1,1E0,1E0,2.5E1,5E0,4.74E2,1.947E3,8E0,4E0,2.6E1,1.64E2],"tree_param":{"num_deleted":"0","num_feature":"22","num_nodes":"77","size_leaf_vector":"1"}},{"base_weights":[-1.1099182E-3,1.8787172E0,-1.25821335E-2,2.5394374E-1,1.7322046E-1,3.3438265E-2,-4.767043E-2,1.3378383E-1,2.0246762E-1,-6.276009E-1,3.6102556E-2,-2.2492621E-2,-8.330259E-2,3.9924765E-3,8.177645E-3,1.0930713E-2,2.7122623E-3,6.32406E-2,-2.4021351E-1,7.270851E-2,1.8696615E-2,-4.1723046E-1,-1.9507233E-2,-1.8146557E-1,-6.5424964E-2,8.7796174E-2,-2.393835E-3,8.2352266E-2,-1.4337991E-1,2.8293157E-2,-2.1952419E-1,1.4059755E-1,-2.7539906E-1,-1.5948996E-2,-2.5750017E-1,-2.1184275E0,-1.4005071E-1,-4.6843234E-2,-1.4761935E-1,1.8355573E-4,7.864427E-3,3.420973E-3,6.114031E-3,-2.9174876E-1,5.0933133E-3,2.1441653E-4,3.0330746E-3,-1.3625285E-1,-3.6502392E-3,2.8114847E-3,1.0545283E-2,-9.835282E-3,-5.66761E-4,-1.5049316E-1,2.7735361E-3,-3.154457E-1,-9.2737173E-4,-4.8307036E-3,-3.4075532E-2,-8.090652E-4,-3.1139657E-3,-6.651209E-3,-1.3148019E-2],"categories":[],"categories_nodes":[],"categories_segments":[],"categories_sizes":[],"default_left":[0,0,0,0,0,0,0,0,0,0,0,0,0,0,0,0,0,0,0,0,0,0,0,0,0,0,0,0,0,0,0,0,0,0,0,0,0,0,0,0,0,0,0,0,0,0,0,0,0,0,0,0,0,0,0,0,0,0,0,0,0,0,0],"id":20,"left_children":[1,3,5,-1,7,9,11,13,15,17,19,21,23,-1,-1,-1,-1,25,-1,27,29,31,33,35,37,39,-1,41,43,45,47,49,-1,51,53,55,57,59,61,-1,-1,-1,-1,-1,-1,-1,-1,-1,-1,-1,-1,-1,-1,-1,-1,-1,-1,-1,-1,-1,-1,-1,-1],"loss_changes":[1.7421045E2,2.6655524E2,1.2966641E1,0E0,1.0975659E-2,6.1410685E0,4.085495E0,1.4235139E-2,2.882719E-2,4.0699654E1,2.203855E0,3.139489E0,3.2979088E0,0E0,0E0,0E0,0E0,3.967452E-2,0E0,2.335362E0,5.371678E0,5.756968E1,2.2417004E0,2.2966827E1,2.4322062E0,6.372912E-2,0E0,5.857773E-1,6.75948E1,1.7534205E0,3.3207993E1,1.00843966E-1,0E0,2.1777701E0,3.376193E1,5.268009E1,6.6371274E0,6.1617565E-1,4.5994616E-1,0E0,0E0,0E0,0E0,0E0,0E0,0E0,0E0,0E0,0E0,0E0,0E0,0E0,0E0,0E0,0E0,0E0,0E0,0E0,0E0,0E0,0E0,0E0,0E0],"parents":[2147483647,0,0,1,1,2,2,4,4,5,5,6,6,7,7,8,8,9,9,10,10,11,11,12,12,17,17,19,19,20,20,21,21,22,22,23,23,24,24,25,25,27,27,28,28,29,29,30,30,31,31,33,33,34,34,35,35,36,36,37,37,38,38],"right_children":[2,4,6,-1,8,10,12,14,16,18,20,22,24,-1,-1,-1,-1,26,-1,28,30,32,34,36,38,40,-1,42,44,46,48,50,-1,52,54,56,58,60,62,-1,-1,-1,-1,-1,-1,-1,-1,-1,-1,-1,-1,-1,-1,-1,-1,-1,-1,-1,-1,-1,-1,-1,-1],"split_conditions":[7.2960764E-1,4.9687987E-3,1.0046276E0,2.5394374E-1,-6.8946786E-2,6.3625157E-1,1.1608249E0,-2.6616542E-2,1.4476599E0,1E0,8.835824E-1,-3.7965113E-1,-4.3783468E-1,3.9924765E-3,8.177645E-3,1.0930713E-2,2.7122623E-3,2.0097223E-1,-2.4021351E-1,5.7E1,4.48243E0,5.1E1,2.6398477E-1,1.55E1,1.3665621E0,-3.5743853E-1,-2.393835E-3,1E0,7.8374714E-1,1E0,8.8575625E-1,2.8268645E-2,-2.7539906E-1,8.765221E-3,5.6530213E-1,1.1631434E0,2.7E1,-7.833464E-2,1.5847898E0,1.8355573E-4,7.864427E-3,3.420973E-3,6.114031E-3,-2.9174876E-1,5.0933133E-3,2.1441653E-4,3.0330746E-3,-1.3625285E-1,-3.6502392E-3,2.8114847E-3,1.0545283E-2,-9.835282E-3,-5.66761E-4,-1.5049316E-1,2.7735361E-3,-3.154457E-1,-9.2737173E-4,-4.8307036E-3,-3.4075532E-2,-8.090652E-4,-3.1139657E-3,-6.651209E-3,-1.3148019E-2],"split_indices":[0,7,0,0,15,12,0,17,2,11,0,15,6,0,0,0,0,2,0,10,8,10,7,4,0,6,0,11,0,11,0,2,0,2,8,0,1,15,0,0,0,0,0,0,0,0,0,0,0,0,0,0,0,0,0,0,0,0,0,0,0,0,0],"split_type":[0,0,0,0,0,0,0,0,0,0,0,0,0,0,0,0,0,0,0,0,0,0,0,0,0,0,0,0,0,0,0,0,0,0,0,0,0,0,0,0,0,0,0,0,0,0,0,0,0,0,0,0,0,0,0,0,0,0,0,0,0,0,0],"sum_hessian":[8.076E3,4.8E1,8.028E3,1.6E1,3.2E1,3.473E3,4.555E3,1.6E1,1.6E1,1.3E1,3.46E3,2.67E3,1.885E3,7E0,9E0,1.4E1,2E0,1.2E1,1E0,1.114E3,2.346E3,1.9E1,2.651E3,2.89E2,1.596E3,1E1,2E0,1.067E3,4.7E1,2.256E3,9E1,1.8E1,1E0,2.613E3,3.8E1,5E0,2.84E2,1.303E3,2.93E2,5E0,5E0,7.93E2,2.74E2,1E0,4.6E1,1.296E3,9.6E2,4E0,8.6E1,9E0,9E0,6.4E1,2.549E3,3E0,3.5E1,1E0,4E0,2.64E2,2E1,4.37E2,8.66E2,2.62E2,3.1E1],"tree_param":{"num_deleted":"0","num_feature":"22","num_nodes":"63","size_leaf_vector":"1"}},{"base_weights":[-3.920261E-3,1.3958448E0,-1.10463565E-2,4.3600664E0,1.63628E-1,3.8081124E-2,-4.8782032E-2,2.3380378E-1,1.8533481E0,1.1824444E-1,1.0694E-2,-5.359596E-1,4.070643E-2,-2.6995262E-2,-7.934974E-2,1.325208E-1,6.480314E-3,1.2569365E-1,1.9550256E-3,5.2864898E-2,-2.3420818E-1,2.4016418E-2,6.86585E-2,-4.8840168E-1,-2.3843858E-2,-4.6005479E-1,-7.463241E-2,8.109297E-3,4.718104E-3,1.06741125E-2,1.1437206E-1,5.1507838E-2,-1.5305602E-2,4.541569E-2,9.628559E-2,1.1466672E-1,-2.6851413E-1,-1.04041494E-1,-1.5499513E-2,-1.694585E0,-2.298614E-2,-3.9159122E-1,-6.943534E-2,4.132395E-3,-2.554153E-3,-1.9259121E-3,7.6326886E-3,2.9350666E-3,-5.370592E-3,-2.1944618E-4,-1.6371453E-1,3.0542717E-3,-5.040608E-3,5.713932E-3,2.3799345E-3,3.6452734E-3,1.1608222E-2,-1.4182661E-1,-2.9593909E-3,-2.3679098E-3,4.176759E-4,5.3364336E-3,-2.6752883E-1,-6.562605E-3,1.9437887E-2,9.562843E-4,-3.0755955E-1,-3.107576E-3,-1.1677587E-2],"categories":[],"categories_nodes":[],"categories_segments":[],"categories_sizes":[],"default_left":[0,0,0,0,0,0,0,0,0,0,0,0,0,0,0,0,0,0,0,0,0,0,0,0,0,0,0,0,0,0,0,0,0,0,0,0,0,0,0,0,0,0,0,0,0,0,0,0,0,0,0,0,0,0,0,0,0,0,0,0,0,0,0,0,0,0,0,0,0],"id":21,"left_children":[1,3,5,7,9,11,13,-1,15,17,-1,19,21,23,25,-1,-1,27,-1,29,-1,31,33,35,37,39,41,-1,-1,43,45,47,49,51,53,55,-1,57,59,61,63,65,67,-1,-1,-1,-1,-1,-1,-1,-1,-1,-1,-1,-1,-1,-1,-1,-1,-1,-1,-1,-1,-1,-1,-1,-1,-1,-1],"loss_changes":[8.074197E1,1.4904167E2,1.4930983E1,8.393402E-1,4.312831E-2,5.2949257E0,3.0313578E0,0E0,3.778307E0,5.6973994E-3,0E0,3.9328655E1,1.6237078E0,3.8576555E0,3.3689203E0,0E0,0E0,2.9895604E-3,0E0,3.770471E-2,0E0,2.3606513E0,8.316822E-1,5.3609734E1,1.767744E0,1.2371258E1,3.0581226E0,0E0,0E0,4.8670888E-2,4.0997364E-2,1.475301E0,3.1969608E1,1.6307275E0,5.1491976E-1,6.649043E-2,0E0,3.0350119E1,1.8211787E0,4.008458E1,8.5342646E-1,7.108459E1,2.1897926E0,0E0,0E0,0E0,0E0,0E0,0E0,0E0,0E0,0E0,0E0,0E0,0E0,0E0,0E0,0E0,0E0,0E0,0E0,0E0,0E0,0E0,0E0,0E0,0E0,0E0,0E0],"parents":[2147483647,0,0,1,1,2,2,3,3,4,4,5,5,6,6,8,8,9,9,11,11,12,12,13,13,14,14,17,17,19,19,21,21,22,22,23,23,24,24,25,25,26,26,29,29,30,30,31,31,32,32,33,33,34,34,35,35,37,37,38,38,39,39,40,40,41,41,42,42],"right_children":[2,4,6,8,10,12,14,-1,16,18,-1,20,22,24,26,-1,-1,28,-1,30,-1,32,34,36,38,40,42,-1,-1,44,46,48,50,52,54,56,-1,58,60,62,64,66,68,-1,-1,-1,-1,-1,-1,-1,-1,-1,-1,-1,-1,-1,-1,-1,-1,-1,-1,-1,-1,-1,-1,-1,-1,-1,-1],"split_conditions":[7.2960764E-1,2.0088138E-1,1.005631E0,9E0,2E0,6.3625157E-1,1.1608249E0,2.3380378E-1,6.508752E-3,1.0379114E0,1.0694E-2,1E0,1E0,-3.7965113E-1,-7.651221E-1,1.325208E-1,6.480314E-3,7.138306E-1,1.9550256E-3,2E0,-2.3420818E-1,9.1888076E-1,1.0238004E0,5.1E1,9.039193E-3,1.1917485E0,1.1631434E0,8.109297E-3,4.718104E-3,2E1,8.090097E-1,5.7E1,4.6985254E0,1.0716102E0,9.669779E-1,8.327245E-2,-2.6851413E-1,1.0074211E0,1.6E1,1.1822224E0,5.3E1,1.2316945E0,2.8E1,4.132395E-3,-2.554153E-3,-1.9259121E-3,7.6326886E-3,2.9350666E-3,-5.370592E-3,-2.1944618E-4,-1.6371453E-1,3.0542717E-3,-5.040608E-3,5.713932E-3,2.3799345E-3,3.6452734E-3,1.1608222E-2,-1.4182661E-1,-2.9593909E-3,-2.3679098E-3,4.176759E-4,5.3364336E-3,-2.6752883E-1,-6.562605E-3,1.9437887E-2,9.562843E-4,-3.0755955E-1,-3.107576E-3,-1.1677587E-2],"split_indices":[0,8,0,4,1,12,0,0,2,14,0,11,11,15,6,0,0,12,0,1,0,0,12,10,2,0,0,0,0,4,0,10,8,14,0,2,0,0,9,0,10,12,1,0,0,0,0,0,0,0,0,0,0,0,0,0,0,0,0,0,0,0,0,0,0,0,0,0,0],"split_type":[0,0,0,0,0,0,0,0,0,0,0,0,0,0,0,0,0,0,0,0,0,0,0,0,0,0,0,0,0,0,0,0,0,0,0,0,0,0,0,0,0,0,0,0,0,0,0,0,0,0,0,0,0,0,0,0,0,0,0,0,0,0,0,0,0,0,0,0,0],"sum_hessian":[8.092E3,4E1,8.052E3,1.1E1,2.9E1,3.498E3,4.554E3,9E0,2E0,1.7E1,1.2E1,1.5E1,3.483E3,2.66E3,1.894E3,1E0,1E0,1.5E1,2E0,1.4E1,1E0,2.182E3,1.301E3,1.7E1,2.643E3,2.2E1,1.872E3,5E0,1E1,9E0,5E0,1.284E3,8.98E2,7.08E2,5.93E2,1.6E1,1E0,2.48E2,2.395E3,5E0,1.7E1,2.9E1,1.843E3,4E0,5E0,1E0,4E0,1.229E3,5.5E1,8.96E2,2E0,6.4E2,6.8E1,4.32E2,1.61E2,1.3E1,3E0,3E0,2.45E2,1.025E3,1.37E3,4E0,1E0,1.4E1,3E0,2.8E1,1E0,1.766E3,7.7E1],"tree_param":{"num_deleted":"0","num_feature":"22","num_nodes":"69","size_leaf_vector":"1"}},{"base_weights":[-2.1111337E-3,1.5829321E0,-1.131713E-2,2.3070987E-1,1.5711665E-1,1.678739E-2,-6.484885E-2,1.2485014E-1,2.0317888E-1,5.8308836E-2,-1.7654685E-3,-2.0294602E-1,-5.909637E-2,4.214937E-3,1.5161808E-1,3.4591954E-3,1.1152974E-2,6.36535E-2,-6.804142E-2,4.950434E-4,-6.375291E-1,-9.8975234E-2,-3.9129028E0,-4.9035728E-2,-1.3921441E-1,7.9766335E-3,1.6139403E-3,9.5930144E-2,4.5864113E-2,-2.843208E-1,1.0324328E-1,-4.8470536E-1,3.1623093E-3,2.2431655E-1,-2.6327608E0,-1.3079427E0,-3.1839078E-3,4.8881574E-3,-2.9835588E-1,-9.072095E-2,-3.8969193E-2,-1.251686E-1,-2.7018586E-1,8.234943E-3,4.3185162E-3,2.7827E-3,-2.653265E-3,-2.6829396E-3,6.1384123E-3,-1.5886344E-1,-4.5083658E-4,-2.384504E-2,2.7739155E-4,2.5500724E-2,6.795203E-3,-2.6288676E-1,-2.5954665E-4,-2.028615E-1,1.4234573E-2,1.5025114E-3,-1.1651074E-2,-3.2355543E-3,-3.4687784E-2,-2.4601694E-3,7.5704505E-5,-7.1866624E-3,-2.5663492E-3,-1.4810513E-2,-1.9993368E-3],"categories":[],"categories_nodes":[],"categories_segments":[],"categories_sizes":[],"default_left":[0,0,0,0,0,0,0,0,0,0,0,0,0,0,0,0,0,0,0,0,0,0,0,0,0,0,0,0,1,0,0,0,0,0,0,0,0,0,0,0,0,0,0,0,0,0,0,0,0,0,0,0,0,0,0,0,0,0,0,0,0,0,0,0,0,0,0,0,0],"id":22,"left_children":[1,3,5,-1,7,9,11,13,15,17,19,21,23,-1,25,-1,-1,27,29,31,33,35,37,39,41,-1,-1,43,45,-1,47,49,51,53,55,57,59,-1,-1,61,63,65,67,-1,-1,-1,-1,-1,-1,-1,-1,-1,-1,-1,-1,-1,-1,-1,-1,-1,-1,-1,-1,-1,-1,-1,-1,-1,-1],"loss_changes":[1.18766815E2,2.0241022E2,1.2175367E1,0E0,2.3679912E-2,4.0883055E0,2.201208E0,1.1099309E-2,1.6534716E-2,1.1111479E0,5.273223E0,4.2428432E1,2.150135E0,0E0,6.184727E-3,0E0,0E0,8.98788E-1,6.5063965E1,4.7342706E0,2.2945133E1,1.2618972E1,2.5299664E1,9.947543E-1,5.143819E-1,0E0,0E0,3.5261393E-1,9.869566E-1,0E0,2.087791E-1,2.5587786E1,4.168886E0,1.8327951E-1,2.7561922E1,3.618393E1,7.861245E-1,0E0,0E0,7.201507E0,7.9472804E-1,3.6412096E-1,1.558981E-1,0E0,0E0,0E0,0E0,0E0,0E0,0E0,0E0,0E0,0E0,0E0,0E0,0E0,0E0,0E0,0E0,0E0,0E0,0E0,0E0,0E0,0E0,0E0,0E0,0E0,0E0],"parents":[2147483647,0,0,1,1,2,2,4,4,5,5,6,6,7,7,8,8,9,9,10,10,11,11,12,12,14,14,17,17,18,18,19,19,20,20,21,21,22,22,23,23,24,24,27,27,28,28,30,30,31,31,32,32,33,33,34,34,35,35,36,36,39,39,40,40,41,41,42,42],"right_children":[2,4,6,-1,8,10,12,14,16,18,20,22,24,-1,26,-1,-1,28,30,32,34,36,38,40,42,-1,-1,44,46,-1,48,50,52,54,56,58,60,-1,-1,62,64,66,68,-1,-1,-1,-1,-1,-1,-1,-1,-1,-1,-1,-1,-1,-1,-1,-1,-1,-1,-1,-1,-1,-1,-1,-1,-1,-1],"split_conditions":[7.2960764E-1,4.9687987E-3,1.1041949E0,2.3070987E-1,2E0,9.1013944E-1,8.1372285E-1,1.8451935E-2,8.0138093E-1,5.7E1,1.4475076E0,-7.040244E-2,1.3882015E0,4.214937E-3,1.4475932E0,3.4591954E-3,1.1152974E-2,8.391118E-1,7.8374714E-1,7.9646116E-1,1.0914123E0,8.0824596E-1,1.1121784E0,8.177987E-1,1.5847898E0,7.9766335E-3,1.6139403E-3,7.8374714E-1,1.0897177E0,-2.843208E-1,-1.0908626E-1,2.8501762E-2,6.3625157E-1,1.4475932E0,9.201292E-1,1E0,1.3132476E0,4.8881574E-3,-2.9835588E-1,8.1712776E-1,2.8533105E-2,1.4496244E-1,1.0277878E0,8.234943E-3,4.3185162E-3,2.7827E-3,-2.653265E-3,-2.6829396E-3,6.1384123E-3,-1.5886344E-1,-4.5083658E-4,-2.384504E-2,2.7739155E-4,2.5500724E-2,6.795203E-3,-2.6288676E-1,-2.5954665E-4,-2.028615E-1,1.4234573E-2,1.5025114E-3,-1.1651074E-2,-3.2355543E-3,-3.4687784E-2,-2.4601694E-3,7.5704505E-5,-7.1866624E-3,-2.5663492E-3,-1.4810513E-2,-1.9993368E-3],"split_indices":[0,7,0,0,1,0,14,7,14,10,2,15,0,0,2,0,0,0,0,16,12,16,0,16,0,0,0,0,14,0,17,7,12,2,0,5,0,0,0,16,2,13,14,0,0,0,0,0,0,0,0,0,0,0,0,0,0,0,0,0,0,0,0,0,0,0,0,0,0],"split_type":[0,0,0,0,0,0,0,0,0,0,0,0,0,0,0,0,0,0,0,0,0,0,0,0,0,0,0,0,0,0,0,0,0,0,0,0,0,0,0,0,0,0,0,0,0,0,0,0,0,0,0,0,0,0,0,0,0,0,0,0,0,0,0,0,0,0,0,0,0],"sum_hessian":[8.137E3,4.6E1,8.091E3,1.4E1,3.2E1,5.306E3,2.785E3,2.1E1,1.1E1,1.638E3,3.668E3,1.1E2,2.675E3,1E1,1.1E1,2E0,9E0,1.572E3,6.6E1,3.656E3,1.2E1,1.08E2,2E0,2.378E3,2.97E2,1E1,1E0,5.57E2,1.015E3,1E0,6.5E1,1.9E1,3.637E3,9E0,3E0,7E0,1.01E2,1E0,1E0,4.61E2,1.917E3,2.7E2,2.7E1,6.6E1,4.91E2,9.24E2,9.1E1,7E0,5.8E1,2E0,1.7E1,1.7E1,3.62E3,1E0,8E0,1E0,2E0,2E0,5E0,8.9E1,1.2E1,4.43E2,1.8E1,1.53E3,3.87E2,2.15E2,5.5E1,2.4E1,3E0],"tree_param":{"num_deleted":"0","num_feature":"22","num_nodes":"69","size_leaf_vector":"1"}},{"base_weights":[-2.3035987E-3,1.6066874E0,-1.1678788E-2,2.2105522E-1,1.4927E-1,3.1481773E-2,-4.4140417E-2,1.1634975E-1,1.8843421E-1,-7.34468E-1,3.4135282E-2,-8.910016E-2,-3.3086162E-2,3.7198232E-3,1.4391185E-1,1.7348856E-3,9.917705E-3,2.6968857E-2,-2.2775684E-1,1.6513752E-2,6.365562E-2,-5.7210433E-1,-6.676499E-2,-2.488356E-2,-1.1322212E-1,7.6004337E-3,1.5735917E-3,4.570409E-3,-2.2911929E-2,4.9105506E-2,-2.2224192E-2,1.1720036E-1,5.2111074E-2,3.9155997E-2,-4.042439E0,-1.352264E-2,-1.365388E-1,4.574959E-2,-3.2063928E-2,-4.2295823E-1,-1.0551048E-1,-2.09993E-3,2.290203E-3,-7.0316033E-3,2.8131576E-3,-6.699091E-4,-7.329928E-2,2.9981022E-3,6.7096376E-3,3.2372128E-3,-1.3630062E-2,-2.042836E-3,3.6397676E-3,-3.1504256E-1,1.5812838E-2,-9.991279E-4,7.028828E-3,-4.541234E-2,-5.4301354E-3,1.2971846E-3,4.0511866E-3,-2.5222702E-2,-1.4230205E-3,-6.8988325E-3,-2.8317591E-2,-1.2256038E-2,-4.9339617E-3],"categories":[],"categories_nodes":[],"categories_segments":[],"categories_sizes":[],"default_left":[0,0,0,0,0,0,0,0,0,0,0,0,0,0,0,0,0,0,0,0,0,0,0,0,0,0,0,0,0,0,0,0,0,1,0,0,0,0,0,0,0,0,0,0,0,0,0,0,0,0,0,0,0,0,0,0,0,0,0,0,0,0,0,0,0,0,0],"id":23,"left_children":[1,3,5,-1,7,9,11,13,15,17,19,21,23,-1,25,-1,-1,27,-1,29,31,33,35,37,39,-1,-1,-1,41,43,45,47,49,51,53,55,57,59,61,63,65,-1,-1,-1,-1,-1,-1,-1,-1,-1,-1,-1,-1,-1,-1,-1,-1,-1,-1,-1,-1,-1,-1,-1,-1,-1,-1],"loss_changes":[1.22385E2,1.9212373E2,1.1302357E1,0E0,1.9333184E-2,7.0634627E0,2.285225E0,1.241985E-2,1.2943208E-2,3.503322E1,1.7946568E0,9.757292E0,2.4273071E0,0E0,5.2304864E-3,0E0,0E0,3.7451465E-2,0E0,2.73196E0,7.91306E-1,8.500941E1,3.2264209E0,1.7030287E0,7.746539E-1,0E0,0E0,0E0,1.1104625E-2,1.6036491E0,1.2582842E1,2.1371031E-1,4.378236E0,9.7179346E-2,6.105506E1,4.945704E-1,8.007362E0,2.144751E-1,5.1707444E0,2.4877298E-1,2.9625988E-1,0E0,0E0,0E0,0E0,0E0,0E0,0E0,0E0,0E0,0E0,0E0,0E0,0E0,0E0,0E0,0E0,0E0,0E0,0E0,0E0,0E0,0E0,0E0,0E0,0E0,0E0],"parents":[2147483647,0,0,1,1,2,2,4,4,5,5,6,6,7,7,8,8,9,9,10,10,11,11,12,12,14,14,17,17,19,19,20,20,21,21,22,22,23,23,24,24,28,28,29,29,30,30,31,31,32,32,33,33,34,34,35,35,36,36,37,37,38,38,39,39,40,40],"right_children":[2,4,6,-1,8,10,12,14,16,18,20,22,24,-1,26,-1,-1,28,-1,30,32,34,36,38,40,-1,-1,-1,42,44,46,48,50,52,54,56,58,60,62,64,66,-1,-1,-1,-1,-1,-1,-1,-1,-1,-1,-1,-1,-1,-1,-1,-1,-1,-1,-1,-1,-1,-1,-1,-1,-1,-1],"split_conditions":[7.2960764E-1,4.9687987E-3,1.0046276E0,2.2105522E-1,2E0,6.3625157E-1,-4.0524092E-1,1.8451935E-2,-3.6741436E-1,1E0,1E0,1.0141822E0,1.338779E0,3.7198232E-3,1.4475076E0,1.7348856E-3,9.917705E-3,2E1,-2.2775684E-1,9.1013944E-1,2.780184E-2,5.5E1,1.1608249E0,1.023944E0,5.5E0,7.6004337E-3,1.5735917E-3,4.570409E-3,2E0,7.8374714E-1,5.324946E0,1.5E1,4.48243E0,8.2277954E-1,1.2159818E-1,1.2837707E0,1.1631434E0,4.042717E-2,1.0253451E0,1.5E1,2.0088138E-1,-2.09993E-3,2.290203E-3,-7.0316033E-3,2.8131576E-3,-6.699091E-4,-7.329928E-2,2.9981022E-3,6.7096376E-3,3.2372128E-3,-1.3630062E-2,-2.042836E-3,3.6397676E-3,-3.1504256E-1,1.5812838E-2,-9.991279E-4,7.028828E-3,-4.541234E-2,-5.4301354E-3,1.2971846E-3,4.0511866E-3,-2.5222702E-2,-1.4230205E-3,-6.8988325E-3,-2.8317591E-2,-1.2256038E-2,-4.9339617E-3],"split_indices":[0,7,0,0,1,12,6,7,17,11,11,0,0,0,2,0,0,4,0,0,7,10,0,0,4,0,0,0,1,0,8,9,8,16,2,12,0,13,0,9,8,0,0,0,0,0,0,0,0,0,0,0,0,0,0,0,0,0,0,0,0,0,0,0,0,0,0],"split_type":[0,0,0,0,0,0,0,0,0,0,0,0,0,0,0,0,0,0,0,0,0,0,0,0,0,0,0,0,0,0,0,0,0,0,0,0,0,0,0,0,0,0,0,0,0,0,0,0,0,0,0,0,0,0,0,0,0,0,0,0,0,0,0,0,0,0,0],"sum_hessian":[8.111E3,4.6E1,8.065E3,1.5E1,3.1E1,3.462E3,4.603E3,1.9E1,1.2E1,1.1E1,3.451E3,9.07E2,3.696E3,9E0,1E1,1E0,1.1E1,1E1,1E0,2.162E3,1.289E3,3.9E1,8.68E2,3.354E3,3.42E2,9E0,1E0,4E0,6E0,1.174E3,9.88E2,2.27E2,1.062E3,3.4E1,5E0,4.93E2,3.75E2,3.09E2,3.045E3,7E0,3.35E2,5E0,1E0,4.2E1,1.132E3,9.83E2,5E0,5.3E1,1.74E2,1.023E3,3.9E1,1E1,2.4E1,3E0,2E0,4.74E2,1.9E1,1.2E1,3.63E2,1.99E2,1.1E2,2.2E1,3.023E3,3E0,4E0,1.4E1,3.21E2],"tree_param":{"num_deleted":"0","num_feature":"22","num_nodes":"67","size_leaf_vector":"1"}},