{"learner":{"attributes":{"scikit_learn":"{\"_estimator_type\": \"regressor\"}"},"feature_names":["ts_event","expiry_date","iv","opt_volume","stock_volume","time_to_expiry","strike_price","delta","gamma","vega","days_to_expiry","option_type_enc","rv_30m","opt_vol_change_1m","opt_vol_roll_15m","sabr_alpha","sabr_beta","sabr_rho","sabr_nu","IV_QUBT","IVRET_QUBT","IV_QBTS","IVRET_QBTS","IV_RGTI","IVRET_RGTI","IV_IONQ","IVRET_IONQ","sym_QUBT","sym_QBTS","sym_RGTI","sym_IONQ"],"feature_types":["float","float","float","float","float","float","float","float","float","float","float","float","float","float","float","float","float","float","float","float","float","float","float","float","float","float","float","float","float","float","float"],"gradient_booster":{"model":{"gbtree_model_param":{"num_parallel_tree":"1","num_trees":"350"},"iteration_indptr":[0,1,2,3,4,5,6,7,8,9,10,11,12,13,14,15,16,17,18,19,20,21,22,23,24,25,26,27,28,29,30,31,32,33,34,35,36,37,38,39,40,41,42,43,44,45,46,47,48,49,50,51,52,53,54,55,56,57,58,59,60,61,62,63,64,65,66,67,68,69,70,71,72,73,74,75,76,77,78,79,80,81,82,83,84,85,86,87,88,89,90,91,92,93,94,95,96,97,98,99,100,101,102,103,104,105,106,107,108,109,110,111,112,113,114,115,116,117,118,119,120,121,122,123,124,125,126,127,128,129,130,131,132,133,134,135,136,137,138,139,140,141,142,143,144,145,146,147,148,149,150,151,152,153,154,155,156,157,158,159,160,161,162,163,164,165,166,167,168,169,170,171,172,173,174,175,176,177,178,179,180,181,182,183,184,185,186,187,188,189,190,191,192,193,194,195,196,197,198,199,200,201,202,203,204,205,206,207,208,209,210,211,212,213,214,215,216,217,218,219,220,221,222,223,224,225,226,227,228,229,230,231,232,233,234,235,236,237,238,239,240,241,242,243,244,245,246,247,248,249,250,251,252,253,254,255,256,257,258,259,260,261,262,263,264,265,266,267,268,269,270,271,272,273,274,275,276,277,278,279,280,281,282,283,284,285,286,287,288,289,290,291,292,293,294,295,296,297,298,299,300,301,302,303,304,305,306,307,308,309,310,311,312,313,314,315,316,317,318,319,320,321,322,323,324,325,326,327,328,329,330,331,332,333,334,335,336,337,338,339,340,341,342,343,344,345,346,347,348,349,350],"tree_info":[0,0,0,0,0,0,0,0,0,0,0,0,0,0,0,0,0,0,0,0,0,0,0,0,0,0,0,0,0,0,0,0,0,0,0,0,0,0,0,0,0,0,0,0,0,0,0,0,0,0,0,0,0,0,0,0,0,0,0,0,0,0,0,0,0,0,0,0,0,0,0,0,0,0,0,0,0,0,0,0,0,0,0,0,0,0,0,0,0,0,0,0,0,0,0,0,0,0,0,0,0,0,0,0,0,0,0,0,0,0,0,0,0,0,0,0,0,0,0,0,0,0,0,0,0,0,0,0,0,0,0,0,0,0,0,0,0,0,0,0,0,0,0,0,0,0,0,0,0,0,0,0,0,0,0,0,0,0,0,0,0,0,0,0,0,0,0,0,0,0,0,0,0,0,0,0,0,0,0,0,0,0,0,0,0,0,0,0,0,0,0,0,0,0,0,0,0,0,0,0,0,0,0,0,0,0,0,0,0,0,0,0,0,0,0,0,0,0,0,0,0,0,0,0,0,0,0,0,0,0,0,0,0,0,0,0,0,0,0,0,0,0,0,0,0,0,0,0,0,0,0,0,0,0,0,0,0,0,0,0,0,0,0,0,0,0,0,0,0,0,0,0,0,0,0,0,0,0,0,0,0,0,0,0,0,0,0,0,0,0,0,0,0,0,0,0,0,0,0,0,0,0,0,0,0,0,0,0,0,0,0,0,0,0,0,0,0,0,0,0,0,0,0,0,0,0,0,0,0,0,0,0,0,0,0,0,0,0,0,0,0,0,0,0,0,0,0,0,0,0],"trees":[{"base_weights":[1.3400174E-3,5.371817E0,-2.15683E-2,6.5700763E-1,1.8242834E-2,6.522626E-2,-2.1637955E-1,1.348286E-1,-1.9812046E-2,-1.8205728E-1,-4.7945982E-1,-1.0424488E0,1.3824807E-1,-9.9054486E-1,-1.5744481E-2,-1.1861622E0,-1.7304501E-1,-4.8687235E-1,-1.8452065E-1,1.1364705E-1,-3.4398755E-1,1.1737172E-1,2.1941559E-1,-3.4458885E-1,-6.4673102E-3,-1.1881638E-2,-7.2928095E-1,-1.0480199E-1,-5.706915E0,-1.6799857E-1,-1.2074625E0,-4.701384E-1,-6.109097E-1,-2.3477364E-3,-2.5642192E-1,1.7743802E-3,1.2077709E-2,-5.7750996E-3,6.3119815E-3,9.742822E-3,1.2910517E-2,-4.2916043E-3,1.4334631E-2,-2.0700372E-3,2.6884573E-3,-3.4634298E-1,2.1372393E-3,-6.9241314E-3,-6.4229715E-4,-4.6489164E-1,-1.0684616E-2,-8.148744E-3,-5.6234773E-2,-3.4976402E-1,-1.1207366E-2,-1.38047235E-2,-2.392116E-2,-3.211447E-2,3.313326E-5,-1.9372189E-3,-1.4312207E-2],"categories":[],"categories_nodes":[],"categories_segments":[],"categories_sizes":[],"default_left":[0,0,0,0,0,0,0,0,0,0,0,0,0,0,0,0,0,0,0,0,0,0,0,0,0,0,0,0,0,0,0,0,0,0,0,0,0,0,0,0,0,0,0,0,0,0,0,0,0,0,0,0,0,0,0,0,0,0,0,0,0],"id":0,"left_children":[1,3,5,-1,-1,7,9,11,13,15,17,19,21,23,25,27,29,31,33,35,-1,37,39,-1,41,43,45,47,49,51,53,55,57,-1,59,-1,-1,-1,-1,-1,-1,-1,-1,-1,-1,-1,-1,-1,-1,-1,-1,-1,-1,-1,-1,-1,-1,-1,-1,-1,-1],"loss_changes":[1.3323926E3,1.7844103E3,1.8235597E2,0E0,0E0,4.416332E1,2.9926804E1,1.666146E1,1.32474785E1,2.6417664E1,7.474899E-1,8.176364E1,6.908066E0,8.12572E1,9.213844E0,1.2650452E2,1.5024284E1,4.869995E-1,9.676257E-2,1.0139647E-1,0E0,6.740612E0,7.4619675E-1,0E0,3.2707283E-1,6.453669E0,8.642051E1,6.635815E-2,9.664165E1,1.377375E1,7.810951E1,4.0324402E-1,7.8725433E-1,0E0,3.435102E-2,0E0,0E0,0E0,0E0,0E0,0E0,0E0,0E0,0E0,0E0,0E0,0E0,0E0,0E0,0E0,0E0,0E0,0E0,0E0,0E0,0E0,0E0,0E0,0E0,0E0,0E0],"parents":[2147483647,0,0,1,1,2,2,5,5,6,6,7,7,8,8,9,9,10,10,11,11,12,12,13,13,14,14,15,15,16,16,17,17,18,18,19,19,21,21,22,22,24,24,25,25,26,26,27,27,28,28,29,29,30,30,31,31,32,32,34,34],"right_children":[2,4,6,-1,-1,8,10,12,14,16,18,20,22,24,26,28,30,32,34,36,-1,38,40,-1,42,44,46,48,50,52,54,56,58,-1,60,-1,-1,-1,-1,-1,-1,-1,-1,-1,-1,-1,-1,-1,-1,-1,-1,-1,-1,-1,-1,-1,-1,-1,-1,-1,-1],"split_conditions":[-2.0597293E0,-1.398372E0,3.3135837E-1,6.5700763E-1,1.8242834E-2,-4.9046043E-1,1.9704994E0,-2.2668371E0,-6.2136906E-1,-7.410162E-1,1.5839496E0,1.7543372E18,9.372042E-1,-4.8257408E-1,2.9697785E0,1.3422947E0,4.705953E0,1.7544216E18,-1.25380345E-2,-3.1596845E-1,-3.4398755E-1,-2.874878E-1,1.7544063E18,-3.4458885E-1,-2.5791553E-1,1.754406E18,-1.7814687E-1,1.0059687E-2,1.7544088E18,5.110577E0,-4.476243E-1,-1.1342447E0,5.303576E-1,-2.3477364E-3,-5.8376336E-1,1.7743802E-3,1.2077709E-2,-5.7750996E-3,6.3119815E-3,9.742822E-3,1.2910517E-2,-4.2916043E-3,1.4334631E-2,-2.0700372E-3,2.6884573E-3,-3.4634298E-1,2.1372393E-3,-6.9241314E-3,-6.4229715E-4,-4.6489164E-1,-1.0684616E-2,-8.148744E-3,-5.6234773E-2,-3.4976402E-1,-1.1207366E-2,-1.38047235E-2,-2.392116E-2,-3.211447E-2,3.313326E-5,-1.9372189E-3,-1.4312207E-2],"split_indices":[2,8,2,0,0,2,2,19,25,12,8,0,7,2,19,19,4,0,22,8,0,13,0,0,4,0,12,20,0,3,14,23,22,0,25,0,0,0,0,0,0,0,0,0,0,0,0,0,0,0,0,0,0,0,0,0,0,0,0,0,0],"split_type":[0,0,0,0,0,0,0,0,0,0,0,0,0,0,0,0,0,0,0,0,0,0,0,0,0,0,0,0,0,0,0,0,0,0,0,0,0,0,0,0,0,0,0,0,0,0,0,0,0,0,0,0,0,0,0,0,0,0,0,0,0],"sum_hessian":[1.0828E4,4.5E1,1.0783E4,1.7E1,2.8E1,7.46E3,3.323E3,4.102E3,3.358E3,2.941E3,3.82E2,1.1E1,4.091E3,1.3E1,3.345E3,2.5E1,2.916E3,3.72E2,1E1,1E1,1E0,3.256E3,8.35E2,1E0,1.2E1,3.328E3,1.7E1,2.1E1,4E0,2.903E3,1.3E1,3.32E2,4E1,4E0,6E0,7E0,3E0,1.19E2,3.137E3,5.15E2,3.2E2,1E1,2E0,2.296E3,1.032E3,1E0,1.6E1,1.5E1,6E0,2E0,2E0,2.889E3,1.4E1,1E0,1.2E1,1.5E1,3.17E2,3.8E1,2E0,1E0,5E0],"tree_param":{"num_deleted":"0","num_feature":"31","num_nodes":"61","size_leaf_vector":"1"}},{"base_weights":[3.075434E-4,5.3618217E0,-2.3887934E-2,1.2019087E1,3.561532E-1,6.0561106E-2,-2.1715187E-1,1.25082955E-2,6.297512E-1,2.299238E-3,3.6558834E-1,1.22346535E-1,-1.5421855E-2,-1.7970653E-1,-5.003943E-1,7.486306E-3,3.7643442E-1,-7.226918E-1,1.253685E-1,-1.1650603E-2,-7.629972E-1,-1.0757123E0,-1.7127919E-1,-9.9178123E-1,-4.5303974E-1,2.3801672E-1,4.0605888E-1,-3.340066E0,2.0999064E-1,1.3172942E-1,-2.3203792E-1,-3.4020208E-2,3.9863415E-2,-3.376844E-1,3.352646E-2,-9.390335E-2,-5.376891E0,-1.6635124E-1,-1.1724432E0,-5.686835E-1,-5.033198E0,-2.1406093E-1,-4.652414E-1,1.27338115E-2,3.4514952E-3,2.0745127E-2,5.950749E-3,9.208497E-4,-3.353879E-1,1.9743318E-2,1.0763536E-3,5.5591525E-3,1.0451625E-2,-1.7475784E-1,-2.1129574E-3,-1.1988321E-3,-1.3624377E-2,-4.9981486E-2,2.660178E-3,1.0076809E-2,-1.9635728E-3,-6.0991445E-3,-6.147701E-4,-4.4939524E-1,1.3209544E-3,-8.087631E-3,-5.4793637E-2,-3.4101993E-1,-1.0666955E-2,-1.4696687E-2,-3.4275994E-2,-3.6606053E-1,-1.1429307E-2,-1.1412421E-2,1.0328436E-3,-2.0777954E-2,-2.5817713E-2],"categories":[],"categories_nodes":[],"categories_segments":[],"categories_sizes":[],"default_left":[0,0,0,0,0,0,0,0,0,0,0,0,0,0,0,0,0,0,0,0,0,0,0,0,0,0,0,0,0,0,0,0,0,0,0,0,0,0,0,0,0,0,0,0,0,0,0,0,0,0,0,0,0,0,0,0,0,0,0,0,0,0,0,0,0,0,0,0,0,0,0,0,0,0,0,0,0],"id":1,"left_children":[1,3,5,7,9,11,13,-1,-1,-1,15,17,19,21,23,-1,25,27,29,31,33,35,37,39,41,43,45,47,49,51,53,55,57,-1,59,61,63,65,67,69,71,73,75,-1,-1,-1,-1,-1,-1,-1,-1,-1,-1,-1,-1,-1,-1,-1,-1,-1,-1,-1,-1,-1,-1,-1,-1,-1,-1,-1,-1,-1,-1,-1,-1,-1,-1],"loss_changes":[1.4149023E3,1.6285985E3,1.7722607E2,1.3919067E2,6.805658E-2,3.547928E1,3.4931427E1,0E0,0E0,0E0,9.193182E-3,1.0734322E1,9.548519E0,2.1849411E1,8.509407E0,0E0,9.965897E-3,3.7319065E1,9.474411E0,3.8893788E0,8.134579E1,1.1351436E2,1.4073189E1,5.3564877E1,9.297409E-1,2.126336E-3,1.3902187E-3,4.5364872E1,4.096077E-1,6.46019E0,4.505906E1,5.6290483E0,1.4225245E1,0E0,2.0360672E-1,5.1205024E-2,9.7794586E1,1.2129074E1,7.438262E1,7.936268E-1,3.1305504E1,6.798595E-2,6.3612366E-1,0E0,0E0,0E0,0E0,0E0,0E0,0E0,0E0,0E0,0E0,0E0,0E0,0E0,0E0,0E0,0E0,0E0,0E0,0E0,0E0,0E0,0E0,0E0,0E0,0E0,0E0,0E0,0E0,0E0,0E0,0E0,0E0,0E0,0E0],"parents":[2147483647,0,0,1,1,2,2,3,3,4,4,5,5,6,6,10,10,11,11,12,12,13,13,14,14,16,16,17,17,18,18,19,19,20,20,21,21,22,22,23,23,24,24,25,25,26,26,27,27,28,28,29,29,30,30,31,31,32,32,34,34,35,35,36,36,37,37,38,38,39,39,40,40,41,41,42,42],"right_children":[2,4,6,8,10,12,14,-1,-1,-1,16,18,20,22,24,-1,26,28,30,32,34,36,38,40,42,44,46,48,50,52,54,56,58,-1,60,62,64,66,68,70,72,74,76,-1,-1,-1,-1,-1,-1,-1,-1,-1,-1,-1,-1,-1,-1,-1,-1,-1,-1,-1,-1,-1,-1,-1,-1,-1,-1,-1,-1,-1,-1,-1,-1,-1,-1],"split_conditions":[-2.0597293E0,-1.1210934E0,3.419432E-1,-6.9036984E-1,-2.1671776E-1,-4.9046043E-1,1.9704994E0,1.25082955E-2,6.297512E-1,2.299238E-3,-6.1390746E-1,-2.2668371E0,2.9697785E0,-7.410162E-1,-3.805209E-1,7.486306E-3,-3.5752004E-1,-2.1531457E-1,3.8504546E0,1.7544063E18,-1.7814687E-1,1.3422947E0,4.705953E0,1.6804929E0,-5.976194E-1,1.7544062E18,4.2160305E-1,1.7543372E18,-7.086736E-2,9.245891E-1,-1.7748148E0,1.7544052E18,-6.863585E-1,-3.376844E-1,-2.1623956E-1,1.0059687E-2,-2.1623956E-1,6.4971094E0,-4.476243E-1,7.094247E-1,1.7544202E18,5.104333E-1,4.8052078E-1,1.27338115E-2,3.4514952E-3,2.0745127E-2,5.950749E-3,9.208497E-4,-3.353879E-1,1.9743318E-2,1.0763536E-3,5.5591525E-3,1.0451625E-2,-1.7475784E-1,-2.1129574E-3,-1.1988321E-3,-1.3624377E-2,-4.9981486E-2,2.660178E-3,1.0076809E-2,-1.9635728E-3,-6.0991445E-3,-6.147701E-4,-4.4939524E-1,1.3209544E-3,-8.087631E-3,-5.4793637E-2,-3.4101993E-1,-1.0666955E-2,-1.4696687E-2,-3.4275994E-2,-3.6606053E-1,-1.1429307E-2,-1.1412421E-2,1.0328436E-3,-2.0777954E-2,-2.5817713E-2],"split_indices":[2,9,2,4,24,2,2,0,0,0,26,19,19,12,22,0,9,21,4,0,12,19,4,18,5,0,20,0,24,7,7,0,12,0,3,20,3,13,14,18,0,7,7,0,0,0,0,0,0,0,0,0,0,0,0,0,0,0,0,0,0,0,0,0,0,0,0,0,0,0,0,0,0,0,0,0,0],"split_type":[0,0,0,0,0,0,0,0,0,0,0,0,0,0,0,0,0,0,0,0,0,0,0,0,0,0,0,0,0,0,0,0,0,0,0,0,0,0,0,0,0,0,0,0,0,0,0,0,0,0,0,0,0,0,0,0,0,0,0,0,0,0,0,0,0,0,0,0,0,0,0,0,0,0,0,0,0],"sum_hessian":[1.0905E4,4.8E1,1.0857E4,2E1,2.8E1,7.556E3,3.301E3,1E0,1.9E1,1E0,2.7E1,4.167E3,3.389E3,2.917E3,3.84E2,2E0,2.5E1,1.4E1,4.153E3,3.373E3,1.6E1,2.6E1,2.891E3,3.2E1,3.52E2,6E0,1.9E1,3E0,1.1E1,4.081E3,7.2E1,2.352E3,1.021E3,1E0,1.5E1,2.2E1,4E0,2.878E3,1.3E1,3E1,2E0,1.8E1,3.34E2,5E0,1E0,1.8E1,1E0,2E0,1E0,5E0,6E0,3.226E3,8.55E2,3E0,6.9E1,2.258E3,9.4E1,1.2E1,1.009E3,4E0,1.1E1,1.6E1,6E0,2E0,2E0,2.865E3,1.3E1,1E0,1.2E1,1E1,2E1,1E0,1E0,1.7E1,1E0,1.74E2,1.6E2],"tree_param":{"num_deleted":"0","num_feature":"31","num_nodes":"77","size_leaf_vector":"1"}},{"base_weights":[1.2926471E-3,4.6782393E0,-2.0772623E-2,5.9867394E-1,3.361851E-1,5.3555362E-2,-2.2632588E-1,2.2201112E-2,2.8391632E-1,1.1849675E-1,-2.6499918E-2,-1.8804844E-1,-4.6578643E-1,3.365208E-3,1.4506874E-2,9.8752156E-2,1.9734004E-1,-2.3001924E-2,-7.5355273E-1,-1.152364E0,-1.7814386E-1,-4.2566583E-1,-9.5745796E-1,-1.2043846E-1,1.06484264E-1,2.767517E-1,1.8389542E-1,-5.1331684E-2,3.408705E-2,2.2455938E-2,-3.292423E-1,-1.0103945E-1,-5.337455E0,-1.7253247E-1,-1.5317515E0,-4.339905E-1,-1.4322804E-1,-4.9068537E0,-4.8317483E-1,5.8050915E-3,-5.3571858E-2,-1.4039598E-2,5.507155E-3,1.997525E-2,1.2946826E-2,8.113607E-3,1.1350568E-2,-2.294404E-3,-3.6081593E-2,4.0701646E-3,-6.086578E-4,-5.8872406E-3,7.229186E-3,-1.0836126E-2,-3.0535758E-3,-4.344154E-1,-1.0372494E-2,-1.3313606E-2,-6.354687E-3,-3.3249444E-1,-1.1209658E-2,-2.2088816E-2,-1.1377077E-2,-8.890384E-3,-1.4808432E-3,-3.56909E-1,-1.1104998E-2,1.0611922E-3,-2.5169555E-2],"categories":[],"categories_nodes":[],"categories_segments":[],"categories_sizes":[],"default_left":[0,0,0,0,0,0,0,0,0,0,0,0,0,0,0,0,0,0,0,0,0,0,0,0,0,0,0,0,0,0,0,0,0,0,0,0,0,0,0,0,0,0,0,0,0,0,0,0,0,0,0,0,0,0,0,0,0,0,0,0,0,0,0,0,0,0,0,0,0],"id":2,"left_children":[1,3,5,-1,7,9,11,-1,13,15,17,19,21,-1,-1,23,25,27,29,31,33,35,37,39,41,43,45,47,49,51,-1,53,55,57,59,61,63,65,67,-1,-1,-1,-1,-1,-1,-1,-1,-1,-1,-1,-1,-1,-1,-1,-1,-1,-1,-1,-1,-1,-1,-1,-1,-1,-1,-1,-1,-1,-1],"loss_changes":[1.1208284E3,1.6114674E3,1.6517119E2,0E0,5.993986E-2,4.1282417E1,2.6227814E1,0E0,1.4162064E-2,6.805214E0,9.028924E0,2.3452896E1,7.3842773E0,0E0,0E0,5.9582024E0,8.854408E-1,5.7286696E0,7.707515E1,1.09457924E2,1.8367752E1,8.0072784E-1,5.194996E1,2.7118336E1,4.833061E0,1.6991329E-1,6.6519356E-1,8.603716E0,2.5729003E0,2.909825E-1,0E0,8.386028E-2,8.414708E1,1.037616E1,6.543176E1,4.7170258E-1,4.1877493E-2,2.9774254E1,2.8600454E-1,0E0,0E0,0E0,0E0,0E0,0E0,0E0,0E0,0E0,0E0,0E0,0E0,0E0,0E0,0E0,0E0,0E0,0E0,0E0,0E0,0E0,0E0,0E0,0E0,0E0,0E0,0E0,0E0,0E0,0E0],"parents":[2147483647,0,0,1,1,2,2,4,4,5,5,6,6,8,8,9,9,10,10,11,11,12,12,15,15,16,16,17,17,18,18,19,19,20,20,21,21,22,22,23,23,24,24,25,25,26,26,27,27,28,28,29,29,31,31,32,32,33,33,34,34,35,35,36,36,37,37,38,38],"right_children":[2,4,6,-1,8,10,12,-1,14,16,18,20,22,-1,-1,24,26,28,30,32,34,36,38,40,42,44,46,48,50,52,-1,54,56,58,60,62,64,66,68,-1,-1,-1,-1,-1,-1,-1,-1,-1,-1,-1,-1,-1,-1,-1,-1,-1,-1,-1,-1,-1,-1,-1,-1,-1,-1,-1,-1,-1,-1],"split_conditions":[-2.0597293E0,-1.398372E0,5.011446E-1,5.9867394E-1,-5.496023E-1,-4.3755904E-1,1.9704994E0,2.2201112E-2,-1.3547527E0,9.245891E-1,2.9697785E0,-7.410162E-1,1.6804929E0,3.365208E-3,1.4506874E-2,-2.874878E-1,-1.5939791E0,1.754406E18,7.7396214E-1,1.3422947E0,4.705953E0,1.5839496E0,-6.5779716E-1,-3.3693743E-1,-1.6912678E0,-1.2727695E0,3.5119054E-1,1.7544058E18,-2.7932366E-2,-7.689734E-2,-3.292423E-1,-3.4615847E-1,1.7544088E18,-5.434952E-1,-4.476243E-1,-8.493345E-1,1.754409E18,1.7544202E18,-2.7050763E-1,5.8050915E-3,-5.3571858E-2,-1.4039598E-2,5.507155E-3,1.997525E-2,1.2946826E-2,8.113607E-3,1.1350568E-2,-2.294404E-3,-3.6081593E-2,4.0701646E-3,-6.086578E-4,-5.8872406E-3,7.229186E-3,-1.0836126E-2,-3.0535758E-3,-4.344154E-1,-1.0372494E-2,-1.3313606E-2,-6.354687E-3,-3.3249444E-1,-1.1209658E-2,-2.2088816E-2,-1.1377077E-2,-8.890384E-3,-1.4808432E-3,-3.56909E-1,-1.1104998E-2,1.0611922E-3,-2.5169555E-2],"split_indices":[2,8,2,0,4,2,2,0,8,7,19,12,18,0,0,13,2,0,25,19,4,8,4,8,8,8,18,0,2,14,0,19,0,18,14,9,0,0,13,0,0,0,0,0,0,0,0,0,0,0,0,0,0,0,0,0,0,0,0,0,0,0,0,0,0,0,0,0,0],"split_type":[0,0,0,0,0,0,0,0,0,0,0,0,0,0,0,0,0,0,0,0,0,0,0,0,0,0,0,0,0,0,0,0,0,0,0,0,0,0,0,0,0,0,0,0,0,0,0,0,0,0,0,0,0,0,0,0,0,0,0,0,0,0,0,0,0,0,0,0,0],"sum_hessian":[1.0859E4,5E1,1.0809E4,1.8E1,3.2E1,7.939E3,2.87E3,8E0,2.4E1,4.383E3,3.556E3,2.476E3,3.94E2,1E0,2.3E1,3.507E3,8.76E2,3.54E3,1.6E1,2.4E1,2.452E3,3.66E2,2.8E1,1.19E2,3.388E3,1.24E2,7.52E2,2.366E3,1.174E3,1.5E1,1E0,2E1,4E0,2.443E3,9E0,3.55E2,1.1E1,2E0,2.6E1,9.6E1,2.3E1,3.1E1,3.357E3,1.3E1,1.11E2,5.04E2,2.48E2,2.348E3,1.8E1,5.8E2,5.94E2,7E0,8E0,4E0,1.6E1,2E0,2E0,7.96E2,1.647E3,1E0,8E0,3.41E2,1.4E1,8E0,3E0,1E0,1E0,1E0,2.5E1],"tree_param":{"num_deleted":"0","num_feature":"31","num_nodes":"69","size_leaf_vector":"1"}},{"base_weights":[1.7375259E-3,-2.2096729E-2,5.3619256E0,5.294852E-2,-1.9019866E-1,8.707398E0,2.4289407E-1,1.0852902E-1,-1.4787882E-2,-1.5716529E-1,-4.45643E-1,1.1013418E1,-1.1343916E-1,3.6579755E-1,-1.9897592E-1,1.145763E-1,-2.2202416E-1,-8.420676E-1,-1.0832281E-2,-9.961317E-1,-1.4908043E-1,-4.046396E-1,-1.013346E0,1.1640561E-2,5.746432E-1,1.2949712E-2,-3.1421137E-1,3.0301377E-2,2.8819132E-1,-4.7412306E-2,-2.013076E-2,9.463469E-2,1.8877816E-1,1.7805265E-1,-1.4765993E0,-3.3486226E-1,-5.2394154E-3,-7.2077126E-3,-7.2103685E-1,-1.0370868E-1,-4.251065E0,-1.444498E-1,-9.326936E-1,-2.1445106E-1,-4.1709435E-1,-3.4798628E-1,-4.7559154E-1,-4.351334E-3,-1.7462542E-2,3.0408296E-1,2.039993E-3,8.140183E-4,-3.7034992E-3,-1.9912126E-2,4.9178177E-3,1.2521664E-2,8.669066E-3,5.899619E-3,1.4163226E-2,3.2548942E-3,-1.954283E-1,-3.5268702E-3,1.3973251E-2,-1.6107046E-3,2.41456E-3,-3.2101125E-1,1.8213217E-3,-1.4889593E-3,-7.057623E-3,-4.1993484E-1,-3.8787106E-3,-1.0678289E-2,-4.9243737E-3,-3.5142457E-1,-5.621276E-3,-1.860185E-2,-7.6700086E-3,-2.1695515E-2,-1.3052038E-2,-2.4903443E-2,1.0346625E-3,1.7590482E-2,7.86792E-3],"categories":[],"categories_nodes":[],"categories_segments":[],"categories_sizes":[],"default_left":[0,0,0,0,0,0,0,0,0,0,0,0,0,0,0,0,0,0,0,0,0,0,0,0,0,0,0,0,0,0,0,0,0,0,0,0,0,0,0,0,0,0,0,0,0,0,0,0,0,0,0,0,0,0,0,0,0,0,0,0,0,0,0,0,0,0,0,0,0,0,0,0,0,0,0,0,0,0,0,0,0,0,0],"id":3,"left_children":[1,3,5,7,9,11,13,15,17,19,21,23,25,27,29,31,33,35,37,39,41,43,45,-1,-1,-1,47,-1,49,51,-1,53,55,57,59,-1,61,63,65,67,69,71,73,75,77,-1,79,-1,-1,81,-1,-1,-1,-1,-1,-1,-1,-1,-1,-1,-1,-1,-1,-1,-1,-1,-1,-1,-1,-1,-1,-1,-1,-1,-1,-1,-1,-1,-1,-1,-1,-1,-1],"loss_changes":[1.38525E3,1.361917E2,8.1991296E2,2.8102242E1,2.804599E1,5.9113916E2,1.1589322E0,8.221123E0,1.1002466E1,1.9874695E1,8.458778E0,1.16204834E2,6.047988E-1,1.2364173E-1,1.3523261E-1,5.9409065E0,3.7405468E1,7.836135E1,8.618322E0,8.08929E1,1.0478996E1,7.562027E-1,7.663231E1,0E0,0E0,0E0,9.408027E-3,0E0,4.263389E-2,7.997483E-3,0E0,5.8649864E0,7.6537895E-1,3.2676303E-1,6.774286E1,0E0,2.9857215E-1,4.6285706E0,7.36216E1,5.9465185E-2,1.032091E2,9.220081E0,8.421302E1,1.7382765E-1,7.6320267E-1,0E0,2.780304E-1,0E0,0E0,3.567469E-2,0E0,0E0,0E0,0E0,0E0,0E0,0E0,0E0,0E0,0E0,0E0,0E0,0E0,0E0,0E0,0E0,0E0,0E0,0E0,0E0,0E0,0E0,0E0,0E0,0E0,0E0,0E0,0E0,0E0,0E0,0E0,0E0,0E0],"parents":[2147483647,0,0,1,1,2,2,3,3,4,4,5,5,6,6,7,7,8,8,9,9,10,10,11,11,12,12,13,13,14,14,15,15,16,16,17,17,18,18,19,19,20,20,21,21,22,22,26,26,28,28,29,29,31,31,32,32,33,33,34,34,36,36,37,37,38,38,39,39,40,40,41,41,42,42,43,43,44,44,46,46,49,49],"right_children":[2,4,6,8,10,12,14,16,18,20,22,24,26,28,30,32,34,36,38,40,42,44,46,-1,-1,-1,48,-1,50,52,-1,54,56,58,60,-1,62,64,66,68,70,72,74,76,78,-1,80,-1,-1,82,-1,-1,-1,-1,-1,-1,-1,-1,-1,-1,-1,-1,-1,-1,-1,-1,-1,-1,-1,-1,-1,-1,-1,-1,-1,-1,-1,-1,-1,-1,-1,-1,-1],"split_conditions":[1.6307021E0,3.419432E-1,-1.1210934E0,-4.9046043E-1,1.9704994E0,-2.0597293E0,-1.0331595E0,3.8504546E0,-6.2136906E-1,-7.410162E-1,1.6804929E0,-6.9036984E-1,-1.258407E0,-6.675411E-1,1.7543206E18,9.245891E-1,-6.881513E-1,-4.8257408E-1,2.9697785E0,1.3422947E0,5.110577E0,-5.468945E-1,-6.5779716E-1,1.1640561E-2,5.746432E-1,1.2949712E-2,1.7543207E18,3.0301377E-2,8.171698E-2,1.7543177E18,-2.013076E-2,-1.6912678E0,-1.5301586E0,7.8328896E-1,1.7544026E18,-3.3486226E-1,-2.5791553E-1,1.754406E18,-1.7814687E-1,-2.7275568E-1,-2.1623956E-1,-8.3032244E-1,3.531567E-1,-3.1284443E-1,3.3647463E-1,-3.4798628E-1,1.0243796E0,-4.351334E-3,-1.7462542E-2,8.4711504E-1,2.039993E-3,8.140183E-4,-3.7034992E-3,-1.9912126E-2,4.9178177E-3,1.2521664E-2,8.669066E-3,5.899619E-3,1.4163226E-2,3.2548942E-3,-1.954283E-1,-3.5268702E-3,1.3973251E-2,-1.6107046E-3,2.41456E-3,-3.2101125E-1,1.8213217E-3,-1.4889593E-3,-7.057623E-3,-4.1993484E-1,-3.8787106E-3,-1.0678289E-2,-4.9243737E-3,-3.5142457E-1,-5.621276E-3,-1.860185E-2,-7.6700086E-3,-2.1695515E-2,-1.3052038E-2,-2.4903443E-2,1.0346625E-3,1.7590482E-2,7.86792E-3],"split_indices":[7,2,9,2,2,2,2,4,25,12,18,4,2,23,0,7,2,2,19,19,3,1,4,0,0,0,0,0,12,0,0,8,2,10,0,0,4,0,12,6,3,9,2,20,22,0,14,0,0,23,0,0,0,0,0,0,0,0,0,0,0,0,0,0,0,0,0,0,0,0,0,0,0,0,0,0,0,0,0,0,0,0,0],"split_type":[0,0,0,0,0,0,0,0,0,0,0,0,0,0,0,0,0,0,0,0,0,0,0,0,0,0,0,0,0,0,0,0,0,0,0,0,0,0,0,0,0,0,0,0,0,0,0,0,0,0,0,0,0,0,0,0,0,0,0,0,0,0,0,0,0,0,0,0,0,0,0,0,0,0,0,0,0,0,0,0,0,0,0],"sum_hessian":[1.0841E4,1.0794E4,4.7E1,7.463E3,3.331E3,2.8E1,1.9E1,4.099E3,3.364E3,2.951E3,3.8E2,2.2E1,6E0,1.5E1,4E0,4.026E3,7.3E1,1.5E1,3.349E3,2.7E1,2.924E3,3.56E2,2.4E1,1E0,2.1E1,2E0,4E0,2E0,1.3E1,3E0,1E0,3.175E3,8.51E2,5.6E1,1.7E1,1E0,1.4E1,3.333E3,1.6E1,2.2E1,5E0,2.908E3,1.6E1,2.3E1,3.33E2,1E0,2.3E1,1E0,3E0,1.2E1,1E0,1E0,2E0,2.3E1,3.152E3,1.67E2,6.84E2,3.7E1,1.9E1,1.1E1,6E0,1.2E1,2E0,2.298E3,1.035E3,1E0,1.5E1,8E0,1.4E1,2E0,3E0,1.16E3,1.748E3,1E0,1.5E1,5E0,1.8E1,2.99E2,3.4E1,2.2E1,1E0,8E0,4E0],"tree_param":{"num_deleted":"0","num_feature":"31","num_nodes":"83","size_leaf_vector":"1"}},{"base_weights":[5.001652E-3,4.1849008E0,-1.5572239E-2,6.6727376E0,-2.536669E-1,-1.4661443E-1,6.51834E-2,8.946863E0,1.7579353E0,-1.791975E-2,-4.0933838E-1,-2.6709136E-1,-9.79371E-2,7.7350326E-2,-7.899954E-2,-8.145965E-3,9.82222E0,3.7672195E-1,-1.5080924E-1,1.1349547E-2,-7.690745E-2,-2.6008242E-1,-3.2141484E-2,-2.5611538E-1,-1.8444331E0,-8.910517E-1,-8.969016E-2,1.5517838E-2,1.0464407E-1,-5.39666E-2,-2.6415925E0,-9.91981E-3,1.033317E1,-3.7047935E-1,1.4295673E-1,-1.2760836E-1,5.695545E-3,-1.3805359E-2,-3.2971115E-3,-3.6355487E-1,-8.307255E-2,-2.561582E-1,-3.2405895E-1,-6.8118736E-2,-3.5852432E0,-2.9714528E-1,-8.162749E-2,-1.7370993E-1,2.8956128E-2,7.2962396E-2,1.4427038E-1,-5.48645E-1,4.9266055E-2,-3.3787736E-1,7.678296E-2,1.877098E-1,5.427801E-1,-2.000959E-2,-5.5479305E-3,-6.5096454E-3,1.2189619E-2,-1.753982E-3,-7.098532E-3,-8.7381946E-4,1.8802837E-3,-1.6740369E-2,-3.299306E-2,-8.226379E-3,-2.1571778E-3,-1.6103659E-2,3.483286E-3,-8.352302E-4,-8.442947E-3,-4.0593705E-1,-7.404787E-3,-1.4758946E-1,-8.333051E-3,-3.885914E-3,-1.813457E-2,-3.5770347E-3,-8.294962E-2,1.2584503E-5,2.931131E-3,3.8995629E-3,-2.0103259E-2,6.3012852E-3,1.0926437E-2,-5.106587E-3,-2.253152E-1,-6.589573E-2,4.0927934E-3,5.507815E-3,-5.834275E-4],"categories":[],"categories_nodes":[],"categories_segments":[],"categories_sizes":[],"default_left":[0,0,0,0,0,0,0,0,0,0,0,0,0,0,0,0,0,0,0,0,0,0,0,0,0,0,0,0,0,0,0,0,0,0,0,0,0,0,0,0,0,0,0,0,0,0,0,0,0,0,0,0,0,0,0,0,0,0,0,0,0,0,0,0,0,0,0,0,0,0,0,0,0,0,0,0,0,0,0,0,0,0,0,0,0,0,0,0,0,0,0,0,0],"id":4,"left_children":[1,3,5,7,9,11,13,15,17,19,21,23,25,27,29,-1,31,-1,33,-1,35,37,-1,39,41,43,45,47,49,51,53,-1,55,57,59,61,63,-1,-1,65,67,69,-1,71,73,75,77,79,81,83,85,87,89,-1,91,-1,-1,-1,-1,-1,-1,-1,-1,-1,-1,-1,-1,-1,-1,-1,-1,-1,-1,-1,-1,-1,-1,-1,-1,-1,-1,-1,-1,-1,-1,-1,-1,-1,-1,-1,-1,-1,-1],"loss_changes":[9.305504E2,5.869416E2,1.1396079E2,3.6428577E2,7.266468E-1,2.4053467E1,1.1694765E1,1.8500916E2,1.3344669E2,1.4747775E-1,2.510109E-1,1.9974152E1,1.9058365E1,1.0368923E1,3.3150898E1,0E0,1.095708E2,0E0,6.9827855E-1,0E0,3.423117E-2,9.792268E-3,0E0,2.179638E1,5.7255203E1,6.626994E1,4.8213882E0,4.793306E0,5.3413696E0,2.6326515E1,5.646242E1,0E0,2.7987305E1,1.8612146E-3,1.6945614E-1,1.6643405E-3,3.6148888E-3,0E0,0E0,5.9461594E0,1.4597416E0,1.7277408E-1,0E0,1.2148655E-1,1.0787376E2,3.69181E1,3.0372906E0,1.8850084E1,1.4978793E0,5.6953106E0,2.5371323E0,1.5681586E2,1.9133356E1,0E0,1.3093058E-2,0E0,0E0,0E0,0E0,0E0,0E0,0E0,0E0,0E0,0E0,0E0,0E0,0E0,0E0,0E0,0E0,0E0,0E0,0E0,0E0,0E0,0E0,0E0,0E0,0E0,0E0,0E0,0E0,0E0,0E0,0E0,0E0,0E0,0E0,0E0,0E0,0E0,0E0],"parents":[2147483647,0,0,1,1,2,2,3,3,4,4,5,5,6,6,7,7,8,8,9,9,10,10,11,11,12,12,13,13,14,14,16,16,18,18,20,20,21,21,23,23,24,24,25,25,26,26,27,27,28,28,29,29,30,30,32,32,33,33,34,34,35,35,36,36,39,39,40,40,41,41,43,43,44,44,45,45,46,46,47,47,48,48,49,49,50,50,51,51,52,52,54,54],"right_children":[2,4,6,8,10,12,14,16,18,20,22,24,26,28,30,-1,32,-1,34,-1,36,38,-1,40,42,44,46,48,50,52,54,-1,56,58,60,62,64,-1,-1,66,68,70,-1,72,74,76,78,80,82,84,86,88,90,-1,92,-1,-1,-1,-1,-1,-1,-1,-1,-1,-1,-1,-1,-1,-1,-1,-1,-1,-1,-1,-1,-1,-1,-1,-1,-1,-1,-1,-1,-1,-1,-1,-1,-1,-1,-1,-1,-1,-1],"split_conditions":[-1.1210934E0,-1.398372E0,-4.4073224E-1,1.6947165E-1,-3.7822816E-1,2.0088227E-2,1.3853878E0,-1.5539391E0,-8.7077963E-1,-2.5951925E-1,-5.344714E-2,4.705953E0,-7.410162E-1,-3.0996603E-1,3.3357015E0,-8.145965E-3,-7.443111E-1,3.7672195E-1,-3.0085812E0,1.1349547E-2,-2.1623956E-1,-5.018657E-1,-3.2141484E-2,-5.018657E-1,-4.9381337E-1,1.3422947E0,-9.763203E-1,-2.7461907E-1,5.635607E-1,-5.3419447E-1,-2.2164237E-1,-9.91981E-3,1.7543207E18,1.9773982E-1,-3.8495797E-1,1.7543207E18,-4.9176624E-1,-1.3805359E-2,-3.2971115E-3,1.7544199E18,-4.982019E-1,1.7544026E18,-3.2405895E-1,1.1167705E0,-2.1623956E-1,-1.1494585E0,2.524214E0,-4.1532166E-2,-3.876511E-1,4.6722016E0,1.5534425E0,-5.7103074E-1,-2.874878E-1,-3.3787736E-1,7.871615E-1,1.877098E-1,5.427801E-1,-2.000959E-2,-5.5479305E-3,-6.5096454E-3,1.2189619E-2,-1.753982E-3,-7.098532E-3,-8.7381946E-4,1.8802837E-3,-1.6740369E-2,-3.299306E-2,-8.226379E-3,-2.1571778E-3,-1.6103659E-2,3.483286E-3,-8.352302E-4,-8.442947E-3,-4.0593705E-1,-7.404787E-3,-1.4758946E-1,-8.333051E-3,-3.885914E-3,-1.813457E-2,-3.5770347E-3,-8.294962E-2,1.2584503E-5,2.931131E-3,3.8995629E-3,-2.0103259E-2,6.3012852E-3,1.0926437E-2,-5.106587E-3,-2.253152E-1,-6.589573E-2,4.0927934E-3,5.507815E-3,-5.834275E-4],"split_indices":[9,8,1,4,15,15,4,11,19,3,22,4,12,1,14,0,4,0,6,0,3,1,0,1,1,19,9,13,11,14,1,0,0,12,1,0,1,0,0,0,5,0,0,15,3,23,15,9,1,3,9,14,13,0,1,0,0,0,0,0,0,0,0,0,0,0,0,0,0,0,0,0,0,0,0,0,0,0,0,0,0,0,0,0,0,0,0,0,0,0,0,0,0],"split_type":[0,0,0,0,0,0,0,0,0,0,0,0,0,0,0,0,0,0,0,0,0,0,0,0,0,0,0,0,0,0,0,0,0,0,0,0,0,0,0,0,0,0,0,0,0,0,0,0,0,0,0,0,0,0,0,0,0,0,0,0,0,0,0,0,0,0,0,0,0,0,0,0,0,0,0,0,0,0,0,0,0,0,0,0,0,0,0,0,0,0,0,0,0],"sum_hessian":[1.0819E4,5.2E1,1.0767E4,3.3E1,1.9E1,4.105E3,6.662E3,2.2E1,1.1E1,8E0,1.1E1,1.18E3,2.925E3,6.144E3,5.18E2,2E0,2E1,2E0,9E0,1E0,7E0,8E0,3E0,1.173E3,7E0,2.9E1,2.896E3,1.882E3,4.262E3,5.14E2,4E0,1E0,1.9E1,5E0,4E0,4E0,3E0,7E0,1E0,7.23E2,4.5E2,6E0,1E0,2.3E1,6E0,1.07E2,2.789E3,1.24E2,1.758E3,2.37E3,1.892E3,8.8E1,4.26E2,1E0,3E0,2E0,1.7E1,4E0,1E0,1E0,3E0,1E0,3E0,2E0,1E0,6.61E2,6.2E1,1.47E2,3.03E2,5E0,1E0,1.6E1,7E0,2E0,4E0,4E0,1.03E2,2.752E3,3.7E1,1.17E2,7E0,8.94E2,8.64E2,2.346E3,2.4E1,1.521E3,3.71E2,8E1,8E0,9E0,4.17E2,2E0,1E0],"tree_param":{"num_deleted":"0","num_feature":"31","num_nodes":"93","size_leaf_vector":"1"}},{"base_weights":[-6.797359E-4,4.3613615E0,-2.0807218E-2,5.2199817E-1,2.989941E-1,4.6582203E-2,-1.7411236E-1,2.0099258E-2,2.456935E-1,9.59767E-2,-1.2840665E-2,-1.4358504E-1,-4.0903598E-1,1.2928828E-3,2.545107E-1,1.0149233E-1,-2.1484427E-1,-8.687508E-1,-9.065256E-3,-8.962115E-1,-1.3601449E-1,-3.7275836E-1,-8.886329E-1,2.9268477E-3,1.3052764E-2,8.218761E-2,1.7460622E-1,1.3997576E-1,-1.5724921E0,-3.2658818E-1,2.3046373E-3,-4.08082E-1,-6.111267E-3,-1.1929344E-1,-3.3209121E0,-1.3165566E-1,-1.0945532E0,-3.291422E-1,-4.250573E-1,-4.5301957E0,-3.9641112E-1,-2.0322409E-2,4.292767E-3,1.016893E-2,7.0807375E-3,1.0093954E-2,3.5555537E-3,-3.7179157E-2,-3.2943043E-1,-3.2585708E-3,1.3572032E-2,4.84102E-3,-3.131435E-1,1.0608494E-3,-2.7225541E-3,-4.02048E-3,-1.2159667E-2,-2.937716E-1,3.191795E-3,-6.3499655E-3,-5.078277E-2,-3.425418E-1,-2.1979949E-3,-1.4541133E-2,-2.2303315E-2,-2.6447609E-2,-1.8815022E-2,-3.3846182E-1,-1.3028905E-3,-2.0841764E-2,1.8336222E-3],"categories":[],"categories_nodes":[],"categories_segments":[],"categories_sizes":[],"default_left":[0,0,0,0,0,0,0,0,0,0,0,0,0,0,0,0,0,0,0,0,0,0,0,0,0,0,0,0,0,0,0,0,0,0,0,0,0,0,0,0,0,0,0,0,0,0,0,0,0,0,0,0,0,0,0,0,0,0,0,0,0,0,0,0,0,0,0,0,0,0,0],"id":5,"left_children":[1,3,5,-1,7,9,11,-1,13,15,17,19,21,-1,23,25,27,29,31,33,35,37,39,-1,-1,41,43,45,47,-1,49,51,53,55,57,59,61,63,65,67,69,-1,-1,-1,-1,-1,-1,-1,-1,-1,-1,-1,-1,-1,-1,-1,-1,-1,-1,-1,-1,-1,-1,-1,-1,-1,-1,-1,-1,-1,-1],"loss_changes":[9.557602E2,1.2315541E3,1.1195641E2,0E0,7.140875E-2,2.2097136E1,2.3672058E1,0E0,3.8000703E-2,7.0695915E0,1.1037087E1,1.6572659E1,6.280239E0,0E0,1.2935162E-2,5.6878815E0,3.4903996E1,7.400703E1,4.009771E0,5.4233856E1,1.1980759E1,6.698761E-1,4.480805E1,0E0,0E0,5.7663155E0,7.7141E-1,2.3289537E-1,5.746938E1,0E0,2.719334E-1,7.450879E1,4.4662795E0,9.125206E-2,6.0899902E1,1.1766857E1,7.83165E1,7.5740814E-1,6.0131645E-1,3.0078445E1,2.275753E-1,0E0,0E0,0E0,0E0,0E0,0E0,0E0,0E0,0E0,0E0,0E0,0E0,0E0,0E0,0E0,0E0,0E0,0E0,0E0,0E0,0E0,0E0,0E0,0E0,0E0,0E0,0E0,0E0,0E0,0E0],"parents":[2147483647,0,0,1,1,2,2,4,4,5,5,6,6,8,8,9,9,10,10,11,11,12,12,14,14,15,15,16,16,17,17,18,18,19,19,20,20,21,21,22,22,25,25,26,26,27,27,28,28,30,30,31,31,32,32,33,33,34,34,35,35,36,36,37,37,38,38,39,39,40,40],"right_children":[2,4,6,-1,8,10,12,-1,14,16,18,20,22,-1,24,26,28,30,32,34,36,38,40,-1,-1,42,44,46,48,-1,50,52,54,56,58,60,62,64,66,68,70,-1,-1,-1,-1,-1,-1,-1,-1,-1,-1,-1,-1,-1,-1,-1,-1,-1,-1,-1,-1,-1,-1,-1,-1,-1,-1,-1,-1,-1,-1],"split_conditions":[-2.0597293E0,-1.398372E0,3.419432E-1,5.2199817E-1,-5.496023E-1,-4.9046043E-1,1.9704994E0,2.0099258E-2,-2.1671776E-1,3.8504546E0,-6.2136906E-1,-7.410162E-1,1.6804929E0,1.2928828E-3,-1.3547527E0,9.245891E-1,1.7544027E18,-4.8257408E-1,-3.4708053E-1,-5.434925E-1,6.4971094E0,4.8052078E-1,-6.5779716E-1,2.9268477E-3,1.3052764E-2,-1.6912678E0,-1.0762972E0,-7.206241E-1,-5.671826E-1,-3.2658818E-1,-2.5791553E-1,8.9651173E-1,2.9277965E-1,4.6001457E-2,-5.869969E-2,4.705953E0,3.531567E-1,2.5921774E0,-6.1849475E-1,1.7544202E18,1.7544223E18,-2.0322409E-2,4.292767E-3,1.016893E-2,7.0807375E-3,1.0093954E-2,3.5555537E-3,-3.7179157E-2,-3.2943043E-1,-3.2585708E-3,1.3572032E-2,4.84102E-3,-3.131435E-1,1.0608494E-3,-2.7225541E-3,-4.02048E-3,-1.2159667E-2,-2.937716E-1,3.191795E-3,-6.3499655E-3,-5.078277E-2,-3.425418E-1,-2.1979949E-3,-1.4541133E-2,-2.2303315E-2,-2.6447609E-2,-1.8815022E-2,-3.3846182E-1,-1.3028905E-3,-2.0841764E-2,1.8336222E-3],"split_indices":[2,8,2,0,4,2,2,0,24,4,25,12,18,0,8,7,0,2,24,5,13,7,4,0,0,8,8,8,2,0,4,18,15,14,6,4,2,2,14,0,0,0,0,0,0,0,0,0,0,0,0,0,0,0,0,0,0,0,0,0,0,0,0,0,0,0,0,0,0,0,0],"split_type":[0,0,0,0,0,0,0,0,0,0,0,0,0,0,0,0,0,0,0,0,0,0,0,0,0,0,0,0,0,0,0,0,0,0,0,0,0,0,0,0,0,0,0,0,0,0,0,0,0,0,0,0,0,0,0,0,0,0,0,0,0,0,0,0,0,0,0,0,0,0,0],"sum_hessian":[1.0884E4,4.9E1,1.0835E4,1.9E1,3E1,7.527E3,3.308E3,8E0,2.2E1,4.11E3,3.417E3,2.929E3,3.79E2,1E0,2.1E1,4.039E3,7.1E1,1.4E1,3.403E3,2.8E1,2.901E3,3.54E2,2.5E1,1E0,2E1,3.197E3,8.42E2,5.7E1,1.4E1,1E0,1.3E1,2.4E1,3.379E3,2.2E1,6E0,2.889E3,1.2E1,1.97E2,1.57E2,2E0,2.3E1,2.3E1,3.174E3,4.47E2,3.95E2,2.9E1,2.8E1,1.3E1,1E0,1.1E1,2E0,2.3E1,1E0,2.159E3,1.22E3,1.8E1,4E0,3E0,3E0,2.875E3,1.4E1,1E0,1.1E1,1.51E2,4.6E1,4.7E1,1.1E2,1E0,1E0,2.2E1,1E0],"tree_param":{"num_deleted":"0","num_feature":"31","num_nodes":"71","size_leaf_vector":"1"}},{"base_weights":[-3.8405412E-3,4.3120184E0,-2.3004038E-2,4.971307E-1,2.8015915E-1,3.5281982E-2,-1.8808106E-1,1.2605607E-3,2.8836402E-1,9.24077E-2,-2.5314555E-2,-1.5749566E-1,-3.8533676E-1,1.7507711E-1,3.1778932E-1,-7.301871E-1,9.5395386E-2,-8.7684065E-1,-2.2223564E-2,-1.5234926E-1,-1.0398811E0,-3.479131E-1,-8.786143E-1,3.7036915E-3,9.819962E-3,4.526787E-3,1.623126E-2,1.619439E-1,-3.2240334E0,1.0095319E-1,-2.082685E-1,-3.1842348E-1,3.5474658E-2,-1.9170664E-2,-6.7363095E-1,-2.423086E-1,-1.1337252E-1,-3.146879E-1,-1.5160148E-1,-5.417303E-1,-3.3649457E-1,-4.416941E0,-3.9971453E-1,1.7834028E-2,-1.4054045E-3,3.416874E-3,-3.2752866E-1,-3.082685E-3,5.3696386E-3,-1.5709199E-1,-2.0031761E-3,-2.5404003E-3,1.2115633E-2,-8.0290635E-4,-2.6805049E-2,-3.053149E-1,2.565837E-4,-4.480296E-2,-1.0658856E-2,-9.985527E-3,-4.6896515E-3,-2.3671794E-3,-9.633896E-3,2.6379912E-3,-2.8990192E-2,-4.5849825E-3,-1.722489E-2,-3.3000025E-1,-1.270318E-3,1.7877816E-3,-2.101013E-2],"categories":[],"categories_nodes":[],"categories_segments":[],"categories_sizes":[],"default_left":[0,0,0,0,0,0,0,0,0,0,0,0,0,0,0,0,0,0,0,0,0,0,0,0,0,0,0,0,0,0,0,0,0,0,0,0,0,0,0,0,0,0,0,0,0,0,0,0,0,0,0,0,0,0,0,0,0,0,0,0,0,0,0,0,0,0,0,0,0,0,0],"id":6,"left_children":[1,3,5,-1,7,9,11,-1,13,15,17,19,21,23,25,27,29,31,33,35,37,39,41,-1,-1,-1,-1,43,45,47,49,-1,51,53,55,57,59,-1,61,63,65,67,69,-1,-1,-1,-1,-1,-1,-1,-1,-1,-1,-1,-1,-1,-1,-1,-1,-1,-1,-1,-1,-1,-1,-1,-1,-1,-1,-1,-1],"loss_changes":[8.980486E2,1.0868994E3,1.0401702E2,0E0,5.339265E-2,2.766069E1,1.6958824E1,0E0,3.7700415E-2,1.01779785E1,1.0187639E1,1.0940037E1,6.672291E0,2.6807785E-3,3.2327175E-3,3.3894676E1,6.9389343E0,7.036728E1,7.673339E0,8.496399E0,6.438262E1,5.98938E-1,4.2291584E1,0E0,0E0,0E0,0E0,4.5414674E-1,4.425645E1,4.2223244E0,3.638878E1,0E0,2.4431634E-1,6.182689E0,6.640619E1,1.3787811E1,2.8516579E0,0E0,4.655102E-2,4.3800783E-1,6.266823E-1,2.8593319E1,2.2915125E-1,0E0,0E0,0E0,0E0,0E0,0E0,0E0,0E0,0E0,0E0,0E0,0E0,0E0,0E0,0E0,0E0,0E0,0E0,0E0,0E0,0E0,0E0,0E0,0E0,0E0,0E0,0E0,0E0],"parents":[2147483647,0,0,1,1,2,2,4,4,5,5,6,6,8,8,9,9,10,10,11,11,12,12,13,13,14,14,15,15,16,16,17,17,18,18,19,19,20,20,21,21,22,22,27,27,28,28,29,29,30,30,32,32,33,33,34,34,35,35,36,36,38,38,39,39,40,40,41,41,42,42],"right_children":[2,4,6,-1,8,10,12,-1,14,16,18,20,22,24,26,28,30,32,34,36,38,40,42,-1,-1,-1,-1,44,46,48,50,-1,52,54,56,58,60,-1,62,64,66,68,70,-1,-1,-1,-1,-1,-1,-1,-1,-1,-1,-1,-1,-1,-1,-1,-1,-1,-1,-1,-1,-1,-1,-1,-1,-1,-1,-1,-1],"split_conditions":[-2.0597293E0,-1.398372E0,5.011446E-1,4.971307E-1,-2.1671776E-1,-4.9046043E-1,1.9704994E0,1.2605607E-3,-1.2930137E0,-2.2668371E0,-6.2136906E-1,4.705953E0,1.6804929E0,8.414352E-1,-5.3124726E-1,6.433467E-1,3.8504546E0,-4.8257408E-1,2.9697785E0,-6.298896E-1,-4.476243E-1,-8.79062E-1,-6.5779716E-1,3.7036915E-3,9.819962E-3,4.526787E-3,1.623126E-2,-7.086736E-2,1.7543272E18,-2.874878E-1,-1.7748148E0,-3.1842348E-1,2.9875407E-1,6.4971094E0,-9.72494E-1,-2.874878E-1,-5.2207255E-1,-3.146879E-1,1.7543317E18,-1.7664651E0,-1.1718866E0,1.7544202E18,-2.7050763E-1,1.7834028E-2,-1.4054045E-3,3.416874E-3,-3.2752866E-1,-3.082685E-3,5.3696386E-3,-1.5709199E-1,-2.0031761E-3,-2.5404003E-3,1.2115633E-2,-8.0290635E-4,-2.6805049E-2,-3.053149E-1,2.565837E-4,-4.480296E-2,-1.0658856E-2,-9.985527E-3,-4.6896515E-3,-2.3671794E-3,-9.633896E-3,2.6379912E-3,-2.8990192E-2,-4.5849825E-3,-1.722489E-2,-3.3000025E-1,-1.270318E-3,1.7877816E-3,-2.101013E-2],"split_indices":[2,8,2,0,24,2,2,0,8,19,25,4,18,1,26,11,4,2,19,18,14,14,4,0,0,0,0,24,0,13,7,0,8,13,23,13,25,0,0,19,23,0,13,0,0,0,0,0,0,0,0,0,0,0,0,0,0,0,0,0,0,0,0,0,0,0,0,0,0,0,0],"split_type":[0,0,0,0,0,0,0,0,0,0,0,0,0,0,0,0,0,0,0,0,0,0,0,0,0,0,0,0,0,0,0,0,0,0,0,0,0,0,0,0,0,0,0,0,0,0,0,0,0,0,0,0,0,0,0,0,0,0,0,0,0,0,0,0,0,0,0,0,0,0,0],"sum_hessian":[1.0856E4,4.7E1,1.0809E4,1.9E1,2.8E1,7.989E3,2.82E3,1E0,2.7E1,4.112E3,3.877E3,2.443E3,3.77E2,7E0,2E1,1.4E1,4.098E3,1.3E1,3.864E3,2.43E3,1.3E1,3.52E2,2.5E1,2E0,5E0,1E0,1.9E1,1.1E1,3E0,4.025E3,7.3E1,1E0,1.2E1,3.847E3,1.7E1,7.33E2,1.697E3,1E0,1.2E1,1.7E1,3.35E2,2E0,2.3E1,5E0,6E0,2E0,1E0,1.53E2,3.872E3,3E0,7E1,9E0,3E0,3.825E3,2.2E1,1E0,1.6E1,3E1,7.03E2,3.12E2,1.385E3,4E0,8E0,1E0,1.6E1,1.1E1,3.24E2,1E0,1E0,1E0,2.2E1],"tree_param":{"num_deleted":"0","num_feature":"31","num_nodes":"71","size_leaf_vector":"1"}},{"base_weights":[-3.8247427E-3,-1.985758E-2,3.6106577E0,-1.3449362E-1,5.217672E-2,6.48397E0,2.055805E-1,-2.3692092E-1,-9.238417E-2,2.9432062E-2,1.2544958E-1,8.71206E0,2.6536603E0,-1.869321E-2,2.4891274E-1,-2.2695537E-1,-1.7133497E0,-7.6831114E-1,-8.520365E-2,-8.2989424E-1,3.197416E-2,1.720312E-1,8.794482E-2,1.0157545E-2,4.6328884E-1,-5.018393E-2,5.90831E0,1.2062615E-1,3.662333E-1,-3.230371E-1,-7.519492E-2,-2.0485277E-1,-3.0682072E-1,-9.82072E-3,-3.367447E0,-8.145178E-2,-5.1806235E-1,2.3228854E-2,-3.1934044E-1,-6.386442E-1,3.449544E-2,8.0325985E-3,1.7833628E-1,1.02705084E-1,-1.1976123E0,-1.5540907E-2,1.11498125E-2,-8.034298E-3,3.7328655E-1,4.2929526E-2,2.2081552E-1,2.393886E-1,2.6418218E-2,-3.286278E-2,-1.497108E-2,-6.7261355E-3,-2.2359777E-3,1.0930791E-3,-1.49955405E-2,-2.8333317E-3,5.9367716E-3,-3.817003E-1,-6.7011006E-3,-1.3060105E-2,-3.691012E-3,-3.3330816E-1,7.9326396E-4,-3.6117963E-3,4.2145527E-3,-3.1046292E-1,7.8965415E-4,1.9543609E-3,-1.4847261E-2,5.404539E-3,-5.401852E-3,8.085252E-3,1.1798132E-2,7.385989E-3,3.2367927E-3,-3.3747992E-1,8.461521E-3,-1.3906284E-3,4.546865E-3,2.5022554E-3,1.2549843E-2,1.2890467E-2,2.7610844E-3],"categories":[],"categories_nodes":[],"categories_segments":[],"categories_sizes":[],"default_left":[0,0,0,0,0,0,0,0,0,0,0,0,0,0,0,0,0,0,0,0,0,0,0,0,0,0,0,0,0,0,0,0,0,0,0,0,0,0,0,0,0,0,0,0,0,0,0,0,0,0,0,0,0,0,0,0,0,0,0,0,0,0,0,0,0,0,0,0,0,0,0,0,0,0,0,0,0,0,0,0,0,0,0,0,0,0,0],"id":7,"left_children":[1,3,5,7,9,11,13,15,17,19,21,23,25,-1,27,29,31,33,35,37,39,41,43,-1,-1,45,47,49,51,53,55,57,-1,59,61,63,65,67,-1,69,71,73,75,77,79,-1,-1,-1,-1,81,83,85,-1,-1,-1,-1,-1,-1,-1,-1,-1,-1,-1,-1,-1,-1,-1,-1,-1,-1,-1,-1,-1,-1,-1,-1,-1,-1,-1,-1,-1,-1,-1,-1,-1,-1,-1],"loss_changes":[6.298767E2,8.9363884E1,4.6829193E2,1.798986E1,1.1072308E1,1.9877222E2,6.7055804E-1,1.750267E1,1.4305784E1,1.1108453E1,2.7346992E0,7.35022E1,9.709723E1,0E0,2.8693712E-1,1.7604622E1,5.2120377E1,6.1080933E1,4.717827E0,7.125934E1,8.575874E0,7.234173E-1,1.6707289E1,0E0,0E0,5.6771195E-1,4.845952E1,8.393298E-2,9.973562E-2,5.6438293E0,8.4376144E-1,1.5741366E-1,0E0,1.5728661E-1,9.554605E1,3.9684563E0,8.217178E1,8.769891E-2,0E0,6.936479E1,7.6835146E0,3.2524815E-1,6.0876274E-1,1.4688721E0,7.7029144E1,0E0,0E0,0E0,0E0,2.9698558E-2,1.3209239E-2,1.2903243E-2,0E0,0E0,0E0,0E0,0E0,0E0,0E0,0E0,0E0,0E0,0E0,0E0,0E0,0E0,0E0,0E0,0E0,0E0,0E0,0E0,0E0,0E0,0E0,0E0,0E0,0E0,0E0,0E0,0E0,0E0,0E0,0E0,0E0,0E0,0E0],"parents":[2147483647,0,0,1,1,2,2,3,3,4,4,5,5,6,6,7,7,8,8,9,9,10,10,11,11,12,12,14,14,15,15,16,16,17,17,18,18,19,19,20,20,21,21,22,22,25,25,26,26,27,27,28,28,29,29,30,30,31,31,33,33,34,34,35,35,36,36,37,37,39,39,40,40,41,41,42,42,43,43,44,44,49,49,50,50,51,51],"right_children":[2,4,6,8,10,12,14,16,18,20,22,24,26,-1,28,30,32,34,36,38,40,42,44,-1,-1,46,48,50,52,54,56,58,-1,60,62,64,66,68,-1,70,72,74,76,78,80,-1,-1,-1,-1,82,84,86,-1,-1,-1,-1,-1,-1,-1,-1,-1,-1,-1,-1,-1,-1,-1,-1,-1,-1,-1,-1,-1,-1,-1,-1,-1,-1,-1,-1,-1,-1,-1,-1,-1,-1,-1],"split_conditions":[1.6307021E0,-4.4073224E-1,-1.1210934E0,2.0088227E-2,7.5813437E-1,-1.8362232E-1,-3.9121065E0,4.705953E0,-7.410162E-1,-2.2668371E0,-9.415646E-1,-6.9036984E-1,5.3634346E-2,-1.869321E-2,-4.14632E-1,-5.018657E-1,-4.9381337E-1,1.3422947E0,5.110577E0,3.9195392E-1,-6.2136906E-1,-6.396009E-2,1.8095919E0,1.0157545E-2,4.6328884E-1,-3.0085812E0,1.7543207E18,-3.1306243E-1,-1.2292988E-1,-3.805209E-1,-4.982019E-1,1.2567322E0,-3.0682072E-1,-5.434925E-1,-2.1623956E-1,-9.763203E-1,-2.3192741E-1,-4.135857E-1,-3.1934044E-1,-1.2148495E0,3.8504546E0,3.2291335E-1,7.5217485E-1,-5.760932E-1,8.9348775E-1,-1.5540907E-2,1.11498125E-2,-8.034298E-3,3.7328655E-1,-2.767528E-1,1.7543206E18,1.7543375E18,2.6418218E-2,-3.286278E-2,-1.497108E-2,-6.7261355E-3,-2.2359777E-3,1.0930791E-3,-1.49955405E-2,-2.8333317E-3,5.9367716E-3,-3.817003E-1,-6.7011006E-3,-1.3060105E-2,-3.691012E-3,-3.3330816E-1,7.9326396E-4,-3.6117963E-3,4.2145527E-3,-3.1046292E-1,7.8965415E-4,1.9543609E-3,-1.4847261E-2,5.404539E-3,-5.401852E-3,8.085252E-3,1.1798132E-2,7.385989E-3,3.2367927E-3,-3.3747992E-1,8.461521E-3,-1.3906284E-3,4.546865E-3,2.5022554E-3,1.2549843E-2,1.2890467E-2,2.7610844E-3],"split_indices":[7,1,9,15,7,4,6,4,12,19,8,4,1,0,21,1,1,19,3,7,25,5,9,0,0,6,0,25,20,22,5,8,0,5,3,9,24,8,0,6,4,18,11,8,17,0,0,0,0,1,0,0,0,0,0,0,0,0,0,0,0,0,0,0,0,0,0,0,0,0,0,0,0,0,0,0,0,0,0,0,0,0,0,0,0,0,0],"split_type":[0,0,0,0,0,0,0,0,0,0,0,0,0,0,0,0,0,0,0,0,0,0,0,0,0,0,0,0,0,0,0,0,0,0,0,0,0,0,0,0,0,0,0,0,0,0,0,0,0,0,0,0,0,0,0,0,0,0,0,0,0,0,0,0,0,0,0,0,0,0,0,0,0,0,0,0,0,0,0,0,0,0,0,0,0,0,0],"sum_hessian":[1.0867E4,1.082E4,4.7E1,4.175E3,6.645E3,2.5E1,2.2E1,1.215E3,2.96E3,5.072E3,1.573E3,1.5E1,1E1,1E0,2.1E1,1.208E3,7E0,3E1,2.93E3,1.4E1,5.058E3,7E2,8.73E2,1E0,1.4E1,6E0,4E0,1.1E1,1E1,7.39E2,4.69E2,6E0,1E0,2.4E1,6E0,2.906E3,2.4E1,1.3E1,1E0,1.8E1,5.04E3,2.6E1,6.74E2,8.64E2,9E0,3E0,3E0,1E0,3E0,7E0,4E0,7E0,3E0,4.7E1,6.92E2,1.58E2,3.11E2,2E0,4E0,1.8E1,6E0,2E0,4E0,1.17E2,2.789E3,1E0,2.3E1,5E0,8E0,1E0,1.7E1,4.972E3,6.8E1,1.4E1,1.2E1,5.26E2,1.48E2,3.94E2,4.7E2,1E0,8E0,3E0,4E0,1E0,3E0,6E0,1E0],"tree_param":{"num_deleted":"0","num_feature":"31","num_nodes":"87","size_leaf_vector":"1"}},{"base_weights":[1.3477353E-3,3.8328874E0,-1.6974999E-2,4.54077E-1,2.6868144E-1,4.1306302E-2,-1.4907885E-1,9.3409343E-4,2.761433E-1,8.7162755E-2,-1.4517613E-2,-1.2620308E-1,-3.8305187E-1,1.7917646E-2,2.3196809E-1,-7.8764546E-1,8.989462E-2,-7.595392E-1,-1.0995965E-2,-1.2212774E-1,-8.8728076E-1,-8.778414E-1,-3.321542E-1,2.554655E-1,7.798864E-3,1.0441506E-1,-3.7959857E0,1.012561E-1,-3.4292966E-2,-3.0270132E-1,-2.9716005E-3,-7.6970225E-3,-6.28387E-1,-1.1768001E-1,-7.831798E-1,-2.991502E-1,-1.4869897E-1,-4.1786814E-1,-3.2092866E-1,-2.8442684E-1,-3.868818E-1,3.6443435E-3,1.31389145E-2,5.98307E-4,1.734784E-2,-3.1135693E-1,2.6658002E-2,5.1868125E-3,-1.2389308E-2,-5.2947475E-5,-9.614582E-2,-3.1170074E-3,1.2764133E-2,9.16741E-5,-6.9873333E-3,1.7596156E-3,-2.977309E-1,-2.9917809E-3,-8.207456E-3,-3.2497546E-1,-7.0120483E-3,-2.980824E-3,-1.0959705E-2,6.253725E-4,-2.3727395E-2,-1.4782731E-2,1.5286679E-3,-2.259766E-2,-1.5047899E-2],"categories":[],"categories_nodes":[],"categories_segments":[],"categories_sizes":[],"default_left":[0,0,0,0,0,0,0,0,0,0,0,0,0,0,0,0,0,0,0,0,0,0,0,0,0,0,0,0,0,0,0,0,0,0,0,0,0,0,0,0,0,0,0,0,0,0,0,0,0,0,0,0,0,0,0,0,0,0,0,0,0,0,0,0,0,0,0,0,0],"id":8,"left_children":[1,3,5,-1,7,9,11,-1,13,15,17,19,21,-1,23,25,27,29,31,33,35,37,39,41,-1,43,45,47,49,-1,51,53,55,57,59,-1,61,63,-1,65,67,-1,-1,-1,-1,-1,-1,-1,-1,-1,-1,-1,-1,-1,-1,-1,-1,-1,-1,-1,-1,-1,-1,-1,-1,-1,-1,-1,-1],"loss_changes":[7.670469E2,9.703384E2,8.372708E1,0E0,5.4535866E-2,1.9318172E1,1.7769516E1,0E0,2.9454231E-2,9.971998E0,8.922734E0,9.302036E0,7.162777E0,0E0,1.221776E-3,3.5283436E1,5.832123E0,6.4072205E1,6.897667E0,8.784229E0,5.9328064E1,6.6129776E1,5.952015E-1,2.209425E-3,0E0,2.4249816E-1,3.4894512E1,3.3022957E0,2.1777954E1,0E0,2.4589702E-1,4.2439175E0,6.3828335E1,8.054115E0,7.25935E1,0E0,8.113065E-2,6.401682E-1,0E0,5.324793E-1,5.5169487E-1,0E0,0E0,0E0,0E0,0E0,0E0,0E0,0E0,0E0,0E0,0E0,0E0,0E0,0E0,0E0,0E0,0E0,0E0,0E0,0E0,0E0,0E0,0E0,0E0,0E0,0E0,0E0,0E0],"parents":[2147483647,0,0,1,1,2,2,4,4,5,5,6,6,8,8,9,9,10,10,11,11,12,12,14,14,15,15,16,16,17,17,18,18,19,19,20,20,21,21,22,22,23,23,25,25,26,26,27,27,28,28,30,30,31,31,32,32,33,33,34,34,36,36,37,37,39,39,40,40],"right_children":[2,4,6,-1,8,10,12,-1,14,16,18,20,22,-1,24,26,28,30,32,34,36,38,40,42,-1,44,46,48,50,-1,52,54,56,58,60,-1,62,64,-1,66,68,-1,-1,-1,-1,-1,-1,-1,-1,-1,-1,-1,-1,-1,-1,-1,-1,-1,-1,-1,-1,-1,-1,-1,-1,-1,-1,-1,-1],"split_conditions":[-2.0597293E0,-1.398372E0,3.419432E-1,4.54077E-1,-2.1671776E-1,-4.9046043E-1,2.3121877E0,9.3409343E-4,-5.496023E-1,-2.2668371E0,-6.2136906E-1,4.705953E0,-3.935736E-1,1.7917646E-2,-5.1502474E-2,1.7543372E18,1.3853878E0,-4.8257408E-1,2.9697785E0,5.110577E0,-4.476243E-1,-4.1670868E-1,4.8788625E-1,-1.3269305E0,7.798864E-3,-2.5588837E-1,-1.8876591E-1,4.6722016E0,2.4750936E0,-3.0270132E-1,-2.5791553E-1,1.3853878E0,4.0376157E-2,9.6865386E-1,3.531567E-1,-2.991502E-1,8.911197E-1,1.7544093E18,-3.2092866E-1,1.0244063E0,-2.4853586E-1,3.6443435E-3,1.31389145E-2,5.98307E-4,1.734784E-2,-3.1135693E-1,2.6658002E-2,5.1868125E-3,-1.2389308E-2,-5.2947475E-5,-9.614582E-2,-3.1170074E-3,1.2764133E-2,9.16741E-5,-6.9873333E-3,1.7596156E-3,-2.977309E-1,-2.9917809E-3,-8.207456E-3,-3.2497546E-1,-7.0120483E-3,-2.980824E-3,-1.0959705E-2,6.253725E-4,-2.3727395E-2,-1.4782731E-2,1.5286679E-3,-2.259766E-2,-1.5047899E-2],"split_indices":[2,8,2,0,24,2,2,0,4,19,25,4,22,0,20,0,4,2,19,3,14,22,7,18,0,8,1,3,14,0,4,4,22,2,2,0,2,0,0,22,3,0,0,0,0,0,0,0,0,0,0,0,0,0,0,0,0,0,0,0,0,0,0,0,0,0,0,0,0],"split_type":[0,0,0,0,0,0,0,0,0,0,0,0,0,0,0,0,0,0,0,0,0,0,0,0,0,0,0,0,0,0,0,0,0,0,0,0,0,0,0,0,0,0,0,0,0,0,0,0,0,0,0,0,0,0,0,0,0,0,0,0,0,0,0,0,0,0,0,0,0],"sum_hessian":[1.0924E4,5.1E1,1.0873E4,2E1,3.1E1,7.545E3,3.328E3,1E0,3E1,4.142E3,3.403E3,3.033E3,2.95E2,8E0,2.2E1,1.2E1,4.13E3,1.5E1,3.388E3,3.018E3,1.5E1,2.6E1,2.69E2,1.5E1,7E0,1E1,2E0,3.784E3,3.46E2,1E0,1.4E1,3.371E3,1.7E1,2.999E3,1.9E1,1E0,1.4E1,2.5E1,1E0,1.47E2,1.22E2,1E0,1.4E1,8E0,2E0,1E0,1E0,3.758E3,2.6E1,3.41E2,5E0,1.2E1,2E0,3.145E3,2.26E2,1.6E1,1E0,1.337E3,1.662E3,1E0,1.8E1,7E0,7E0,3E0,2.2E1,1.42E2,5E0,6.7E1,5.5E1],"tree_param":{"num_deleted":"0","num_feature":"31","num_nodes":"69","size_leaf_vector":"1"}},{"base_weights":[7.995264E-4,3.4985497E0,-1.4108035E-2,4.2672536E-1,2.521437E-1,3.731228E-2,-1.578413E-1,2.6779008E-1,6.1741574E-3,8.937154E-2,-1.8768609E-2,-1.3133642E-1,-3.494481E-1,2.3635842E-3,2.7500868E-1,-8.789548E-1,9.241189E-2,-7.825911E-1,-1.5759667E-2,-1.2652922E-1,-9.7592026E-1,-8.268135E-1,-3.0631706E-1,3.5532347E-3,2.8078604E-1,1.3832429E-2,-3.859523E0,7.757172E-2,1.4850345E-1,-2.951338E-1,4.748878E-3,-1.2827073E-2,-6.3349843E-1,-1.0474358E0,-1.2238852E-1,-2.9167145E-1,-1.5354045E-1,-3.8591787E-1,-4.372305E0,-2.8887752E-1,-4.3907458E-1,1.4312118E-2,4.0186807E-3,2.2596668E-3,-2.6173748E-3,1.4108782E-2,-3.03573E-1,-1.4910273E-2,4.0345886E-3,6.137449E-3,9.440805E-3,-2.8076475E-3,1.2338661E-2,-1.6907993E-3,1.8495519E-3,6.133324E-4,-2.902876E-1,-2.7659926E-1,-2.2891168E-3,-9.657011E-3,-4.3048114E-3,-1.973671E-3,-9.992548E-3,-2.2046084E-2,1.3416728E-3,-1.5017398E-2,-3.1290546E-1,-1.2237579E-2,-1.7113378E-2,-2.377205E-2,5.365713E-3],"categories":[],"categories_nodes":[],"categories_segments":[],"categories_sizes":[],"default_left":[0,0,0,0,0,0,0,0,0,0,0,0,0,0,0,0,0,0,0,0,0,0,0,0,0,0,0,0,0,0,0,0,0,0,0,0,0,0,0,0,0,0,0,0,0,0,0,0,0,0,0,0,0,0,0,0,0,0,0,0,0,0,0,0,0,0,0,0,0,0,0],"id":9,"left_children":[1,3,5,-1,7,9,11,13,-1,15,17,19,21,-1,23,25,27,29,31,33,35,37,39,-1,41,43,45,47,49,-1,51,53,55,57,59,-1,61,63,65,67,69,-1,-1,-1,-1,-1,-1,-1,-1,-1,-1,-1,-1,-1,-1,-1,-1,-1,-1,-1,-1,-1,-1,-1,-1,-1,-1,-1,-1,-1,-1],"loss_changes":[5.651744E2,7.498912E2,7.9774895E1,0E0,2.531135E-2,2.3211937E1,1.43974E1,2.6795864E-2,0E0,1.2219543E1,8.785551E0,1.002673E1,6.850033E0,0E0,8.3242655E-3,3.464656E1,3.4105072E0,6.049674E1,6.901227E0,9.355217E0,5.5030373E1,4.2082016E1,6.094036E-1,0E0,2.144456E-3,2.5195846E-2,2.919675E1,3.8380241E0,8.686638E-1,0E0,2.2021316E-1,3.9714994E0,6.0192314E1,4.9158337E1,6.343666E0,0E0,6.0783744E-2,6.021068E-1,2.1157131E1,5.8530235E-1,7.4647903E-1,0E0,0E0,0E0,0E0,0E0,0E0,0E0,0E0,0E0,0E0,0E0,0E0,0E0,0E0,0E0,0E0,0E0,0E0,0E0,0E0,0E0,0E0,0E0,0E0,0E0,0E0,0E0,0E0,0E0,0E0],"parents":[2147483647,0,0,1,1,2,2,4,4,5,5,6,6,7,7,9,9,10,10,11,11,12,12,14,14,15,15,16,16,17,17,18,18,19,19,20,20,21,21,22,22,24,24,25,25,26,26,27,27,28,28,30,30,31,31,32,32,33,33,34,34,36,36,37,37,38,38,39,39,40,40],"right_children":[2,4,6,-1,8,10,12,14,-1,16,18,20,22,-1,24,26,28,30,32,34,36,38,40,-1,42,44,46,48,50,-1,52,54,56,58,60,-1,62,64,66,68,70,-1,-1,-1,-1,-1,-1,-1,-1,-1,-1,-1,-1,-1,-1,-1,-1,-1,-1,-1,-1,-1,-1,-1,-1,-1,-1,-1,-1,-1,-1],"split_conditions":[-2.0597293E0,-1.398372E0,5.011446E-1,4.2672536E-1,1.2694734E-1,-4.9046043E-1,2.2076375E0,-1.3547527E0,6.1741574E-3,-2.2668371E0,-6.2136906E-1,4.705953E0,-3.805209E-1,2.3635842E-3,-9.8743135E-1,1.7543372E18,9.245891E-1,-4.8257408E-1,2.9697785E0,-8.2321E-1,-4.476243E-1,-4.1670868E-1,1.7544216E18,3.5532347E-3,5.072931E-1,-2.4872681E-1,-2.2164237E-1,-1.6912678E0,1.7544058E18,-2.951338E-1,-2.5791553E-1,1.754408E18,4.0376157E-2,5.395528E-1,-4.7047418E-1,-2.9167145E-1,1.7543317E18,9.9392846E-2,1.7544124E18,4.8341852E-1,5.303576E-1,1.4312118E-2,4.0186807E-3,2.2596668E-3,-2.6173748E-3,1.4108782E-2,-3.03573E-1,-1.4910273E-2,4.0345886E-3,6.137449E-3,9.440805E-3,-2.8076475E-3,1.2338661E-2,-1.6907993E-3,1.8495519E-3,6.133324E-4,-2.902876E-1,-2.7659926E-1,-2.2891168E-3,-9.657011E-3,-4.3048114E-3,-1.973671E-3,-9.992548E-3,-2.2046084E-2,1.3416728E-3,-1.5017398E-2,-3.1290546E-1,-1.2237579E-2,-1.7113378E-2,-2.377205E-2,5.365713E-3],"split_indices":[2,8,2,0,20,2,2,8,0,19,25,4,22,0,26,0,7,2,19,12,14,22,0,0,3,12,1,8,0,0,4,0,22,2,18,0,0,12,0,7,22,0,0,0,0,0,0,0,0,0,0,0,0,0,0,0,0,0,0,0,0,0,0,0,0,0,0,0,0,0,0],"split_type":[0,0,0,0,0,0,0,0,0,0,0,0,0,0,0,0,0,0,0,0,0,0,0,0,0,0,0,0,0,0,0,0,0,0,0,0,0,0,0,0,0,0,0,0,0,0,0,0,0,0,0,0,0,0,0,0,0,0,0,0,0,0,0,0,0,0,0,0,0,0,0],"sum_hessian":[1.0837E4,4.5E1,1.0792E4,1.7E1,2.8E1,7.949E3,2.843E3,2.4E1,4E0,4.122E3,3.827E3,2.499E3,3.44E2,1E0,2.3E1,1.2E1,4.11E3,1.4E1,3.813E3,2.486E3,1.3E1,2.7E1,3.17E2,1E0,2.2E1,1E1,2E0,3.252E3,8.58E2,1E0,1.3E1,3.796E3,1.7E1,1E1,2.476E3,1E0,1.2E1,2.5E1,2E0,2.83E2,3.4E1,2.1E1,1E0,7E0,3E0,1E0,1E0,2.6E1,3.226E3,5.26E2,3.32E2,1.1E1,2E0,2.671E3,1.125E3,1.6E1,1E0,1E0,9E0,8.38E2,1.638E3,4E0,8E0,2.2E1,3E0,1E0,1E0,1.58E2,1.25E2,3.2E1,2E0],"tree_param":{"num_deleted":"0","num_feature":"31","num_nodes":"71","size_leaf_vector":"1"}},{"base_weights":[-1.7016756E-3,3.2948604E0,-1.6060963E-2,7.801496E0,2.286213E-1,4.6793398E-2,-1.18915215E-1,9.301311E-3,4.1071215E-1,2.4343018E-1,6.56411E-3,1.21062905E-1,2.8386759E-2,-9.8172225E-2,-3.1561553E-1,3.4644038E-3,1.2399453E-2,9.616972E-2,1.8786907E-1,-4.8019594E-1,3.0378131E-2,-5.7126886E-1,-9.298203E-2,-7.139171E-1,-2.7801898E-1,1.10115275E-1,-3.0355892E-1,2.7045527E-1,1.7460388E-1,-2.8775546E-1,7.130513E-2,3.6582287E-2,-1.3206044E-1,-2.7647516E-1,-3.0235252E-1,-1.4402497E-1,-5.5422798E-2,-3.585084E-1,-4.1485004E0,-3.2292104E-1,-2.2354005E-1,1.41375465E-2,5.283259E-3,4.2977273E-3,-1.0353476E-1,3.6540756E-3,1.7478867E-2,1.2520345E-2,8.269148E-3,1.5002295E-2,-1.2472424E-3,1.9320557E-3,-2.6088417E-2,-3.0892007E-3,-1.4091592E-1,-1.801942E-1,-1.324455E-3,-9.872003E-3,-4.0976224E-3,-2.4834217E-3,-4.0325023E-2,-2.2378664E-2,-2.3250135E-3,-3.0508283E-1,-6.054719E-3,-2.3870587E-2,-1.4754238E-2,2.3388562E-3,-1.1880606E-2],"categories":[],"categories_nodes":[],"categories_segments":[],"categories_sizes":[],"default_left":[0,0,0,0,0,0,0,0,0,0,0,0,0,0,0,0,0,0,0,0,0,0,0,0,0,0,0,0,0,0,0,0,0,0,0,0,0,0,0,0,0,0,0,0,0,0,0,0,0,0,0,0,0,0,0,0,0,0,0,0,0,0,0,0,0,0,0,0,0],"id":10,"left_children":[1,3,5,7,9,11,13,-1,-1,15,-1,17,19,21,23,-1,-1,25,27,29,31,33,35,37,39,41,43,45,47,-1,49,51,53,-1,55,57,59,61,63,65,67,-1,-1,-1,-1,-1,-1,-1,-1,-1,-1,-1,-1,-1,-1,-1,-1,-1,-1,-1,-1,-1,-1,-1,-1,-1,-1,-1,-1],"loss_changes":[5.129889E2,6.476821E2,6.976116E1,5.819397E1,9.845018E-3,9.153079E0,1.6669075E1,0E0,0E0,1.8707514E-3,0E0,2.1937466E0,5.452191E0,9.041912E0,5.641674E0,0E0,0E0,5.446206E0,3.471651E-1,6.1501896E1,5.395523E0,5.1662155E1,7.0183125E0,3.879519E1,8.0356026E-1,6.915045E-1,2.2892656E1,7.240505E-1,1.773653E-1,0E0,4.4781047E-1,5.943781E0,3.7015644E1,0E0,3.5424633E1,5.132965E0,9.092282E0,8.406458E-1,2.2859581E1,6.934109E-1,6.387615E-1,0E0,0E0,0E0,0E0,0E0,0E0,0E0,0E0,0E0,0E0,0E0,0E0,0E0,0E0,0E0,0E0,0E0,0E0,0E0,0E0,0E0,0E0,0E0,0E0,0E0,0E0,0E0,0E0],"parents":[2147483647,0,0,1,1,2,2,3,3,4,4,5,5,6,6,9,9,11,11,12,12,13,13,14,14,17,17,18,18,19,19,20,20,21,21,22,22,23,23,24,24,25,25,26,26,27,27,28,28,30,30,31,31,32,32,34,34,35,35,36,36,37,37,38,38,39,39,40,40],"right_children":[2,4,6,8,10,12,14,-1,-1,16,-1,18,20,22,24,-1,-1,26,28,30,32,34,36,38,40,42,44,46,48,-1,50,52,54,-1,56,58,60,62,64,66,68,-1,-1,-1,-1,-1,-1,-1,-1,-1,-1,-1,-1,-1,-1,-1,-1,-1,-1,-1,-1,-1,-1,-1,-1,-1,-1,-1,-1],"split_conditions":[-2.0597293E0,-1.1210934E0,5.97849E-2,-1.538715E0,1.2694734E-1,-8.799073E-1,1.9704994E0,9.301311E-3,4.1071215E-1,-9.8743135E-1,6.56411E-3,2.0995343E0,-6.2136906E-1,-7.410162E-1,-3.805209E-1,3.4644038E-3,1.2399453E-2,1.8095919E0,3.4313245E0,-1.2148495E0,3.4307244E0,-2.874878E-1,-6.746356E-1,1.6804929E0,-2.4853586E-1,-1.77944E0,9.244162E-1,-2.4364151E-1,-9.3330616E-1,-2.8775546E-1,-1.880472E-1,2.9697785E0,4.4020777E0,-2.7647516E-1,-6.540282E-1,9.192041E-1,5.110577E0,4.8366677E-2,2.7251039E0,-8.0013156E-1,-8.421216E-1,1.41375465E-2,5.283259E-3,4.2977273E-3,-1.0353476E-1,3.6540756E-3,1.7478867E-2,1.2520345E-2,8.269148E-3,1.5002295E-2,-1.2472424E-3,1.9320557E-3,-2.6088417E-2,-3.0892007E-3,-1.4091592E-1,-1.801942E-1,-1.324455E-3,-9.872003E-3,-4.0976224E-3,-2.4834217E-3,-4.0325023E-2,-2.2378664E-2,-2.3250135E-3,-3.0508283E-1,-6.054719E-3,-2.3870587E-2,-1.4754238E-2,2.3388562E-3,-1.1880606E-2],"split_indices":[2,9,2,15,20,2,2,0,0,26,0,9,25,12,22,0,0,9,10,6,10,13,9,18,3,2,23,13,17,0,17,19,3,0,21,15,3,12,2,14,14,0,0,0,0,0,0,0,0,0,0,0,0,0,0,0,0,0,0,0,0,0,0,0,0,0,0,0,0],"split_type":[0,0,0,0,0,0,0,0,0,0,0,0,0,0,0,0,0,0,0,0,0,0,0,0,0,0,0,0,0,0,0,0,0,0,0,0,0,0,0,0,0,0,0,0,0,0,0,0,0,0,0,0,0,0,0,0,0,0,0,0,0,0,0,0,0,0,0,0,0],"sum_hessian":[1.0835E4,4.6E1,1.0789E4,1.8E1,2.8E1,6.697E3,4.092E3,1E0,1.7E1,2.3E1,5E0,1.329E3,5.368E3,3.703E3,3.89E2,1E0,2.2E1,9.7E2,3.59E2,2E1,5.348E3,3.9E1,3.664E3,3.2E1,3.57E2,9.38E2,3.2E1,4.7E1,3.12E2,1E0,1.9E1,5.152E3,1.96E2,1E0,3.8E1,1.552E3,2.112E3,3E1,2E0,1.93E2,1.64E2,2.2E1,9.16E2,2.7E1,5E0,1.4E1,3.3E1,3.1E1,2.81E2,5E0,1.4E1,5.134E3,1.8E1,1.92E2,4E0,2E0,3.6E1,8.33E2,7.19E2,2.097E3,1.5E1,2.3E1,7E0,1E0,1E0,2.7E1,1.66E2,8E0,1.56E2],"tree_param":{"num_deleted":"0","num_feature":"31","num_nodes":"69","size_leaf_vector":"1"}},{"base_weights":[-4.8778765E-3,-1.8372491E-2,3.0964034E0,-1.1128097E-1,3.9888747E-2,5.639992E0,1.9700642E-1,-1.9751619E-1,-7.661591E-2,5.019972E-2,-7.954412E-2,6.8864627E0,2.1304348E0,-1.6522076E-2,2.3600139E-1,-1.8811086E-1,-1.5671664E0,-7.32461E-2,-4.7078425E-1,2.240439E-2,9.496426E-2,-6.8546325E-1,-3.5137158E-2,9.068779E-3,7.2702107E0,2.8947627E-2,2.8116322E-1,1.4933266E-1,4.0038687E-1,-2.6908082E-1,-5.6499284E-2,-1.6743106E-1,-2.8413287E-1,-2.512082E-1,-6.593083E-2,-3.1588918E-1,3.6081694E-2,-7.367934E-1,2.5631635E-2,-1.3760544E0,9.9333495E-2,-3.4041747E-1,-3.1599936E-1,-4.6074742E-1,1.7176688E-2,3.8575247E-1,2.622613E0,-1.0529528E-2,1.0068218E-2,1.83111E-1,-5.80771E-2,1.9028006E-3,2.2721633E-2,-1.231551E-2,-2.5384812E-2,-5.0689396E-3,-1.3540676E-3,2.170764E-3,-1.3022633E-2,-1.3885461E-1,-6.8101287E-3,-2.8573372E-3,-9.601736E-3,-6.680313E-5,1.11752255E-2,-2.8056154E-1,-1.8874415E-3,1.4355995E-3,-3.0791068E-2,1.8407485E-2,-2.9603198E-1,6.1474177E-3,2.5635243E-3,4.50096E-3,-1.7425741E-1,6.971939E-4,-9.090021E-2,3.3461216E-3,-1.3286493E-2,-7.0898137E-3,2.0378578E-1,9.959961E-3,2.8860527E-3,2.8234163E-5,-4.3840166E-3],"categories":[],"categories_nodes":[],"categories_segments":[],"categories_sizes":[],"default_left":[0,0,0,0,0,0,0,0,0,0,0,0,0,0,0,0,0,0,0,0,0,0,0,0,0,0,0,0,0,0,0,0,0,0,0,0,0,0,0,0,0,0,0,0,0,0,0,0,0,0,0,0,0,0,0,0,0,0,0,0,0,0,0,0,0,0,0,0,0,0,0,0,0,0,0,0,0,0,0,0,0,0,0,0,0],"id":11,"left_children":[1,3,5,7,9,11,13,15,17,19,21,23,25,-1,27,29,31,33,35,37,39,41,43,-1,45,47,-1,49,51,53,55,57,-1,59,61,-1,63,65,67,69,71,-1,73,75,77,-1,79,-1,-1,81,83,-1,-1,-1,-1,-1,-1,-1,-1,-1,-1,-1,-1,-1,-1,-1,-1,-1,-1,-1,-1,-1,-1,-1,-1,-1,-1,-1,-1,-1,-1,-1,-1,-1,-1],"loss_changes":[4.5401035E2,5.8469856E1,3.45508E2,1.2429527E1,8.179717E0,9.469275E1,5.510444E-1,1.5073437E1,3.9118118E0,7.6026993E0,1.4182825E1,4.499646E1,5.855831E1,0E0,2.5364494E-1,1.2623501E1,4.513334E1,3.8199606E0,7.431907E1,9.260729E0,1.5182829E1,7.928725E1,1.0984712E1,0E0,1.4912781E1,2.902078E-1,0E0,1.2272984E-1,1.197834E-1,3.863083E0,5.9533334E-1,1.4860046E-1,0E0,3.3318687E1,3.1260548E0,0E0,1.686092E-1,5.4307365E1,7.441145E0,5.766647E1,2.6439228E0,0E0,4.5349396E1,3.4816364E1,6.2100782E0,0E0,1.2628832E1,0E0,0E0,1.6744256E-2,5.2574705E-3,0E0,0E0,0E0,0E0,0E0,0E0,0E0,0E0,0E0,0E0,0E0,0E0,0E0,0E0,0E0,0E0,0E0,0E0,0E0,0E0,0E0,0E0,0E0,0E0,0E0,0E0,0E0,0E0,0E0,0E0,0E0,0E0,0E0,0E0],"parents":[2147483647,0,0,1,1,2,2,3,3,4,4,5,5,6,6,7,7,8,8,9,9,10,10,11,11,12,12,14,14,15,15,16,16,17,17,18,18,19,19,20,20,21,21,22,22,24,24,25,25,27,27,28,28,29,29,30,30,31,31,33,33,34,34,36,36,37,37,38,38,39,39,40,40,42,42,43,43,44,44,46,46,49,49,50,50],"right_children":[2,4,6,8,10,12,14,16,18,20,22,24,26,-1,28,30,32,34,36,38,40,42,44,-1,46,48,-1,50,52,54,56,58,-1,60,62,-1,64,66,68,70,72,-1,74,76,78,-1,80,-1,-1,82,84,-1,-1,-1,-1,-1,-1,-1,-1,-1,-1,-1,-1,-1,-1,-1,-1,-1,-1,-1,-1,-1,-1,-1,-1,-1,-1,-1,-1,-1,-1,-1,-1,-1,-1],"split_conditions":[1.6307021E0,-4.4073224E-1,-1.1210934E0,2.0088227E-2,1.3853878E0,1.6947165E-1,-3.9121065E0,4.705953E0,5.110577E0,5.7184434E-1,1.4452307E0,-6.9036984E-1,5.3634346E-2,-1.6522076E-2,-9.913724E-2,-5.018657E-1,-4.9381337E-1,-9.763203E-1,-2.3192741E-1,-6.2136906E-1,-2.2668371E0,-2.874878E-1,-1.3923669E0,9.068779E-3,-1.0991016E-1,-3.3775696E-1,2.8116322E-1,-1.1969659E0,-3.527149E0,1.7544199E18,-8.205029E-1,1.2567322E0,-2.8413287E-1,-1.1494585E0,1.6987613E0,-3.1588918E-1,1.7544111E18,-1.2148495E0,2.9697785E0,-2.7121952E-1,-4.135857E-1,-3.4041747E-1,4.1753712E-1,2.8841105E0,1.6106896E0,3.8575247E-1,1.7543207E18,-1.0529528E-2,1.0068218E-2,-1.338888E0,1.7543177E18,1.9028006E-3,2.2721633E-2,-1.231551E-2,-2.5384812E-2,-5.0689396E-3,-1.3540676E-3,2.170764E-3,-1.3022633E-2,-1.3885461E-1,-6.8101287E-3,-2.8573372E-3,-9.601736E-3,-6.680313E-5,1.11752255E-2,-2.8056154E-1,-1.8874415E-3,1.4355995E-3,-3.0791068E-2,1.8407485E-2,-2.9603198E-1,6.1474177E-3,2.5635243E-3,4.50096E-3,-1.7425741E-1,6.971939E-4,-9.090021E-2,3.3461216E-3,-1.3286493E-2,-7.0898137E-3,2.0378578E-1,9.959961E-3,2.8860527E-3,2.8234163E-5,-4.3840166E-3],"split_indices":[7,1,9,15,4,4,6,4,3,7,4,4,1,0,20,1,1,9,24,25,19,13,7,0,3,5,0,8,6,0,9,8,0,23,19,0,0,6,19,3,8,0,15,4,9,0,0,0,0,19,0,0,0,0,0,0,0,0,0,0,0,0,0,0,0,0,0,0,0,0,0,0,0,0,0,0,0,0,0,0,0,0,0,0,0],"split_type":[0,0,0,0,0,0,0,0,0,0,0,0,0,0,0,0,0,0,0,0,0,0,0,0,0,0,0,0,0,0,0,0,0,0,0,0,0,0,0,0,0,0,0,0,0,0,0,0,0,0,0,0,0,0,0,0,0,0,0,0,0,0,0,0,0,0,0,0,0,0,0,0,0,0,0,0,0,0,0,0,0,0,0,0,0],"sum_hessian":[1.0846E4,1.08E4,4.6E1,4.162E3,6.638E3,2.4E1,2.2E1,1.192E3,2.97E3,6.111E3,5.27E2,1.7E1,7E0,1E0,2.1E1,1.185E3,7E0,2.946E3,2.4E1,3.771E3,2.34E3,3.5E1,4.92E2,1E0,1.6E1,5E0,2E0,1.5E1,6E0,7.33E2,4.52E2,6E0,1E0,1.15E2,2.831E3,1E0,2.3E1,1.5E1,3.756E3,6E0,2.334E3,1E0,3.4E1,5.3E1,4.39E2,1.4E1,2E0,2E0,3E0,1.3E1,2E0,1E0,5E0,6.71E2,6.2E1,1.78E2,2.74E2,2E0,4E0,4E0,1.11E2,2.648E3,1.83E2,2E1,3E0,1E0,1.4E1,3.739E3,1.7E1,5E0,1E0,1.564E3,7.7E2,3.1E1,3E0,4E1,1.3E1,3.74E2,6.5E1,1E0,1E0,1.1E1,2E0,1E0,1E0],"tree_param":{"num_deleted":"0","num_feature":"31","num_nodes":"85","size_leaf_vector":"1"}},{"base_weights":[1.2485143E-3,3.4455652E0,-1.4670979E-2,3.771552E-1,2.1827482E-1,3.3855896E-2,-1.2480158E-1,1.5845478E-1,1.3552475E-2,6.809131E-2,-6.66917E-3,-8.313006E-1,-1.1895319E-1,8.926653E-5,1.6878039E-1,-6.3028663E-1,7.0483916E-2,-6.8450177E-1,-3.5007056E-3,-3.986531E-2,-3.59468E0,-1.02636375E-1,-2.8387523E-1,1.7586464E-1,1.7400234E-3,-2.9083278E0,2.5539076E-1,7.507914E-2,-1.7792754E-1,-2.735475E-1,-6.7518774E-4,5.1073693E-3,-1.2953995E-1,8.764419E-3,-5.845779E-2,-3.5617507E-1,-4.9394038E-2,-9.864413E-2,-7.947721E-1,-3.1502703E-1,-2.1057852E-1,1.7455093E-3,9.201094E-3,-1.4677444E-3,-2.8863117E-1,2.3528239E-2,-1.1741709E-4,3.8727857E-3,-1.6883967E-2,8.874506E-3,-6.080548E-2,-2.6942706E-3,1.1506375E-2,4.7473275E-4,-9.877854E-3,-4.53689E-2,-3.0208178E-4,-1.745683E-3,-9.4042355E-3,7.2878785E-3,-8.151522E-3,-4.751336E-3,-4.0283196E-2,-2.770295E-1,-7.593577E-3,-1.678747E-2,-9.147756E-3,3.797367E-3,-1.176799E-2],"categories":[],"categories_nodes":[],"categories_segments":[],"categories_sizes":[],"default_left":[0,0,0,0,0,0,0,0,0,0,0,0,0,0,0,0,0,0,0,0,0,0,0,0,0,0,0,0,0,0,0,0,0,0,0,0,0,0,0,0,0,0,0,0,0,0,0,0,0,0,0,0,0,0,0,0,0,0,0,0,0,0,0,0,0,0,0,0,0],"id":12,"left_children":[1,3,5,-1,7,9,11,13,-1,15,17,19,21,-1,23,25,27,29,31,33,35,37,39,41,-1,43,45,47,49,-1,51,53,55,-1,57,-1,59,61,63,65,67,-1,-1,-1,-1,-1,-1,-1,-1,-1,-1,-1,-1,-1,-1,-1,-1,-1,-1,-1,-1,-1,-1,-1,-1,-1,-1,-1,-1],"loss_changes":[5.959074E2,6.595509E2,5.7818794E1,0E0,4.8603415E-2,1.0419772E1,1.3573521E1,2.5581986E-2,0E0,6.84684E0,7.385652E0,5.8906677E1,8.805424E0,0E0,8.11705E-3,2.8989296E1,4.64559E0,5.2365917E1,3.7166336E0,9.825225E-2,7.4712234E1,8.180733E0,6.072445E-1,9.67297E-3,0E0,3.2815464E1,6.1115134E-1,3.9352455E0,2.7520979E1,0E0,1.9661646E-1,2.8533692E0,2.1032026E1,0E0,5.75243E-2,0E0,1.1246821E-1,7.5271416E0,5.1027054E1,4.9962425E-1,6.6401863E-1,0E0,0E0,0E0,0E0,0E0,0E0,0E0,0E0,0E0,0E0,0E0,0E0,0E0,0E0,0E0,0E0,0E0,0E0,0E0,0E0,0E0,0E0,0E0,0E0,0E0,0E0,0E0,0E0],"parents":[2147483647,0,0,1,1,2,2,4,4,5,5,6,6,7,7,9,9,10,10,11,11,12,12,14,14,15,15,16,16,17,17,18,18,19,19,20,20,21,21,22,22,23,23,25,25,26,26,27,27,28,28,30,30,31,31,32,32,34,34,36,36,37,37,38,38,39,39,40,40],"right_children":[2,4,6,-1,8,10,12,14,-1,16,18,20,22,-1,24,26,28,30,32,34,36,38,40,42,-1,44,46,48,50,-1,52,54,56,-1,58,-1,60,62,64,66,68,-1,-1,-1,-1,-1,-1,-1,-1,-1,-1,-1,-1,-1,-1,-1,-1,-1,-1,-1,-1,-1,-1,-1,-1,-1,-1,-1,-1],"split_conditions":[-2.0597293E0,-1.398372E0,3.419432E-1,3.771552E-1,-1.0354913E-2,-4.9669108E-1,-7.410162E-1,-2.1671776E-1,1.3552475E-2,-2.2668371E0,-6.2136906E-1,1.3422947E0,2.3121877E0,8.926653E-5,-3.316864E-2,-2.1531457E-1,3.8504546E0,-4.8257408E-1,1.3853878E0,1.75432E18,-2.1623956E-1,4.705953E0,1.3287807E0,-1.3547527E0,1.7400234E-3,1.7543372E18,-7.086736E-2,4.6722016E0,-6.881513E-1,-2.735475E-1,-2.5791553E-1,2.26099E0,-5.615379E-1,8.764419E-3,4.6001457E-2,-3.5617507E-1,1.75432E18,6.4971094E0,-4.476243E-1,-5.476745E-1,-5.466423E-1,1.7455093E-3,9.201094E-3,-1.4677444E-3,-2.8863117E-1,2.3528239E-2,-1.1741709E-4,3.8727857E-3,-1.6883967E-2,8.874506E-3,-6.080548E-2,-2.6942706E-3,1.1506375E-2,4.7473275E-4,-9.877854E-3,-4.53689E-2,-3.0208178E-4,-1.745683E-3,-9.4042355E-3,7.2878785E-3,-8.151522E-3,-4.751336E-3,-4.0283196E-2,-2.770295E-1,-7.593577E-3,-1.678747E-2,-9.147756E-3,3.797367E-3,-1.176799E-2],"split_indices":[2,8,2,0,24,2,12,24,0,19,25,19,2,0,24,21,4,2,4,0,3,4,8,8,0,0,24,3,2,0,4,8,14,0,14,0,0,13,14,5,25,0,0,0,0,0,0,0,0,0,0,0,0,0,0,0,0,0,0,0,0,0,0,0,0,0,0,0,0],"split_type":[0,0,0,0,0,0,0,0,0,0,0,0,0,0,0,0,0,0,0,0,0,0,0,0,0,0,0,0,0,0,0,0,0,0,0,0,0,0,0,0,0,0,0,0,0,0,0,0,0,0,0,0,0,0,0,0,0,0,0,0,0,0,0,0,0,0,0,0,0],"sum_hessian":[1.0866E4,4.9E1,1.0817E4,2.1E1,2.8E1,7.509E3,3.308E3,1.5E1,1.3E1,4.07E3,3.439E3,2.6E1,3.282E3,1E0,1.4E1,1.3E1,4.057E3,1.5E1,3.424E3,2.1E1,5E0,2.988E3,2.94E2,1.3E1,1E0,3E0,1E1,3.984E3,7.3E1,1E0,1.4E1,3.206E3,2.18E2,1E0,2E1,2E0,3E0,2.972E3,1.6E1,2.04E2,9E1,1E0,1.2E1,2E0,1E0,5E0,5E0,3.962E3,2.2E1,5.5E1,1.8E1,1.2E1,2E0,3.139E3,6.7E1,2.9E1,1.89E2,1.8E1,2E0,1E0,2E0,2.958E3,1.4E1,1E0,1.5E1,1.75E2,2.9E1,7E0,8.3E1],"tree_param":{"num_deleted":"0","num_feature":"31","num_nodes":"69","size_leaf_vector":"1"}},{"base_weights":[1.5665591E-3,2.9763196E0,-1.29766995E-2,3.5897887E-1,2.1132739E-1,3.3003695E-2,-1.17830336E-1,1.5205991E-2,1.7464788E-1,6.7286015E-2,-8.064751E-3,-9.5875464E-2,-2.8312346E-1,1.7018717E-3,8.9455405E-3,-8.221645E-1,6.987477E-2,-7.0119697E-1,-5.0187763E-3,-9.2203625E-2,-9.095805E-1,-2.4894471E-1,-7.296199E-1,8.672952E-2,-3.5777564E0,7.46468E-2,-1.9793175E-1,-2.6670882E-1,1.0742722E-2,-2.0962108E-3,-5.5661774E-1,-8.8702285E-1,-8.887833E-2,-2.7010378E-1,-8.503292E-2,-2.6027E-1,-1.1531324E-1,-2.9640147E-1,-3.0168E-1,-5.511494E-4,1.5924653E-2,1.3083666E-2,-2.814154E-1,2.9980517E-3,6.4765513E-3,7.0041786E-3,-8.041435E-2,-2.1540485E-3,1.1122829E-2,-1.0492733E-3,2.4111557E-3,-2.816203E-1,3.6638007E-3,-2.56035E-1,-1.8312483E-3,-2.1133216E-3,-6.4720362E-3,3.2628508E-4,-7.568209E-3,-1.2490564E-2,-2.3999454E-2,-1.0768086E-2,7.103114E-3,-1.6047712E-2,4.5043966E-3],"categories":[],"categories_nodes":[],"categories_segments":[],"categories_sizes":[],"default_left":[0,0,0,0,0,0,0,0,0,0,0,0,0,0,0,0,0,0,0,0,0,0,0,0,0,0,0,0,0,0,0,0,0,0,0,0,0,0,0,0,0,0,0,0,0,0,0,0,0,0,0,0,0,0,0,0,0,0,0,0,0,0,0,0,0],"id":13,"left_children":[1,3,5,-1,7,9,11,-1,13,15,17,19,21,-1,-1,23,25,27,29,31,33,35,37,39,41,43,45,-1,47,49,51,53,55,-1,57,59,61,-1,63,-1,-1,-1,-1,-1,-1,-1,-1,-1,-1,-1,-1,-1,-1,-1,-1,-1,-1,-1,-1,-1,-1,-1,-1,-1,-1],"loss_changes":[4.7129813E2,6.144475E2,5.227064E1,0E0,5.920422E-2,1.0612048E1,1.1966671E1,0E0,9.4950795E-3,9.516394E0,7.2381134E0,8.6375065E0,5.724251E0,0E0,0E0,3.0364784E1,5.250662E0,4.9533337E1,5.5057125E0,7.604374E0,4.7696236E1,5.163307E-1,5.8276016E1,2.3006542E-1,2.5091625E1,3.237257E0,3.4549248E1,0E0,1.6911675E-1,3.2317433E0,5.796245E1,4.3016174E1,5.469967E0,0E0,7.386613E-2,6.4302254E-1,8.030956E-1,0E0,2.2524095E-1,0E0,0E0,0E0,0E0,0E0,0E0,0E0,0E0,0E0,0E0,0E0,0E0,0E0,0E0,0E0,0E0,0E0,0E0,0E0,0E0,0E0,0E0,0E0,0E0,0E0,0E0],"parents":[2147483647,0,0,1,1,2,2,4,4,5,5,6,6,8,8,9,9,10,10,11,11,12,12,15,15,16,16,17,17,18,18,19,19,20,20,21,21,22,22,23,23,24,24,25,25,26,26,28,28,29,29,30,30,31,31,32,32,34,34,35,35,36,36,38,38],"right_children":[2,4,6,-1,8,10,12,-1,14,16,18,20,22,-1,-1,24,26,28,30,32,34,36,38,40,42,44,46,-1,48,50,52,54,56,-1,58,60,62,-1,64,-1,-1,-1,-1,-1,-1,-1,-1,-1,-1,-1,-1,-1,-1,-1,-1,-1,-1,-1,-1,-1,-1,-1,-1,-1,-1],"split_conditions":[-2.0597293E0,-1.398372E0,3.419432E-1,3.5897887E-1,-5.6696904E-1,-4.9046043E-1,1.9704994E0,1.5205991E-2,-1.3547527E0,-2.2668371E0,-6.2136906E-1,4.705953E0,1.6804929E0,1.7018717E-3,8.9455405E-3,1.7543372E18,3.8504546E0,-4.8257408E-1,2.9697785E0,-8.2321E-1,-4.476243E-1,4.089149E-1,-3.935736E-1,-3.1596845E-1,-2.2164237E-1,9.245891E-1,1.7544027E18,-2.6670882E-1,-3.4223488E-1,1.754408E18,-1.7814687E-1,5.395528E-1,9.6865386E-1,-2.7010378E-1,8.911197E-1,1.4809728E0,1.1212946E-1,-2.9640147E-1,1.0243796E0,-5.511494E-4,1.5924653E-2,1.3083666E-2,-2.814154E-1,2.9980517E-3,6.4765513E-3,7.0041786E-3,-8.041435E-2,-2.1540485E-3,1.1122829E-2,-1.0492733E-3,2.4111557E-3,-2.816203E-1,3.6638007E-3,-2.56035E-1,-1.8312483E-3,-2.1133216E-3,-6.4720362E-3,3.2628508E-4,-7.568209E-3,-1.2490564E-2,-2.3999454E-2,-1.0768086E-2,7.103114E-3,-1.6047712E-2,4.5043966E-3],"split_indices":[2,8,2,0,4,2,2,0,8,19,25,4,18,0,0,0,4,2,19,12,14,22,22,8,1,7,0,0,4,0,12,2,2,0,2,21,26,0,14,0,0,0,0,0,0,0,0,0,0,0,0,0,0,0,0,0,0,0,0,0,0,0,0,0,0],"split_type":[0,0,0,0,0,0,0,0,0,0,0,0,0,0,0,0,0,0,0,0,0,0,0,0,0,0,0,0,0,0,0,0,0,0,0,0,0,0,0,0,0,0,0,0,0,0,0,0,0,0,0,0,0,0,0,0,0,0,0,0,0,0,0,0,0],"sum_hessian":[1.0892E4,5.2E1,1.084E4,2E1,3.2E1,7.536E3,3.304E3,7E0,2.5E1,4.107E3,3.429E3,2.918E3,3.86E2,1E0,2.4E1,1.1E1,4.096E3,1.4E1,3.415E3,2.906E3,1.2E1,3.6E2,2.6E1,9E0,2E0,4.025E3,7.1E1,1E0,1.3E1,3.398E3,1.7E1,1.1E1,2.895E3,1E0,1.1E1,3.31E2,2.9E1,1E0,2.5E1,7E0,2E0,1E0,1E0,3.177E3,8.48E2,5.8E1,1.3E1,1.1E1,2E0,2.471E3,9.27E2,1E0,1.6E1,1E0,1E1,1.348E3,1.547E3,5E0,6E0,3.18E2,1.3E1,2.1E1,8E0,2.4E1,1E0],"tree_param":{"num_deleted":"0","num_feature":"31","num_nodes":"65","size_leaf_vector":"1"}},{"base_weights":[-1.0980291E-3,2.8985708E0,-1.4217389E-2,3.3974415E-1,2.0441014E-1,2.8855758E-2,-1.11871555E-1,1.4374641E-2,1.611304E-1,6.046766E-2,-1.5924346E-2,-7.6686406E-1,-1.0625973E-1,-1.366036E-4,1.6906346E-1,-5.4829997E-1,6.28113E-2,-1.2785432E-2,-6.629438E-1,-3.8669683E-2,-3.430465E0,-1.02432616E-1,-8.366174E-1,1.659325E-3,1.7419799E-1,6.75341E-2,-2.6004112E-1,-5.858467E-1,6.4871706E-2,-4.4119228E-2,2.5376035E-2,-2.745798E-1,7.421679E-2,-7.126084E-2,1.01179145E-2,-3.400001E-1,-4.569629E-2,-4.0527012E-2,-1.4545685E-1,-3.0693203E-1,-1.2157592E-1,9.453725E-3,4.5876782E-3,-3.1110195E-3,1.2162495E-2,-1.3824035E-1,1.2988063E-2,3.697544E-3,-1.5273229E-3,-1.4688679E-3,-4.32131E-2,3.336699E-3,-1.1872405E-4,-2.5201594E-3,8.699109E-3,2.5473027E-3,-4.7229496E-3,7.158514E-3,-7.818762E-3,-1.6317734E-3,-6.033014E-2,-1.3333946E-2,-6.0417526E-3,-3.3978472E-4,-2.3210883E-2],"categories":[],"categories_nodes":[],"categories_segments":[],"categories_sizes":[],"default_left":[0,0,0,0,0,0,0,0,0,0,0,0,0,0,0,0,0,0,0,0,0,0,0,0,0,0,0,0,0,0,0,0,0,0,0,0,0,0,0,0,0,0,0,0,0,0,0,0,0,0,0,0,0,0,0,0,0,0,0,0,0,0,0,0,0],"id":14,"left_children":[1,3,5,-1,7,9,11,-1,13,15,17,19,21,-1,23,25,27,29,31,33,35,37,39,-1,41,43,-1,45,47,49,51,-1,53,55,-1,-1,57,59,61,-1,63,-1,-1,-1,-1,-1,-1,-1,-1,-1,-1,-1,-1,-1,-1,-1,-1,-1,-1,-1,-1,-1,-1,-1,-1],"loss_changes":[4.1385986E2,5.129783E2,4.5557156E1,0E0,6.155014E-2,1.0640494E1,1.2103455E1,0E0,2.9060364E-2,6.3206215E0,6.309772E0,5.417668E1,9.104809E0,0E0,8.869886E-3,4.9059322E1,5.905237E0,3.7043371E0,5.3799946E1,1.9509396E-1,6.811988E1,8.708885E0,6.3703514E1,0E0,7.1814656E-3,3.799337E-1,0E0,2.6513834E1,3.7941322E0,2.0540443E1,1.6035013E0,0E0,1.8282789E-1,6.434676E-2,0E0,0E0,1.060025E-1,1.2319092E1,5.72826E0,0E0,6.2610126E-1,0E0,0E0,0E0,0E0,0E0,0E0,0E0,0E0,0E0,0E0,0E0,0E0,0E0,0E0,0E0,0E0,0E0,0E0,0E0,0E0,0E0,0E0,0E0,0E0],"parents":[2147483647,0,0,1,1,2,2,4,4,5,5,6,6,8,8,9,9,10,10,11,11,12,12,14,14,15,15,16,16,17,17,18,18,19,19,20,20,21,21,22,22,24,24,25,25,27,27,28,28,29,29,30,30,32,32,33,33,36,36,37,37,38,38,40,40],"right_children":[2,4,6,-1,8,10,12,-1,14,16,18,20,22,-1,24,26,28,30,32,34,36,38,40,-1,42,44,-1,46,48,50,52,-1,54,56,-1,-1,58,60,62,-1,64,-1,-1,-1,-1,-1,-1,-1,-1,-1,-1,-1,-1,-1,-1,-1,-1,-1,-1,-1,-1,-1,-1,-1,-1],"split_conditions":[-2.0597293E0,-1.398372E0,3.419432E-1,3.3974415E-1,-5.496023E-1,-4.3755904E-1,-7.410162E-1,1.4374641E-2,-2.1671776E-1,-6.2136906E-1,2.9697785E0,1.3422947E0,5.110577E0,-1.366036E-4,-1.3547527E0,-5.2185553E-1,-2.2668371E0,-2.1383883E-1,-1.7814687E-1,-5.434925E-1,-2.1623956E-1,9.6865386E-1,3.531567E-1,1.659325E-3,1.2694734E-1,-5.022022E-1,-2.6004112E-1,-2.1531457E-1,1.341644E0,1.7544048E18,-1.7876832E-1,-2.745798E-1,9.710821E-2,-6.0599124E-1,1.01179145E-2,-3.400001E-1,1.75432E18,4.705953E0,-2.7121952E-1,-3.0693203E-1,1.6141355E0,9.453725E-3,4.5876782E-3,-3.1110195E-3,1.2162495E-2,-1.3824035E-1,1.2988063E-2,3.697544E-3,-1.5273229E-3,-1.4688679E-3,-4.32131E-2,3.336699E-3,-1.1872405E-4,-2.5201594E-3,8.699109E-3,2.5473027E-3,-4.7229496E-3,7.158514E-3,-7.818762E-3,-1.6317734E-3,-6.033014E-2,-1.3333946E-2,-6.0417526E-3,-3.3978472E-4,-2.3210883E-2],"split_indices":[2,8,2,0,4,2,12,0,24,25,19,19,3,0,8,2,19,18,12,5,3,2,2,0,20,18,0,21,4,0,2,0,24,5,0,0,0,4,3,0,2,0,0,0,0,0,0,0,0,0,0,0,0,0,0,0,0,0,0,0,0,0,0,0,0],"split_type":[0,0,0,0,0,0,0,0,0,0,0,0,0,0,0,0,0,0,0,0,0,0,0,0,0,0,0,0,0,0,0,0,0,0,0,0,0,0,0,0,0,0,0,0,0,0,0,0,0,0,0,0,0,0,0,0,0,0,0,0,0,0,0,0,0],"sum_hessian":[1.0877E4,4.8E1,1.0829E4,1.9E1,2.9E1,7.515E3,3.314E3,8E0,2.1E1,4.405E3,3.11E3,2.7E1,3.287E3,1E0,2E1,1.6E1,4.389E3,3.096E3,1.4E1,2.2E1,5E0,3.271E3,1.6E1,1E0,1.9E1,1.5E1,1E0,1.3E1,4.376E3,1.7E3,1.396E3,1E0,1.3E1,2E1,2E0,2E0,3E0,1.342E3,1.929E3,1E0,1.5E1,1.5E1,4E0,9E0,6E0,3E0,1E1,3.996E3,3.8E2,1.671E3,2.9E1,5.6E2,8.36E2,6E0,7E0,3E0,1.7E1,1E0,2E0,1.334E3,8E0,3.24E2,1.605E3,1.2E1,3E0],"tree_param":{"num_deleted":"0","num_feature":"31","num_nodes":"65","size_leaf_vector":"1"}},{"base_weights":[-6.6680525E-4,2.8383667E0,-1.3822598E-2,3.2393143E-1,1.9557153E-1,2.5585895E-2,-1.2494268E-1,1.2882036E-1,2.3903888E-1,6.2301937E-2,-2.0034764E-2,-8.7742597E-1,-1.1845284E-1,-1.3318844E-4,1.3913943E-1,4.985395E-3,1.2548457E-2,-5.246046E-1,6.4288594E-2,-1.7448824E-2,-5.905989E-1,-4.8223656E-2,-5.0113816E0,-9.859222E-2,-2.894886E-1,1.4620706E-1,1.3581924E-3,2.359819E-1,-2.675213E0,-7.971734E-2,6.956554E-2,-1.460486E-2,-5.169717E-1,-2.677153E-1,8.393529E-2,-1.2593856E-1,2.055741E-2,-3.2866678E-1,-8.138021E-3,-9.419397E-2,-8.766383E-1,-2.4708565E-1,-7.9673E-1,1.6178418E-3,7.6807784E-3,3.8335659E-3,3.4417827E-2,2.2684613E-3,-2.70924E-1,4.3431306E-3,-4.3940824E-2,1.8566838E-3,4.3914197E-3,-2.201718E-3,9.0399076E-4,4.2918823E-3,-2.9925874E-1,-6.560298E-3,6.3563357E-3,-7.442821E-3,2.0080507E-3,-5.513769E-4,5.949405E-3,-7.925904E-3,-3.3780106E-3,-2.6184294E-1,-6.9200695E-3,-1.3087893E-2,-5.8064163E-3,-2.8884038E-1,-1.4224871E-2],"categories":[],"categories_nodes":[],"categories_segments":[],"categories_sizes":[],"default_left":[0,0,0,0,0,0,0,0,0,0,0,0,0,0,0,0,0,0,0,0,0,0,0,0,0,0,0,0,0,0,0,0,0,0,0,0,0,0,0,0,0,0,0,0,0,0,0,0,0,0,0,0,0,0,0,0,0,0,0,0,0,0,0,0,0,0,0,0,0,0,0],"id":15,"left_children":[1,3,5,-1,7,9,11,13,15,17,19,21,23,-1,25,-1,-1,27,29,31,33,35,37,39,41,43,-1,45,47,49,51,53,55,-1,57,59,61,-1,-1,63,65,67,69,-1,-1,-1,-1,-1,-1,-1,-1,-1,-1,-1,-1,-1,-1,-1,-1,-1,-1,-1,-1,-1,-1,-1,-1,-1,-1,-1,-1],"loss_changes":[4.0487305E2,4.7975623E2,4.7253414E1,0E0,5.6251764E-2,1.3344379E1,1.3691956E1,1.9365758E-2,3.2346845E-3,5.180374E0,5.231952E0,8.202759E1,9.489502E0,0E0,6.3166916E-3,0E0,0E0,2.516716E1,3.3491592E0,5.0186195E0,5.1861946E1,1.14840575E-1,2.9223396E1,8.513601E0,6.0621223E0,5.1510036E-3,0E0,8.1203955E-1,3.0098965E1,2.0842104E1,2.5110435E0,3.3857002E0,6.643943E1,0E0,1.5606362E-1,4.4044673E-2,3.8619284E-2,0E0,0E0,4.2705593E0,4.433947E1,4.8838997E-1,5.447759E1,0E0,0E0,0E0,0E0,0E0,0E0,0E0,0E0,0E0,0E0,0E0,0E0,0E0,0E0,0E0,0E0,0E0,0E0,0E0,0E0,0E0,0E0,0E0,0E0,0E0,0E0,0E0,0E0],"parents":[2147483647,0,0,1,1,2,2,4,4,5,5,6,6,7,7,8,8,9,9,10,10,11,11,12,12,14,14,17,17,18,18,19,19,20,20,21,21,22,22,23,23,24,24,25,25,27,27,28,28,29,29,30,30,31,31,32,32,34,34,35,35,36,36,39,39,40,40,41,41,42,42],"right_children":[2,4,6,-1,8,10,12,14,16,18,20,22,24,-1,26,-1,-1,28,30,32,34,36,38,40,42,44,-1,46,48,50,52,54,56,-1,58,60,62,-1,-1,64,66,68,70,-1,-1,-1,-1,-1,-1,-1,-1,-1,-1,-1,-1,-1,-1,-1,-1,-1,-1,-1,-1,-1,-1,-1,-1,-1,-1,-1,-1],"split_conditions":[-2.0597293E0,-1.398372E0,5.011446E-1,3.2393143E-1,-1.0354913E-2,-4.3755904E-1,-7.410162E-1,-2.1671776E-1,1.754318E18,-2.2668371E0,2.9697785E0,1.3422947E0,2.3121877E0,-1.3318844E-4,-3.4583353E-2,4.985395E-3,1.2548457E-2,6.433467E-1,-2.874878E-1,6.4971094E0,-1.7814687E-1,-6.3968635E-1,1.7544088E18,4.705953E0,1.6804929E0,-1.3547527E0,1.3581924E-3,1.7543372E18,1.7543272E18,-3.3693743E-1,3.85585E-1,-1.9028762E-1,3.3135837E-1,-2.677153E-1,-6.8815804E-1,-7.562109E-2,-5.468945E-1,-3.2866678E-1,-8.138021E-3,-6.298896E-1,-4.476243E-1,1.3660026E0,-6.5779716E-1,1.6178418E-3,7.6807784E-3,3.8335659E-3,3.4417827E-2,2.2684613E-3,-2.70924E-1,4.3431306E-3,-4.3940824E-2,1.8566838E-3,4.3914197E-3,-2.201718E-3,9.0399076E-4,4.2918823E-3,-2.9925874E-1,-6.560298E-3,6.3563357E-3,-7.442821E-3,2.0080507E-3,-5.513769E-4,5.949405E-3,-7.925904E-3,-3.3780106E-3,-2.6184294E-1,-6.9200695E-3,-1.3087893E-2,-5.8064163E-3,-2.8884038E-1,-1.4224871E-2],"split_indices":[2,8,2,0,24,2,12,24,0,19,19,19,2,0,24,0,0,11,13,13,12,23,0,4,18,8,0,0,0,8,7,18,2,0,14,3,1,0,0,18,14,23,4,0,0,0,0,0,0,0,0,0,0,0,0,0,0,0,0,0,0,0,0,0,0,0,0,0,0,0,0],"split_type":[0,0,0,0,0,0,0,0,0,0,0,0,0,0,0,0,0,0,0,0,0,0,0,0,0,0,0,0,0,0,0,0,0,0,0,0,0,0,0,0,0,0,0,0,0,0,0,0,0,0,0,0,0,0,0,0,0,0,0,0,0,0,0,0,0,0,0,0,0,0,0],"sum_hessian":[1.0838E4,4.9E1,1.0789E4,2E1,2.9E1,7.965E3,2.824E3,1.3E1,1.6E1,4.413E3,3.552E3,2.3E1,2.801E3,1E0,1.2E1,2E0,1.4E1,1.4E1,4.399E3,3.537E3,1.5E1,2E1,3E0,2.511E3,2.9E2,1.1E1,1E0,1.1E1,3E0,1.55E2,4.244E3,3.518E3,1.9E1,1E0,1.4E1,9E0,1.1E1,2E0,1E0,2.498E3,1.3E1,2.69E2,2.1E1,1E0,1E1,9E0,2E0,2E0,1E0,1.29E2,2.6E1,1.53E3,2.714E3,1.851E3,1.667E3,1.8E1,1E0,2E0,1.2E1,8E0,1E0,9E0,2E0,7.3E2,1.768E3,1E0,1.2E1,2.41E2,2.8E1,1E0,2E1],"tree_param":{"num_deleted":"0","num_feature":"31","num_nodes":"71","size_leaf_vector":"1"}},{"base_weights":[-2.3560495E-4,2.7168686E0,-1.2805459E-2,3.099061E-1,1.8942915E-1,3.7391637E-2,-9.382181E-2,-1.2985877E-4,1.961403E-1,6.0495663E-2,-6.2033464E-4,-7.776712E-2,-2.4999665E-1,1.5773958E-3,2.0089188E-1,-6.04696E-1,6.257032E-2,-8.7583584E-1,3.209415E-3,-5.329216E-1,-7.3336735E-2,-6.192274E-1,-2.1477112E-1,2.0162899E-3,2.0534523E-1,2.4664828E-1,-3.5247262E0,5.483003E-2,1.5968983E-1,-2.535865E-1,5.092664E-2,6.9976402E-3,-7.261251E-1,-2.8928494E-4,-2.7395E0,-7.0784114E-2,-6.245928E-1,-2.99756E-1,-3.7140226E0,-1.7108667E-1,-2.669956E-1,6.346991E-3,1.1085101E-2,2.7821904E-2,-4.9328146E-4,-2.0355769E-4,-2.6415092E-1,3.1291973E-3,-2.7832722E-3,1.5943805E-2,7.309408E-3,7.460928E-3,-3.8604501E-3,6.212871E-4,-1.4154295E-2,-2.6102242E-1,4.1719605E-3,-3.1218024E-3,4.906693E-3,2.5444478E-3,-2.4225068E-1,-2.0616914E-3,-5.587331E-3,-2.9177725E-1,3.290665E-3,-1.8976748E-2,1.3995558E-3,-2.8161937E-1,3.0676597E-3,-2.506636E-3,-1.0198102E-2,-1.3681958E-2,8.484104E-3],"categories":[],"categories_nodes":[],"categories_segments":[],"categories_sizes":[],"default_left":[0,0,0,0,0,0,0,0,0,0,0,0,0,0,0,0,0,0,0,0,0,0,0,0,0,0,0,0,0,0,0,0,0,0,0,0,0,0,0,0,0,0,0,0,0,0,0,0,0,0,0,0,0,0,0,0,0,0,0,0,0,0,0,0,0,0,0,0,0,0,0,0,0],"id":16,"left_children":[1,3,5,-1,7,9,11,-1,13,15,17,19,21,-1,23,25,27,29,31,33,35,37,39,-1,41,43,45,47,49,-1,51,53,55,57,59,61,63,65,67,69,71,-1,-1,-1,-1,-1,-1,-1,-1,-1,-1,-1,-1,-1,-1,-1,-1,-1,-1,-1,-1,-1,-1,-1,-1,-1,-1,-1,-1,-1,-1,-1,-1],"loss_changes":[3.7084048E2,4.3875873E2,4.3957325E1,0E0,3.917086E-2,5.8613415E0,1.0348404E1,0E0,1.634252E-2,5.7663946E0,8.462896E0,7.5248528E0,4.8744526E0,0E0,1.1740923E-2,3.318673E1,3.1026688E0,4.3032856E1,6.95097E0,4.2309826E1,5.1847477E0,3.1513754E1,7.596531E-1,0E0,6.483674E-3,8.7960905E-1,1.8549511E1,3.2892056E0,6.089139E-1,0E0,1.3746801E-1,3.9431736E0,4.773536E1,1.896275E-1,4.137298E1,4.4740696E0,6.1544502E1,8.211906E-1,2.2073208E1,7.651744E-1,5.0770473E-1,0E0,0E0,0E0,0E0,0E0,0E0,0E0,0E0,0E0,0E0,0E0,0E0,0E0,0E0,0E0,0E0,0E0,0E0,0E0,0E0,0E0,0E0,0E0,0E0,0E0,0E0,0E0,0E0,0E0,0E0,0E0,0E0],"parents":[2147483647,0,0,1,1,2,2,4,4,5,5,6,6,8,8,9,9,10,10,11,11,12,12,14,14,15,15,16,16,17,17,18,18,19,19,20,20,21,21,22,22,24,24,25,25,26,26,27,27,28,28,30,30,31,31,32,32,33,33,34,34,35,35,36,36,37,37,38,38,39,39,40,40],"right_children":[2,4,6,-1,8,10,12,-1,14,16,18,20,22,-1,24,26,28,30,32,34,36,38,40,-1,42,44,46,48,50,-1,52,54,56,58,60,62,64,66,68,70,72,-1,-1,-1,-1,-1,-1,-1,-1,-1,-1,-1,-1,-1,-1,-1,-1,-1,-1,-1,-1,-1,-1,-1,-1,-1,-1,-1,-1,-1,-1,-1,-1],"split_conditions":[-2.0597293E0,-1.398372E0,4.927406E-2,3.099061E-1,-2.1671776E-1,-4.9046043E-1,1.9704994E0,-1.2985877E-4,-1.3547527E0,-2.2668371E0,-6.2136906E-1,-7.410162E-1,-3.805209E-1,1.5773958E-3,-9.8743135E-1,6.433467E-1,2.8859172E0,-4.8257408E-1,2.9697785E0,1.3422947E0,6.4971094E0,1.6804929E0,4.8052078E-1,2.0162899E-3,-1.1052783E0,-7.086736E-2,1.7543272E18,1.6106896E0,-1.8572448E-1,-2.535865E-1,-3.876511E-1,2.26099E0,-1.7814687E-1,-5.434925E-1,3.9192057E-1,9.6865386E-1,-1.359319E-1,4.8366677E-2,1.7544202E18,-1.0142031E-1,1.9093859E0,6.346991E-3,1.1085101E-2,2.7821904E-2,-4.9328146E-4,-2.0355769E-4,-2.6415092E-1,3.1291973E-3,-2.7832722E-3,1.5943805E-2,7.309408E-3,7.460928E-3,-3.8604501E-3,6.212871E-4,-1.4154295E-2,-2.6102242E-1,4.1719605E-3,-3.1218024E-3,4.906693E-3,2.5444478E-3,-2.4225068E-1,-2.0616914E-3,-5.587331E-3,-2.9177725E-1,3.290665E-3,-1.8976748E-2,1.3995558E-3,-2.8161937E-1,3.0676597E-3,-2.506636E-3,-1.0198102E-2,-1.3681958E-2,8.484104E-3],"split_indices":[2,8,2,0,24,2,2,0,8,19,25,12,22,0,26,11,9,2,19,19,13,18,7,0,23,24,0,9,24,0,1,8,12,5,2,2,20,12,0,22,13,0,0,0,0,0,0,0,0,0,0,0,0,0,0,0,0,0,0,0,0,0,0,0,0,0,0,0,0,0,0,0,0],"split_type":[0,0,0,0,0,0,0,0,0,0,0,0,0,0,0,0,0,0,0,0,0,0,0,0,0,0,0,0,0,0,0,0,0,0,0,0,0,0,0,0,0,0,0,0,0,0,0,0,0,0,0,0,0,0,0,0,0,0,0,0,0,0,0,0,0,0,0,0,0,0,0,0,0],"sum_hessian":[1.0856E4,4.9E1,1.0807E4,2E1,2.9E1,6.673E3,4.134E3,1E0,2.8E1,4.15E3,2.523E3,3.75E3,3.84E2,1E0,2.7E1,1.2E1,4.138E3,1E1,2.513E3,3.5E1,3.715E3,3.2E1,3.52E2,1E0,2.6E1,1E1,2E0,3.834E3,3.04E2,1E0,9E0,2.501E3,1.2E1,2.9E1,6E0,3.699E3,1.6E1,3E1,2E0,1.94E2,1.58E2,6E0,2E1,4E0,6E0,1E0,1E0,3.583E3,2.51E2,2.2E1,2.82E2,5E0,4E0,2.456E3,4.5E1,1E0,1.1E1,1.8E1,1.1E1,3E0,3E0,2.15E3,1.549E3,1E0,1.5E1,2.4E1,6E0,1E0,1E0,4.2E1,1.52E2,1.56E2,2E0],"tree_param":{"num_deleted":"0","num_feature":"31","num_nodes":"73","size_leaf_vector":"1"}},{"base_weights":[1.7983277E-3,2.559717E0,-9.610509E-3,2.9428002E-1,1.7773822E-1,2.2851096E-2,-1.1362337E-1,-1.2661237E-4,1.8426688E-1,6.0289122E-2,-1.4537776E-2,-1.77534E-1,-6.935122E-2,1.537961E-3,1.8881312E-1,-1.314374E-1,6.680181E-2,-2.3533855E-1,-1.0314346E-2,-1.6790298E-1,-1.2696556E0,-4.8251233E-1,-6.377759E-2,3.108583E-3,1.9645758E-1,-1.5957124E0,-3.889336E-2,5.1579013E-2,1.2219588E-1,-3.3057873E0,-1.09382756E-1,-2.9357625E-2,2.7539873E-2,-1.4937766E-1,-4.0067285E-1,-2.5524533E-1,-1.5213585E-1,-2.375931E-1,-7.7117137E-3,-5.716911E-2,-2.661587E-1,1.0040883E-2,2.295386E-3,-3.3102033E-1,3.3936724E-3,1.4327293E-3,-7.0857204E-2,2.7763618E-3,-3.1508055E-2,5.0159297E-3,1.0149323E-2,-2.4724685E-1,-6.87211E-4,7.031514E-4,-7.656766E-2,-1.0247619E-3,-1.6049804E-2,3.4872168E-3,3.3087342E-4,-9.466528E-3,-3.0585937E-3,-1.3053331E-2,-1.1654341E-1,2.12349E-5,-1.5240128E-2,-2.5342032E-3,8.3052805E-3,-2.4668935E-3,-1.0100767E-2,-1.6496737E-2,-5.4053767E-3],"categories":[],"categories_nodes":[],"categories_segments":[],"categories_sizes":[],"default_left":[0,0,0,0,0,0,0,0,0,0,0,0,0,0,0,0,0,0,0,0,0,0,0,0,0,0,0,0,0,0,0,0,0,0,0,0,0,0,0,0,0,0,0,0,0,0,0,0,0,0,0,0,0,0,0,0,0,0,0,0,0,0,0,0,0,0,0,0,0,0,0],"id":17,"left_children":[1,3,5,-1,7,9,11,-1,13,15,17,19,21,-1,23,25,27,29,31,33,35,37,39,-1,41,43,45,47,49,51,53,55,57,59,61,-1,63,-1,65,67,69,-1,-1,-1,-1,-1,-1,-1,-1,-1,-1,-1,-1,-1,-1,-1,-1,-1,-1,-1,-1,-1,-1,-1,-1,-1,-1,-1,-1,-1,-1],"loss_changes":[3.154623E2,3.7921872E2,3.633968E1,0E0,3.4597456E-2,1.1483154E1,7.2311096E0,0E0,1.373297E-2,5.127015E0,3.8256352E0,1.0799419E1,3.4556746E0,0E0,1.39247775E-2,1.8231777E1,3.3371925E0,2.9417442E1,2.9051874E0,4.420458E0,3.7797073E1,4.050515E1,1.9842443E0,0E0,7.191241E-3,6.7321434E1,1.1957153E1,8.411438E0,1.4890642E0,1.6120491E1,1.3186754E1,6.9227686E0,1.1907308E0,3.3856277E0,1.987101E1,0E0,1.8645678E-1,0E0,1.5033634E-1,1.6336713E0,4.3808556E-1,0E0,0E0,0E0,0E0,0E0,0E0,0E0,0E0,0E0,0E0,0E0,0E0,0E0,0E0,0E0,0E0,0E0,0E0,0E0,0E0,0E0,0E0,0E0,0E0,0E0,0E0,0E0,0E0,0E0,0E0],"parents":[2147483647,0,0,1,1,2,2,4,4,5,5,6,6,8,8,9,9,10,10,11,11,12,12,14,14,15,15,16,16,17,17,18,18,19,19,20,20,21,21,22,22,24,24,25,25,26,26,27,27,28,28,29,29,30,30,31,31,32,32,33,33,34,34,36,36,38,38,39,39,40,40],"right_children":[2,4,6,-1,8,10,12,-1,14,16,18,20,22,-1,24,26,28,30,32,34,36,38,40,-1,42,44,46,48,50,52,54,56,58,60,62,-1,64,-1,66,68,70,-1,-1,-1,-1,-1,-1,-1,-1,-1,-1,-1,-1,-1,-1,-1,-1,-1,-1,-1,-1,-1,-1,-1,-1,-1,-1,-1,-1,-1,-1],"split_conditions":[-2.0597293E0,-1.398372E0,6.2983835E-1,2.9428002E-1,-2.1671776E-1,-4.9046043E-1,2.0088227E-2,-1.2661237E-4,-1.3547527E0,-1.6541476E0,-6.863585E-1,4.705953E0,-7.410162E-1,1.537961E-3,-6.1390746E-1,-2.874878E-1,1.754412E18,-4.8257408E-1,1.754406E18,2.5921774E0,6.464283E-1,-2.874878E-1,1.9318453E0,3.108583E-3,-4.6157178E-2,-5.536211E-1,1.754409E18,1.7544117E18,2.2162677E-1,1.7544218E18,1.736578E0,1.7544052E18,-2.1024226E-1,-5.018657E-1,1.3085692E0,-2.5524533E-1,5.534582E0,-2.375931E-1,-5.4414725E-1,9.657362E-1,-2.4853586E-1,1.0040883E-2,2.295386E-3,-3.3102033E-1,3.3936724E-3,1.4327293E-3,-7.0857204E-2,2.7763618E-3,-3.1508055E-2,5.0159297E-3,1.0149323E-2,-2.4724685E-1,-6.87211E-4,7.031514E-4,-7.656766E-2,-1.0247619E-3,-1.6049804E-2,3.4872168E-3,3.3087342E-4,-9.466528E-3,-3.0585937E-3,-1.3053331E-2,-1.1654341E-1,2.12349E-5,-1.5240128E-2,-2.5342032E-3,8.3052805E-3,-2.4668935E-3,-1.0100767E-2,-1.6496737E-2,-5.4053767E-3],"split_indices":[2,8,2,0,24,2,15,0,8,19,12,4,12,0,26,13,0,2,0,2,2,13,15,0,3,12,0,0,14,0,19,0,2,1,8,0,4,0,5,3,3,0,0,0,0,0,0,0,0,0,0,0,0,0,0,0,0,0,0,0,0,0,0,0,0,0,0,0,0,0,0],"split_type":[0,0,0,0,0,0,0,0,0,0,0,0,0,0,0,0,0,0,0,0,0,0,0,0,0,0,0,0,0,0,0,0,0,0,0,0,0,0,0,0,0,0,0,0,0,0,0,0,0,0,0,0,0,0,0,0,0,0,0,0,0,0,0,0,0,0,0,0,0,0,0],"sum_hessian":[1.0808E4,4.7E1,1.0761E4,1.9E1,2.8E1,8.202E3,2.559E3,1E0,2.7E1,4.098E3,4.104E3,1.046E3,1.513E3,1E0,2.6E1,1.34E2,3.964E3,7.6E1,4.028E3,1.038E3,8E0,1.9E1,1.494E3,2E0,2.4E1,7E0,1.27E2,3.111E3,8.53E2,2E0,7.4E1,2.68E3,1.348E3,9.63E2,7.5E1,1E0,7E0,1E0,1.8E1,1.448E3,4.6E1,2.3E1,1E0,1E0,6E0,1.22E2,5E0,3.094E3,1.7E1,6.73E2,1.8E2,1E0,1E0,6.9E1,5E0,2.602E3,7.8E1,4.46E2,9.02E2,6.62E2,3.01E2,7.1E1,4E0,4E0,3E0,1.5E1,3E0,1.375E3,7.3E1,3.2E1,1.4E1],"tree_param":{"num_deleted":"0","num_feature":"31","num_nodes":"71","size_leaf_vector":"1"}},{"base_weights":[-3.288001E-3,2.0896013E0,-1.2542298E-2,2.7855092E-1,1.747984E-1,2.3914393E-2,-1.03013545E-1,1.23092E-2,1.4074554E-1,5.3195067E-2,-1.0108577E-2,-7.618112E-1,-9.765706E-2,-1.23447E-4,1.4707959E-1,-7.814537E-1,5.53951E-2,-6.4012307E-1,-7.6330197E-3,-4.119206E-2,-4.5347633E0,-7.888035E-2,-2.3115404E-1,2.33328E-3,1.5442066E-1,-3.3936007E0,1.7609012E-1,6.457959E-2,-4.7688138E-2,-2.4106567E-1,5.2377194E-2,-4.936351E-3,-4.6274975E-1,-7.774504E-2,6.9240086E-2,3.1238892E-3,-3.0440018E-1,-7.523132E-2,-8.312491E-1,-2.0329936E-1,-6.5587914E-1,3.0049637E-3,8.059305E-3,-2.557757E-1,1.255638E-3,5.2493473E-5,3.9410304E-2,3.3381302E-3,-1.3429946E-2,-8.6763874E-4,-8.667323E-2,-2.5265834E-3,1.48277525E-2,1.20669945E-4,-5.522615E-3,4.1547487E-3,-2.8449112E-1,2.861379E-3,-4.9778284E-3,1.2607384E-4,6.7559103E-3,-6.5577584E-3,-2.3590524E-3,-2.488642E-1,-3.5486282E-3,-4.0366576E-4,-1.0530556E-2,-1.7889866E-1,-1.036024E-2],"categories":[],"categories_nodes":[],"categories_segments":[],"categories_sizes":[],"default_left":[0,0,0,0,0,0,0,0,0,0,0,0,0,0,0,0,0,0,0,0,0,0,0,0,0,0,0,0,0,0,0,0,0,0,0,0,0,0,0,0,0,0,0,0,0,0,0,0,0,0,0,0,0,0,0,0,0,0,0,0,0,0,0,0,0,0,0,0,0],"id":18,"left_children":[1,3,5,-1,7,9,11,-1,13,15,17,19,21,-1,23,25,27,29,31,33,35,37,39,-1,41,43,45,47,49,-1,51,53,55,57,59,-1,-1,61,63,65,67,-1,-1,-1,-1,-1,-1,-1,-1,-1,-1,-1,-1,-1,-1,-1,-1,-1,-1,-1,-1,-1,-1,-1,-1,-1,-1,-1,-1],"loss_changes":[2.1117854E2,3.1900513E2,3.580532E1,0E0,4.313904E-2,7.709253E0,1.0928516E1,0E0,2.2134215E-2,7.680277E0,5.578614E0,6.7784744E1,7.737295E0,0E0,9.74825E-3,2.8111275E1,3.9312162E0,4.078918E1,4.375491E0,9.418881E-2,2.8942833E1,7.3885193E0,4.374113E0,0E0,3.7134886E-3,1.778865E1,9.6347696E-1,2.7890692E0,1.7357056E1,0E0,3.4165025E-1,2.751021E0,6.0389362E1,5.5744663E-2,2.603108E-2,0E0,0E0,4.232383E0,4.0624477E1,5.107527E-1,2.9413204E1,0E0,0E0,0E0,0E0,0E0,0E0,0E0,0E0,0E0,0E0,0E0,0E0,0E0,0E0,0E0,0E0,0E0,0E0,0E0,0E0,0E0,0E0,0E0,0E0,0E0,0E0,0E0,0E0],"parents":[2147483647,0,0,1,1,2,2,4,4,5,5,6,6,8,8,9,9,10,10,11,11,12,12,14,14,15,15,16,16,17,17,18,18,19,19,20,20,21,21,22,22,24,24,25,25,26,26,27,27,28,28,30,30,31,31,32,32,33,33,34,34,37,37,38,38,39,39,40,40],"right_children":[2,4,6,-1,8,10,12,-1,14,16,18,20,22,-1,24,26,28,30,32,34,36,38,40,-1,42,44,46,48,50,-1,52,54,56,58,60,-1,-1,62,64,66,68,-1,-1,-1,-1,-1,-1,-1,-1,-1,-1,-1,-1,-1,-1,-1,-1,-1,-1,-1,-1,-1,-1,-1,-1,-1,-1,-1,-1],"split_conditions":[-2.0597293E0,-1.398372E0,4.0544745E-1,2.7855092E-1,-5.496023E-1,-4.9046043E-1,-7.410162E-1,1.23092E-2,-2.1671776E-1,-2.2668371E0,-6.2136906E-1,7.561602E-1,1.9704994E0,-1.23447E-4,-4.9077553E-1,-2.1531457E-1,1.3853878E0,-4.8257408E-1,6.4971094E0,1.0059687E-2,-5.523663E-1,4.705953E0,1.6804929E0,2.33328E-3,-6.1390746E-1,-1.8876591E-1,-4.229282E-1,4.6722016E0,2.4750936E0,-2.4106567E-1,2.813474E-1,1.3853878E0,3.3135837E-1,-6.0599124E-1,-5.519019E-1,3.1238892E-3,-3.0440018E-1,-5.434952E-1,-4.476243E-1,-1.1718866E0,-3.935736E-1,3.0049637E-3,8.059305E-3,-2.557757E-1,1.255638E-3,5.2493473E-5,3.9410304E-2,3.3381302E-3,-1.3429946E-2,-8.6763874E-4,-8.667323E-2,-2.5265834E-3,1.48277525E-2,1.20669945E-4,-5.522615E-3,4.1547487E-3,-2.8449112E-1,2.861379E-3,-4.9778284E-3,1.2607384E-4,6.7559103E-3,-6.5577584E-3,-2.3590524E-3,-2.488642E-1,-3.5486282E-3,-4.0366576E-4,-1.0530556E-2,-1.7889866E-1,-1.036024E-2],"split_indices":[2,8,2,0,4,2,12,0,24,19,25,19,2,0,4,21,4,2,13,20,1,4,18,0,26,1,20,3,14,0,8,4,2,5,5,0,0,18,14,23,22,0,0,0,0,0,0,0,0,0,0,0,0,0,0,0,0,0,0,0,0,0,0,0,0,0,0,0,0],"split_type":[0,0,0,0,0,0,0,0,0,0,0,0,0,0,0,0,0,0,0,0,0,0,0,0,0,0,0,0,0,0,0,0,0,0,0,0,0,0,0,0,0,0,0,0,0,0,0,0,0,0,0,0,0,0,0,0,0,0,0,0,0,0,0,0,0,0,0,0,0],"sum_hessian":[1.0901E4,4.7E1,1.0854E4,1.6E1,3.1E1,7.737E3,3.117E3,8E0,2.3E1,4.158E3,3.579E3,2.4E1,3.093E3,1E0,2.2E1,1E1,4.148E3,1.3E1,3.566E3,2.1E1,3E0,2.713E3,3.8E2,2E0,2E1,2E0,8E0,3.809E3,3.39E2,1E0,1.2E1,3.546E3,2E1,1.6E1,5E0,1E0,2E0,2.701E3,1.2E1,3.58E2,2.2E1,2E0,1.8E1,1E0,1E0,7E0,1E0,3.785E3,2.4E1,3.34E2,5E0,9E0,3E0,3.316E3,2.3E2,1.9E1,1E0,2E0,1.4E1,3E0,2E0,9.01E2,1.8E3,1E0,1.1E1,1.3E1,3.45E2,2E0,2E1],"tree_param":{"num_deleted":"0","num_feature":"31","num_nodes":"69","size_leaf_vector":"1"}},{"base_weights":[-1.7801198E-3,-1.2485501E-2,2.172456E0,-7.9130165E-2,2.9163012E-2,3.2133384E0,1.4070104E-1,-5.6399703E-1,-7.533487E-2,3.8131684E-2,-7.362692E-2,4.3689766E0,1.1678115E0,1.864392E-1,-7.742689E-2,-2.17337E-1,-3.0175567E-1,-1.4032128E-1,-4.8918787E-2,1.2551592E-2,6.6768125E-2,-5.4037254E-2,-2.1275706E0,4.744478E0,4.0930784E-1,-1.1435433E-1,2.896425E0,2.037756E-1,2.1694826E-3,-4.718778E-3,-6.645214E-4,-3.026441E0,-9.4863E-3,-1.3227372E-1,-1.4780167E0,-4.5962997E-2,-3.764941E-1,-7.171371E-1,1.5733097E-2,9.5458664E-2,2.965725E-2,-5.1239693E-1,3.754934E-2,-3.0682775E-1,4.0881443E-1,1.3333949E-3,2.4956901E-1,6.2859617E-3,2.4412125E-2,-1.616322E-2,4.397811E-2,2.1814477E-1,-2.4343738E-2,7.772371E-2,2.310876E-1,-2.2404328E-1,-2.9398073E-3,-3.9710696E-3,1.8832056E-3,-9.767784E-3,-1.5954477E-3,-5.3367815E-3,-2.426426E-1,-4.4729165E-3,-1.2202366E-3,-2.7737883E-1,2.612612E-3,-2.3503904E-1,-2.4552213E-3,1.3511791E-3,-3.681544E-3,3.222563E-3,5.7655494E-3,-1.0367297E-2,1.871451E-3,-4.3822774E-3,-2.1155158E-1,-3.7152655E-2,3.4342543E-3,2.3318974E-2,5.902982E-3,-6.8115704E-3,8.407037E-3,2.2955749E-3,-4.1213552E-3,-1.0082485E-3,5.8537466E-3,1.2028015E-2,3.4090087E-3],"categories":[],"categories_nodes":[],"categories_segments":[],"categories_sizes":[],"default_left":[0,0,0,0,0,0,0,0,0,0,0,0,0,0,0,0,0,0,0,0,0,0,0,0,0,0,0,0,0,0,0,0,0,0,0,0,0,0,0,0,0,0,0,0,0,0,0,0,0,0,0,0,0,0,0,0,0,0,0,0,0,0,0,0,0,0,0,0,0,0,0,0,0,0,0,0,0,0,0,0,0,0,0,0,0,0,0,0,0],"id":19,"left_children":[1,3,5,7,9,11,13,15,17,19,21,23,25,27,29,-1,31,33,35,37,39,41,43,45,47,49,51,53,-1,-1,-1,55,57,59,61,63,65,67,69,71,73,75,77,-1,79,-1,-1,-1,-1,-1,81,-1,83,85,87,-1,-1,-1,-1,-1,-1,-1,-1,-1,-1,-1,-1,-1,-1,-1,-1,-1,-1,-1,-1,-1,-1,-1,-1,-1,-1,-1,-1,-1,-1,-1,-1,-1,-1],"loss_changes":[2.5178064E2,2.9879417E1,1.1163324E2,7.5759964E0,6.1103225E0,7.763397E1,2.0399404E-1,3.0432076E1,7.047001E0,4.4631557E0,2.1290623E1,3.0768982E1,3.1360386E1,3.0837595E-2,3.093822E-3,0E0,2.4657894E1,1.25828E1,2.8128724E0,7.4865417E0,3.0582714E0,2.218447E1,5.3350357E1,2.3163666E1,5.773425E-3,3.1191176E-1,2.5805538E1,3.0237257E-2,0E0,0E0,0E0,1.2685186E1,9.861792E-2,7.4709206E0,3.1876963E1,2.7152243E0,5.793402E1,3.702603E1,3.2377324E0,9.904051E-1,2.3193874E0,1.3862476E2,1.0769382E1,0E0,1.1888683E-2,0E0,0E0,0E0,0E0,0E0,1.5715775E-1,0E0,1.6026333E-2,1.776897E-2,5.734563E-4,0E0,0E0,0E0,0E0,0E0,0E0,0E0,0E0,0E0,0E0,0E0,0E0,0E0,0E0,0E0,0E0,0E0,0E0,0E0,0E0,0E0,0E0,0E0,0E0,0E0,0E0,0E0,0E0,0E0,0E0,0E0,0E0,0E0,0E0],"parents":[2147483647,0,0,1,1,2,2,3,3,4,4,5,5,6,6,7,7,8,8,9,9,10,10,11,11,12,12,13,13,14,14,16,16,17,17,18,18,19,19,20,20,21,21,22,22,23,23,24,24,25,25,26,26,27,27,31,31,32,32,33,33,34,34,35,35,36,36,37,37,38,38,39,39,40,40,41,41,42,42,44,44,50,50,52,52,53,53,54,54],"right_children":[2,4,6,8,10,12,14,16,18,20,22,24,26,28,30,-1,32,34,36,38,40,42,44,46,48,50,52,54,-1,-1,-1,56,58,60,62,64,66,68,70,72,74,76,78,-1,80,-1,-1,-1,-1,-1,82,-1,84,86,88,-1,-1,-1,-1,-1,-1,-1,-1,-1,-1,-1,-1,-1,-1,-1,-1,-1,-1,-1,-1,-1,-1,-1,-1,-1,-1,-1,-1,-1,-1,-1,-1,-1,-1],"split_conditions":[1.6307021E0,-4.4073224E-1,-1.398372E0,-7.410162E-1,1.3853878E0,1.6947165E-1,8.171698E-2,-6.540282E-1,2.0088227E-2,4.6528545E-1,3.3357015E0,2.8226253E-1,8.771378E-2,8.4711504E-1,-3.3085537E-1,-2.17337E-1,-2.874878E-1,4.705953E0,5.110577E0,-6.2136906E-1,-5.1065904E-1,-5.3419447E-1,-2.7121952E-1,-6.2136906E-1,7.871615E-1,7.949213E-1,-2.0472236E-1,-2.3299563E-1,2.1694826E-3,-4.718778E-3,-6.645214E-4,-5.468945E-1,-6.3968635E-1,-5.018657E-1,-4.9381337E-1,3.8705997E-2,-2.3192741E-1,-1.2148495E0,2.8226253E-1,5.635607E-1,-4.057473E-1,-5.7103074E-1,-5.536211E-1,-3.0682775E-1,5.3634346E-2,1.3333949E-3,2.4956901E-1,6.2859617E-3,2.4412125E-2,-1.616322E-2,-3.3373168E-1,2.1814477E-1,-2.814888E-1,-3.3085537E-1,1.4382127E-1,-2.2404328E-1,-2.9398073E-3,-3.9710696E-3,1.8832056E-3,-9.767784E-3,-1.5954477E-3,-5.3367815E-3,-2.426426E-1,-4.4729165E-3,-1.2202366E-3,-2.7737883E-1,2.612612E-3,-2.3503904E-1,-2.4552213E-3,1.3511791E-3,-3.681544E-3,3.222563E-3,5.7655494E-3,-1.0367297E-2,1.871451E-3,-4.3822774E-3,-2.1155158E-1,-3.7152655E-2,3.4342543E-3,2.3318974E-2,5.902982E-3,-6.8115704E-3,8.407037E-3,2.2955749E-3,-4.1213552E-3,-1.0082485E-3,5.8537466E-3,1.2028015E-2,3.4090087E-3],"split_indices":[7,1,8,12,4,4,12,21,15,7,14,22,24,23,1,0,13,4,3,25,8,14,3,25,1,4,3,13,0,0,0,1,23,1,1,7,24,6,22,11,20,14,12,0,1,0,0,0,0,0,1,0,1,1,21,0,0,0,0,0,0,0,0,0,0,0,0,0,0,0,0,0,0,0,0,0,0,0,0,0,0,0,0,0,0,0,0,0,0],"split_type":[0,0,0,0,0,0,0,0,0,0,0,0,0,0,0,0,0,0,0,0,0,0,0,0,0,0,0,0,0,0,0,0,0,0,0,0,0,0,0,0,0,0,0,0,0,0,0,0,0,0,0,0,0,0,0,0,0,0,0,0,0,0,0,0,0,0,0,0,0,0,0,0,0,0,0,0,0,0,0,0,0,0,0,0,0,0,0,0,0],"sum_hessian":[1.0815E4,1.0763E4,5.2E1,4.139E3,6.624E3,3.4E1,1.8E1,3.1E1,4.108E3,6.093E3,5.31E2,2.1E1,1.3E1,1.5E1,3E0,1E0,3E1,1.186E3,2.922E3,3.219E3,2.874E3,5.27E2,4E0,1.9E1,2E0,8E0,5E0,1.3E1,2E0,2E0,1E0,2E0,2.8E1,1.18E3,6E0,2.897E3,2.5E1,1.3E1,3.206E3,1.62E3,1.254E3,8.7E1,4.4E2,1E0,3E0,1E0,1.8E1,1E0,1E0,3E0,5E0,3E0,2E0,3E0,1E1,1E0,1E0,1.1E1,1.7E1,7.24E2,4.56E2,5E0,1E0,9.59E2,1.938E3,1E0,2.4E1,1E0,1.2E1,2.847E3,3.59E2,6.34E2,9.86E2,3.9E1,1.215E3,7.9E1,8E0,1.6E1,4.24E2,2E0,1E0,2E0,3E0,1E0,1E0,1E0,2E0,9E0,1E0],"tree_param":{"num_deleted":"0","num_feature":"31","num_nodes":"89","size_leaf_vector":"1"}},{"base_weights":[-8.2903856E-4,2.2416635E0,-1.1229168E-2,2.5565973E-1,1.5686966E-1,2.0950986E-2,-1.0070231E-1,1.1401503E-2,1.2062814E-1,5.0871074E-2,-1.6167674E-2,-7.117236E-1,-9.548307E-2,-2.6449954E-4,1.2687615E-1,-4.854984E-1,5.257466E-2,-1.3361831E-2,-5.0932795E-1,-1.0870215E-2,-3.3727925E0,-9.205893E-2,-7.7740604E-1,2.1656363E-3,1.3339268E-1,-3.2797413E0,2.535205E-1,-9.534111E-2,5.7881173E-2,-1.0764243E-2,-5.4813755E-1,3.3221845E-2,-2.7044436E-1,-9.497487E-2,5.311413E-2,-2.8689715E-1,5.8311257E-3,-1.3892944E-1,-4.113055E-2,-8.886057E-2,-3.2724526E0,7.4550635E-3,3.7253597E-3,3.1415268E-3,-2.4912213E-1,5.2293935E-3,3.3272788E-2,4.237716E-3,-4.1527715E-2,2.5923818E-3,7.3408745E-3,2.1045814E-4,-3.3894044E-3,2.707798E-3,-2.5462085E-1,3.090736E-3,-4.4727554E-3,-5.8740843E-3,2.1269917E-3,9.1578765E-3,4.3948492E-4,-6.901171E-2,-6.515725E-3,-1.6359037E-3,-1.1239748E-2,-1.312241E-2,-1.3949112E-3,-2.3657654E-1,-8.857406E-3],"categories":[],"categories_nodes":[],"categories_segments":[],"categories_sizes":[],"default_left":[0,0,0,0,0,0,0,0,0,0,0,0,0,0,0,0,0,0,0,0,0,0,0,0,0,0,0,0,0,0,0,0,0,0,0,0,0,0,0,0,0,0,0,0,0,0,0,0,0,0,0,0,0,0,0,0,0,0,0,0,0,0,0,0,0,0,0,0,0],"id":20,"left_children":[1,3,5,-1,7,9,11,-1,13,15,17,19,21,-1,23,25,27,29,31,33,35,37,39,-1,41,43,45,47,49,51,53,55,-1,57,59,-1,-1,61,63,65,67,-1,-1,-1,-1,-1,-1,-1,-1,-1,-1,-1,-1,-1,-1,-1,-1,-1,-1,-1,-1,-1,-1,-1,-1,-1,-1,-1,-1],"loss_changes":[2.5260472E2,2.985254E2,3.1043407E1,0E0,4.9862027E-2,8.807831E0,9.027248E0,0E0,1.7979383E-2,4.0378094E0,4.891599E0,4.4723797E1,6.5341644E0,0E0,5.6578517E-3,2.9741457E1,3.441884E0,4.8852177E0,5.3344788E1,1.12672135E-1,4.193414E1,6.7161903E0,2.3760548E1,0E0,6.466031E-3,1.7387253E1,6.666086E-1,2.0196491E1,2.2605982E0,2.9929986E0,4.680461E1,7.217568E-2,0E0,3.285282E-2,6.7559294E-2,0E0,0E0,1.5497206E1,2.0800383E0,1.1966587E-1,1.2710693E1,0E0,0E0,0E0,0E0,0E0,0E0,0E0,0E0,0E0,0E0,0E0,0E0,0E0,0E0,0E0,0E0,0E0,0E0,0E0,0E0,0E0,0E0,0E0,0E0,0E0,0E0,0E0,0E0],"parents":[2147483647,0,0,1,1,2,2,4,4,5,5,6,6,8,8,9,9,10,10,11,11,12,12,14,14,15,15,16,16,17,17,18,18,19,19,20,20,21,21,22,22,24,24,25,25,26,26,27,27,28,28,29,29,30,30,31,31,33,33,34,34,37,37,38,38,39,39,40,40],"right_children":[2,4,6,-1,8,10,12,-1,14,16,18,20,22,-1,24,26,28,30,32,34,36,38,40,-1,42,44,46,48,50,52,54,56,-1,58,60,-1,-1,62,64,66,68,-1,-1,-1,-1,-1,-1,-1,-1,-1,-1,-1,-1,-1,-1,-1,-1,-1,-1,-1,-1,-1,-1,-1,-1,-1,-1,-1,-1],"split_conditions":[-2.0597293E0,-1.398372E0,5.011446E-1,2.5565973E-1,-5.496023E-1,-4.3755904E-1,-7.410162E-1,1.1401503E-2,-2.1671776E-1,-2.2668371E0,6.4971094E0,1.3422947E0,4.705953E0,-2.6449954E-4,-4.9077553E-1,-2.1531457E-1,-2.874878E-1,2.9697785E0,3.3135837E-1,-6.3968635E-1,1.7544088E18,-8.3032244E-1,-4.9316317E-1,2.1656363E-3,1.2694734E-1,1.7543372E18,1.7543272E18,1.8291472E-1,3.0735588E0,2.7810255E-1,4.0376157E-2,1.8291472E-1,-2.7044436E-1,-7.562109E-2,-2.0265786E-1,-2.8689715E-1,5.8311257E-3,5.221372E-1,1.1582596E0,-1.3482019E0,1.7543303E18,7.4550635E-3,3.7253597E-3,3.1415268E-3,-2.4912213E-1,5.2293935E-3,3.3272788E-2,4.237716E-3,-4.1527715E-2,2.5923818E-3,7.3408745E-3,2.1045814E-4,-3.3894044E-3,2.707798E-3,-2.5462085E-1,3.090736E-3,-4.4727554E-3,-5.8740843E-3,2.1269917E-3,9.1578765E-3,4.3948492E-4,-6.901171E-2,-6.515725E-3,-1.6359037E-3,-1.1239748E-2,-1.312241E-2,-1.3949112E-3,-2.3657654E-1,-8.857406E-3],"split_indices":[2,8,2,0,4,2,12,0,24,19,13,19,4,0,4,21,13,19,2,23,0,9,1,0,20,0,0,24,9,4,22,24,0,3,17,0,0,2,3,18,0,0,0,0,0,0,0,0,0,0,0,0,0,0,0,0,0,0,0,0,0,0,0,0,0,0,0,0,0],"split_type":[0,0,0,0,0,0,0,0,0,0,0,0,0,0,0,0,0,0,0,0,0,0,0,0,0,0,0,0,0,0,0,0,0,0,0,0,0,0,0,0,0,0,0,0,0,0,0,0,0,0,0,0,0,0,0,0,0,0,0,0,0,0,0,0,0,0,0,0,0],"sum_hessian":[1.0829E4,4.9E1,1.078E4,2E1,2.9E1,7.929E3,2.851E3,8E0,2.1E1,4.39E3,3.539E3,2.3E1,2.828E3,1E0,2E1,1.3E1,4.377E3,3.52E3,1.9E1,1.9E1,4E0,2.815E3,1.3E1,2E0,1.8E1,2E0,1.1E1,1.51E2,4.226E3,3.504E3,1.6E1,1.8E1,1E0,8E0,1.1E1,2E0,2E0,1.465E3,1.35E3,1.1E1,2E0,1.3E1,5E0,1E0,1E0,9E0,2E0,1.22E2,2.9E1,3.959E3,2.67E2,2.776E3,7.28E2,1.5E1,1E0,1.5E1,3E0,7E0,1E0,2E0,9E0,9E0,1.456E3,1.292E3,5.8E1,2E0,9E0,1E0,1E0],"tree_param":{"num_deleted":"0","num_feature":"31","num_nodes":"69","size_leaf_vector":"1"}},{"base_weights":[7.836522E-4,2.0390291E0,-8.658863E-3,2.4330787E-1,1.4930041E-1,3.304899E-2,-5.822958E-2,1.0894771E-2,1.1596758E-1,4.2661615E-2,-7.5808674E-2,-2.7021011E-2,-1.0023397E-1,1.20258175E-1,5.393598E-4,-5.7122755E-1,4.4367492E-2,-5.179E-1,1.6159168E-2,-2.3629153E-2,-4.227427E-1,-1.7782477E-1,-7.468284E-2,2.0934483E-3,1.2600365E-1,9.369064E-2,-3.2621307E0,3.1947274E-2,9.664358E-2,-8.1975296E-2,-4.0446253E0,4.132018E-2,-1.6219997E0,-2.9060468E-1,-1.9470232E-2,-2.6826026E0,2.7837452E-2,-2.1126977E-1,-1.6188456E-1,-5.26038E-2,-1.7859122E-1,1.5724301E-3,6.4662523E-3,9.6727576E-4,1.2806541E-2,-1.7657232E-3,-2.4289408E-1,1.7084919E-3,-2.1355242E-2,7.2935172E-3,3.9360854E-3,-7.2723314E-2,5.3212303E-3,2.1786457E-2,-4.8770005E-1,-3.5417527E-2,3.7642822E-3,2.2368763E-2,-2.9922187E-1,1.7650133E-3,-2.3238854E-1,-8.427705E-4,-2.0886503E-2,-3.0513487E-3,-2.6368326E-1,-3.8543523E-3,6.511564E-3,-2.6928347E-3,-9.175776E-3,-2.1911107E-3,-1.2585391E-2,-1.2938477E-2,-7.7133225E-3],"categories":[],"categories_nodes":[],"categories_segments":[],"categories_sizes":[],"default_left":[0,0,0,0,0,0,0,0,0,0,0,0,0,0,0,0,0,0,0,0,0,0,0,0,0,0,0,0,0,0,0,0,0,0,0,0,0,0,0,0,0,0,0,0,0,0,0,0,0,0,0,0,0,0,0,0,0,0,0,0,0,0,0,0,0,0,0,0,0,0,0,0,0],"id":21,"left_children":[1,3,5,-1,7,9,11,-1,13,15,17,19,21,23,-1,25,27,29,31,33,35,37,39,-1,41,43,45,47,49,51,53,55,57,59,61,63,65,-1,67,69,71,-1,-1,-1,-1,-1,-1,-1,-1,-1,-1,-1,-1,-1,-1,-1,-1,-1,-1,-1,-1,-1,-1,-1,-1,-1,-1,-1,-1,-1,-1,-1,-1],"loss_changes":[2.0868459E2,2.6639874E2,2.2316326E1,0E0,4.561162E-2,6.1372766E0,6.462635E0,0E0,9.082347E-3,5.6667137E0,1.9361668E1,3.7898705E0,4.154003E0,4.632801E-3,0E0,2.714409E1,3.4854975E0,1.25734146E2,1.6348028E1,3.1121492E0,2.451263E1,3.2865902E1,3.6223192E0,0E0,2.2140145E-3,1.5204126E-1,1.527603E1,4.4456396E0,8.981018E-1,1.92895E1,2.3447034E2,9.983865E0,5.6842407E1,6.1225018E1,2.8734128E0,2.684883E1,2.356552E-1,0E0,1.2028875E0,2.2741926E0,5.003195E-1,0E0,0E0,0E0,0E0,0E0,0E0,0E0,0E0,0E0,0E0,0E0,0E0,0E0,0E0,0E0,0E0,0E0,0E0,0E0,0E0,0E0,0E0,0E0,0E0,0E0,0E0,0E0,0E0,0E0,0E0,0E0,0E0],"parents":[2147483647,0,0,1,1,2,2,4,4,5,5,6,6,8,8,9,9,10,10,11,11,12,12,13,13,15,15,16,16,17,17,18,18,19,19,20,20,21,21,22,22,24,24,25,25,26,26,27,27,28,28,29,29,30,30,31,31,32,32,33,33,34,34,35,35,36,36,38,38,39,39,40,40],"right_children":[2,4,6,-1,8,10,12,-1,14,16,18,20,22,24,-1,26,28,30,32,34,36,38,40,-1,42,44,46,48,50,52,54,56,58,60,62,64,66,-1,68,70,72,-1,-1,-1,-1,-1,-1,-1,-1,-1,-1,-1,-1,-1,-1,-1,-1,-1,-1,-1,-1,-1,-1,-1,-1,-1,-1,-1,-1,-1,-1,-1,-1],"split_conditions":[-2.0597293E0,-1.398372E0,-1.0615725E-1,2.4330787E-1,-5.496023E-1,1.3853878E0,8.30928E-1,1.0894771E-2,1.4094192E0,-2.2668371E0,-5.3419447E-1,4.8968973E0,-4.7047418E-1,-4.9077553E-1,5.393598E-4,1.7543372E18,1.754413E18,-5.7103074E-1,3.3357015E0,-9.773004E-2,-1.359319E-1,-7.410162E-1,2.3121877E0,2.0934483E-3,-1.3269305E0,1.534669E-1,-3.8495797E-1,1.7544128E18,-1.0502253E0,-1.3923669E0,-1.7730801E-1,-5.536211E-1,-5.848924E-1,3.5203433E-1,4.705953E0,1.754407E18,2.7265765E-2,-2.1126977E-1,1.115817E0,1.2132396E0,-2.3730604E-1,1.5724301E-3,6.4662523E-3,9.6727576E-4,1.2806541E-2,-1.7657232E-3,-2.4289408E-1,1.7084919E-3,-2.1355242E-2,7.2935172E-3,3.9360854E-3,-7.2723314E-2,5.3212303E-3,2.1786457E-2,-4.8770005E-1,-3.5417527E-2,3.7642822E-3,2.2368763E-2,-2.9922187E-1,1.7650133E-3,-2.3238854E-1,-8.427705E-4,-2.0886503E-2,-3.0513487E-3,-2.6368326E-1,-3.8543523E-3,6.511564E-3,-2.6928347E-3,-9.175776E-3,-2.1911107E-3,-1.2585391E-2,-1.2938477E-2,-7.7133225E-3],"split_indices":[2,8,2,0,4,4,2,0,25,19,14,3,18,4,0,0,0,14,14,2,20,12,2,0,18,21,1,0,8,7,17,12,2,4,4,0,20,0,2,3,12,0,0,0,0,0,0,0,0,0,0,0,0,0,0,0,0,0,0,0,0,0,0,0,0,0,0,0,0,0,0,0,0],"split_type":[0,0,0,0,0,0,0,0,0,0,0,0,0,0,0,0,0,0,0,0,0,0,0,0,0,0,0,0,0,0,0,0,0,0,0,0,0,0,0,0,0,0,0,0,0,0,0,0,0,0,0,0,0,0,0,0,0,0,0,0,0,0,0,0,0,0,0,0,0,0,0,0,0],"sum_hessian":[1.0841E4,4.9E1,1.0792E4,1.9E1,3E1,5.861E3,4.931E3,8E0,2.2E1,5.386E3,4.75E2,2.83E3,2.101E3,2.1E1,1E0,1.4E1,5.372E3,8.1E1,3.94E2,2.807E3,2.3E1,5.19E2,1.582E3,2E0,1.9E1,1.2E1,2E0,4.342E3,1.03E3,7.3E1,8E0,3.89E2,5E0,4.2E1,2.765E3,3E0,2E1,1E0,5.18E2,1.306E3,2.76E2,1E0,1.8E1,9E0,3E0,1E0,1E0,4.322E3,2E1,2.73E2,7.57E2,8E0,6.5E1,5E0,3E0,1.6E1,3.73E2,4E0,1E0,4E1,2E0,2.748E3,1.7E1,2E0,1E0,1E1,1E1,8.7E1,4.31E2,1.252E3,5.4E1,6.2E1,2.14E2],"tree_param":{"num_deleted":"0","num_feature":"31","num_nodes":"73","size_leaf_vector":"1"}},{"base_weights":[-1.2756114E-4,2.0328887E0,-9.5066605E-3,2.3287602E-1,1.2788351E-1,3.4078732E-2,-6.0821343E-2,8.269489E-2,1.5757512E-1,4.1592527E-2,-5.3612538E-2,-4.905863E-2,-2.0221497E-1,-4.1954333E-4,9.034694E-2,